tree
version=v4
num_class=1
num_tree_per_iteration=1
label_index=0
max_feature_idx=67
objective=regression_l1
feature_names=title city state country experience_ordinal work_type remote_allowed has_employee_count log_employee_count has_company_posting_count company_posting_count log_company_posting_count company_scale_tier_proxy skill_MGMT skill_IT skill_ENG skill_HCPR skill_FIN skill_ANLS skill_SALE skill_GENB skill_LGL skill_MNFC skill_HR skill_CNSL skill_PRJM skill_CUST skill_PROD skill_ACCT skill_BD skill_MRKT skill_TRNG skill_SCI skill_ADM skill_RSCH skill_PRDM skill_SUPL skill_STRA skill_EDU skill_DIST skill_OTHR skill_QA skill_DSGN skill_WRT skill_PRCH skill_PR skill_ART skill_ADVR ind_it-jobs ind_engineering-jobs ind_healthcare-nursing-jobs ind_accounting-finance-jobs ind_sales-jobs ind_14 ind_trade-construction-jobs ind_43 ind_96 ind_104 ind_legal-jobs ind_logistics-warehouse-jobs ind_4 ind_pr-advertising-marketing-jobs ind_admin-jobs ind_retail-jobs ind_27 ind_hr-jobs ind_customer-services-jobs ind_hospitality-catering-jobs
feature_infos=[26091.829203130641:322270.07536239247] [63649.070999991724:192810.12670973301] [57233.637716981466:185159.58514200299] none [-1:5] [54053.737272618797:111878.9473190866] [-1:1] none none none [1:4131] [0.69314718055994529:8.3265168302395285] [87068.758564637683:132388.10448193611] [0:1] [0:1] [0:1] [0:1] [0:1] [0:1] [0:1] [0:1] [0:1] [0:1] [0:1] [0:1] [0:1] [0:1] [0:1] [0:1] [0:1] [0:1] [0:1] [0:1] [0:1] [0:1] [0:1] [0:1] [0:1] [0:1] [0:1] [0:1] [0:1] [0:1] [0:1] [0:1] [0:1] [0:1] [0:1] [0:1] [0:1] [0:1] [0:1] [0:1] [0:1] [0:1] [0:1] [0:1] [0:1] [0:1] [0:1] [0:1] [0:1] [0:1] [0:1] [0:1] [0:1] [0:1] [0:1]
tree_sizes=5345 5620 5571 5609 5585 5619 5624 5608 5637 5583 5786 5653 5810 5616 5630 5661 5662 5647 5660 5842 5772 5657 5656 5657 5681 5647 5654 5709 5667 5738 5715 5664 5699 5658 5709 5687 5703 5695 5708 5691 5718 5699 5695 5647 5719 5886 5886 5725 5698 5705 5683 5779 5695 5736 5673 5737 5722 5796 5801 5730 5707 5763 5801 5722 5715 5716 5737 5706 5723 5693 5692 5727 5683 5730 5743 5709 5720 5714 5737 5702 5709 5725 5724 5728 5643 5711 5685 5703 5746 5778 5735 5776 5673 5689 5711 5757 5720 5722 5708 5734 5725 5720 5707 5694 5794 5707 5709 5712 5690 5749 5713 5681 5729 5748 5726 5643 5722 5717 5695 5712 5716 5734 5755 5664 5733 5686 5679 5709 5651 5718 5652 5712 5722 5701 5693 5671 5692 5675 5596 5674 5712 5661 5663 5722 5756 5638 5687 5593 5717 5703 5708 5697 5675 5712 5707 5651 5679 5695 5651 5648 5721 5657 5656 5674 5658 5688 5670 5606 5627 5688 5673 5622 5686 5719 5647 5684 5659 5629 5592 5678 5592 5635 5636 5532 5597 5651 5666 5657 5627 5595 5588 5624 5597 5708 5713 5714 5655 5698 5526 5613 5639 5660 5578 5729 5595 5688 5606 5679 5617 5630 5665 5692 5629 5652 5632 5595 5620 5641 5600 5592 5683 5627 5619 5621 5598 5580 5620 5583 5607 5659 5651 5609 5709 5665 5648 5623 5568 5611 5547 5637 5625 5654 5626 5535 5564 5613 5486 5570 5571 5596 5556 5636 5580 5598 5578 5562 5623 5568 5608 5704 5593 5709 5612 5667 5520 5554 5558 5649 5625 5575 5602 5674 5624 5627 5602 5665 5648 5680 5678 5571 5615 5657 5631 5648 5571 5528 5428 5463 5548 5547 5511 5534 5549 5579 5485 5543 5452 5482 5552 5527 5599 5579 5576 5628 5582 5672 5617 5504 5608 5488 5622 5550 5491 5477 5722 5637 5486 5575 5436 5531 5601 5487 5655 5531 5554 5649 5587 5574 5551 5547 5542 5575 5566 5511 5597 5638 5609 5655 5556 5611 5464 5526 5548 5534 5470 5516 5450 5461 5490 5484 5633 5620 5464 5561 5559 5589 5560 5551 5595 5676 5700 5552 5564 5562 5623 5630 5593 5584 5631 5560 5440 5545 5557 5537 5483 5634 5627 5658 5578 5698 5523 5620 5492 5553 5553 5613 5704 5613 5594 5607 5535 5637 5568 5590 5548 5530 5561 5602 5517 5505 5515 5533 5527 5608 5543 5491 5617 5551 5623 5520 5482 5499 5538 5449 5496 5584 5638 5518 5501 5548 5621 5592 5635 5578 5531 5592 5662 5586 5572 5544 5527 5584 5526 5536 5675 5489 5488 5473 5527 5584 5458 5515 5487 5619 5621 5460 5566 5561 5590 5558 5548 5557 5533 5546 5586 5585 5567 5609 5500 5580 5659 5651 5587 5513 5545 5636 5521 5630 5538 5570 5499 5511 5571 5539 5534 5610 5523 5617 5574 5478 5563 5567 5482 5535 5485 5591 5599 5594 5580 5589 5468 5473 5550 5506 5513 5517 5433 5617 5459 5476

Tree=0
num_leaves=63
num_cat=0
split_feature=0 1 25 4 1 10 0 0 1 0 0 0 0 1 0 0 10 0 0 0 0 0 1 4 0 18 30 0 14 10 6 50 0 0 5 0 15 64 4 4 4 4 15 10 10 64 10 0 10 0 0 0 0 0 0 10 4 25 1 0 0 0
split_gain=49748.1 402.274 239.457 167.127 129.296 121.254 119.802 104.16 97.428 74.0837 108.218 71.6234 91.5472 64.14 59.6185 62.3771 57.3498 49.2468 43.0883 49.1455 42.1665 41.007 40.9169 38.9844 37.7787 38.1865 47.4978 35.7288 35.4684 31.9006 29.4032 26.9652 26.1553 25.7181 25.0022 30.6272 23.6948 22.6505 22.1365 22.1333 31.1921 21.6111 25.0766 21.1837 18.6557 18.3242 18.2541 29.6021 17.9791 17.291 17.0718 16.8806 16.8492 16.6278 16.4983 16.2365 16.1662 15.1638 15.086 15.072 15.0363 14.5059
threshold=102701.27905873186 131714.48382525059 1.0000000180025095e-35 2.5000000000000004 104039.3712927788 70.500000000000014 93961.455282881725 100305.96317998029 102030.60505782954 100507.43252796521 100513.39353098089 118371.46239321484 118516.4277019099 101675.23795845515 90400.94395885487 73490.035742926106 79.500000000000014 90400.94395885487 104578.23911175792 104461.88426253326 104706.80274858422 101267.41926755682 154686.24760016598 2.5000000000000004 102232.30956831416 1.0000000180025095e-35 1.0000000180025095e-35 124999.95656636087 1.0000000180025095e-35 2377.0000000000005 -1.0000000180025095e-35 1.0000000180025095e-35 100408.2863391007 100513.39353098089 89659.307348389455 131515.98062255932 1.0000000180025095e-35 1.0000000180025095e-35 2.5000000000000004 2.5000000000000004 1.0000000180025095e-35 2.5000000000000004 1.0000000180025095e-35 67.500000000000014 67.500000000000014 1.0000000180025095e-35 2377.0000000000005 96677.434667339301 81.500000000000014 102827.70810099413 89394.20258170829 103128.51146992441 73490.035742926106 84928.449860620181 107605.4228730959 70.500000000000014 2.5000000000000004 1.0000000180025095e-35 161129.50578369785 100513.39353098089 96016.960728398422 58550.522555401061
decision_type=2 2 2 2 2 2 2 2 2 2 2 2 2 2 2 2 2 2 2 2 2 2 2 2 2 2 2 2 2 2 2 2 2 2 2 2 2 2 2 2 2 2 2 2 2 2 2 2 2 2 2 2 2 2 2 2 2 2 2 2 2 2
left_child=1 2 3 8 11 17 13 22 24 -4 43 18 -13 45 15 -10 27 23 19 49 51 -16 61 58 25 46 60 -14 -28 -17 41 -21 -19 -34 35 -22 -8 52 -37 40 -29 42 -20 56 -23 50 -1 -48 -33 -2 -5 -6 -15 -24 -44 -26 -11 -9 -3 -38 -27 -7
right_child=4 5 9 6 20 7 36 57 14 10 -12 12 16 37 21 29 -18 32 30 31 34 44 53 -25 55 26 28 39 -30 -31 -32 48 33 -35 -36 38 59 -39 -40 -41 -42 -43 54 -45 -46 -47 47 -49 -50 -51 -52 -53 -54 -55 -56 -57 -58 -59 -60 -61 -62 -63
leaf_value=91832.534375000003 93894.045312500006 92714.706640624994 92642.987890624994 92683.380078125003 93948.380078125003 91099.853124999994 92719.380078125003 94170.425390624994 91671.312597656244 93450.945898437494 93588.702734374994 93826.803125000006 99183.380078125003 92823.380078125003 92427.6181640625 92683.380078125003 96450.1640625 92233.380078125003 95242.940039062494 94553.906835937494 96183.380078125003 93630.765625 93038.551171875006 94683.380078125003 93775.430078125006 92377.424609374997 92669.550000000003 95402.152734375006 94101.846875000003 94248.049609374997 95683.380078125003 93596.24609375 94408.380078125003 93535.519140624994 96774.623046875 95183.380078125003 93183.380078125003 91999.715039062503 96183.380078125003 95433.380078125003 93863.380078125003 95433.380078125003 94903.380078125003 94542.649609375003 93674.382031250003 91024.180078125006 93468.634179687506 93206.3037109375 94798.390625 94183.380078125003 93243.880078125003 94332.653515625003 93863.380078125003 94196.140625 93602.430078125006 93802.807226562494 94183.380078125003 94674.691015624994 94157.9228515625 93636.855078124994 92814.219140625006 93270.016015625006
leaf_weight=18028 146 259 457 474 401 53 2196 215 912 190 286 178 329 107 5177 1400 1196 635 326 110 1490 666 49 69 224 413 51 861 40 64 5039 85 46 297 16882 254 144 47 277 419 126 847 45 124 513 103 108 208 45 2074 216 1705 409 113 58 158 156 56 40 76 558 639
leaf_count=18028 146 259 457 474 401 53 2196 215 912 190 286 178 329 107 5177 1400 1196 635 326 110 1490 666 49 69 224 413 51 861 40 64 5039 85 46 297 16882 254 144 47 277 419 126 847 45 124 513 103 108 208 45 2074 216 1705 409 113 58 158 156 56 40 76 558 639
internal_value=93877.2 93877.2 93877.2 93877.2 93877.3 93877.2 93877.2 93877.2 93877.2 93877.2 93877.2 93877.3 93877.3 93877.2 93877.2 93877.2 93877.3 93877.2 93877.3 93877.3 93877.3 93877.2 93877.2 93877.2 93877.2 93877.2 93877.2 93877.3 93877.2 93877.2 93877.3 93877.3 93877.2 93877.2 93877.3 93877.3 93877.2 93877.2 93877.3 93877.3 93877.3 93877.3 93877.3 93877.2 93877.2 93877.2 93877.2 93877.2 93877.2 93877.3 93877.2 93877.3 93877.2 93877.2 93877.2 93877.2 93877.2 93877.3 93877.2 93877.2 93877.2 93877.2
internal_weight=68869 35976 33505 32292 32893 2471 3772 1125 28520 1213 756 11884 3109 1356 8732 2376 2931 1346 8775 2460 21009 6356 854 368 19788 19406 1062 1735 91 1464 6315 240 978 343 18903 2021 2416 563 531 1406 987 1276 429 470 1179 793 18344 316 130 2220 690 2106 516 162 103 382 346 271 299 220 971 692
internal_count=68869 35976 33505 32292 32893 2471 3772 1125 28520 1213 756 11884 3109 1356 8732 2376 2931 1346 8775 2460 21009 6356 854 368 19788 19406 1062 1735 91 1464 6315 240 978 343 18903 2021 2416 563 531 1406 987 1276 429 470 1179 793 18344 316 130 2220 690 2106 516 162 103 382 346 271 299 220 971 692
is_linear=0
shrinkage=1


Tree=1
num_leaves=63
num_cat=0
split_feature=0 1 4 11 1 25 0 1 25 0 0 0 0 0 0 1 11 2 2 4 0 0 0 0 0 0 18 30 0 15 13 6 0 0 5 2 11 15 5 5 50 0 0 13 4 0 0 64 4 11 0 15 13 0 0 11 2 0 2 20 11 0
split_gain=48216.8 414.904 284.234 141.558 133.486 120.49 107.101 91.532 83.9553 102.332 103.971 82.2355 85.3956 63.7722 71.7799 63.2683 61.4241 58.1092 52.8634 51.1939 46.4461 66.9686 44.8773 43.5537 36.7486 36.1068 36.495 36.4403 32.8299 31.7267 31.0382 30.4295 29.2604 28.8438 26.8171 25.9798 25.656 25.4906 24.6704 24.5268 23.9103 29.533 23.6308 23.5072 39.0995 22.2137 30.3256 20.6638 18.6591 18.3139 21.9314 18.9009 18.2206 18.1202 17.3963 30.7505 22.4729 19.8422 19.7668 17.2314 17.0234 29.2295
threshold=102701.27905873186 127828.16665947549 2.5000000000000004 4.2696729980286863 104039.3712927788 1.0000000180025095e-35 100305.96317998029 101675.23795845515 1.0000000180025095e-35 93961.455282881725 102616.60421180549 118371.46239321484 118516.4277019099 89478.294061633016 73490.035742926106 101675.23795845515 5.5872416446462791 117562.87775674371 139774.07201307474 2.5000000000000004 100507.43252796521 100513.39353098089 124999.95656636087 103128.51146992441 104821.33094369735 102232.30956831416 1.0000000180025095e-35 1.0000000180025095e-35 102232.30956831416 1.0000000180025095e-35 1.0000000180025095e-35 -1.0000000180025095e-35 94159.125680182144 140378.15553512855 105831.60128504939 121615.11610864081 7.6267814090131525 1.0000000180025095e-35 89659.307348389455 89659.307348389455 1.0000000180025095e-35 104461.88426253326 100507.43252796521 1.0000000180025095e-35 2.5000000000000004 89478.294061633016 100408.2863391007 1.0000000180025095e-35 2.5000000000000004 3.1132683346437333 98753.197254084895 1.0000000180025095e-35 1.0000000180025095e-35 100513.39353098089 131515.98062255932 4.3882378946731615 86418.884234041427 105880.56573991386 108084.35618516071 1.0000000180025095e-35 7.6267814090131525 96677.434667339301
decision_type=2 2 2 2 2 2 2 2 2 2 2 2 2 2 2 2 2 2 2 2 2 2 2 2 2 2 2 2 2 2 2 2 2 2 2 2 2 2 2 2 2 2 2 2 2 2 2 2 2 2 2 2 2 2 2 2 2 2 2 2 2 2
left_child=1 2 5 19 11 7 18 25 9 15 29 24 -13 14 -9 38 22 -8 -5 45 -7 30 -14 -6 40 26 60 -28 49 39 -22 37 -21 43 -29 52 -16 -26 -4 -11 -2 -42 -41 44 59 -3 -47 -17 -39 -15 51 -51 54 -31 57 56 -56 58 -25 -24 -1 -62
right_child=4 3 8 6 23 20 17 13 -10 10 -12 12 16 28 36 47 -18 -19 -20 32 21 -23 33 35 31 -27 27 34 -30 53 -32 -33 -34 -35 -36 -37 -38 48 -40 42 41 -43 -44 -45 -46 46 -48 -49 -50 50 -52 -53 -54 -55 55 -57 -58 -59 -60 -61 61 -63
leaf_value=-1946.9404882812503 292.33099609374989 -1080.8337695312498 -1163.7090039062502 -784.32814453125036 67.58099609374986 -1303.8228320312498 -227.29577148437494 -2133.1581640625004 -163.05207031249995 -1135.9690039062502 44.030996093749856 -47.917109375000294 4874.8204492187497 -1487.130908203125 -1134.1690039062503 -193.16900390625017 2691.1558593750001 381.93810546875034 -32.352070312500295 605.83099609374983 -672.54729492187471 -274.11248046874971 968.4343554687498 607.08685546874983 1568.3309960937499 -81.270776367187509 -1118.8712304687499 221.20296874999985 -81.820859375000154 -659.16900390625017 477.3347363281253 1799.6161523437499 -611.66900390625017 3167.3750683593753 -1133.4775000000002 3055.63525390625 352.26705078125019 319.87849609374973 -474.16900390625017 -1099.9690039062502 258.28685546874988 424.93730468750005 44.030996093749856 2050.5134570312498 1468.3309960937499 -1575.508837890625 -310.68133789062489 -1691.8182714843751 1228.3309960937499 -1755.8993212890628 -497.757080078125 -1141.5387207031251 2496.9782226562502 -281.8427539062497 815.83099609374995 2842.1961914062504 1990.8309960937499 2191.4143749999998 491.86810546874989 -52.891992187500001 -416.87682617187534 -656.40463867187509
leaf_weight=17852 2251 367 709 727 401 362 72 885 292 1946 48 178 420 3133 1317 499 747 274 284 92 114 245 718 923 973 374 955 41 316 144 177 4829 85 196 49 8967 60 101 84 130 285 175 65 326 432 801 392 46 161 1220 1337 105 4256 70 119 912 755 4122 554 92 104 203
leaf_count=17852 2251 367 709 727 401 362 72 885 292 1946 48 178 420 3133 1317 499 747 274 284 92 114 245 718 923 973 374 955 41 316 144 177 4829 85 196 49 8967 60 101 84 130 285 175 65 326 432 801 392 46 161 1220 1337 105 4256 70 119 912 755 4122 554 92 104 203
internal_value=-2.83146e-05 -0.0400322 -0.0416793 -0.0225275 0.0437251 -0.0434174 -0.0104274 -0.0439966 -0.0292462 -0.0312617 -0.0374324 0.0394901 0.0325024 -0.0396214 -0.0324492 -0.0201794 0.0345445 0.0135838 -0.0186449 -0.0319804 -0.0253898 -0.0160448 0.0303114 0.0461207 0.0419658 -0.0458678 -0.0461675 -0.0370813 -0.0422762 -0.0389172 0.000171821 0.0441293 -0.00649718 0.0268141 -0.00666667 0.0464383 -0.0253086 0.0371255 -0.0291929 -0.040752 0.0371265 0.0267391 -0.0238462 0.0245536 0.0214171 -0.0348718 -0.0381811 -0.00706422 0.0232824 -0.043132 -0.0400826 -0.0446415 0.0448802 -0.0205607 0.0433785 0.0390817 0.0323799 0.0447491 0.0397766 0.0149383 -0.0466903 -0.0350163
internal_weight=68869 35976 32882 3094 32893 28849 1357 27951 4033 3741 2403 11884 3109 8373 2262 1338 2931 346 1011 1737 898 536 2184 21009 8775 19578 19204 1045 6111 2355 291 6064 177 1764 90 20608 1377 1235 793 2141 2711 460 195 1568 1242 1560 1193 545 262 5795 2662 1325 11641 214 7385 1786 874 5599 1477 810 18159 307
internal_count=68869 35976 32882 3094 32893 28849 1357 27951 4033 3741 2403 11884 3109 8373 2262 1338 2931 346 1011 1737 898 536 2184 21009 8775 19578 19204 1045 6111 2355 291 6064 177 1764 90 20608 1377 1235 793 2141 2711 460 195 1568 1242 1560 1193 545 262 5795 2662 1325 11641 214 7385 1786 874 5599 1477 810 18159 307
is_linear=0
shrinkage=0.05


Tree=2
num_leaves=63
num_cat=0
split_feature=0 1 4 0 1 10 0 10 25 0 0 1 0 25 0 10 0 0 0 0 0 1 0 2 4 0 2 5 0 15 0 0 18 32 4 0 0 13 0 1 0 0 5 5 0 10 0 0 2 0 10 2 50 0 0 6 1 1 2 25 15 0
split_gain=46428.3 403.776 263.809 182.001 136.588 129.202 105.677 92.8409 88.0686 124.815 81.0904 78.6406 78.4266 75.5588 74.7614 89.1708 68.4843 68.3267 67.1053 65.0799 64.6868 57.9127 57.7547 48.5588 48.5542 48.2197 43.8921 39.5326 52.5181 35.1439 32.6883 32.6081 30.6449 45.5975 29.2705 29.0427 24.8571 24.5029 24.2492 73.3292 23.7277 26.8896 23.645 23.2348 22.4228 22.1824 21.5719 37.315 20.7528 20.3368 20.1417 19.2891 19.0142 20.6309 36.5865 18.3665 17.832 30.3197 17.7413 17.5883 17.5369 17.2675
threshold=102701.27905873186 128529.03794317236 2.5000000000000004 100408.2863391007 102951.45528773881 70.500000000000014 102482.12246344698 2377.0000000000005 1.0000000180025095e-35 93961.455282881725 100305.96317998029 101890.45202026698 102827.70810099413 1.0000000180025095e-35 118371.46239321484 97.000000000000014 118516.4277019099 90400.94395885487 102217.36140569458 105880.56573991386 73490.035742926106 101675.23795845515 100513.39353098089 117562.87775674371 2.5000000000000004 96677.434667339301 144210.19612846716 89659.307348389455 131515.98062255932 1.0000000180025095e-35 131638.60886537793 102827.70810099413 1.0000000180025095e-35 1.0000000180025095e-35 2.5000000000000004 140378.15553512855 94159.125680182144 1.0000000180025095e-35 102232.30956831416 101675.23795845515 107684.91791366292 107605.4228730959 89659.307348389455 89659.307348389455 100507.43252796521 79.500000000000014 89394.20258170829 100408.2863391007 81938.465569607521 96016.960728398422 85.500000000000014 86800.621132982298 1.0000000180025095e-35 104706.80274858422 104461.88426253326 -1.0000000180025095e-35 135690.33914403708 109711.63055079339 101133.54194532994 1.0000000180025095e-35 1.0000000180025095e-35 100513.39353098089
decision_type=2 2 2 2 2 2 2 2 2 2 2 2 2 2 2 2 2 2 2 2 2 2 2 2 2 2 2 2 2 2 2 2 2 2 2 2 2 2 2 2 2 2 2 2 2 2 2 2 2 2 2 2 2 2 2 2 2 2 2 2 2 2
left_child=1 2 3 7 12 24 8 11 9 21 26 32 -2 18 40 16 -16 20 -5 31 -13 43 37 -12 46 -9 -7 28 -21 42 -18 -6 -1 49 51 -32 -26 -15 39 -20 41 52 -11 -4 -44 -40 -3 -48 -23 -34 -33 -30 -14 54 -54 -43 57 -52 -59 -25 -19 -31
right_child=4 5 6 13 19 10 -8 25 -10 29 23 17 14 22 15 -17 30 60 38 27 -22 48 -24 59 36 -27 -28 -29 34 61 35 50 33 -35 -36 -37 -38 -39 45 -41 -42 55 44 -45 -46 -47 47 -49 -50 -51 56 -53 53 -55 -56 -57 -58 58 -60 -61 -62 -63
leaf_value=-1957.2301826171877 -0.27467480468767463 -983.99344824218724 -1105.5235537109381 -361.31953808593755 15.384368164062472 -642.56603417968802 41.829446289062616 -177.67237194824193 -154.89946679687529 -1079.1705537109374 -220.89515283203073 -2036.0276435546875 627.80741503906256 -627.939091552734 -415.30133203125007 2356.6500195312506 2222.5024736328123 -1547.024362792969 5.7203056640624714 2381.2602773437502 -1077.4605537109376 -1031.0105537109375 -260.40685644531186 270.82802636718736 685.53944628906254 -1026.4402661132815 18.385943359374505 2738.4473476562507 -299.96055371093752 -626.21055371093757 999.93080175781222 476.21444628906249 -1424.0862626953124 153.48696093749967 2054.9711865234372 3988.462242675781 -533.63903027343736 435.30685205078157 -91.260128906249889 -107.1817358398439 2439.4364482421879 -105.28555371093753 -1044.9705537109373 -450.46055371093757 -48.170553710937384 -57.944791259765047 -1490.9750073242192 -289.71563037109371 -131.51055371093753 -1345.6346806640629 499.84725878906249 1381.2894462890627 262.14243457031262 953.02264941406247 310.12950195312516 1694.7400322265626 658.48708496093752 573.15438769531249 252.42349121093721 955.5281142578126 -1061.2936694335938 -299.75061621093704
leaf_weight=16472 131 342 709 3243 117 689 71 228 292 1930 64 885 3703 116 135 982 489 3996 67 1747 1415 88 246 206 89 189 247 16697 69 144 733 2365 423 51 412 105 84 182 395 69 2758 42 130 84 64 302 747 372 460 364 381 271 236 232 148 59 327 81 673 52 404 65
leaf_count=16472 131 342 709 3243 117 689 71 228 292 1930 64 885 3703 116 135 982 489 3996 67 1747 1415 88 246 206 89 189 247 16697 69 144 733 2365 423 51 412 105 84 182 395 69 2758 42 130 84 64 302 747 372 460 364 381 271 236 232 148 59 327 81 673 52 404 65
internal_value=7.33276e-05 -0.0391817 -0.0407478 -0.0424123 0.0430076 -0.0212656 -0.0287714 -0.0441335 -0.0298538 -0.0319543 -0.00922099 -0.0445398 0.0380447 -0.0333117 0.0385679 0.0310147 0.0231874 -0.0399403 -0.0356477 0.0450994 -0.0329565 -0.0197987 -0.0158088 0.0124224 -0.0305386 -0.0207434 -0.0166667 0.0463013 0.0404362 -0.0389413 0.026639 0.0392495 -0.04632 -0.0369928 0.0293883 0.0206444 -0.00549133 -0.00100671 -0.0229892 -0.00367647 0.0411396 0.0388688 -0.0408663 -0.0284363 -0.0242268 -0.0267575 -0.0335044 -0.0368633 -0.00729927 -0.0399619 0.0400444 0.0185294 0.0394652 0.0313312 0.0242188 0.0133663 0.0354309 0.032467 0.0266578 0.022093 -0.0435909 -0.019378
internal_weight=68869 35976 33084 29047 32893 2892 4037 24427 3966 3674 1258 24010 9753 4620 9622 2444 1462 6700 4076 23140 2300 1341 544 322 1634 417 936 19196 2499 2333 1327 3944 17310 838 752 838 173 298 833 136 7178 4420 2124 793 194 697 1461 1119 548 787 3827 340 4319 616 384 101 1462 1135 754 258 4400 209
internal_count=68869 35976 33084 29047 32893 2892 4037 24427 3966 3674 1258 24010 9753 4620 9622 2444 1462 6700 4076 23140 2300 1341 544 322 1634 417 936 19196 2499 2333 1327 3944 17310 838 752 838 173 298 833 136 7178 4420 2124 793 194 697 1461 1119 548 787 3827 340 4319 616 384 101 1462 1135 754 258 4400 209
is_linear=0
shrinkage=0.05


Tree=3
num_leaves=63
num_cat=0
split_feature=0 1 0 0 1 4 1 0 10 0 0 2 0 0 4 10 1 25 0 0 0 0 0 0 10 0 0 0 10 0 2 2 4 25 15 10 0 17 10 16 10 10 15 0 0 0 1 10 24 64 4 4 25 0 48 10 2 10 50 1 5 4
split_gain=44543.8 418.556 259.692 216.608 189.245 135.678 134.196 121.899 113.863 100.426 83.7108 79.4674 79.2385 81.0479 67.4981 63.8656 63.6796 62.3146 59.0831 52.73 49.1234 43.0216 38.2946 37.497 37.445 37.1729 36.9347 98.01 89.2139 54.2469 35.7176 34.738 29.8018 29.0881 28.3553 27.0579 35.5568 26.9535 33.3068 25.3993 23.8821 65.0802 23.6124 23.0088 23.3362 28.2956 22.5513 39.5903 22.2666 22.1269 22.0411 25.6555 21.8326 21.0577 20.8962 22.0868 20.7963 20.7927 19.8205 19.1526 18.4207 17.8624
threshold=102701.27905873186 101675.23795845515 102920.17160437304 100507.43252796521 131714.48382525059 2.5000000000000004 126311.68504721223 100513.39353098089 70.500000000000014 102004.44398023339 100305.96317998029 78999.560296896321 93961.455282881725 102377.00498521658 2.5000000000000004 67.500000000000014 102951.45528773881 1.0000000180025095e-35 102616.60421180549 89478.294061633016 113469.43555242587 90400.94395885487 73490.035742926106 100408.2863391007 2377.0000000000005 93961.455282881725 144076.41212584169 131515.98062255932 266.00000000000006 105880.56573991386 144210.19612846716 117562.87775674371 2.5000000000000004 1.0000000180025095e-35 1.0000000180025095e-35 2377.0000000000005 90400.94395885487 1.0000000180025095e-35 181.50000000000003 1.0000000180025095e-35 79.500000000000014 77.500000000000014 1.0000000180025095e-35 98329.049482542861 89478.294061633016 73490.035742926106 111003.28115732009 85.500000000000014 1.0000000180025095e-35 1.0000000180025095e-35 2.5000000000000004 1.0000000180025095e-35 1.0000000180025095e-35 96677.434667339301 1.0000000180025095e-35 308.50000000000006 108084.35618516071 10.500000000000002 1.0000000180025095e-35 124989.70140855252 89659.307348389455 2.5000000000000004
decision_type=2 2 2 2 2 2 2 2 2 2 2 2 2 2 2 2 2 2 2 2 2 2 2 2 2 2 2 2 2 2 2 2 2 2 2 2 2 2 2 2 2 2 2 2 2 2 2 2 2 2 2 2 2 2 2 2 2 2 2 2 2 2
left_child=1 3 16 14 5 15 11 -5 21 -9 30 20 49 17 24 18 -2 60 19 22 -4 32 -3 -23 54 39 27 29 37 46 -10 -12 -6 -21 35 43 -37 38 40 -16 41 50 -27 44 45 -17 58 -48 -40 -7 51 -29 -38 -26 -1 -56 -49 -25 -13 -36 -14 -22
right_child=2 4 6 7 8 12 -8 9 10 -11 31 26 13 -15 25 34 -18 -19 -20 33 61 23 -24 57 53 42 -28 28 -30 -31 -32 -33 -34 -35 59 36 52 -39 48 -41 -42 -43 -44 -45 -46 -47 47 56 -50 -51 -52 -53 -54 -55 55 -57 -58 -59 -60 -61 -62 -63
leaf_value=-1857.2976773925782 -5.1759244628905439 -1779.8678629394535 815.06593100585962 -45.181747387695218 -904.65478168945344 -176.93502602539084 2896.3197957031248 -364.75473305664059 -604.46527153320346 -37.333048974609483 -237.78672331542913 452.40372397460965 -775.21202602539051 39.737973974609488 -1220.7874541503909 -2173.5278941894535 21.547374804687571 56.72857294921851 7.1157681640623203 -1235.6289063720703 677.77211796874985 -1408.3448116455083 -1023.5875260253911 -368.7180975952146 -353.97690532836936 -1477.7429830566407 4054.6498342163086 1494.5482781249993 2133.5186848632811 1920.0382615234375 15.264888378905745 391.11987260742171 701.26247397460907 -551.52297559814394 -212.19465541992179 430.45176996459998 -402.66780971679691 2411.0893683105469 1883.2077253906245 -347.13237602539084 2163.2022957031245 -790.8455146972658 -605.57592185058604 -377.47425502929696 -1526.1472239990233 -1011.744947900391 471.09987729492207 540.35183623046873 -153.50626074218744 -1692.48434975586 1495.3533869628905 203.71273823242154 -74.824013623046639 -1029.8245028076178 -1278.2912320800781 -473.129508642578 176.94493188476554 -136.01055532226528 458.53433627929701 149.35243225097656 -534.74255571289029 1344.9179062011717
leaf_weight=16555 253 586 1009 325 299 532 8878 1861 614 814 41 3428 831 55 667 328 238 129 55 4454 275 635 900 156 113 966 1328 1051 1060 12199 240 230 69 215 367 78 172 210 81 135 237 47 88 897 678 544 548 108 47 47 408 176 59 110 699 82 397 187 638 43 120 277
leaf_count=16555 253 586 1009 325 299 532 8878 1861 614 814 41 3428 831 55 667 328 238 129 55 4454 275 635 900 156 113 966 1328 1051 1060 12199 240 230 69 215 367 78 172 210 81 135 237 47 88 897 678 544 548 108 47 47 408 176 59 110 699 82 397 187 638 43 120 277
internal_value=-0.000158998 -0.0386091 0.0418949 -0.0428039 -0.0316754 -0.0344635 0.0424418 -0.0303 -0.0191623 -0.0338131 -0.00742222 0.0404651 -0.0215286 -0.029207 -0.044736 -0.0368281 0.00580448 -0.0322222 -0.0397746 -0.0402356 0.0295644 -0.0289747 -0.0320323 -0.0344581 -0.0456945 -0.0356681 0.0412398 0.0407197 0.0328459 0.0422277 -0.0151054 0.0167897 -0.0144022 -0.0428464 -0.0310486 -0.0328737 -0.018932 0.0272264 0.0254763 -0.0275561 0.0271235 0.0250297 -0.0418406 -0.0346342 -0.0383226 -0.0329128 0.0379078 0.0313865 0.00078125 -0.00647668 0.0266972 0.0233496 -0.0287879 -0.0253363 -0.0459564 -0.0379641 0.0212871 -0.021137 0.0395967 -0.0187805 -0.0366456 0.0175725
internal_weight=68869 35976 32893 22415 13561 11090 32402 3000 2471 2675 1125 23524 1714 1135 19415 9376 491 1080 6210 6155 1561 1346 1486 978 17559 1856 21963 20635 3317 17318 854 271 368 4669 3166 2756 309 2257 2047 802 1919 1682 1054 2447 1550 872 5119 1053 128 579 1635 1227 231 223 17336 781 505 343 4066 410 951 552
internal_count=68869 35976 32893 22415 13561 11090 32402 3000 2471 2675 1125 23524 1714 1135 19415 9376 491 1080 6210 6155 1561 1346 1486 978 17559 1856 21963 20635 3317 17318 854 271 368 4669 3166 2756 309 2257 2047 802 1919 1682 1054 2447 1550 872 5119 1053 128 579 1635 1227 231 223 17336 781 505 343 4066 410 951 552
is_linear=0
shrinkage=0.05


Tree=4
num_leaves=63
num_cat=0
split_feature=0 0 1 0 1 4 2 10 4 0 0 0 1 0 0 0 0 10 25 0 0 0 13 0 0 10 20 0 0 18 32 0 1 1 0 1 15 10 64 25 0 0 4 2 0 0 1 0 5 5 4 0 1 10 0 5 15 0 18 0 0 10
split_gain=42455.8 448.09 429.57 182.615 163.02 163.308 122.47 116.058 92.913 88.7058 82.815 89.7099 81.1416 87.2079 80.0506 81.1829 66.3336 65.9365 61.2933 56.3115 53.1722 52.0844 48.4372 51.0375 81.9746 66.5843 70.8455 48.3764 47.4927 41.5278 61.2334 36.8374 85.7091 68.2018 36.4468 31.311 30.6866 30.3849 30.0515 29.0329 28.4765 28.1359 26.9397 25.4246 25.3025 25.1088 24.6726 24.406 24.8379 24.0395 28.0218 23.4034 25.3758 27.2286 28.4247 22.8543 22.8324 21.7726 21.5289 20.6198 50.2936 35.2728
threshold=102616.60421180549 103379.85424940202 101675.23795845515 100408.2863391007 132324.87214593493 2.5000000000000004 87907.579352421672 70.500000000000014 2.5000000000000004 118371.46239321484 102217.36140569458 95065.388362241923 126311.68504721223 103628.21990899586 100513.39353098089 102004.44398023339 100305.96317998029 63.500000000000007 1.0000000180025095e-35 89478.294061633016 93961.455282881725 90400.94395885487 1.0000000180025095e-35 131515.98062255932 140378.15553512855 339.00000000000006 1.0000000180025095e-35 73490.035742926106 100507.43252796521 1.0000000180025095e-35 1.0000000180025095e-35 102920.17160437304 117026.931623703 102234.66292963106 118516.4277019099 154686.24760016598 1.0000000180025095e-35 2377.0000000000005 1.0000000180025095e-35 1.0000000180025095e-35 102377.00498521658 100408.2863391007 2.5000000000000004 78298.782079587356 96134.416167360643 54088.978690293683 124989.70140855252 105880.56573991386 105831.60128504939 89659.307348389455 2.5000000000000004 108737.80484612494 111003.28115732009 59.500000000000007 108305.88114161261 105831.60128504939 1.0000000180025095e-35 100513.39353098089 1.0000000180025095e-35 89478.294061633016 98329.049482542861 2377.0000000000005
decision_type=2 2 2 2 2 2 2 2 2 2 2 2 2 2 2 2 2 2 2 2 2 2 2 2 2 2 2 2 2 2 2 2 2 2 2 2 2 2 2 2 2 2 2 2 2 2 2 2 2 2 2 2 2 2 2 2 2 2 2 2 2 2
left_child=2 31 3 8 5 17 9 21 29 -3 11 43 22 -14 28 -16 35 19 -13 27 38 42 23 47 25 26 58 -4 -5 37 44 33 -33 -2 -11 -9 45 -1 -10 40 -21 -23 -6 -7 55 -19 -38 48 -8 50 -36 52 -24 -54 -55 -31 -22 -43 -25 61 -61 -47
right_child=1 6 4 14 7 10 12 16 20 34 -12 18 13 -15 15 -17 -18 36 -20 39 56 41 51 24 -26 -27 -28 -29 -30 30 -32 32 -34 -35 49 -37 46 -39 -40 -41 -42 57 -44 -45 -46 59 -48 -49 -50 -51 -52 -53 53 54 -56 -57 -58 -59 -60 60 -62 -63
leaf_value=-1770.5002739916993 -4.9171282397459439 949.600697666016 -1686.1129463549805 -566.94219293701178 -806.42464514404276 -1204.6132747241215 486.32659154052749 -534.40470326904324 -886.89815331787179 -746.42327745605508 13.54857527587883 -786.45142472412124 36.454415292968768 2899.8881809179688 -346.51699640380832 -52.923355510253536 329.59575837158195 -2408.7434213549809 82.26714430175781 -1197.8641602722164 -1435.3248768725587 -1337.9275710632328 809.65994402587899 1349.934284986572 3086.0459701055906 1647.2458536474603 -187.39881656005892 -972.40814972412124 -42.922660018310125 -2303.9514406909179 238.67749676025343 75.751225910645005 -28.365741483154125 18.95105923828087 166.172109238281 138.27983753295885 -213.68795487548815 -841.11218391723673 -2535.908003317872 -523.9468268182369 -20.905325579833882 560.84183747772227 666.1993502758786 -168.08827472412159 -1184.0600354174808 -1055.7944778491212 152.55300734252887 1786.3468953222655 483.21984534423831 1780.5349369287105 1030.2297102111813 2787.2157389086915 756.7753140942383 495.58159983886657 -93.82877752929744 -745.87068397216763 -575.29712575805684 -296.59015116455049 20.634178671874544 -1408.129315924072 -350.00957205078089 322.01472834137024
leaf_weight=16388 350 2417 585 135 292 82 823 637 699 70 85 857 110 8478 1861 696 237 207 124 4373 953 619 1731 1274 700 460 122 878 325 173 51 787 218 413 204 162 362 207 103 215 78 46 69 541 366 722 53 6944 1911 422 322 4651 279 337 66 254 86 270 76 741 1094 78
leaf_count=16388 350 2417 585 135 292 82 823 637 699 70 85 857 110 8478 1861 696 237 207 124 4373 953 619 1731 1274 700 460 122 878 325 173 51 787 218 413 204 162 362 207 103 215 78 46 69 541 366 722 53 6944 1911 422 322 4651 279 337 66 254 86 270 76 741 1094 78
internal_value=-0.000291132 0.0404417 -0.0381274 -0.0423801 -0.0310547 -0.0335847 0.0418209 -0.0190395 -0.0441701 0.0329112 -0.0192718 -0.0218204 0.0429154 0.0469609 -0.0309413 -0.0343958 -0.00656371 -0.0361602 -0.0312436 -0.0392152 -0.0334872 -0.0290123 0.0411221 0.0392283 0.0330547 0.0277433 0.0225543 -0.0306562 -0.0117391 -0.0452979 -0.0344787 0.0159502 0.0222388 0.0076671 0.0205305 -0.0134543 -0.0304114 -0.0458481 -0.0238155 -0.0418988 -0.0427657 -0.0352406 -0.0128809 -0.00698234 -0.0378941 -0.032266 -0.0177108 0.0409072 0.0369056 0.0231013 0.0159696 0.0444224 0.0404269 0.0322581 0.0239454 -0.0296253 -0.0409528 -0.0231013 0.0258519 -0.0309488 -0.0338692 -0.02425
internal_weight=68869 33165 35704 22297 13407 11075 31397 2332 19280 3435 1689 1604 27962 8588 3017 2557 1036 9386 981 6129 1841 1296 19374 12310 2632 1932 1472 1463 460 17439 844 1768 1005 763 1018 799 3257 16595 802 4666 4451 935 361 623 793 2842 415 9678 2734 948 526 7064 2413 682 403 427 1039 316 1350 2635 1835 800
internal_count=68869 33165 35704 22297 13407 11075 31397 2332 19280 3435 1689 1604 27962 8588 3017 2557 1036 9386 981 6129 1841 1296 19374 12310 2632 1932 1472 1463 460 17439 844 1768 1005 763 1018 799 3257 16595 802 4666 4451 935 361 623 793 2842 415 9678 2734 948 526 7064 2413 682 403 427 1039 316 1350 2635 1835 800
is_linear=0
shrinkage=0.05


Tree=5
num_leaves=63
num_cat=0
split_feature=0 0 0 0 4 0 10 0 18 13 0 10 0 0 0 32 30 2 0 0 2 0 10 0 10 64 10 2 0 2 0 2 2 2 2 15 0 15 0 5 2 0 2 29 0 10 4 10 10 2 2 5 15 0 24 10 10 10 0 30 4 0
split_gain=40607.9 463.532 439.421 257.782 202.035 194.904 162.353 157.19 133.66 103.558 77.9533 155.194 83.2504 72.4315 142.109 61.8756 64.2444 57.3209 56.1226 54.7099 50.6442 49.4476 50.0316 49.332 48.9313 48.0366 46.7609 44.222 42.8903 41.8268 41.9093 37.9072 37.6451 33.3188 30.5685 29.0183 31.8618 28.5322 27.9494 27.2786 26.8631 34.4411 34.7873 26.1488 26.0125 28.7027 25.9573 34.5658 53.0143 26.1092 24.5459 23.5752 22.1485 21.2177 21.2038 21.0188 20.7223 24.5241 20.5626 20.0587 21.9849 19.7391
threshold=102616.60421180549 103379.85424940202 100507.43252796521 100513.39353098089 2.5000000000000004 102004.44398023339 2377.0000000000005 93961.455282881725 1.0000000180025095e-35 1.0000000180025095e-35 131515.98062255932 266.00000000000006 140378.15553512855 90400.94395885487 73490.035742926106 1.0000000180025095e-35 1.0000000180025095e-35 129388.74063310129 107684.91791366292 108737.80484612494 128254.61053547778 98641.341047047914 27.500000000000004 103013.23169066118 14.500000000000002 1.0000000180025095e-35 181.50000000000003 120159.4023052578 93579.624071741026 85995.152268101665 113469.43555242587 150841.31135037375 83731.248171259169 129388.74063310129 91546.02560901572 1.0000000180025095e-35 93961.455282881725 1.0000000180025095e-35 107605.4228730959 89659.307348389455 108084.35618516071 103898.82092789649 129388.74063310129 1.0000000180025095e-35 96206.537896869544 160.50000000000003 2.5000000000000004 79.500000000000014 75.500000000000014 86418.884234041427 125675.43042893533 105831.60128504939 1.0000000180025095e-35 101581.97211734629 1.0000000180025095e-35 3854.5000000000005 656.00000000000011 744.00000000000011 88879.475746652693 1.0000000180025095e-35 1.5000000000000002 113665.38084283075
decision_type=2 2 2 2 2 2 2 2 2 2 2 2 2 2 2 2 2 2 2 2 2 2 2 2 2 2 2 2 2 2 2 2 2 2 2 2 2 2 2 2 2 2 2 2 2 2 2 2 2 2 2 2 2 2 2 2 2 2 2 2 2 2
left_child=2 23 4 -4 6 17 8 25 13 10 18 12 26 14 -1 20 -17 53 38 55 44 35 -23 -2 -19 32 33 -25 -8 30 -20 34 -6 46 -16 -15 -37 43 40 -40 -3 42 -42 -9 51 -46 47 48 49 -12 -31 -10 -30 -5 -28 -11 59 -58 -22 60 -36 -32
right_child=1 9 3 5 7 -7 28 37 15 19 11 -13 -14 21 31 16 -18 24 29 -21 58 22 -24 27 -26 -27 54 -29 52 50 61 -33 -34 -35 56 36 -38 -39 39 -41 41 -43 -44 -45 45 -47 -48 -49 -50 -51 -52 -53 -54 -55 -56 -57 57 -59 -60 -61 -62 -63
leaf_value=-1927.0282876358644 5.751484292846726 602.70691015710474 284.08454368176319 -399.46380283361799 -915.32309565197795 -32.120793103332112 76.893074307495411 -1263.5636330289306 -2121.8072990372311 685.8962749520266 -10.081504141113692 2490.5928969025877 3668.7408648620294 -1847.9984913211056 -1465.0282876358644 -998.08998724172966 371.1043948583374 -334.66022743017533 2015.3964181049807 3127.2123476409906 -884.00796855090312 -759.99849132110546 -636.63336576086442 85.755718458435155 -127.10979700958197 -2372.4516413106694 640.76924062206967 -8.4207042813723092 -840.16555909637464 2098.5591082221686 -578.28330631640563 87.15036692706272 -259.97697260510284 2357.4336156220702 -1143.5687173233644 -317.50036001855443 -1548.2678384171145 -785.85637364495926 -255.19385322192358 1264.4423347358397 177.02260754724122 616.49256503991717 -30.343128274414632 -1129.5586330289304 -1045.4177758341066 -413.15863323858616 1198.7304881318357 2227.8220291686389 -829.54501688439927 975.59708144238255 2766.97736562207 -822.0331517475887 -147.96007785925249 -124.64843955236793 -223.46868391253702 202.91486562206993 286.02206244958433 -718.40387357336442 -202.67594634817507 -593.86695951086438 -715.02828763586444 1528.3558554095457
leaf_weight=3989 1017 3920 643 2399 485 1513 219 1420 263 3381 179 1541 515 11116 1491 42 58 133 399 8186 81 2431 1435 597 249 144 95 139 227 5611 50 71 804 308 2203 118 782 126 62 106 192 1983 111 204 531 168 606 157 59 960 2494 558 91 847 52 60 54 100 272 208 135 386
leaf_count=3989 1017 3920 643 2399 485 1513 219 1420 263 3381 179 1541 515 11116 1491 42 58 133 399 8186 81 2431 1435 597 249 144 95 139 227 5611 50 71 804 308 2203 118 782 126 62 106 192 1983 111 204 531 168 606 157 59 960 2494 558 91 847 52 60 54 100 272 208 135 386
internal_value=-0.000327149 0.0394832 -0.0374052 -0.0247925 -0.0398511 -0.0285256 -0.0412735 -0.0279453 -0.0418333 0.0408796 0.0386789 0.0328712 0.0261174 -0.0428563 -0.0390559 -0.0293208 0.009 -0.0348126 0.0403748 0.0446246 -0.0313668 -0.0448306 -0.0399121 0.0144609 -0.0164921 -0.0156664 0.0222268 0.0243207 -0.0140596 0.0429306 0.0322754 -0.0327076 -0.0126067 0.0239974 -0.0333214 -0.0464131 -0.0377778 -0.038 0.0367901 0.0166667 0.0373348 0.0330271 0.0173267 -0.0397783 -0.0353289 -0.0424177 0.0215961 0.0177491 0.0148581 0.017252 0.0440284 -0.0292935 -0.0257862 -0.0369686 -0.00510204 0.0393345 -0.0301481 -0.0123377 -0.0143059 -0.0312255 -0.0325492 0.0215596
internal_weight=68776 33166 35610 5784 29826 5141 26643 3183 26106 31413 19786 4472 2931 24133 8251 1973 100 3628 15314 11627 1873 15882 3866 1753 382 1433 2416 736 537 8940 835 4262 1289 2269 4191 12016 900 1750 6374 168 6206 2286 303 1624 1520 699 1961 1355 1198 1139 8105 821 318 3246 147 3441 2700 154 353 2546 2338 436
internal_count=68776 33166 35610 5784 29826 5141 26643 3183 26106 31413 19786 4472 2931 24133 8251 1973 100 3628 15314 11627 1873 15882 3866 1753 382 1433 2416 736 537 8940 835 4262 1289 2269 4191 12016 900 1750 6374 168 6206 2286 303 1624 1520 699 1961 1355 1198 1139 8105 821 318 3246 147 3441 2700 154 353 2546 2338 436
is_linear=0
shrinkage=0.05


Tree=6
num_leaves=63
num_cat=0
split_feature=0 0 0 0 0 25 0 13 0 11 0 11 11 18 2 30 0 2 0 0 2 11 0 0 0 60 0 2 11 2 48 2 34 0 48 14 2 2 41 11 11 11 11 2 5 0 0 19 19 11 2 2 0 0 11 2 2 11 2 11 11 5
split_gain=39150.2 455.908 432.971 219.022 252.418 144.087 177.523 106.396 93.7333 89.7416 82.2171 167.949 81.9773 98.8819 72.8555 72.1523 65.3088 80.9955 60.5236 135.216 56.9273 56.7018 55.3773 53.6771 51.0266 47.1776 45.6594 48.4419 43.7522 41.9998 39.1091 38.7063 36.9673 36.7824 32.5368 33.2333 31.1258 30.9191 29.8796 29.6254 28.6161 34.932 75.2553 26.6463 31.4118 26.5548 56.7308 77.8107 25.8289 38.6275 25.357 24.6698 28.8181 23.9927 25.7665 23.3116 22.9752 21.0002 20.9913 19.6813 19.1418 26.093
threshold=102616.60421180549 103497.6606700027 100305.96317998029 93961.455282881725 67323.607682970018 1.0000000180025095e-35 102099.49743985389 1.0000000180025095e-35 100513.39353098089 6.4869595259951609 131515.98062255932 5.303255401883141 4.2835627800822236 1.0000000180025095e-35 150841.31135037375 1.0000000180025095e-35 103013.23169066118 122092.29914840583 89478.294061633016 88879.475746652693 129388.74063310129 4.2696729980286863 98641.341047047914 144076.41212584169 108737.80484612494 1.0000000180025095e-35 108305.88114161261 85995.152268101665 4.3107766033702406 119648.26290638119 1.0000000180025095e-35 88764.363439973007 1.0000000180025095e-35 113469.43555242587 1.0000000180025095e-35 1.0000000180025095e-35 120159.4023052578 115249.3063893056 1.0000000180025095e-35 6.613092254408989 5.0845003501084243 4.3882378946731615 4.3372693810700085 87205.580034532351 93447.721255070806 97779.461930578938 97957.171967510731 1.0000000180025095e-35 1.0000000180025095e-35 5.5510027530895512 128254.61053547778 108084.35618516071 104193.16332621856 102232.30956831416 3.2769667020129059 90887.123085509011 125982.05761221919 2.740319461670996 94486.570316512385 8.254677770502779 5.0466405620843924 89659.307348389455
decision_type=2 2 2 2 2 2 2 2 2 2 2 2 2 2 2 2 2 2 2 2 2 2 2 2 2 2 2 2 2 2 2 2 2 2 2 2 2 2 2 2 2 2 2 2 2 2 2 2 2 2 2 2 2 2 2 2 2 2 2 2 2 2
left_child=2 16 3 4 -1 6 20 10 -7 14 26 23 45 22 18 29 -2 -18 19 25 57 -22 -14 31 59 43 51 33 -24 -15 -10 -12 -30 -28 35 38 -32 -11 -20 53 41 42 -33 -6 -45 -5 47 -47 -46 -50 -29 -3 -53 54 -8 -21 -54 -4 -57 -9 61 -55
right_child=1 7 5 12 9 8 39 24 30 37 11 -13 13 15 -16 -17 17 -19 34 55 21 -23 28 -25 -26 -27 27 50 32 -31 36 40 -34 -35 -36 -37 -38 -39 -40 -41 -42 -43 -44 44 48 46 -48 -49 49 -51 -52 52 56 60 -56 58 -58 -59 -60 -61 -62 -63
leaf_value=-1919.076873254071 5.4639100782042078 647.01587533272073 -311.425249410687 -1886.628363069809 -1445.9468927853211 278.96608957293068 11.553150260269469 665.21121706135898 -358.00078324857753 -526.28449044157094 447.9740009739624 2391.3991969594204 -1644.7418396323092 -751.44710903855344 353.14625493572095 338.38996467932378 95.614870244925271 -18.063869896371763 -2139.4332020299298 -553.1463139057189 -305.15037336549068 119.7644105501866 461.79449233247726 4096.0510657595532 2970.8517302589412 -390.76921859440301 2088.9394715381109 2135.696647415552 -683.1966193478213 -169.49324891318247 -167.91433343113678 1240.7218151787042 110.82852936372693 1308.8165405238954 -390.90702399046279 -856.58898188838657 307.81630258863811 82.792848580709688 -451.68542556181274 -115.22176966221669 -49.35060734732761 2173.0685913912635 -863.6099535401795 -907.84985176969644 -1157.8498517696964 -1311.089300569809 -883.95067183646904 -255.59856675505 -660.44110250822166 -957.84985176969644 2833.2695129659669 189.03642938399062 648.48894943440541 5.6516475027314304 -24.303757354415577 225.31498764233984 655.42083148384336 -279.14968502405975 -458.04053472559463 290.44568484096675 -7.748439584091102 -46.187817513168561
leaf_weight=3566 1017 4274 1833 7600 1448 538 289 3312 191 374 481 1710 2272 216 120 61 793 188 1709 312 262 183 55 231 8186 152 331 5422 861 215 60 1638 48 436 202 152 43 229 101 87 95 262 55 1104 1996 351 5025 205 368 130 2135 403 1169 114 143 183 971 2014 278 57 180 340
leaf_count=3566 1017 4274 1833 7600 1448 538 289 3312 191 374 481 1710 2272 216 120 61 793 188 1709 312 262 183 55 231 8186 152 331 5422 861 215 60 1638 48 436 202 152 43 229 101 87 95 262 55 1104 1996 351 5025 205 368 130 2135 403 1169 114 143 183 971 2014 278 57 180 340
internal_value=-0.000420205 0.0386691 -0.0368267 -0.0393772 -0.0343368 -0.0249084 -0.0278696 0.0401534 -0.00552885 -0.0298149 0.0379111 0.0319544 -0.0430806 -0.0365343 -0.031175 -0.0156504 0.0155155 0.0247197 -0.0317455 -0.0291492 -0.0325489 -0.015618 -0.0397095 0.0243302 0.0439593 -0.0320508 0.0396704 0.0421552 -0.029668 -0.0228538 -0.0282313 0.0222244 -0.0322882 0.0301825 -0.0389094 -0.0408767 -0.00339806 -0.011194 -0.0427624 -0.010451 0.0252195 0.0265217 0.0238925 -0.0328775 -0.0305725 -0.0449321 -0.0423132 -0.0271583 -0.0336808 -0.023494 0.0433704 0.0366364 0.0327369 -0.00816135 0.000925926 -0.00963777 0.0350467 -0.0345074 -0.00249458 0.0387801 -0.0143533 -0.0198238
internal_weight=68776 33166 35610 29333 12424 6277 5445 31168 832 8858 19613 4472 16909 3728 8255 492 1998 981 8135 5971 4292 445 3236 2762 11555 5198 15141 8324 964 431 294 2531 909 767 2164 1962 103 603 1810 1153 2050 1955 1693 5046 3598 13181 5581 556 2494 498 7557 6817 2543 1066 432 773 2140 3847 461 3369 634 454
internal_count=68776 33166 35610 29333 12424 6277 5445 31168 832 8858 19613 4472 16909 3728 8255 492 1998 981 8135 5971 4292 445 3236 2762 11555 5198 15141 8324 964 431 294 2531 909 767 2164 1962 103 603 1810 1153 2050 1955 1693 5046 3598 13181 5581 556 2494 498 7557 6817 2543 1066 432 773 2140 3847 461 3369 634 454
is_linear=0
shrinkage=0.05


Tree=7
num_leaves=63
num_cat=0
split_feature=0 1 0 0 0 1 0 25 1 0 0 10 0 0 10 4 0 1 0 0 4 13 20 10 10 10 1 0 10 0 0 0 4 0 1 10 2 2 2 17 32 15 0 1 4 0 1 0 0 0 0 1 0 1 23 0 18 30 0 0 0 0
split_gain=37760.7 480.335 455.289 175.758 165.603 151.783 138.307 131.122 130.593 134.783 129.36 92.1331 88.4374 141.166 158.108 82.0751 74.0268 105.767 72.8991 68.122 66.7561 56.457 65.5074 75.2207 56.181 54.9339 45.8779 44.2948 42.8242 40.7063 61.101 40.082 40.0114 38.5347 77.0434 74.7012 44.5658 46.7127 37.998 36.4058 71.4256 36.1456 35.8487 35.7012 34.5882 32.9831 32.5955 31.7214 30.5097 29.121 29.3298 28.833 26.9212 25.0094 23.5149 23.0418 23.0393 22.9308 21.6235 21.5527 20.048 19.6879
threshold=102616.60421180549 101067.97193792609 103497.6606700027 102004.44398023339 100408.2863391007 134132.23160007727 90400.94395885487 1.0000000180025095e-35 136921.17755745465 104103.39173161997 67323.607682970018 14.500000000000002 147213.06021429782 131515.98062255932 358.00000000000006 2.5000000000000004 103013.23169066118 128529.03794317236 100513.39353098089 102004.44398023339 2.5000000000000004 1.0000000180025095e-35 1.0000000180025095e-35 77.500000000000014 687.50000000000011 29.500000000000004 103199.24310196321 91288.731194656328 2377.0000000000005 100042.95215176734 100513.39353098089 100305.96317998029 2.5000000000000004 108443.16249616724 113565.27472380589 70.500000000000014 113714.818218805 115406.17505964484 85995.152268101665 1.0000000180025095e-35 1.0000000180025095e-35 1.0000000180025095e-35 100507.43252796521 150889.90881152093 2.5000000000000004 104193.16332621856 127828.16665947549 89478.294061633016 98753.197254084895 88879.475746652693 82370.763612128168 104039.3712927788 113469.43555242587 127828.16665947549 1.0000000180025095e-35 73490.035742926106 1.0000000180025095e-35 1.0000000180025095e-35 94710.329563931882 93961.455282881725 132054.61749620127 108136.30259744567
decision_type=2 2 2 2 2 2 2 2 2 2 2 2 2 2 2 2 2 2 2 2 2 2 2 2 2 2 2 2 2 2 2 2 2 2 2 2 2 2 2 2 2 2 2 2 2 2 2 2 2 2 2 2 2 2 2 2 2 2 2 2 2 2
left_child=1 4 16 5 15 6 10 25 12 -10 -3 59 13 33 21 28 26 -18 42 -20 24 22 51 -24 49 44 -2 55 39 -9 -31 43 -5 34 -4 45 -37 -38 52 -1 47 -29 -6 -13 -8 46 -36 -41 -27 50 -12 -15 -35 54 57 -17 61 -50 -46 -7 -23 -39
right_child=2 3 8 32 18 11 7 29 9 -11 20 31 -14 14 -16 27 17 -19 19 -21 -22 60 23 -25 -26 48 -28 41 -30 30 -32 -33 -34 38 35 36 37 56 -40 40 -42 -43 -44 -45 58 -47 -48 -49 53 -51 -52 -53 -54 -55 -56 -57 -58 -59 -60 -61 -62 -63
leaf_value=-1528.2969449163184 -1.7350666757061846 -1689.6857161764503 631.95065620829121 -21.80274172289792 -491.19050106341456 -1018.2519065513279 -1108.7981034757265 -1062.3086717408885 -23.312009343266254 2883.2525749104971 -934.97942193755955 -543.57865013660739 3648.441731992667 763.8253009252644 1730.6151773520733 -1673.6030972066751 90.834126732678854 -50.675583298748101 -294.56212365890241 -41.596061436553647 -49.292519769175129 1183.9904595081396 1566.2656685797954 -385.07839223021767 68.908778163085671 -1242.6538403369298 22.805532553907689 -1272.1829177856607 -716.20448142416501 418.09798285994043 -389.46183252535775 222.75377729598188 13.899528654237656 1980.033511036155 151.97096972109867 554.52644321866615 -287.96262665316027 373.8485485493577 2065.1652178523918 -821.10374313285138 176.53687269535732 -427.29650919691562 -119.02280868012895 60.063058015993015 -126.5321849272259 714.39186635978558 -47.798536396299461 -1274.5169315755775 -413.19817909503109 -452.5440647612777 -1041.6883860488874 1354.0276458964036 1306.3404698061106 -216.45320784164323 -135.20446576263203 -624.66693132643707 -22.094409682273909 -12.58418088397084 -702.30957980776657 -988.83373435219187 2512.2080161346657 -62.225465210407492
leaf_weight=15519 565 830 6770 695 132 160 3799 132 124 5777 1126 724 1466 1061 1263 171 839 142 1732 700 494 128 58 108 181 1456 452 1018 227 261 76 252 118 405 138 389 83 459 9688 603 47 88 319 265 59 873 55 639 1189 238 411 1125 506 164 118 504 132 60 720 383 506 54
leaf_count=15519 565 830 6770 695 132 160 3799 132 124 5777 1126 724 1466 1061 1263 171 839 142 1732 700 494 128 58 108 181 1456 452 1018 227 261 76 252 118 405 138 389 83 459 9688 603 47 88 319 265 59 873 55 639 1189 238 411 1125 506 164 118 504 132 60 720 383 506 54
internal_value=-0.00063685 -0.0363915 0.0377525 -0.0291388 -0.0410411 -0.030539 -0.0326763 -0.0362086 0.0392358 0.0459329 -0.0240244 -0.0169843 0.0376717 0.0369375 0.0286773 -0.0427509 0.0146146 0.0244139 -0.0298821 -0.0333059 -0.0182449 0.0224046 0.018835 -0.0114458 -0.0223926 -0.0377991 0.00516224 -0.0325379 -0.0438186 -0.0105544 -0.00133531 -0.00946817 -0.00658057 0.0387326 0.0363174 0.0281493 0.0191137 0.0118132 0.0407727 -0.0441099 -0.0360357 -0.038698 -0.0114191 -0.014004 -0.0412407 0.0376173 0.0189119 -0.0383253 -0.0325243 -0.0250986 -0.0276187 0.0211345 0.0310099 -0.0275963 -0.0298098 -0.0224444 0.0163566 -0.0318255 -0.0316431 -0.0341621 0.0356467 0.0211501
internal_weight=68776 35610 33166 13911 21699 13098 11314 8034 31168 5901 3280 1784 25267 23801 4249 18816 1998 981 2883 2432 2450 2986 2352 166 1956 7565 1017 1781 17035 469 337 1241 813 19552 8953 2183 1117 728 10599 16808 1289 1106 451 989 4578 1066 193 1242 2987 1775 1537 2186 911 1531 1367 675 645 1249 779 543 634 513
internal_count=68776 35610 33166 13911 21699 13098 11314 8034 31168 5901 3280 1784 25267 23801 4249 18816 1998 981 2883 2432 2450 2986 2352 166 1956 7565 1017 1781 17035 469 337 1241 813 19552 8953 2183 1117 728 10599 16808 1289 1106 451 989 4578 1066 193 1242 2987 1775 1537 2186 911 1531 1367 675 645 1249 779 543 634 513
is_linear=0
shrinkage=0.05


Tree=8
num_leaves=63
num_cat=0
split_feature=0 1 0 0 1 0 0 1 0 25 0 10 1 0 0 10 0 0 1 0 0 10 0 0 10 15 0 1 1 0 0 0 28 15 1 0 10 10 10 10 0 1 49 0 0 10 15 0 0 0 48 0 43 0 10 0 1 16 10 52 48 5
split_gain=35914.2 508.015 425.152 219.759 197.227 234.51 172.618 155.07 153.081 169.023 136.802 117.476 98.1555 93.7163 159.635 159.063 68.6641 79.8815 63.7746 51.2906 135.466 49.9497 48.7743 53.9452 46.7904 42.5788 41.5082 41.494 37.7657 34.0176 33.5776 32.5183 32.2468 31.414 30.7604 29.8966 49.9674 56.7778 29.3142 46.0909 43.1989 53.8658 38.9902 33.6701 186.201 28.2482 36.618 27.6439 47.8433 42.8417 37.3351 27.1787 27.0509 26.3741 25.4004 25.1845 35.1275 29.3529 37.7081 24.6839 24.4448 23.9305
threshold=102616.60421180549 100791.89079065977 104578.23911175792 101699.8249187293 125537.10183787522 103013.23169066118 100408.2863391007 129768.19404313319 93961.455282881725 1.0000000180025095e-35 67323.607682970018 29.500000000000004 138203.06557224834 147213.06021429782 131515.98062255932 266.00000000000006 100513.39353098089 101903.26523665013 150889.90881152093 91288.731194656328 73490.035742926106 3854.5000000000005 100042.95215176734 100513.39353098089 656.00000000000011 1.0000000180025095e-35 112378.98732242887 103199.24310196321 99421.456441558621 102920.17160437304 100507.43252796521 106029.15718561578 1.0000000180025095e-35 1.0000000180025095e-35 114595.29729388565 98641.341047047914 72.500000000000014 92.000000000000014 133.50000000000003 710.00000000000011 114203.73971134431 111003.28115732009 1.0000000180025095e-35 118371.46239321484 118516.4277019099 209.00000000000003 1.0000000180025095e-35 89478.294061633016 88879.475746652693 82370.763612128168 1.0000000180025095e-35 98329.049482542861 1.0000000180025095e-35 108443.16249616724 159.50000000000003 104461.88426253326 113319.74876953656 1.0000000180025095e-35 289.50000000000006 1.0000000180025095e-35 1.0000000180025095e-35 89659.307348389455
decision_type=2 2 2 2 2 2 2 2 2 2 2 2 2 2 2 2 2 2 2 2 2 2 2 2 2 2 2 2 2 2 2 2 2 2 2 2 2 2 2 2 2 2 2 2 2 2 2 2 2 2 2 2 2 2 2 2 2 2 2 2 2 2
left_child=1 6 4 8 5 27 19 13 10 11 -3 -10 51 14 21 28 30 -18 24 20 -1 32 -11 -24 45 -22 -23 -2 54 -6 -8 -9 38 35 -28 -21 -37 -38 43 40 41 -40 53 -4 -45 47 -47 48 49 50 -12 -13 -26 -43 -16 56 -7 -57 -59 -42 -14 -53
right_child=2 3 7 -5 29 55 16 31 9 22 18 12 60 -15 15 -17 17 -19 -20 33 25 26 23 -25 52 -27 34 -29 -30 -31 -32 -33 -34 -35 -36 36 37 -39 39 -41 59 42 -44 44 -46 46 -48 -49 -50 -51 -52 61 -54 -55 -56 57 -58 58 -60 -61 -62 -63
leaf_value=-1746.7081823455512 -1.6483133419205842 -1599.0843558574227 1256.5134252989074 -21.124469106392645 33.489669988712556 156.10223297714512 -467.86769476024347 291.08783060549905 -1008.3015576769402 -951.24683627171623 -731.49001211997756 -1368.7511884383509 -461.23074401573763 3416.3730532669028 671.40907171270305 1630.0402395393585 -293.62962587439472 -30.70516542185069 374.15181466769354 -1641.0377617330023 -1023.5425119353954 -47.899776509213552 450.72135628093821 -382.99443694685033 54.777803653767478 174.30159213308434 56.310904331401254 19.706759832462559 1201.1964340606087 -36.875058425146925 -84.790408153968755 2765.9434864363666 915.03657529741758 -880.97530401733457 840.2540985613341 -608.57377189637771 79.584638435589298 -572.62194113461453 909.05940078612082 1237.494849237909 1996.9877350255401 188.83305608162811 1159.0267805998592 -416.06830280585348 4168.2425243955868 -1103.7458477077307 228.61805928578033 -1180.6133103817403 24.513864248681784 -954.38093010458726 619.08636828804163 -607.18565059131504 -695.24903034158638 1103.5023105814014 -263.22978968523967 443.20805949602328 109.9195741372132 -266.06450190790713 1762.9643410018857 43.648365268901401 191.27500092959599 -403.86150405751471
leaf_weight=3089 565 970 8552 1247 108 2326 130 426 4641 140 1463 1013 345 1332 672 1245 1588 791 177 8584 3432 126 309 73 277 63 83 304 1950 560 313 7029 602 1100 279 1824 104 410 1232 919 1570 412 203 213 1076 439 40 604 320 360 58 226 47 507 48 178 418 146 40 45 148 1285
leaf_count=3089 565 970 8552 1247 108 2326 130 426 4641 140 1463 1013 345 1332 672 1245 1588 791 177 8584 3432 126 309 73 277 63 83 304 1950 560 313 7029 602 1100 279 1824 104 410 1232 919 1570 412 203 213 1076 439 40 604 320 360 58 226 47 507 48 178 418 146 40 45 148 1285
internal_value=-0.000817146 -0.0356866 0.0366218 -0.0283458 0.0225942 0.0268167 -0.0405451 0.0389064 -0.0302783 -0.0344254 -0.0231441 -0.0363019 -0.0286211 0.0367132 0.0358468 0.0268072 -0.029022 -0.0323876 -0.0188507 -0.0422928 -0.0387454 0.0380839 -0.00689655 0.00235602 -0.0202882 -0.0320029 0.0223361 0.00385501 0.0199251 -0.00254491 -0.0109481 0.045104 0.0385852 -0.0442356 0.0309392 -0.0450467 -0.0400342 -0.0262646 0.0390488 0.0358838 0.0335475 0.0292268 0.0213012 0.0406209 0.0330877 -0.0220767 -0.0332985 -0.0201604 -0.0175602 -0.0206007 -0.0169297 -0.032607 -0.00216049 0.0169206 0.0101389 0.0332368 0.0348761 0.0208791 0.00698925 0.0398452 -0.00821501 -0.0283587
internal_weight=68776 35610 33166 14182 4645 3977 21428 28521 12935 8180 4755 7658 3017 21066 19734 3915 2822 2379 3785 18606 6584 15819 522 382 3608 3495 488 869 2670 668 443 7455 15331 12022 362 10922 2338 514 14729 4888 3969 2354 1122 9841 1289 3284 479 2805 2201 1881 1521 2524 324 919 720 3108 2744 364 186 1615 493 1511
internal_count=68776 35610 33166 14182 4645 3977 21428 28521 12935 8180 4755 7658 3017 21066 19734 3915 2822 2379 3785 18606 6584 15819 522 382 3608 3495 488 869 2670 668 443 7455 15331 12022 362 10922 2338 514 14729 4888 3969 2354 1122 9841 1289 3284 479 2805 2201 1881 1521 2524 324 919 720 3108 2744 364 186 1615 493 1511
is_linear=0
shrinkage=0.05


Tree=9
num_leaves=63
num_cat=0
split_feature=0 1 0 0 0 0 25 0 0 0 10 10 1 0 1 2 4 4 0 0 0 1 10 2 0 51 1 0 0 10 0 0 2 0 1 1 0 10 0 0 2 10 2 4 0 0 10 1 1 1 1 13 2 1 10 0 0 17 10 10 5 0
split_gain=34510 521.763 406.569 217.752 170.43 149.204 161.867 144.232 138.169 123.603 124.597 117.779 95.6577 94.3659 182.907 114.74 80.115 68.7039 68.3253 79.8972 67.0866 96.3116 63.1353 56.2263 54.3879 49.0042 40.7129 40.239 140.883 57.4071 47.3965 163.062 42.7387 80.1636 73.3575 117.759 41.3538 41.0346 40.1975 52.4939 36.7987 36.2563 35.1722 34.9726 31.19 30.247 29.0277 28.1892 47.1535 27.6429 27.3282 26.8706 27.2712 26.4403 26.3022 26.1543 23.9368 23.6369 27.6775 23.4231 32.2183 22.3964
threshold=102616.60421180549 100791.89079065977 103497.6606700027 101699.8249187293 100408.2863391007 93579.624071741026 1.0000000180025095e-35 67323.607682970018 144076.41212584169 140353.8008495761 427.00000000000006 70.500000000000014 139440.31641565191 104821.33094369735 125537.10183787522 128254.61053547778 2.5000000000000004 2.5000000000000004 100513.39353098089 101903.26523665013 103013.23169066118 128529.03794317236 656.00000000000011 150841.31135037375 93961.455282881725 1.0000000180025095e-35 103199.24310196321 131515.98062255932 132711.94189219497 124.50000000000001 118371.46239321484 118516.4277019099 113714.818218805 117559.99442526359 112288.07660883029 117863.86317269433 108443.16249616724 2377.0000000000005 100042.95215176734 100513.39353098089 131879.08941889499 2377.0000000000005 124460.47219062845 1.5000000000000002 99729.374312061031 100507.43252796521 3854.5000000000005 114029.3783969686 115356.68885942594 140461.64526732583 117871.61981514523 1.0000000180025095e-35 120159.4023052578 99421.456441558621 325.50000000000006 93812.022667112673 108443.16249616724 1.0000000180025095e-35 172.50000000000003 14.500000000000002 89659.307348389455 123812.38736480458
decision_type=2 2 2 2 2 2 2 2 2 2 2 2 2 2 2 2 2 2 2 2 2 2 2 2 2 2 2 2 2 2 2 2 2 2 2 2 2 2 2 2 2 2 2 2 2 2 2 2 2 2 2 2 2 2 2 2 2 2 2 2 2 2
left_child=1 4 20 5 16 7 11 -3 9 13 40 44 -13 14 -4 27 25 22 45 -20 26 -22 23 -9 -18 41 -2 29 37 30 -15 -32 46 34 -34 47 42 57 -8 -40 53 -1 -37 49 -7 -6 54 -36 -49 -5 -48 52 -16 -11 -31 -27 -17 58 -29 -46 -61 -33
right_child=2 3 8 43 18 6 38 17 -10 10 -12 12 -14 15 51 56 24 -19 19 -21 21 -23 -24 -25 -26 55 -28 28 -30 32 31 61 33 -35 35 36 -38 -39 39 -41 -42 -43 -44 -45 59 -47 50 48 -50 -51 -52 -53 -54 -55 -56 -57 -58 -59 -60 60 -62 -63
leaf_value=-1370.159801444674 -1.5658976748243731 -1519.1301380645514 259.68046273984436 -30.618295243933247 -444.47431002223169 -1238.2225813704099 -896.24573362236629 -856.62437395281893 3649.8287240309505 332.06358229336621 1744.4297156741261 -515.91269329955321 -27.968736465668918 1228.9577790324722 78.653774928983339 567.37309624695445 -762.18073019974986 -61.714151668247361 -278.94814458067486 -29.169907150758082 78.487308747187498 -46.298051212552679 -0.072892510365636556 580.16727973850072 -1081.7149523730602 -557.35583682998993 20.679917934589323 755.96547398475377 2154.8921490787534 983.36902999675374 -403.29809079056071 4808.3050281116221 1240.1554272838257 1419.7837832051243 -300.72403552242321 437.34990775731933 1174.7569367847298 1628.9476860133536 428.18528846689151 -363.84471509950822 2784.6245066776896 -687.07273863226226 -66.071509190100187 14.260775676845515 -326.05384400146431 -80.550887746270021 -137.63157040329426 405.24003320512423 -237.53512246813773 294.5718480006712 1119.6113619068624 -89.892335626209757 -16.507630613685617 1096.5426842020388 1273.7424118695062 -964.16023822072532 2779.5351434113772 1819.6451905952702 -104.65893009330904 -371.80255808550504 -279.49493728719534 1885.8331906329652
leaf_weight=15954 565 970 2688 926 130 4089 144 2585 2253 392 662 1709 339 8173 101 1214 756 580 1588 791 839 142 333 101 1000 416 452 797 696 1281 205 621 283 798 93 245 575 154 309 73 299 168 119 200 1109 313 48 105 153 121 65 118 218 1364 2127 312 4486 71 139 171 423 625
leaf_count=15954 565 970 2688 926 130 4089 144 2585 2253 392 662 1709 339 8173 101 1214 756 580 1588 791 839 142 333 101 1000 416 452 797 696 1281 205 621 283 798 93 245 575 154 309 73 299 168 119 200 1109 313 48 105 153 121 65 118 218 1364 2127 312 4486 71 139 171 423 625
internal_value=-0.000870943 -0.035052 0.0358289 -0.0276125 -0.0399757 -0.0295361 -0.0335047 -0.0222696 0.0372305 0.0363012 0.0261502 -0.0353061 -0.025 0.037354 0.0292 0.0384584 -0.0417124 -0.0176577 -0.0285259 -0.0318831 0.013964 0.0232926 -0.0206857 -0.0232316 -0.031549 -0.0427715 0.00496559 0.0364387 0.029483 0.0372712 0.0396509 0.0313232 0.0333842 0.0281949 0.0216465 0.0165891 0.0258253 0.01882 -0.00665399 0.00183246 0.020073 -0.0433445 0.0126374 -0.00765838 -0.0389503 -0.0104966 0.0368787 -0.00811966 0.000387597 -0.0113181 0.0119469 -0.000800915 0.00673981 0.0173121 0.0377054 -0.0300824 0.044614 0.015144 0.0130342 -0.0332648 -0.0252525 0.038122
internal_weight=68776 35610 33166 14182 21428 12935 8366 4569 31168 28915 2717 7840 2048 26198 3125 23073 18606 3599 2822 2379 1998 981 3019 2686 1756 16850 1017 17373 1857 15516 9624 1451 5892 2371 1573 1290 939 1161 526 382 2055 16122 364 1247 5792 443 3521 351 258 1047 113 437 319 1756 3408 728 5700 1007 936 1703 594 1246
internal_count=68776 35610 33166 14182 21428 12935 8366 4569 31168 28915 2717 7840 2048 26198 3125 23073 18606 3599 2822 2379 1998 981 3019 2686 1756 16850 1017 17373 1857 15516 9624 1451 5892 2371 1573 1290 939 1161 526 382 2055 16122 364 1247 5792 443 3521 351 258 1047 113 437 319 1756 3408 728 5700 1007 936 1703 594 1246
is_linear=0
shrinkage=0.05


Tree=10
num_leaves=63
num_cat=0
split_feature=1 15 15 48 48 4 4 10 10 4 26 48 13 10 4 1 1 10 1 16 51 4 10 5 5 4 14 1 10 5 26 62 10 10 1 2 13 10 16 2 13 5 4 14 64 10 62 59 2 4 10 33 21 1 16 39 2 13 6 13 16 10
split_gain=7400.29 2370.25 2030.39 881.954 665.191 438.448 428.734 380.261 363.277 357.52 219.512 216.872 192.823 187.719 184.043 179.465 152.264 159.261 122.961 118.889 116.631 116.32 104.282 92.6866 90.3574 117.769 93.7415 74.2136 73.6097 72.2399 63.1025 62.2819 59.4839 73.012 58.6931 57.5351 51.8664 51.7691 51.4016 51.3839 51.0486 50.4822 77.1123 59.4466 49.8724 46.1564 44.9763 41.1928 40.5925 39.8936 38.404 38.3907 37.662 36.9591 42.3162 36.7021 36.2382 36.227 35.7981 35.3308 39.7192 35.2785
threshold=101419.33350541764 1.0000000180025095e-35 1.0000000180025095e-35 1.0000000180025095e-35 1.0000000180025095e-35 2.5000000000000004 3.5000000000000004 32.500000000000007 2377.0000000000005 2.5000000000000004 1.0000000180025095e-35 1.0000000180025095e-35 1.0000000180025095e-35 345.50000000000006 -1.0000000180025095e-35 99062.932182216624 142300.23447314661 2377.0000000000005 139440.31641565191 1.0000000180025095e-35 1.0000000180025095e-35 3.5000000000000004 2.5000000000000004 93447.721255070806 105831.60128504939 2.5000000000000004 1.0000000180025095e-35 144438.06370092215 744.00000000000011 89659.307348389455 1.0000000180025095e-35 1.0000000180025095e-35 469.00000000000006 50.500000000000007 132531.4509956445 74000.719384383177 1.0000000180025095e-35 19.500000000000004 1.0000000180025095e-35 100309.3101437828 1.0000000180025095e-35 93447.721255070806 2.5000000000000004 1.0000000180025095e-35 1.0000000180025095e-35 206.00000000000003 1.0000000180025095e-35 1.0000000180025095e-35 76997.356962032587 -1.0000000180025095e-35 15.500000000000002 1.0000000180025095e-35 1.0000000180025095e-35 132531.4509956445 1.0000000180025095e-35 1.0000000180025095e-35 117021.02163702938 1.0000000180025095e-35 -1.0000000180025095e-35 1.0000000180025095e-35 1.0000000180025095e-35 574.50000000000011
decision_type=2 2 2 2 2 2 2 2 2 2 2 2 2 2 2 2 2 2 2 2 2 2 2 2 2 2 2 2 2 2 2 2 2 2 2 2 2 2 2 2 2 2 2 2 2 2 2 2 2 2 2 2 2 2 2 2 2 2 2 2 2 2
left_child=2 3 4 6 5 8 7 9 15 14 16 24 18 27 22 19 17 28 -5 20 30 29 51 -6 25 57 37 41 31 44 39 35 33 -21 61 -9 38 -26 55 -1 45 42 49 -43 -7 -25 47 53 -11 -3 -22 -2 -16 54 -24 -37 -15 -4 -38 60 -17 -14
right_child=1 13 11 12 23 21 -8 10 -10 48 -12 -13 34 56 52 59 -18 -19 -20 32 50 -23 46 40 26 -27 -28 -29 -30 -31 -32 -33 -34 -35 -36 36 58 -39 -40 -41 -42 43 -44 -45 -46 -47 -48 -49 -50 -51 -52 -53 -54 -55 -56 -57 -58 -59 -60 -61 -62 -63
leaf_value=-1265.8845241991178 -455.69359417569831 353.86057958143795 -645.04942060695612 136.73237088650896 -1508.8766335741182 -374.05933568290567 2337.6333967432033 -845.13450015059357 122.48169330982783 -388.20633283476093 -1352.038206008446 688.03032603076906 742.5913527368765 1295.7956804253017 -1043.6349210370724 -715.56537910056943 937.84070605070963 609.2462360187991 938.40901091063211 -846.83174005349292 -721.67306022678281 811.93351180204047 -177.42483573224126 -138.27326116387778 -137.2984558465476 328.93351180204047 945.51334362274247 2746.6030748058874 -886.33048320473029 259.85104758432209 -1814.4647831560396 -681.29157966430364 -1760.4711331697665 -365.40600532053725 2523.880910814114 -6.641914888887186 -573.71776374589251 294.12340045290915 299.27906306290828 -876.68197756361189 558.99759955542356 595.52227243045206 958.52077333280181 1285.4202692741637 -1955.0168752202744 416.50524489628447 -1100.3218143040747 -1251.9690052254055 233.40555815869448 -249.58160468653514 -70.036729680590369 -1335.1363243051071 66.091298333564922 373.13602369444419 220.16859017417266 -1382.9381210318859 2342.53670645292 145.68812495739914 432.91064743086611 -276.80961969828496 -309.07621338065002 1580.9346910300749
leaf_weight=8246 2456 381 768 2252 198 2405 593 153 669 186 442 2190 1331 2010 1651 1735 1085 838 795 1949 408 321 1912 666 639 450 528 1039 213 300 1198 98 316 1162 960 2964 115 517 1260 3173 696 1953 615 3593 170 249 100 73 2305 264 342 157 94 556 544 76 2727 101 1596 842 709 514
leaf_count=8246 2456 381 768 2252 198 2405 593 153 669 186 442 2190 1331 2010 1651 1735 1085 838 795 1949 408 321 1912 666 639 450 528 1039 213 300 1198 98 316 1162 960 2964 115 517 1260 3173 696 1953 615 3593 170 249 100 73 2305 264 342 157 94 556 544 76 2727 101 1596 842 709 514
internal_value=-0.000838078 0.0139746 -0.0189792 0.00516016 -0.0247301 -0.0269388 4.36636e-05 -0.00127159 -0.0295942 -0.00793303 0.00628959 0.00954169 0.0221805 0.031712 -0.0133568 -0.0308018 0.00809717 0.0055039 0.0134723 -0.0328927 -0.0350228 -0.00969962 -0.00907209 0.00450525 0.000815851 -0.00898408 0.00849169 0.0269662 0.00284942 -0.012887 -0.0361615 0.00383264 -0.0245842 -0.0224847 0.0316399 0.00446139 0.00523207 0.000519031 0.00230233 -0.0350162 0.008473 0.0250661 0.0160317 0.0271186 -0.0155922 0.000710383 -0.00299843 -0.00192869 0.00849057 0.00395349 -0.0158667 -0.0164753 -0.0275931 -0.00102922 -0.0036645 -0.00121711 0.0395715 -0.0197353 0.012595 -0.0201156 -0.0231588 0.0264228
internal_weight=68848 37901 30947 25319 25754 23945 19467 18874 20749 10034 8840 5193 5852 12582 7543 20080 8398 7313 3047 16794 13367 3196 5798 1809 3003 1319 1684 7845 6475 2875 12617 6262 3427 3111 2805 6164 6011 1156 4300 11419 1611 6806 1260 5546 2575 915 3185 3085 2491 645 750 2613 1745 3012 2456 3040 4737 869 1711 3286 2444 1845
internal_count=68848 37901 30947 25319 25754 23945 19467 18874 20749 10034 8840 5193 5852 12582 7543 20080 8398 7313 3047 16794 13367 3196 5798 1809 3003 1319 1684 7845 6475 2875 12617 6262 3427 3111 2805 6164 6011 1156 4300 11419 1611 6806 1260 5546 2575 915 3185 3085 2491 645 750 2613 1745 3012 2456 3040 4737 869 1711 3286 2444 1845
is_linear=0
shrinkage=0.05


Tree=11
num_leaves=63
num_cat=0
split_feature=0 0 0 1 0 1 0 0 0 12 12 4 1 0 1 4 0 51 0 0 0 0 0 0 12 0 1 38 1 12 58 48 0 1 0 0 50 48 0 6 48 30 1 12 1 0 0 0 0 0 0 0 0 30 14 51 20 49 0 20 12 24
split_gain=32414.2 618.627 412.153 355.019 182.626 164.412 152.808 147.449 136.976 117.19 114.329 109.852 86.8108 108.602 82.2888 65.5079 63.9506 55.1246 63.412 62.49 79.1304 54.4308 47.4579 124.406 61.7556 79.8823 166.04 48.6314 46.2931 44.7645 40.6651 39.4954 39.4753 64.5219 52.5233 91.8148 41.4206 39.3349 39.3037 38.8377 38.6489 38.5826 37.5328 37.0859 36.923 36.756 34.2809 33.5741 32.0228 119.683 31.7702 30.6633 93.4331 30.571 31.6593 30.5656 29.1883 29.2936 28.6301 28.0834 49.3654 27.7501
threshold=102616.60421180549 101699.8249187293 103754.17195202778 100451.65790919028 93579.624071741026 113319.74876953656 144076.41212584169 61007.877901084546 140353.8008495761 121098.58476618232 103602.13565864976 2.5000000000000004 150828.27721928104 105123.21395899537 139440.31641565191 2.5000000000000004 99630.426319697799 1.0000000180025095e-35 98641.341047047914 93961.455282881725 73490.035742926106 103128.51146992441 132711.94189219497 131515.98062255932 103602.13565864976 108737.80484612494 109711.63055079339 1.0000000180025095e-35 132531.4509956445 103602.13565864976 1.0000000180025095e-35 1.0000000180025095e-35 104821.33094369735 128911.08071900958 118371.46239321484 118516.4277019099 1.0000000180025095e-35 1.0000000180025095e-35 93046.12265138654 -1.0000000180025095e-35 1.0000000180025095e-35 1.0000000180025095e-35 135690.33914403708 121098.58476618232 104039.3712927788 140378.15553512855 73490.035742926106 123812.38736480458 100513.39353098089 100507.43252796521 93812.022667112673 100408.2863391007 100513.39353098089 1.0000000180025095e-35 1.0000000180025095e-35 1.0000000180025095e-35 1.0000000180025095e-35 1.0000000180025095e-35 98329.049482542861 1.0000000180025095e-35 103602.13565864976 1.0000000180025095e-35
decision_type=2 2 2 2 2 2 2 2 2 2 2 2 2 2 2 2 2 2 2 2 2 2 2 2 2 2 2 2 2 2 2 2 2 2 2 2 2 2 2 2 2 2 2 2 2 2 2 2 2 2 2 2 2 2 2 2 2 2 2 2 2 2
left_child=1 3 5 11 7 21 8 -5 12 45 16 17 22 -14 58 28 -6 18 19 20 -1 40 23 24 32 26 -26 42 55 -20 37 53 33 36 -34 -36 -4 -22 46 -3 -2 -31 56 61 -23 59 -13 -37 49 -18 -19 -40 -53 54 -28 -9 57 -27 -12 -10 -61 -25
right_child=2 39 6 4 10 -7 -8 15 9 -11 14 38 13 -15 -16 -17 48 50 29 -21 30 44 -24 43 25 27 31 -29 -30 41 -32 -33 34 -35 35 47 -38 -39 51 -41 -42 -43 -44 -45 -46 -47 -48 -49 -50 -51 -52 52 -54 -55 -56 -57 -58 -59 -60 60 -62 -63
leaf_value=-1553.5859396790672 25.643335275895517 1.8774589850683698 285.29586131513355 -1552.9291862778373 -1178.6802646082813 -12.324275608028257 3413.9402277605363 -813.18185422606189 905.0278564608933 1587.0754091438798 -1129.0155980066672 -1328.542836087275 -21.572718413537952 2901.8945571238664 -75.559327740803568 -68.821501729708686 -455.77242788800288 -442.77789526428973 -388.46595168321113 -1378.0002624992958 -1297.8263389346046 98.897545672874912 2174.3218972849731 861.49258464864477 545.09774410147008 1534.1563060394762 451.19349434769686 -108.54800775903715 -256.1973077996401 -334.98622738081434 3.2170479675609389 196.56741821854376 1173.9361674931861 -7.0635118675418198 -126.20378069230465 4847.1297625611387 251.42876663771168 -196.12517176748372 -997.88299059405256 -39.713351733531454 -12.123304014516179 184.56650935207074 1935.8764615632208 1525.720400458621 49.711988633311563 1739.3810192701735 -449.37621228486717 1912.3356165428879 -226.79692497775034 292.51816303109592 -726.6453408546048 462.55467408826775 -336.04402545030825 -194.57143896003618 119.76988382615528 -298.65648918354566 811.71225190058692 2198.4281809811209 -361.08349673450471 1945.414335143015 -623.50699554945868 -154.65154866933227
leaf_weight=2773 724 468 1061 844 4121 731 2237 2329 1561 758 742 183 106 2197 382 610 748 383 2688 7323 3424 832 874 915 1938 3872 723 81 605 860 79 873 8397 122 196 613 217 120 1064 1755 167 45 999 327 277 271 516 627 1055 268 383 122 185 73 165 303 503 596 1234 54 76 73
leaf_count=2773 724 468 1061 844 4121 731 2237 2329 1561 758 742 183 106 2197 382 610 748 383 2688 7323 3424 832 874 915 1938 3872 723 81 605 860 79 873 8397 122 196 613 217 120 1064 1755 167 45 999 327 277 271 516 627 1055 268 383 122 185 73 165 303 503 596 1234 54 76 73
internal_value=-0.000920869 -0.0340644 0.034592 -0.0357648 -0.0294049 0.0159832 0.036258 -0.0214773 0.0352625 0.0245956 -0.0337544 -0.0399444 0.0363982 0.0456578 -0.0243851 -0.0173252 -0.0373224 -0.0411937 -0.0417745 -0.0433231 -0.0397123 0.0234 0.0354807 0.0350342 0.035966 0.0330703 0.0273595 0.0366303 -0.0201576 -0.0358614 -0.0348468 0.0165758 0.0384982 0.0306429 0.0396166 0.0307799 0.0339593 -0.0356377 -0.0290338 -0.00852452 0.0141975 -0.0262431 0.0371524 0.0201141 0.0307935 0.0181448 -0.0193848 0.0358065 -0.0301545 -0.0238189 -0.0280679 -0.0339533 -0.0200326 0.0235692 0.0261261 -0.0230243 0.0353752 0.0366607 -0.0284919 0.0154051 -0.00692308 0.0152834
internal_weight=68848 35612 33236 33389 13241 2731 30505 4691 28268 2720 8550 20148 25548 2303 2358 3847 6192 18078 17312 13719 6396 2000 23245 22371 21056 9823 3772 6051 3237 3593 3623 1834 11233 1400 9833 1436 1278 3544 2070 2223 891 905 5970 1315 1109 1962 699 1240 2071 1016 766 1371 307 961 888 2632 4971 4468 1976 1691 130 988
internal_count=68848 35612 33236 33389 13241 2731 30505 4691 28268 2720 8550 20148 25548 2303 2358 3847 6192 18078 17312 13719 6396 2000 23245 22371 21056 9823 3772 6051 3237 3593 3623 1834 11233 1400 9833 1436 1278 3544 2070 2223 891 905 5970 1315 1109 1962 699 1240 2071 1016 766 1371 307 961 888 2632 4971 4468 1976 1691 130 988
is_linear=0
shrinkage=0.05


Tree=12
num_leaves=63
num_cat=0
split_feature=1 15 15 48 48 4 4 10 10 4 50 26 10 48 1 2 10 1 13 4 17 50 10 13 4 4 5 10 13 26 54 14 2 5 5 4 10 13 13 10 10 4 4 6 1 42 13 2 13 10 40 10 2 18 14 13 39 14 14 10 19 32
split_gain=6276.62 1961.58 1721.41 675.678 592.232 433.437 334.178 309.299 300.163 278.284 234.969 200.496 186.898 185.323 182.492 151.092 159.219 145.053 132.917 122.581 103.968 100.678 99.7632 89.3628 100.015 86.2885 84.8631 80.8695 78.371 77.5443 69.4401 62.8132 58.2984 55.4536 52.1526 50.1553 48.616 48.4939 48.0091 47.2968 46.4709 53.5023 51.8212 45.5642 44.6537 51.2222 44.5514 43.4952 44.9755 42.1269 41.9433 41.6015 40.9658 39.749 38.054 38.0446 37.7638 39.5822 37.0982 36.3767 51.821 34.0645
threshold=101530.61244763386 1.0000000180025095e-35 1.0000000180025095e-35 1.0000000180025095e-35 1.0000000180025095e-35 2.5000000000000004 3.5000000000000004 2377.0000000000005 19.500000000000004 2.5000000000000004 1.0000000180025095e-35 1.0000000180025095e-35 345.50000000000006 1.0000000180025095e-35 139440.31641565191 140692.59101184306 2377.0000000000005 99062.932182216624 1.0000000180025095e-35 -1.0000000180025095e-35 1.0000000180025095e-35 1.0000000180025095e-35 469.00000000000006 1.0000000180025095e-35 2.5000000000000004 3.5000000000000004 93447.721255070806 469.00000000000006 1.0000000180025095e-35 1.0000000180025095e-35 1.0000000180025095e-35 1.0000000180025095e-35 128254.61053547778 89659.307348389455 93447.721255070806 -1.0000000180025095e-35 211.50000000000003 1.0000000180025095e-35 1.0000000180025095e-35 1.5000000000000002 112.00000000000001 2.5000000000000004 -1.0000000180025095e-35 -1.0000000180025095e-35 126311.68504721223 1.0000000180025095e-35 1.0000000180025095e-35 100309.3101437828 1.0000000180025095e-35 21.500000000000004 1.0000000180025095e-35 536.50000000000011 99537.519824909556 1.0000000180025095e-35 1.0000000180025095e-35 1.0000000180025095e-35 1.0000000180025095e-35 1.0000000180025095e-35 1.0000000180025095e-35 574.50000000000011 1.0000000180025095e-35 1.0000000180025095e-35
decision_type=2 2 2 2 2 2 2 2 2 2 2 2 2 2 2 2 2 2 2 2 2 2 2 2 2 2 2 2 2 2 2 2 2 2 2 2 2 2 2 2 2 2 2 2 2 2 2 2 2 2 2 2 2 2 2 2 2 2 2 2 2 2
left_child=2 3 4 6 5 7 8 10 9 19 17 15 32 28 18 16 21 20 58 31 29 23 34 24 35 33 -6 -23 30 47 40 39 37 50 -12 56 -36 -3 44 -2 41 42 54 -25 45 -14 -19 -1 -49 52 -7 -16 -28 55 -4 -22 57 -10 -5 -20 -61 -59
right_child=1 12 13 14 26 25 -8 -9 11 -11 22 -13 38 -15 51 -17 -18 46 59 -21 53 27 -24 43 -26 -27 49 -29 -30 -31 -32 -33 -34 -35 36 -37 -38 -39 -40 -41 -42 -43 -44 -45 -46 -47 -48 48 -50 -51 -52 -53 -54 -55 -56 -57 -58 61 -60 60 -62 -63
leaf_value=-1151.6942791675021 -551.35927342154139 556.88938912552408 -228.32960357395569 5.9365083099568441 -1364.7864997079473 -306.76731653307434 2162.0549185313839 108.69152861601616 -160.46980090158686 128.99950336243418 118.94511948181827 -1225.6476986547095 838.0919169522997 591.32994988026155 1076.9890463711822 1138.5933686850119 570.07741644625276 -626.82199560068148 690.83587694847745 -882.38527719313788 -780.55368263247226 429.01729721506854 -1781.0345148486733 -487.46087351073731 231.956246719246 712.64002783727926 -226.35456224981536 -1671.0237858175155 352.78095759395546 -1632.5492854743593 -1161.5628039732262 145.57794963539163 1560.599573755474 232.59370213934963 -515.77737585277498 -874.45960724582847 -15.695316545970492 1166.6497683990376 2425.9037968145235 -172.46205807340741 414.76114823636021 270.3263843590139 -633.15939088728851 305.51063823012117 1795.5839749289489 -216.54494389596005 -276.80820862447217 -865.58673543816042 -566.22190710277505 372.9131801626329 -1433.7852134405593 2239.1743422452937 171.9154339549543 -134.25945753132038 200.02988878530596 -299.95403037570435 -1425.4971866848275 99.126681071168434 335.14175091195142 1558.1179105214369 -203.62178449537424 1168.779606395376
leaf_weight=8373 1766 3735 615 1380 199 2334 591 679 2316 2143 218 478 1291 2218 994 1028 802 1888 1429 1534 765 1491 283 197 904 323 280 103 672 1231 176 430 2580 300 2519 609 454 1487 2082 2799 415 411 339 1670 1309 42 713 2298 824 822 258 613 532 318 403 301 107 309 856 514 42 56
leaf_count=8373 1766 3735 615 1380 199 2334 591 679 2316 2143 218 478 1291 2218 994 1028 802 1888 1429 1534 765 1491 283 197 904 323 280 103 672 1231 176 430 2580 300 2519 609 454 1487 2082 2799 415 411 339 1670 1309 42 713 2298 824 822 258 613 532 318 403 301 107 309 856 514 42 56
internal_value=-0.00105885 0.0126688 -0.0176615 0.00462025 -0.0229508 -0.0250363 0.000121554 -0.0276697 -0.00104578 -0.00786439 -0.0287862 0.00482622 0.028836 0.00844923 0.0195436 0.00640117 0.004227 -0.0312459 0.0140843 -0.0129959 -0.0332459 0.00203556 -0.0169545 -0.000859274 -0.00482446 -0.00794712 0.00444626 0.0132371 0.000412405 -0.0346613 -0.00387876 -0.0091992 0.0240836 -0.0106846 -0.0144312 -0.00875773 -0.0161621 0.0210456 0.036685 -0.01092 -0.00144297 -0.00497738 -0.00976419 0.00827531 0.0322104 0.0257689 -0.020396 -0.0333841 -0.0283472 0.00820073 -0.0130401 0.033883 0.000123153 -0.0202312 -0.00412574 -0.0248593 -0.00591822 -0.00475569 0.00572451 0.0235013 0.0343525 0.0105479
internal_weight=68848 37687 31161 25161 25912 24079 19333 20864 18742 8672 20185 10070 12526 5249 5828 9592 8564 16711 4221 6529 14110 7762 3474 6168 4301 3215 1833 1594 3031 12726 2359 4995 7802 2892 3191 3397 2973 5222 4724 4565 2183 1768 1357 1867 2642 1333 2601 11495 3122 1634 2592 1607 812 1384 1018 1066 2788 2681 2236 1985 556 365
internal_count=68848 37687 31161 25161 25912 24079 19333 20864 18742 8672 20185 10070 12526 5249 5828 9592 8564 16711 4221 6529 14110 7762 3474 6168 4301 3215 1833 1594 3031 12726 2359 4995 7802 2892 3191 3397 2973 5222 4724 4565 2183 1768 1357 1867 2642 1333 2601 11495 3122 1634 2592 1607 812 1384 1018 1066 2788 2681 2236 1985 556 365
is_linear=0
shrinkage=0.05


Tree=13
num_leaves=63
num_cat=0
split_feature=0 0 0 1 1 0 0 0 25 25 0 10 10 0 0 0 1 2 0 1 4 42 10 2 0 49 0 10 1 2 1 1 0 1 0 10 0 1 0 10 10 4 51 0 0 2 0 1 58 1 2 18 30 10 2 18 0 0 10 49 0 16
split_gain=30000.2 617.456 490.114 304.996 190.593 188.242 181.542 151.556 140.025 139.604 124.826 132.33 120.174 99.5835 215.953 92.7289 227.507 123.161 68.1834 68.1296 61.2956 57.4287 69.6453 53.5494 51.3203 46.7443 48.5582 130.954 103.245 62.9525 65.1027 75.4948 55.159 50.2687 47.8974 46.4365 45.597 45.4994 44.6091 42.7417 42.4599 41.2894 39.9053 39.7523 37.6872 35.441 35.0951 34.4512 34.1642 34.1373 33.4417 33.2504 46.0229 33.1973 32.4893 32.0949 31.1019 30.9011 30.0825 29.9534 29.9091 29.0214
threshold=102616.60421180549 101581.97211734629 103754.17195202778 100294.78028437107 113319.74876953656 93255.550251918234 144076.41212584169 67323.607682970018 1.0000000180025095e-35 1.0000000180025095e-35 140353.8008495761 427.00000000000006 71.500000000000014 91288.731194656328 73490.035742926106 106513.42417990674 117871.61981514523 144210.19612846716 99185.822281993067 139440.31641565191 2.5000000000000004 1.0000000180025095e-35 427.00000000000006 120159.4023052578 105123.21395899537 1.0000000180025095e-35 118371.46239321484 133.50000000000003 106565.56120280655 113714.818218805 142300.23447314661 112288.07660883029 118516.4277019099 114029.3783969686 123812.38736480458 744.00000000000011 103128.51146992441 97666.685085328834 132711.94189219497 744.00000000000011 3854.5000000000005 2.5000000000000004 1.0000000180025095e-35 112378.98732242887 140378.15553512855 86864.179589276653 132711.94189219497 104039.3712927788 1.0000000180025095e-35 128529.03794317236 134736.09550743908 1.0000000180025095e-35 1.0000000180025095e-35 264.50000000000006 108084.35618516071 1.0000000180025095e-35 100507.43252796521 142993.87702143833 206.00000000000003 1.0000000180025095e-35 100513.39353098089 1.0000000180025095e-35
decision_type=2 2 2 2 2 2 2 2 2 2 2 2 2 2 2 2 2 2 2 2 2 2 2 2 2 2 2 2 2 2 2 2 2 2 2 2 2 2 2 2 2 2 2 2 2 2 2 2 2 2 2 2 2 2 2 2 2 2 2 2 2 2
left_child=1 3 4 8 36 7 10 -5 13 12 15 44 -7 14 -1 16 -4 21 51 -14 45 25 -23 -18 49 26 27 -17 32 -29 31 -31 -28 -33 -34 37 39 55 61 -2 -37 42 48 -35 50 -9 -30 -38 59 -25 -12 -15 -53 -10 -6 -3 -11 -46 -45 -16 -58 -36
right_child=2 35 6 5 54 9 -8 20 53 56 11 -13 19 18 41 17 23 -19 -20 -21 -22 22 -24 24 -26 -27 28 29 46 30 -32 33 34 43 38 40 47 -39 -40 -41 -42 -43 -44 58 57 -47 -48 -49 -50 -51 -52 52 -54 -55 -56 -57 60 -59 -60 -61 -62 -63
leaf_value=-1413.9590850662557 36.152824435177173 21.074324414387959 365.22140312996055 -1354.8904600718984 31.306062338900666 -809.27407009085948 3180.0627803331199 -1204.8629691559895 -419.51230109019383 -620.78054422665195 641.10968553324892 1405.8681361558026 -507.02513408529342 -1228.3301979788127 -1024.6708607954897 1356.748146751748 189.31739883138727 2622.3052351487022 -290.12385354240399 -83.627491560680937 -49.848286631265367 1092.2395829575748 -151.5560377486203 125.39590039183605 130.89875849624659 1564.263888446189 -214.08754173240925 1217.4378179181597 1749.4040646788512 1252.136647957431 913.72945389870222 -406.96031678527834 3265.2281577353206 184.95475487806763 584.33279503741721 -176.62806159968497 98.910551580036554 -34.870556354236761 1955.9205540476062 -23.857485826951599 120.29296438512029 -370.22994433199131 -261.31979673726346 96.772537264975838 1797.1341167045161 -579.52904224430529 1842.2263395236669 40.649817887089014 47.422732519186688 -105.76407186200268 2708.9776615319811 -1020.8786687836714 181.69100051103379 581.61873384885405 -53.477018396840144 -79.393847768162601 371.4559442320151 994.10917114860786 1142.3950393507985 -283.38467491957272 -404.43509012444815 2596.3326968674792
leaf_weight=2997 815 596 4498 1009 164 5942 2237 330 450 188 1566 657 1759 9527 2291 6291 574 2537 3044 336 594 338 131 77 428 1648 194 1638 2779 227 313 78 434 597 1067 180 832 1580 198 76 47 469 284 110 170 2719 609 277 75 290 217 365 49 78 567 74 276 110 357 285 68 135
leaf_count=2997 815 596 4498 1009 164 5942 2237 330 450 188 1566 657 1759 9527 2291 6291 574 2537 3044 336 594 338 131 77 428 1648 194 1638 2779 227 313 78 434 597 1067 180 832 1580 198 76 47 469 284 110 170 2719 609 277 75 290 217 365 49 78 567 74 276 110 357 285 68 135
internal_value=-0.00125784 -0.0331433 0.0329071 -0.0349434 0.0126144 -0.029056 0.0347238 -0.0209587 -0.0388521 -0.033452 0.0336387 0.0234559 -0.0350939 -0.039544 -0.0344399 0.0347229 0.0292057 0.0363676 -0.0420601 -0.0247971 -0.0162092 0.034846 0.0175906 0.0113587 0.00295597 0.0353313 0.0344546 0.0365883 0.0306684 0.0285542 0.0217598 0.0170562 0.0217456 0.0118214 0.0244275 -0.00906338 0.0206 -0.00688889 0.0199286 0.0121773 -0.0306167 -0.0258226 -0.0280239 0.0146617 0.0172322 -0.0190718 0.0360094 0.027367 -0.0299321 -0.0107629 0.0145541 -0.044065 -0.0301932 -0.013447 -0.00923393 0.00402985 -0.00864662 0.0342857 0.0255889 -0.0309006 0.000290698 0.0163062
internal_weight=68848 35612 33236 33135 2731 13221 30505 4652 19914 8569 28268 2720 8037 19386 6401 25548 5867 19681 12985 2095 3643 17144 469 1369 795 16675 15027 9611 5416 3320 1682 1369 2028 1142 1834 2477 2000 2250 1400 891 227 3404 2935 1064 2063 3049 3388 1109 2651 367 1783 9941 414 528 731 670 532 280 467 2576 344 1202
internal_count=68848 35612 33236 33135 2731 13221 30505 4652 19914 8569 28268 2720 8037 19386 6401 25548 5867 19681 12985 2095 3643 17144 469 1369 795 16675 15027 9611 5416 3320 1682 1369 2028 1142 1834 2477 2000 2250 1400 891 227 3404 2935 1064 2063 3049 3388 1109 2651 367 1783 9941 414 528 731 670 532 280 467 2576 344 1202
is_linear=0
shrinkage=0.05


Tree=14
num_leaves=63
num_cat=0
split_feature=0 0 0 1 0 0 1 0 10 0 10 0 0 0 15 15 0 1 2 10 0 20 0 0 0 15 0 48 10 0 2 1 10 48 1 0 2 1 10 10 13 10 10 0 10 26 0 0 0 10 15 0 10 1 1 0 0 15 48 10 10 10
split_gain=28719.4 629.245 496.566 316.722 200.398 190.205 172.177 149.304 125.766 125.142 128.878 92.9301 221.932 117.947 92.2158 90.6727 82.8263 229.572 108.714 75.4277 117.083 91.9273 79.083 71.4724 60.9137 57.7617 55.3973 63.71 59.4144 54.3994 53.6684 52.9405 52.7008 55.5781 52.0522 49.0437 47.3657 42.2193 41.9342 49.913 53.1353 61.7604 85.7739 43.6172 69.561 41.7344 41.4675 111.9 40.9793 39.9637 39.4706 39.3401 37.6563 43.129 37.4944 37.0526 36.7815 36.5614 39.2667 33.5463 32.7026 67.5264
threshold=102616.60421180549 101471.92767081481 103754.17195202778 100294.78028437107 93579.624071741026 144076.41212584169 108006.17913966665 57981.359374433152 71.500000000000014 140353.8008495761 427.00000000000006 91288.731194656328 73490.035742926106 99729.374312061031 1.0000000180025095e-35 1.0000000180025095e-35 105123.21395899537 128911.08071900958 144210.19612846716 143.50000000000003 118371.46239321484 1.0000000180025095e-35 118516.4277019099 99630.426319697799 123812.38736480458 1.0000000180025095e-35 126052.0161821167 1.0000000180025095e-35 184.00000000000003 132711.94189219497 130982.02910703342 142300.23447314661 744.00000000000011 1.0000000180025095e-35 99421.456441558621 103248.87114858 86248.408015409615 142300.23447314661 3854.5000000000005 710.00000000000011 1.0000000180025095e-35 266.00000000000006 455.50000000000006 112378.98732242887 469.00000000000006 1.0000000180025095e-35 100513.39353098089 100507.43252796521 109118.2576246579 3854.5000000000005 1.0000000180025095e-35 140378.15553512855 66.000000000000014 111003.28115732009 117871.61981514523 106661.81614762959 132054.61749620127 1.0000000180025095e-35 1.0000000180025095e-35 195.00000000000003 455.50000000000006 710.00000000000011
decision_type=2 2 2 2 2 2 2 2 2 2 2 2 2 2 2 2 2 2 2 2 2 2 2 2 2 2 2 2 2 2 2 2 2 2 2 2 2 2 2 2 2 2 2 2 2 2 2 2 2 2 2 2 2 2 2 2 2 2 2 2 2 2
left_child=1 3 6 11 7 9 15 -5 23 16 51 12 -1 -13 32 -2 17 60 19 20 48 26 -22 -6 -24 -8 27 28 -21 -26 -10 56 33 34 -3 -17 -9 38 39 40 41 59 -43 -44 -45 50 47 -15 52 -34 -14 57 -18 -54 -40 -20 -23 58 -11 -29 -4 -62
right_child=2 14 5 4 8 -7 25 36 30 10 -12 13 45 46 -16 35 18 -19 55 21 22 31 24 -25 29 -27 -28 37 -30 -31 -32 -33 49 -35 -36 -37 -38 -39 54 -41 -42 42 43 44 -46 -47 -48 -49 -50 -51 -52 -53 53 -55 -56 -57 -58 -59 -60 -61 61 -63
leaf_value=-1342.2491190941932 75.610659234705238 27.759069727006864 267.10929131396841 -1568.676881352965 -1064.9672735330635 3021.059641316464 4.9270664531584778 -1057.0009937287293 -484.61599034696633 503.29615651373899 1335.5747293480126 -1066.6174138519407 -659.89253801954692 -217.08642275685307 -94.669821658396543 -33.034719862723435 667.36516268934906 -54.823129018909462 196.64024418961964 568.41216723683101 -79.818419912324686 214.47827438020832 4301.6469653981758 -276.06785512401694 1034.9702497280175 -95.133820209297852 1467.3976421210537 379.17249436603311 1065.7610484855352 2854.5929893048328 -118.81900354830287 857.19373587105372 -168.34515147352505 -85.304434374555427 -7.6676970442065802 36.570666306883503 -518.87025847238328 1185.4426602209144 -199.2797358285934 1611.964011077652 1072.3998513051808 1133.4285335106426 -232.84932505939361 -391.46146652986721 743.83352313893704 -1684.9040022819602 -260.59980369453115 32.211998794661852 1911.4475153111148 97.409131855664242 360.01175016459274 1524.2475753454053 666.34968590221365 179.63814164933285 268.85518935985527 2527.1333210871585 2204.8993585327985 1027.4618009350486 -468.30579295587489 -315.39766318169313 -82.597332046386157 211.93693676873193
leaf_weight=3006 1389 621 2321 585 4210 2237 605 513 1765 257 657 10932 3109 1034 667 253 4006 412 202 307 220 816 759 1942 1622 279 1373 149 2182 342 387 145 150 330 991 205 3643 340 109 273 816 394 152 45 119 251 1052 312 4475 48 64 280 376 307 193 2513 57 1354 172 170 139 214
leaf_count=3006 1389 621 2321 585 4210 2237 605 513 1765 257 657 10932 3109 1034 667 253 4006 412 202 307 220 816 759 1942 1622 279 1373 149 2182 342 387 145 150 330 991 205 3643 340 109 273 816 394 152 45 119 251 1052 312 4475 48 64 280 376 307 193 2513 57 1354 172 170 139 214
internal_value=-0.00130287 -0.0325003 0.0321248 -0.0344444 -0.0283979 0.0339535 0.011699 -0.0201962 -0.0330804 0.0328428 0.0226471 -0.0384362 -0.0334992 -0.0408177 -0.00977912 0.0203844 0.0339283 0.0262476 0.0349835 0.0336937 0.0361485 0.0298037 0.027472 -0.0367198 0.0298017 -0.00644796 0.0319541 0.0296152 0.0354158 0.0251527 -0.0226766 0.0158153 -0.00471963 -0.00221421 0.0016129 0.0010917 -0.0168672 0.0243841 0.0220661 0.0245515 0.0215989 0.0140428 0.0222535 0.0028481 0.0207317 -0.0247956 -0.0307756 -0.0249629 0.038935 -0.0292929 -0.023243 0.0165051 0.0356686 0.024817 0.00463576 0.0443646 0.0111684 0.0137689 0.00104895 -0.00423197 0.0316006 0.0174221
internal_weight=68848 35612 33236 32805 13045 30505 2731 4741 8304 28268 2720 19760 6430 13330 2807 1847 25548 3086 22462 19747 12107 7640 2943 6152 2723 884 6622 5249 2489 1964 2152 1018 2140 1942 1612 458 4156 2760 2420 2118 1845 1029 710 316 164 3424 2398 1346 9164 198 3173 2063 4689 683 302 2715 873 1783 429 319 2674 353
internal_count=68848 35612 33236 32805 13045 30505 2731 4741 8304 28268 2720 19760 6430 13330 2807 1847 25548 3086 22462 19747 12107 7640 2943 6152 2723 884 6622 5249 2489 1964 2152 1018 2140 1942 1612 458 4156 2760 2420 2118 1845 1029 710 316 164 3424 2398 1346 9164 198 3173 2063 4689 683 302 2715 873 1783 429 319 2674 353
is_linear=0
shrinkage=0.05


Tree=15
num_leaves=63
num_cat=0
split_feature=0 0 0 1 0 0 15 0 1 25 0 25 0 0 1 0 20 4 0 1 1 0 0 15 0 15 2 1 0 1 0 1 0 0 2 1 38 43 0 0 2 0 48 0 1 1 48 31 5 0 19 5 18 1 0 58 0 17 0 58 15 0
split_gain=27673.3 571.965 541.837 326.943 204.939 188.722 179.517 148.653 124.695 120.629 116.565 115.341 113.454 173.983 90.6728 81.0348 75.9319 72.2114 69.8846 197.077 113.232 84.8898 88.1844 64.5085 80.708 62.0833 58.3115 57.6606 52.3053 46.1528 46.1286 45.8975 69.6969 45.4598 45.2943 39.6789 37.0688 35.4185 34.7685 33.7946 33.5299 33.5096 33.2244 35.5437 32.8256 32.0504 36.1307 30.4908 30.3424 30.2355 45.6198 32.4281 29.538 27.5653 27.0371 26.7071 26.0757 26.0199 26.9095 41.6831 29.4265 26.8553
threshold=102482.12246344698 101471.92767081481 103898.82092789649 100294.78028437107 93961.455282881725 147213.06021429782 1.0000000180025095e-35 57981.359374433152 110123.44859725246 1.0000000180025095e-35 140353.8008495761 1.0000000180025095e-35 93961.455282881725 67676.357575333008 107023.68009961791 97688.576813629785 1.0000000180025095e-35 2.5000000000000004 108443.16249616724 113319.74876953656 132531.4509956445 118371.46239321484 118516.4277019099 1.0000000180025095e-35 89478.294061633016 1.0000000180025095e-35 108084.35618516071 142142.63199058492 88879.475746652693 104837.97598050222 105123.21395899537 102234.66292963106 102920.17160437304 100507.43252796521 150841.31135037375 127866.18328224182 1.0000000180025095e-35 1.0000000180025095e-35 97779.461930578938 140378.15553512855 86864.179589276653 100513.39353098089 1.0000000180025095e-35 103128.51146992441 131714.48382525059 99421.456441558621 1.0000000180025095e-35 1.0000000180025095e-35 93447.721255070806 97957.171967510731 1.0000000180025095e-35 89659.307348389455 1.0000000180025095e-35 104039.3712927788 101581.97211734629 1.0000000180025095e-35 100507.43252796521 1.0000000180025095e-35 82370.763612128168 1.0000000180025095e-35 1.0000000180025095e-35 73490.035742926106
decision_type=2 2 2 2 2 2 2 2 2 2 2 2 2 2 2 2 2 2 2 2 2 2 2 2 2 2 2 2 2 2 2 2 2 2 2 2 2 2 2 2 2 2 2 2 2 2 2 2 2 2 2 2 2 2 2 2 2 2 2 2 2 2
left_child=1 3 6 11 7 10 8 -5 42 27 16 12 13 -1 -12 -14 18 34 19 -4 21 44 53 24 28 45 -21 38 55 48 35 32 -8 -11 40 -28 -18 -31 52 -16 -9 -35 -2 -44 47 46 54 -20 -24 50 -40 -51 -6 -23 -3 -15 -13 58 61 60 -60 -42
right_child=2 25 5 4 9 -7 31 17 -10 33 14 56 15 23 39 -17 36 -19 20 26 -22 22 29 -25 -26 -27 30 -29 -30 37 -32 -33 -34 41 -36 -37 -38 -39 49 -41 57 -43 43 -45 -46 -47 -48 -49 -50 51 -52 -53 -54 -55 -56 -57 -58 -59 59 -61 -62 -63
leaf_value=-1318.2469963732351 76.89733908700947 -74.577524931375237 447.14822609119437 -1510.6059985418133 -1375.8510310438098 2959.2285167513287 -47.173392825462365 -1157.4113222125784 1.823052448785893 -624.18919178498334 472.2588858162635 -586.5812071270492 -1336.7362594240426 -818.72382021441445 1244.883664901442 -394.80106330138807 632.15832951981429 -45.410936325693186 1584.4340978192909 372.3029815696915 2412.1081918080149 -530.30036333412465 641.12246624712941 114.28759371002634 -1616.1643398570131 -89.953243027097784 154.78748990105379 -493.83753092985171 -245.48189616939126 1607.129022440163 260.07762549794717 -69.820203975862384 46.017389913882653 389.70587807918423 322.99585153181215 -74.489173439698789 -196.04591794911175 -100.62086436892787 -966.3709383397844 1720.7546725378372 -854.6280612317787 -482.69400228391754 -24.408981210942876 55.731403513797346 64.903397697847694 -25.684470271806642 -108.07859872952031 997.69246574568433 1541.6304164281232 -466.4265667013031 673.89456403197767 -402.06576025256658 -577.16880604902326 1061.8443845178808 29.259417841314281 78.046222794204368 -110.02191909303511 -232.18681304026688 -909.72337656503191 214.82451013886967 -38.793395933155267 -448.68859948841492
leaf_weight=2697 1513 89 5495 582 2577 2011 129 422 682 187 1129 224 6342 2816 1313 5359 2276 667 6364 630 3745 174 621 144 1282 576 243 558 435 2498 1576 465 261 285 140 268 73 51 137 536 574 65 93 140 71 1282 77 142 948 1232 99 2779 264 113 551 75 296 455 1068 77 95 816
leaf_count=2697 1513 89 5495 582 2577 2011 129 422 682 187 1129 224 6342 2816 1313 5359 2276 667 6364 630 3745 174 621 144 1282 576 243 558 435 2498 1576 465 261 285 140 268 73 51 137 536 574 65 93 140 71 1282 77 142 948 1232 99 2779 264 113 551 75 296 455 1068 77 95 816
internal_value=-0.00129493 -0.0321849 0.0312187 -0.033969 -0.0278423 0.0333108 0.0119251 -0.0197508 0.0188633 -0.0326836 0.0322578 -0.0380427 -0.0386736 -0.0338502 0.0229013 -0.0417443 0.0333597 -0.0165508 0.0342365 0.0305407 0.0362973 0.033737 0.0283655 -0.0280934 -0.0291233 -0.00949515 0.0195252 -0.0342924 -0.025015 0.0302331 0.0155007 -0.00777778 0.00487179 -0.00977654 -0.0193172 0.00244618 0.0247978 0.034386 -0.0355107 0.0297188 -0.0204306 0.000857143 0.025945 0.0083691 0.0373347 -0.00532766 0.00313808 0.0377037 0.0234863 -0.0326466 -0.0152542 -0.0336699 -0.0397923 0.00156794 0.00703125 -0.0274473 -0.0148077 -0.0186224 -0.0205323 -0.0258871 -0.0282459 -0.0157554
internal_weight=68884 35324 33560 32749 13079 30277 3283 4896 2428 8183 28266 19670 19150 7449 2978 11701 25288 4314 22939 8212 14727 10982 4405 4752 4608 2575 2717 7646 3326 4118 2087 855 390 537 3647 511 2349 2549 7088 1849 3507 350 1746 233 6577 1999 717 6506 1569 4247 236 4011 2841 287 640 2891 520 3085 2630 1240 1163 1390
internal_count=68884 35324 33560 32749 13079 30277 3283 4896 2428 8183 28266 19670 19150 7449 2978 11701 25288 4314 22939 8212 14727 10982 4405 4752 4608 2575 2717 7646 3326 4118 2087 855 390 537 3647 511 2349 2549 7088 1849 3507 350 1746 233 6577 1999 717 6506 1569 4247 236 4011 2841 287 640 2891 520 3085 2630 1240 1163 1390
is_linear=0
shrinkage=0.05


Tree=16
num_leaves=63
num_cat=0
split_feature=0 0 0 1 0 0 15 0 25 10 0 10 25 0 0 1 20 10 0 0 1 4 10 1 0 1 15 10 49 10 0 0 0 1 10 0 30 0 1 10 1 0 1 4 48 4 13 10 48 10 51 49 5 0 1 10 48 0 0 0 10 58
split_gain=26420.6 574.423 528.466 343.245 221.132 185.042 153.669 152.423 118.003 119.867 114.93 159.493 113.736 110.188 218.023 96.4753 77.9629 83.8846 73.9791 72.1808 216.92 68.7694 64.0616 60.4521 73.93 59.2409 57.4094 58.3456 53.5231 60.947 160.372 93.428 57.6329 50.1065 50.0928 45.7062 44.8989 44.1665 43.2152 42.672 42.5145 76.9746 68.2448 42.0826 61.5867 38.8263 38.3325 36.5335 35.6066 42.2218 34.9451 35.194 39.731 34.4113 49.0389 33.3077 36.3176 32.5152 32.5102 31.7257 31.5286 31.1886
threshold=102482.12246344698 101471.92767081481 103754.17195202778 99422.733111500755 93961.455282881725 147213.06021429782 1.0000000180025095e-35 54088.978690293683 1.0000000180025095e-35 48.500000000000007 140353.8008495761 427.00000000000006 1.0000000180025095e-35 91288.731194656328 67676.357575333008 110123.44859725246 1.0000000180025095e-35 53.500000000000007 97688.576813629785 105123.21395899537 125537.10183787522 2.5000000000000004 26.500000000000004 153624.01798825609 106661.81614762959 139440.31641565191 1.0000000180025095e-35 21.500000000000004 1.0000000180025095e-35 133.50000000000003 118371.46239321484 118516.4277019099 123812.38736480458 142843.52244893039 687.50000000000011 132054.61749620127 1.0000000180025095e-35 100507.43252796521 150889.90881152093 744.00000000000011 111003.28115732009 108443.16249616724 117885.40244988192 2.5000000000000004 1.0000000180025095e-35 2.5000000000000004 1.0000000180025095e-35 45.500000000000007 1.0000000180025095e-35 2377.0000000000005 1.0000000180025095e-35 1.0000000180025095e-35 105831.60128504939 102920.17160437304 103051.11095671574 2377.0000000000005 1.0000000180025095e-35 100513.39353098089 132054.61749620127 100305.96317998029 27.500000000000004 1.0000000180025095e-35
decision_type=2 2 2 2 2 2 2 2 2 2 2 2 2 2 2 2 2 2 2 2 2 2 2 2 2 2 2 2 2 2 2 2 2 2 2 2 2 2 2 2 2 2 2 2 2 2 2 2 2 2 2 2 2 2 2 2 2 2 2 2 2 2
left_child=1 3 6 12 7 10 15 -5 9 59 16 46 13 14 -1 48 19 -18 -15 20 -4 34 -20 28 -25 58 27 43 29 30 -21 -32 -33 -11 38 40 -24 -10 -9 -36 -31 -42 -43 44 -3 50 -12 -34 49 -2 51 61 -53 -8 -55 -41 -57 -39 -19 -6 -14 -16
right_child=2 26 5 4 8 -7 53 21 37 33 11 -13 60 18 45 -17 17 25 22 23 -22 -23 36 24 -26 -27 -28 -29 -30 35 31 32 47 -35 39 -37 -38 57 -40 55 41 42 -44 -45 -46 -47 -48 -49 -50 -51 -52 52 -54 54 -56 56 -58 -59 -60 -61 -62 -63
leaf_value=-1260.2872622772295 71.549234007589988 36.546631211108256 229.07557604482864 -1450.8228552863218 -850.17316760011454 2811.2670909137628 -61.507435622142296 -702.74012227360799 -595.15676964899001 -482.28314444036698 606.2284669903587 1269.8664136834916 -437.87192496207865 -1297.6295103143632 -934.47001050487313 1.7318998263464893 808.39348231444455 176.96587371280987 -407.1897170233824 993.15972375482454 -56.928175017417381 -43.140389509408855 -326.40892224010531 1.3665713069160121 2921.5496918689869 1143.9286158680313 -85.455580875743181 -74.996954915176318 1232.2414119438108 880.5847214659957 -344.10904667443396 4148.6935965388811 922.21073642186684 -137.64401523397393 582.58558492683812 1335.0712343280356 191.39267772254681 349.83719799891009 182.62344030713541 -473.41836700365025 187.15753018106008 726.9437077469637 1296.7279488876791 -18.026792429315538 -54.871927592093563 -326.08975434992465 2374.608744892425 1702.0154193974683 8.7756902645618542 -2.5894321230764037 -247.07684974067598 90.456883880037651 -776.94275302099709 37.404767576680754 -61.249428430752602 837.43831821334106 -413.46345553933827 -451.3102059953759 1761.3512006926671 -199.09903616404119 228.13481435083452 74.143911654494147
leaf_weight=2587 1277 638 2438 562 4663 2011 270 3453 200 2288 1765 818 337 7139 2370 634 858 1030 3285 7866 389 704 1668 103 1563 420 576 957 1915 2004 219 683 1291 235 76 715 57 294 140 170 730 929 1921 257 147 459 395 401 211 125 280 86 218 243 277 105 48 68 59 1030 156 71
leaf_count=2587 1277 638 2438 562 4663 2011 270 3453 200 2288 1765 818 337 7139 2370 634 858 1030 3285 7866 389 704 1668 103 1563 420 576 957 1915 2004 219 683 1291 235 76 715 57 294 140 170 730 929 1921 257 147 459 395 401 211 125 280 86 218 243 277 105 48 68 59 1030 156 71
internal_value=-0.00139074 -0.0315734 0.0303784 -0.0333613 -0.0274508 0.0323576 0.0104873 -0.019342 -0.032308 -0.0338242 0.0313237 0.0220282 -0.0377946 -0.0384358 -0.0329353 0.0171562 0.0324078 0.0237643 -0.0411845 0.0332909 0.0258047 -0.0163969 -0.0365269 0.0343314 0.0434574 0.0166667 -0.00883495 -0.00482741 0.0335172 0.0326123 0.0349522 0.0241712 0.0270526 -0.0247523 -0.0189379 0.0287268 -0.0287246 -0.0101423 -0.0208043 -0.00213033 0.0272027 0.0239385 0.0276491 0.00335893 0.00910828 -0.0247704 0.0149074 0.022104 0.0236516 0.0265335 -0.0268264 -0.0285428 -0.0125 -0.00848101 -0.000961538 -0.0100619 0.00686275 0.000276243 0.0105142 -0.0378447 -0.0140974 -0.0305408
internal_weight=68884 35324 33560 32749 14036 30523 3037 5258 8778 8216 28512 2978 18713 18220 6071 2247 25534 2367 12149 23167 2827 4696 5010 20340 1666 1509 2575 1999 18674 16759 10460 2594 2375 2523 3992 6299 1725 562 3593 399 5584 3580 2850 1042 785 3484 2160 1692 1613 1402 3025 2745 304 790 520 323 153 362 1089 5693 493 2441
internal_count=68884 35324 33560 32749 14036 30523 3037 5258 8778 8216 28512 2978 18713 18220 6071 2247 25534 2367 12149 23167 2827 4696 5010 20340 1666 1509 2575 1999 18674 16759 10460 2594 2375 2523 3992 6299 1725 562 3593 399 5584 3580 2850 1042 785 3484 2160 1692 1613 1402 3025 2745 304 790 520 323 153 362 1089 5693 493 2441
is_linear=0
shrinkage=0.05


Tree=17
num_leaves=63
num_cat=0
split_feature=0 0 0 1 0 0 1 0 10 0 10 0 15 4 20 10 0 10 10 0 1 2 49 0 10 2 1 1 15 0 0 0 10 4 1 1 1 0 10 48 0 1 15 2 0 0 0 13 0 10 30 0 10 10 13 1 1 0 0 15 0 0
