tree
version=v4
num_class=1
num_tree_per_iteration=1
label_index=0
max_feature_idx=67
objective=quantile
feature_names=title city state country experience_ordinal work_type remote_allowed has_employee_count log_employee_count has_company_posting_count company_posting_count log_company_posting_count company_scale_tier_proxy skill_MGMT skill_IT skill_ENG skill_HCPR skill_FIN skill_ANLS skill_SALE skill_GENB skill_LGL skill_MNFC skill_HR skill_CNSL skill_PRJM skill_CUST skill_PROD skill_ACCT skill_BD skill_MRKT skill_TRNG skill_SCI skill_ADM skill_RSCH skill_PRDM skill_SUPL skill_STRA skill_EDU skill_DIST skill_OTHR skill_QA skill_DSGN skill_WRT skill_PRCH skill_PR skill_ART skill_ADVR ind_it-jobs ind_engineering-jobs ind_healthcare-nursing-jobs ind_accounting-finance-jobs ind_sales-jobs ind_14 ind_trade-construction-jobs ind_43 ind_96 ind_104 ind_legal-jobs ind_logistics-warehouse-jobs ind_4 ind_pr-advertising-marketing-jobs ind_admin-jobs ind_retail-jobs ind_27 ind_hr-jobs ind_customer-services-jobs ind_hospitality-catering-jobs
feature_infos=[26091.829203130641:322270.07536239247] [63649.070999991724:192810.12670973301] [57233.637716981466:185159.58514200299] none [-1:5] [54053.737272618797:111878.9473190866] [-1:1] none none none [1:4131] [0.69314718055994529:8.3265168302395285] [87068.758564637683:132388.10448193611] [0:1] [0:1] [0:1] [0:1] [0:1] [0:1] [0:1] [0:1] [0:1] [0:1] [0:1] [0:1] [0:1] [0:1] [0:1] [0:1] [0:1] [0:1] [0:1] [0:1] [0:1] [0:1] [0:1] [0:1] [0:1] [0:1] [0:1] [0:1] [0:1] [0:1] [0:1] [0:1] [0:1] [0:1] [0:1] [0:1] [0:1] [0:1] [0:1] [0:1] [0:1] [0:1] [0:1] [0:1] [0:1] [0:1] [0:1] [0:1] [0:1] [0:1] [0:1] [0:1] [0:1] [0:1] [0:1]
tree_sizes=5094 5522 5604 5600 5593 5621 5626 5591 5637 5626 5750 5599 5776 5642 5605 5650 5655 5648 5647 5791 5759

Tree=0
num_leaves=63
num_cat=0
split_feature=0 0 0 10 1 10 64 1 67 5 0 48 4 0 4 10 5 15 0 0 5 66 10 4 0 5 54 1 53 0 5 50 10 62 0 10 49 52 10 4 19 5 4 54 1 10 5 0 1 33 1 0 64 39 63 4 67 0 10 10 0 54
split_gain=1990.51 672.722 308.648 79.7295 64.1815 46.4923 33.2997 29.3384 28.1994 28.0874 25.7635 22.9395 15.9364 14.8914 14.2269 12.6411 12.1639 11.9949 10.664 13.5743 12.3462 11.7509 9.91944 12.6235 9.33333 8.26056 8.09885 7.99681 7.35838 6.85061 14.3614 7.1216 8.67714 6.58353 6.3406 5.87232 5.82603 6.00672 5.81712 5.64139 5.3398 5.29716 5.08472 4.93168 4.86223 4.53107 4.46883 4.38188 4.34964 4.30658 4.87555 4.30248 4.2074 4.10503 4.24534 4.01111 3.8959 3.8738 3.81085 3.77372 3.76705 3.7516
threshold=95937.77766952703 93255.550251918234 46504.551259969172 308.50000000000006 96162.179024545723 969.00000000000011 1.0000000180025095e-35 95808.339406096333 1.0000000180025095e-35 69612.223127105768 91288.731194656328 1.0000000180025095e-35 1.5000000000000002 95920.734455005033 -1.0000000180025095e-35 48.500000000000007 63157.750998645235 1.0000000180025095e-35 89478.294061633016 58731.37403577954 105831.60128504939 1.0000000180025095e-35 10.500000000000002 1.5000000000000002 94958.848089382125 93447.721255070806 1.0000000180025095e-35 104399.08642949648 1.0000000180025095e-35 58731.37403577954 93447.721255070806 1.0000000180025095e-35 43.500000000000007 1.0000000180025095e-35 44608.058846027801 264.50000000000006 1.0000000180025095e-35 1.0000000180025095e-35 10.500000000000002 1.5000000000000002 1.0000000180025095e-35 78653.712902221116 1.5000000000000002 1.0000000180025095e-35 116195.92142649759 35.500000000000007 78653.712902221116 89478.294061633016 105646.20231296515 1.0000000180025095e-35 82392.045075079906 95065.388362241923 1.0000000180025095e-35 1.0000000180025095e-35 1.0000000180025095e-35 1.5000000000000002 1.0000000180025095e-35 95065.388362241923 515.00000000000011 23.500000000000004 94159.125680182144 1.0000000180025095e-35
decision_type=2 2 2 2 2 2 2 2 2 2 2 2 2 2 2 2 2 2 2 2 2 2 2 2 2 2 2 2 2 2 2 2 2 2 2 2 2 2 2 2 2 2 2 2 2 2 2 2 2 2 2 2 2 2 2 2 2 2 2 2 2 2
left_child=1 2 5 7 6 15 8 17 10 40 12 13 14 16 29 38 -9 36 19 20 45 52 23 26 -5 39 60 -20 -16 30 -4 32 33 47 35 -17 37 42 -1 -24 -6 -8 61 49 59 -11 -44 -31 -13 50 -32 -19 53 54 56 -54 -21 -38 -26 -27 -18 -3
right_child=-2 3 4 24 9 -7 41 11 -10 18 -12 48 -14 -15 28 34 22 51 27 21 -22 -23 25 -25 58 44 -28 -29 -30 31 43 -33 -34 -35 -36 -37 57 -39 -40 -41 -42 -43 46 -45 -46 -47 -48 -49 -50 -51 -52 -53 55 -55 -56 -57 -58 -59 -60 -61 -62 -63
leaf_value=40997.456586391658 42467.663168193743 40964.961722635206 41183.737695445394 41234.288029967727 41111.200015962124 40709.951558513611 40667.640000441672 40976 40688.212988281251 41169.175978974265 40768.889329186328 41066.638357374439 41704 41600 41106.000006648312 41160.740039062497 40744.880919330149 41017.600001394749 40975.904003906253 41780.447463210097 41358.902192242844 41307.530469139863 41080 41288 41558.79921972796 41251.864297157197 41229.419689695569 41403.721921677541 41090.920001325008 41313.363035079616 41530.826146693384 40977.049612607945 41632.799734844972 40957.220804061602 41454.910938622255 41310.770079941023 41080 41064.627579677566 40758.679670199192 41184 40976 40878.300001658499 41012.400003641844 41646.94680902797 41273.143270352673 41184 41080 41015.165157083306 41681.602344069179 41667.551527708623 41160.626767126334 41341.150781404329 41039.440004432203 41169.62776996928 41145.412569074579 41710.000006556511 41116.901074255489 41330.435547594694 41304.992070526074 41064.654032507475 41080 41176.965586764418
leaf_weight=319 51807 1916 69 252 104 448 58 109 132 126 337 40 593 132 331 125 157 79 442 4261 415 51 243 147 53 120 55 459 58 920 53 223 607 65 83 193 45 62 257 125 41 107 48 113 118 55 221 74 75 48 229 46 45 88 44 45 67 41 73 393 755 72
leaf_count=319 51807 1916 69 252 104 448 58 109 132 126 337 40 593 132 331 125 157 79 442 4261 415 51 243 147 53 120 55 459 58 920 53 223 607 65 83 193 45 62 257 125 41 107 48 113 118 55 221 74 75 48 229 46 45 88 44 45 67 41 73 393 755 72
internal_value=41600 41600 41600 41600 41600 41600 41600 41600 41600 41600 41600 41600 41600 41600 41600 41600 41600 41600 41600 41600 41600 41600 41600 41600 41600 41600 41600 41600 41600 41600 41600 41600 41600 41600 41600 41600 41600 41600 41600 41600 41600 41600 41600 41600 41600 41600 41600 41600 41600 41600 41600 41600 41600 41600 41600 41600 41600 41600 41600 41600 41600 41600
internal_weight=68869 17062 11685 5377 10260 1425 4017 4999 3852 6243 3720 2469 3383 2354 2790 977 2222 2530 6098 5197 596 4601 2113 1114 378 999 967 901 389 2401 512 1889 1666 1059 401 318 2405 2319 576 368 145 165 2257 443 631 181 269 994 115 330 282 125 4550 4460 4372 90 4328 86 126 513 912 1988
internal_count=68869 17062 11685 5377 10260 1425 4017 4999 3852 6243 3720 2469 3383 2354 2790 977 2222 2530 6098 5197 596 4601 2113 1114 378 999 967 901 389 2401 512 1889 1666 1059 401 318 2405 2319 576 368 145 165 2257 443 631 181 269 994 115 330 282 125 4550 4460 4372 90 4328 86 126 513 912 1988
is_linear=0
shrinkage=1


Tree=1
num_leaves=63
num_cat=0
split_feature=0 0 0 11 64 1 11 67 15 0 1 0 0 1 5 11 5 5 0 5 11 0 66 11 4 0 18 0 0 0 11 11 1 0 1 4 54 33 16 49 4 11 11 11 2 5 11 11 11 11 54 2 13 52 0 0 4 54 2 14 0 2
split_gain=1790.48 548.626 293.802 78.7159 60.7403 48.9865 39.7011 28.9524 23.88 23.9453 30.3216 22.8235 17.046 17.025 16.3659 14.341 19.0069 13.6975 13.3394 12.6028 11.3965 11.0504 10.8149 9.99242 8.88809 8.75767 12.443 8.44122 7.88683 7.68159 7.67654 12.9227 7.4248 7.07006 6.97462 6.80072 7.73498 6.62794 6.71306 6.41292 5.69253 5.64034 5.26908 5.17294 5.14098 5.05933 4.676 4.57309 7.9492 4.37134 4.30481 4.04969 4.04275 3.8965 3.88339 6.87837 6.36923 3.81471 3.76179 3.95533 5.59577 3.67686
threshold=96016.960728398422 93255.550251918234 44608.058846027801 5.7348001701159284 1.0000000180025095e-35 96162.179024545723 6.8539910692723671 1.0000000180025095e-35 1.0000000180025095e-35 95791.811365779417 95808.339406096333 91288.731194656328 58731.37403577954 94479.094704308882 93447.721255070806 2.4414009612931857 93447.721255070806 69612.223127105768 58731.37403577954 93447.721255070806 5.5816130673839615 89478.294061633016 1.0000000180025095e-35 2.1383330595080281 2.5000000000000004 95920.734455005033 1.0000000180025095e-35 93961.455282881725 96134.416167360643 95937.77766952703 6.2456257938819189 6.4425198812581437 115356.68885942594 95920.734455005033 104399.08642949648 1.5000000000000002 1.0000000180025095e-35 1.0000000180025095e-35 1.0000000180025095e-35 1.0000000180025095e-35 1.5000000000000002 3.5972184255501678 3.5694334999727624 4.4484992763719129 94451.233644787673 78653.712902221116 5.2067163944374064 4.2835627800822236 4.1026092131977068 2.1383330595080281 1.0000000180025095e-35 101279.41400138033 1.0000000180025095e-35 1.0000000180025095e-35 67676.357575333008 58550.522555401061 1.5000000000000002 1.0000000180025095e-35 107958.32781049599 1.0000000180025095e-35 95065.388362241923 78298.782079587356
decision_type=2 2 2 2 2 2 2 2 2 2 2 2 2 2 2 2 2 2 2 2 2 2 2 2 2 2 2 2 2 2 2 2 2 2 2 2 2 2 2 2 2 2 2 2 2 2 2 2 2 2 2 2 2 2 2 2 2 2 2 2 2 2
left_child=1 2 6 8 5 7 20 11 9 10 39 12 14 29 42 35 -17 -6 19 41 51 22 61 -19 37 -15 -27 -10 -2 33 -5 -32 46 -11 -23 36 -12 38 43 40 53 -7 -4 -14 -9 -42 47 48 -18 -21 -16 -1 -33 57 55 -25 -56 -3 59 60 -29 -20
right_child=28 3 4 30 17 18 -8 44 27 13 15 -13 24 25 50 16 32 23 21 49 -22 34 -24 54 -26 26 -28 58 -30 -31 31 52 -34 -35 -36 -37 -38 -39 -40 -41 45 -43 -44 -45 -46 -47 -48 -49 -50 -51 -52 -53 -54 -55 56 -57 -58 -59 -60 -61 -62 -63
leaf_value=-732.95417062458841 -6.9958145955213702 -635.74460797185498 -545.80183579990262 2.0600390136019997 -843.51539107779286 -457.30134654299093 -845.54601941206931 -866.19766113281264 542.22794546734508 -20.280586110451623 -573.94809501399504 -789.55513727299012 -305.30000033241561 -20.800000000000001 -293.86289729741185 -528.10397588167405 -424.16583203659013 -112.35896779877717 -213.68711582501311 -417.71209304992499 -274.76842405602804 -606.61509260138484 -277.84605431713283 -667.21398230117745 246.80001738965512 -30.636791048482703 0 -417.64400386635737 876.6168415903129 -38.113256044063021 -571.37812943148492 330.28561009614316 -262.18411434000262 26 -183.03246210386351 -348.39999697804456 -362.96551370184682 -421.20000000000005 -558.26703785691905 -394.61882681730788 -594.61999708265068 -408.74554551820211 -390.54600006625043 44.967443075898643 -636.92212388034204 -494 -625.32521321221873 -256.21280705633257 -707.85771962523143 -9.0827312347857525 44.599468576574147 -665.28855095854487 -402.47258229439717 -524.24227451526428 -882.23499710746114 -179.97199962131685 -587.91499233432114 -413.48655849178471 -196.70865786484222 -554 -201.5400081485019 152.80971914216025
leaf_weight=407 249 1754 128 199 94 178 448 102 68 89 892 337 1411 127 375 375 234 70 346 120 193 435 51 40 390 237 47 46 51303 64 73 101 146 94 458 131 51 196 304 77 41 71 81 475 56 200 123 89 44 355 113 126 42 57 65 51 51 66 45 53 67 4158
leaf_count=407 249 1754 128 199 94 178 448 102 68 89 892 337 1411 127 375 375 234 70 346 120 193 435 51 40 390 237 47 46 51303 64 73 101 146 94 458 131 51 196 304 77 41 71 81 475 56 200 123 89 44 355 113 126 42 57 65 51 51 66 45 53 67 4158
internal_value=0.000168363 -0.0137417 -0.00756311 -0.0265607 -0.00491342 -0.00418639 -0.0312862 -0.00852066 -0.0282279 -0.029032 -0.0303972 -0.00765092 -0.00644544 -0.020152 -0.0134362 -0.0260791 -0.0218051 -0.0247844 -0.00139987 -0.00777624 -0.0240634 -0.000552496 0.000444567 -0.0191877 -0.0046902 -0.0263869 -0.0312676 -0.0139964 0.00484094 -0.00977733 -0.00560241 -0.0121296 -0.0165409 -0.00456284 -0.0056383 -0.0301024 -0.0315854 -0.00583403 -0.00504566 -0.0344989 -0.0350142 -0.0168875 -0.0251435 -0.00393425 -0.0294937 -0.0277801 -0.0194898 -0.0166621 -0.0198201 -0.003 -0.00842213 -0.027833 -0.00339161 -0.035943 -0.0247101 -0.016978 -0.0307759 -0.0363462 -0.0189336 -0.0224096 -0.0171239 0.000703819
internal_weight=68869 17317 11685 5632 10511 10140 1174 3968 5217 4938 4280 3810 3473 658 697 2085 1011 371 6172 724 726 5448 4555 277 2776 411 284 279 51552 247 415 216 636 183 893 1074 943 2386 2190 2195 2118 249 209 1886 158 241 490 367 278 475 488 533 143 1877 207 91 116 1820 211 166 113 4504
internal_count=68869 17317 11685 5632 10511 10140 1174 3968 5217 4938 4280 3810 3473 658 697 2085 1011 371 6172 724 726 5448 4555 277 2776 411 284 279 51552 247 415 216 636 183 893 1074 943 2386 2190 2195 2118 249 209 1886 158 241 490 367 278 475 488 533 143 1877 207 91 116 1820 211 166 113 4504
is_linear=0
shrinkage=0.05


Tree=2
num_leaves=63
num_cat=0
split_feature=0 0 0 0 10 1 10 1 67 5 0 5 0 5 10 2 4 5 15 10 0 5 0 66 31 4 4 10 10 1 67 5 49 10 10 50 4 5 10 49 2 10 4 10 1 10 0 62 0 2 39 52 14 28 0 0 0 2 2 2 67 4
split_gain=1664.06 421.29 285.14 148.435 72.6647 55.2495 41.4944 30.4293 27.0017 28.5081 24.2555 21.4726 16.9891 13.6326 12.8733 14.1537 12.0944 12.0734 11.5739 10.6579 10.5576 12.7914 11.4705 10.6704 7.66686 7.60091 8.63882 6.87424 10.9636 6.82171 6.78472 7.30616 5.9476 5.40163 4.94649 4.91813 4.87008 5.05933 4.81883 4.75981 4.6632 4.51022 5.45818 4.49756 4.4654 4.46125 4.43269 4.42921 4.18577 4.0952 4.12779 4.05828 4.04738 3.65932 3.44556 18.8353 10.9226 3.58394 3.43505 4.07945 3.28795 3.27575
threshold=96206.537896869544 93255.550251918234 44608.058846027801 95791.811365779417 308.50000000000006 95808.339406096333 969.00000000000011 95808.339406096333 1.0000000180025095e-35 78653.712902221116 89478.294061633016 63157.750998645235 58731.37403577954 78653.712902221116 10.500000000000002 111773.28769287966 1.5000000000000002 93447.721255070806 1.0000000180025095e-35 173.50000000000003 58731.37403577954 93447.721255070806 89478.294061633016 1.0000000180025095e-35 1.0000000180025095e-35 1.5000000000000002 1.0000000180025095e-35 515.00000000000011 627.00000000000011 104399.08642949648 1.0000000180025095e-35 89659.307348389455 1.0000000180025095e-35 181.50000000000003 9.5000000000000018 1.0000000180025095e-35 1.5000000000000002 78653.712902221116 37.500000000000007 1.0000000180025095e-35 94451.233644787673 153.00000000000003 1.0000000180025095e-35 256.50000000000006 111576.25667068698 4.5000000000000009 95065.388362241923 1.0000000180025095e-35 94159.125680182144 78298.782079587356 1.0000000180025095e-35 1.0000000180025095e-35 1.0000000180025095e-35 1.0000000180025095e-35 96016.960728398422 95937.77766952703 95920.734455005033 108084.35618516071 101133.54194532994 94486.570316512385 1.0000000180025095e-35 2.5000000000000004
decision_type=2 2 2 2 2 2 2 2 2 2 2 2 2 2 2 2 2 2 2 2 2 2 2 2 2 2 2 2 2 2 2 2 2 2 2 2 2 2 2 2 2 2 2 2 2 2 2 2 2 2 2 2 2 2 2 2 2 2 2 2 2 2
left_child=1 2 6 4 7 8 19 18 9 -4 12 44 17 -9 16 30 48 45 32 41 21 34 23 49 -23 26 35 -6 -29 -24 31 -16 36 58 -13 38 51 -38 47 -12 -10 42 -1 52 -7 -11 -18 -14 -15 61 60 -3 54 -28 55 56 -5 -57 59 -33 -51 -22
right_child=-2 3 5 43 27 11 -8 13 40 10 39 20 25 14 15 -17 46 -19 -20 -21 22 24 29 -25 -26 -27 53 28 -30 -31 -32 33 -34 -35 -36 -37 37 -39 -40 -41 -42 -43 -44 -45 -46 -47 -48 -49 -50 50 -52 -53 -54 -55 -56 57 -58 -59 -60 -61 -62 -63
leaf_value=-738.39379409427863 832.78599951079707 -587.71056760822216 -639.20623046819389 -19.364056774903293 90.319538068228439 -562.83486593726445 -803.26871844146592 -566.39480120591622 -822.88777807617191 -368.94601165019304 -654.35074205669446 -358.79372928506166 -266.8435498736618 -781.15242239120198 -436.8748007660339 -290.02542482674318 -335.13999897331018 -271.87375733135508 -463.18000006973745 -263.25740402973935 -280.17805559487351 -45.815618444297797 -577.82098746892336 -263.95375160127622 -525.58415297962745 152.4599991305171 -477.07993487621872 -548.97481107930832 -193.34022559474005 -177.31255130114297 -689.83138628303925 -388.05530866411721 -374.88788547644253 -604.8629247554087 -419.34591340011633 -552.25752550810978 -564.88899722851818 -469.30000000000001 21.414072963717857 -320.54462249776049 -605.42521691027832 -380.64925435939551 -545.28627497873026 1.372796472085247 -235.92272085654324 -501.77328439490088 -254.35954852728975 -554.71929395243603 -465.30259524930011 179.27756891337455 -440.78214195758483 -498.030160789501 0.76592003871326708 -33.537672232617972 -7.4755942234241957 -37.081455565452053 1.5318395524242079 -27.238235010734019 -419.91460304573405 -40.18641225099973 -491.89777510789531 420.5811586696845
leaf_weight=341 51079 1820 194 213 171 116 448 121 99 43 466 99 820 177 247 221 77 445 113 210 271 478 474 51 40 528 234 67 120 459 46 140 77 115 126 177 41 200 606 47 54 43 132 125 41 137 60 56 756 4142 83 57 116 53 394 132 201 47 178 73 68 104
leaf_count=341 51079 1820 194 213 171 116 448 121 99 43 466 99 820 177 247 221 77 445 113 210 271 478 474 51 40 528 234 67 120 459 46 140 77 115 126 177 41 200 606 47 54 43 132 125 41 137 60 56 756 4142 83 57 116 53 394 132 201 47 178 73 68 104
internal_value=0.000288882 -0.0128808 -0.00731921 -0.0235258 -0.027438 -0.00470888 -0.0306899 -0.0291558 -0.00937232 -0.0085444 -0.00754153 -0.00189103 -0.00587448 -0.0249638 -0.0240191 -0.02 -0.0278505 -0.01324 -0.0331716 -0.0233058 -0.00144253 -0.00704576 -0.000705945 0.000295614 -0.00272201 -0.00401374 -0.00545735 -0.00575419 -0.0123797 -0.0057717 -0.0230976 -0.0219588 -0.0339749 -0.0185178 -0.017 -0.00407173 -0.0344712 -0.0277801 -0.0031309 -0.0176121 -0.0299673 -0.0271705 -0.0257611 -0.0079886 -0.0201592 -0.0241667 -0.0139781 -0.00550228 -0.0298875 0.00054413 0.000981831 -0.0353303 -0.00900725 -0.0134669 -0.0100456 -0.0124536 -0.0065942 -0.0260056 -0.0157161 -0.0114319 0.00119953 -0.00446667
internal_weight=68869 17790 11685 6105 4877 10511 1174 4519 3959 3806 3612 6552 3099 2211 2090 1020 1070 625 2308 726 6395 743 5652 4719 518 2474 1946 358 187 933 799 753 2195 506 225 1659 2118 241 1482 513 153 516 473 1228 157 180 137 876 933 4668 4293 1877 1103 287 987 593 414 179 391 213 4210 375
internal_count=68869 17790 11685 6105 4877 10511 1174 4519 3959 3806 3612 6552 3099 2211 2090 1020 1070 625 2308 726 6395 743 5652 4719 518 2474 1946 358 187 933 799 753 2195 506 225 1659 2118 241 1482 513 153 516 473 1228 157 180 137 876 933 4668 4293 1877 1103 287 987 593 414 179 391 213 4210 375
is_linear=0
shrinkage=0.05


Tree=3
num_leaves=63
num_cat=0
split_feature=0 0 0 0 10 64 10 1 1 67 0 48 0 5 5 0 5 49 5 0 4 49 66 10 10 4 4 5 10 5 31 10 10 48 1 0 10 4 2 10 10 0 0 0 10 1 0 4 0 0 17 62 10 10 10 10 0 17 4 0 64 10
split_gain=1591.84 372.925 269.382 145.505 70.801 57.8389 46.7865 41.364 30.3791 25.4716 20.3237 19.4184 18.7469 14.866 14.161 11.7029 12.6162 11.631 11.6151 10.2617 9.91464 11.6204 9.80418 9.76339 9.36574 9.30807 8.40761 8.08305 8.05991 9.79031 7.66686 7.62363 7.3585 6.91632 6.10148 5.79322 5.45736 6.18251 5.33016 5.1358 4.85562 4.78964 9.23159 12.5038 6.3605 4.74442 4.59885 6.90929 5.14183 4.55073 4.26534 4.41085 4.22549 4.31673 4.20327 7.82913 4.15078 4.01334 3.99226 3.95048 3.784 3.56198
threshold=96303.263568579787 93255.550251918234 44608.058846027801 95699.170142955452 308.50000000000006 1.0000000180025095e-35 969.00000000000011 95808.339406096333 95808.339406096333 1.0000000180025095e-35 91288.731194656328 1.0000000180025095e-35 58731.37403577954 93447.721255070806 69612.223127105768 58731.37403577954 93447.721255070806 1.0000000180025095e-35 78653.712902221116 89478.294061633016 1.5000000000000002 1.0000000180025095e-35 1.0000000180025095e-35 7.5000000000000009 173.50000000000003 1.5000000000000002 1.5000000000000002 78653.712902221116 10.500000000000002 93447.721255070806 1.0000000180025095e-35 36.500000000000007 181.50000000000003 1.0000000180025095e-35 104399.08642949648 96206.537896869544 153.00000000000003 1.0000000180025095e-35 94451.233644787673 35.500000000000007 34.500000000000007 96016.960728398422 95937.77766952703 95920.734455005033 256.50000000000006 96500.463981116802 67676.357575333008 1.5000000000000002 58550.522555401061 94159.125680182144 1.0000000180025095e-35 1.0000000180025095e-35 136.50000000000003 90.500000000000014 469.00000000000006 627.00000000000011 94159.125680182144 1.0000000180025095e-35 1.0000000180025095e-35 93961.455282881725 1.0000000180025095e-35 241.50000000000003
decision_type=2 2 2 2 2 2 2 2 2 2 2 2 2 2 2 2 2 2 2 2 2 2 2 2 2 2 2 2 2 2 2 2 2 2 2 2 2 2 2 2 2 2 2 2 2 2 2 2 2 2 2 2 2 2 2 2 2 2 2 2 2 2
left_child=1 2 6 4 8 7 24 9 17 10 12 18 13 40 -7 16 39 25 -10 22 21 28 57 -16 36 52 31 -27 56 -30 -18 50 -31 54 -21 41 37 -1 -11 -9 -4 42 43 45 -44 -5 48 -48 -25 -23 51 58 53 60 -6 -56 -20 -17 -14 -22 -3 -12
right_child=-2 3 5 35 33 14 -8 15 11 38 61 -13 26 -15 23 19 30 -19 20 34 59 49 -24 46 -26 27 -28 -29 29 32 -32 -33 -34 -35 -36 -37 -38 -39 -40 -41 -42 -43 44 -45 -46 -47 47 -49 -50 -51 -52 -53 -54 -55 55 -57 -58 -59 -60 -61 -62 -63
leaf_value=-701.47410438956467 809.61260321026646 -564.94709730212674 -511.2762687018585 -15.488594579670616 -2.5589398404896202 -770.52488099763741 -763.10528251939252 -404.62642451934181 -538.07506114562023 -781.74338917236355 -687.18107289846921 -123.29766149922617 -387.1443283396984 -258.28006946478729 -95.490203342409487 -8.3513347215008249 -43.524837522082819 -364.0690940408781 -742.20859034007663 -576.21897487483625 -181.67821763662198 783.34621292664553 -250.7560640212123 -612.47385090065029 -250.09453382825234 -541.84454744457832 144.83699917399136 -445.83499999999987 -446.33671813579787 -448.58042305049986 -499.30494533064598 -112.12758927367616 -537.59580722549038 764.00571642616023 -165.01521143361353 -18.649296544113895 -361.61679164142589 -518.02196122979365 -575.15395606476454 -365.98641785899065 -346.0054357810493 -5.9762363119552901 -34.194944849374956 1.4552475748030702 -5.6401218313309078 -24.239635414404258 -810.72383351937469 -525.80170862037448 -163.98710375004487 -282.12554844301451 -22.444989888659805 -543.24073199191105 -582.4714498198108 -311.42729884361364 -512.99708393322805 -239.40349302875185 -442.03746548683523 539.87705815699121 -447.16666293277041 -334.56250704191621 -752.59531647371659 -923.72318706831038
leaf_weight=341 50837 1435 125 259 78 94 448 181 116 99 272 104 833 445 70 3824 478 100 163 467 42 40 51 40 210 40 550 210 218 400 40 846 109 119 458 242 43 132 54 72 80 473 210 255 45 230 65 51 51 61 158 58 254 48 74 81 635 795 203 197 109 51
leaf_count=341 50837 1435 125 259 78 94 448 181 116 99 272 104 833 445 70 3824 478 100 163 467 42 40 51 40 210 40 550 210 218 400 40 846 109 119 458 242 43 132 54 72 80 473 210 255 45 230 65 51 51 61 158 58 254 48 74 81 635 795 203 197 109 51
internal_value=0.000341881 -0.0124218 -0.00712238 -0.0221782 -0.0267829 -0.0045852 -0.0298382 -0.00387574 -0.0285552 -0.00802332 -0.00717896 -0.0242326 -0.00600667 -0.0136154 -0.0239757 -0.0014169 -0.00719196 -0.0326594 -0.0253382 -0.00062109 -0.0243834 -0.0257811 0.000331906 -0.0182852 -0.0219972 -0.0334542 -0.00413897 -0.0244 -0.0268689 -0.0230605 -0.00272201 -0.00558151 -0.0192633 -0.00522727 -0.00543243 -0.00973162 -0.0256202 -0.0240698 -0.0280065 -0.0163439 -0.0247561 -0.00855299 -0.0105155 -0.00770161 -0.0187255 -0.0123824 -0.023744 -0.0303448 -0.0153297 -0.00935644 -0.00805911 -0.00916819 -0.0346804 -0.0337249 -0.0102361 -0.015 -0.0303383 0.000572635 -0.00841699 -0.0148745 -0.0341839 -0.0191486
internal_weight=68869 18032 11685 6347 4633 10511 1174 10140 4281 3774 3621 2085 3298 650 371 6366 771 2196 1981 5595 1865 1626 4670 277 726 2096 2648 250 1525 727 518 2098 509 352 925 1714 516 473 153 253 205 1472 999 744 255 489 207 116 91 101 1252 1094 1846 1592 233 155 798 4619 1036 239 1544 323
internal_count=68869 18032 11685 6347 4633 10511 1174 10140 4281 3774 3621 2085 3298 650 371 6366 771 2196 1981 5595 1865 1626 4670 277 726 2096 2648 250 1525 727 518 2098 509 352 925 1714 516 473 153 253 205 1472 999 744 255 489 207 116 91 101 1252 1094 1846 1592 233 155 798 4619 1036 239 1544 323
is_linear=0
shrinkage=0.05


Tree=4
num_leaves=63
num_cat=0
split_feature=0 0 0 0 10 64 10 1 1 67 0 48 5 0 5 0 5 5 15 4 10 5 0 10 66 10 4 54 0 0 1 0 0 18 2 2 48 10 10 50 5 4 10 10 0 0 4 0 4 10 10 2 4 10 10 2 59 2 2 16 10 5
split_gain=1507.11 331.269 252.516 136.905 67.5363 55.1561 49.4184 35.4636 28.851 22.8971 20.8558 18.2691 15.322 13.5063 16.4302 12.3215 11.9672 11.9015 11.5353 11.0116 11.0223 12.6643 9.00142 8.70215 8.18769 7.41979 6.61399 6.33222 6.04996 7.17242 13.6538 8.31489 14.1935 17.9777 6.00511 5.85785 5.71671 5.33478 5.12865 4.93101 4.90252 6.56648 4.81191 4.88094 4.63646 4.48065 7.59526 5.0267 4.42797 6.05627 4.30112 4.25622 4.16661 4.06485 6.86835 4.04061 5.25404 4.49133 4.05294 3.86697 6.27646 3.76171
threshold=96382.582529982596 93255.550251918234 44608.058846027801 95609.229537861363 308.50000000000006 1.0000000180025095e-35 969.00000000000011 96162.179024545723 95808.339406096333 1.0000000180025095e-35 90400.94395885487 1.0000000180025095e-35 69612.223127105768 58731.37403577954 93447.721255070806 58731.37403577954 78653.712902221116 93447.721255070806 1.0000000180025095e-35 1.5000000000000002 10.500000000000002 93447.721255070806 89478.294061633016 7.5000000000000009 1.0000000180025095e-35 264.50000000000006 1.5000000000000002 1.0000000180025095e-35 96206.537896869544 95920.734455005033 96500.463981116802 95937.77766952703 96016.960728398422 1.0000000180025095e-35 94451.233644787673 86800.621132982298 1.0000000180025095e-35 34.500000000000007 36.500000000000007 1.0000000180025095e-35 78653.712902221116 1.5000000000000002 294.50000000000006 29.500000000000004 95791.811365779417 67676.357575333008 1.5000000000000002 58550.522555401061 1.0000000180025095e-35 153.00000000000003 35.500000000000007 103207.53288372398 1.5000000000000002 51.500000000000007 31.500000000000004 111522.90296302047 1.0000000180025095e-35 101133.54194532994 93692.698999133849 1.0000000180025095e-35 10.500000000000002 105831.60128504939
decision_type=2 2 2 2 2 2 2 2 2 2 2 2 2 2 2 2 2 2 2 2 2 2 2 2 2 2 2 2 2 2 2 2 2 2 2 2 2 2 2 2 2 2 2 2 2 2 2 2 2 2 2 2 2 2 2 2 2 2 2 2 2 2
left_child=1 2 6 4 8 7 25 9 18 10 13 16 -7 14 37 17 -10 50 40 20 27 -22 24 -14 -17 48 38 -18 29 30 52 -31 33 -33 -11 -24 -6 -4 59 -40 -3 51 43 -12 61 47 -47 -25 49 53 -9 -42 -5 54 -1 56 57 58 -23 -15 -61 -32
right_child=-2 3 5 28 36 12 -8 15 11 34 42 -13 23 26 -16 22 19 -19 -20 -21 21 55 35 45 -26 -27 -28 -29 -30 31 44 32 -34 -35 -36 -37 -38 -39 39 -41 41 -43 -44 -45 -46 46 -48 -49 -50 -51 -52 -53 -54 -55 -56 -57 -58 -59 -60 60 -62 -63
leaf_value=-485.23172586416149 810.20872630188353 -651.48527172478248 -463.0491119420812 -12.354375760898991 -312.27189669645782 -731.99863694775547 -724.95001839342297 -393.23766231986832 -511.1713080883394 -742.65621971374537 -632.16285122710372 -121.1805909845818 -90.715693175289104 -318.56112814653721 -229.58135348689666 96.224586284670352 -514.12063783998281 -216.41684579986324 -416.5461040194125 -310.41333722530533 -426.62114208138468 -433.51950076925198 -591.06174289849355 -581.85015835561785 -238.21826082015178 -235.36240596032695 134.85511395818466 -309.85992667779215 -19.169626150775056 1.3824851960627713 -34.0232810398374 -32.537498836521628 -5.6774244963577081 476.49105813099106 -546.04705903757281 -293.91808484194627 725.80543060485218 -328.62976405414048 -17.63414765732848 -445.92714844502171 -554.18393921032816 -423.54324999999994 -582.5015682272458 -642.70155561990077 -17.822002794899163 -770.18764184340591 -499.5116231893557 -155.78774856254279 -492.12086316830391 -343.53595205935454 -349.04165167933672 -509.76333049477728 -22.567337951630424 -31.440566046121184 -761.39487216246607 -315.96010223675597 -197.80066725193976 -551.95405060635642 -354.00051591408521 -347.77453799757933 -627.95280508191354 -30.893726392564602
leaf_weight=246 50580 164 128 369 226 94 448 178 111 102 223 102 70 1146 488 4504 739 475 104 229 210 108 149 40 51 193 566 50 499 255 98 185 473 70 56 744 119 81 726 128 1377 173 47 145 107 65 51 51 132 60 71 243 43 46 49 157 49 151 78 73 59 115
leaf_count=246 50580 164 128 369 226 94 448 178 111 102 223 102 70 1146 488 4504 739 475 104 229 210 108 149 40 51 193 566 50 499 255 98 185 473 70 56 744 119 81 726 128 1377 173 47 145 107 65 51 51 132 60 71 243 43 46 49 157 49 151 78 73 59 115
internal_value=0.000418839 -0.0118817 -0.00682285 -0.0208328 -0.0259453 -0.00436638 -0.028816 -0.00367357 -0.0277565 -0.00736139 -0.00658793 -0.0234526 -0.0233019 -0.00529455 -0.0114993 -0.00130266 -0.0245696 -0.00743094 -0.0318996 -0.0235714 -0.0250908 -0.0207636 -0.000488252 -0.0173827 0.000411636 -0.0207576 -0.00369162 -0.0292205 -0.0106956 -0.00928571 -0.0130328 -0.00649542 -0.00921703 -0.0187255 -0.0260127 -0.00507839 -0.00471014 -0.0232297 -0.00496717 -0.00196721 -0.0327619 -0.032005 -0.0171687 -0.0152446 -0.0207812 -0.0225362 -0.0290517 -0.0142308 -0.0237992 -0.0211845 -0.0162851 -0.0329938 -0.00701456 -0.018607 -0.0207627 -0.0167311 -0.0194819 -0.0217062 -0.0165054 -0.00697183 -0.0150758 -0.0250469
internal_weight=68869 18289 11685 6604 4390 10511 1174 10140 4045 3968 3810 1984 371 3395 697 6172 1882 724 2061 1771 1542 753 5448 277 4555 726 2698 789 2214 1715 732 983 728 255 158 893 345 209 2132 854 1957 1793 415 368 320 207 116 91 533 401 249 1620 412 341 295 543 386 337 186 1278 132 213
internal_count=68869 18289 11685 6604 4390 10511 1174 10140 4045 3968 3810 1984 371 3395 697 6172 1882 724 2061 1771 1542 753 5448 277 4555 726 2698 789 2214 1715 732 983 728 255 158 893 345 209 2132 854 1957 1793 415 368 320 207 116 91 533 401 249 1620 412 341 295 543 386 337 186 1278 132 213
is_linear=0
shrinkage=0.05


Tree=5
num_leaves=63
num_cat=0
split_feature=0 0 0 0 48 64 10 0 67 10 0 0 5 49 4 5 5 2 2 0 10 5 41 4 2 10 10 10 10 13 4 4 26 15 0 0 50 5 10 10 18 10 49 10 10 10 62 63 64 2 10 64 50 10 10 0 0 18 0 10 10 10
split_gain=1525.61 336.708 229.282 109.043 67.3481 56.0374 54.6408 39.2966 29.1564 28.655 24.9751 33.7056 30.8853 23.8093 23.0538 14.9214 14.8054 14.7773 14.5747 9.40435 9.27801 13.1053 8.40103 7.92705 12.496 7.79468 7.73314 7.50562 7.42704 7.0695 7.06217 6.98919 6.90736 6.78798 6.49515 6.17549 6.11143 6.14346 6.06053 9.72135 5.79166 7.03385 5.80711 5.21088 5.06651 10.2239 6.93066 6.574 4.88914 4.66006 4.5234 4.48463 4.46526 5.36178 8.55997 4.2724 8.66771 17.9823 10.9759 4.24083 4.93646 4.17343
threshold=96476.358802630639 93255.550251918234 44608.058846027801 95497.788282897134 1.0000000180025095e-35 1.0000000180025095e-35 969.00000000000011 96382.582529982596 1.0000000180025095e-35 325.50000000000006 89478.294061633016 58731.37403577954 93447.721255070806 1.0000000180025095e-35 1.5000000000000002 69612.223127105768 78653.712902221116 95069.590489108072 111522.90296302047 95699.170142955452 2.5000000000000004 93447.721255070806 1.0000000180025095e-35 2.5000000000000004 82488.175643770592 173.50000000000003 7.5000000000000009 8.5000000000000018 153.00000000000003 1.0000000180025095e-35 1.0000000180025095e-35 2.5000000000000004 1.0000000180025095e-35 1.0000000180025095e-35 96206.537896869544 95065.388362241923 1.0000000180025095e-35 78653.712902221116 44.500000000000007 31.500000000000004 1.0000000180025095e-35 294.50000000000006 1.0000000180025095e-35 90.500000000000014 84.500000000000014 83.500000000000014 1.0000000180025095e-35 1.0000000180025095e-35 1.0000000180025095e-35 74930.597103814114 34.500000000000007 1.0000000180025095e-35 1.0000000180025095e-35 627.00000000000011 515.00000000000011 96016.960728398422 95937.77766952703 1.0000000180025095e-35 95920.734455005033 469.00000000000006 25.500000000000004 175.50000000000003
decision_type=2 2 2 2 2 2 2 2 2 2 2 2 2 2 2 2 2 2 2 2 2 2 2 2 2 2 2 2 2 2 2 2 2 2 2 2 2 2 2 2 2 2 2 2 2 2 2 2 2 2 2 2 2 2 2 2 2 2 2 2 2 2
left_child=1 2 6 4 9 8 25 19 10 13 11 12 31 14 17 -7 -16 51 22 -5 -19 -22 40 24 -13 28 -17 -14 30 61 38 50 -10 48 55 -15 37 -26 39 -1 41 42 -12 -9 45 46 47 -39 49 -18 -4 -3 53 54 -11 56 58 -58 -21 60 -38 -23
right_child=-2 3 5 7 -6 15 -8 43 32 52 18 23 27 35 16 26 33 20 -20 34 21 29 -24 -25 36 -27 -28 -29 -30 -31 -32 -33 -34 -35 -36 -37 59 44 -40 -41 -42 -43 -44 -45 -46 -47 -48 -49 -50 -51 -52 -53 -54 -55 -56 -57 57 -59 -60 -61 -62 -63
leaf_value=-450.6374580756584 810.15563305964974 -489.55430805706231 -417.4580787623911 -38.103168156755423 83.124051468335708 -650.1566530349229 -688.70251747375187 -30.335421568211316 -535.97997906024102 -61.469974534094582 -589.61766748731873 -246.36755735387325 -380.15073345779444 -330.64347964258695 -399.95794037383024 -229.15557288883721 -402.36608749999982 -587.73021294547436 -179.90012197501758 -18.644583307519465 -507.71942680510904 -473.74157789948032 520.43981602208748 493.73540697158001 -355.3040930732343 -235.66006824768994 -547.37812132746205 -71.962887397156621 -322.26569687616143 -395.1734003425405 -490.70256705823351 -118.68493327659633 -666.78560881043222 1222.105308841074 -19.579229227245378 -184.905497112662 -610.52569100641529 34.00011568402806 -20.0736856093665 -752.65840000526373 22.570154449332769 -617.49896969887038 152.95097769731669 -22.108195037677799 244.40907346933028 -251.92944838003964 -370.77361208628031 -505.93164320137913 -384.5341758356812 -319.49587142571949 -316.00732342489687 -668.87129794283146 -490.68398241766704 393.06618369511762 -507.9857071337243 -5.8312018004835409 -31.003768163620773 765.09244128946671 1.3133609362597782 -496.38763594231972 -20.882655454624324 -489.17326722460513
leaf_weight=238 50203 1647 252 484 225 92 448 239 149 58 738 1061 238 133 55 70 83 392 402 515 117 500 74 1047 56 213 197 723 46 134 129 64 113 45 473 42 84 2746 60 44 70 79 63 54 1502 46 126 61 46 228 155 145 46 73 57 489 190 69 255 58 215 120
leaf_count=238 50203 1647 252 484 225 92 448 239 149 58 738 1061 238 133 55 70 83 392 402 515 117 500 74 1047 56 213 197 723 46 134 129 64 113 45 473 42 84 2746 60 44 70 79 63 54 1502 46 126 61 46 228 155 145 46 73 57 489 190 69 255 58 215 120
internal_value=0.000291235 -0.011952 -0.00676773 -0.0206942 -0.0258249 -0.00441704 -0.0276825 -0.0130094 -0.00372851 -0.0273514 -0.00329107 -0.00225634 -0.00924581 -0.0284283 -0.0293252 -0.0238301 -0.0188512 -0.030892 -0.00941094 -0.0109596 -0.0267498 -0.0238749 -0.0125781 -0.000826906 -0.00153233 -0.0192466 -0.0178464 -0.0041051 -0.0225629 -0.0214589 -0.02069 -0.0197346 -0.0201908 -0.0155224 -0.00943998 -0.0104286 -0.000465876 2.97555e-05 -0.0169298 -0.02 -0.0138421 -0.0149432 -0.0135393 -0.0303242 0.000235439 -0.000958375 -0.000591544 -7.6594e-05 -0.0178291 -0.0155788 -0.0221499 -0.0338114 -0.0103846 -0.00696808 -0.0136957 -0.00784585 -0.00967444 -0.0175869 -0.00701299 -0.00676471 -0.00436455 -0.0237097
internal_weight=68776 18573 11659 6914 4146 10481 1178 2768 10122 3921 9860 8434 1432 3687 3512 359 457 3055 1426 2475 1263 871 1024 7002 5955 730 267 961 517 754 471 471 262 402 1991 175 4894 4537 342 282 950 880 801 293 4481 2979 2933 2807 357 311 407 1792 234 188 115 1518 1029 259 770 357 299 620
internal_count=68776 18573 11659 6914 4146 10481 1178 2768 10122 3921 9860 8434 1432 3687 3512 359 457 3055 1426 2475 1263 871 1024 7002 5955 730 267 961 517 754 471 471 262 402 1991 175 4894 4537 342 282 950 880 801 293 4481 2979 2933 2807 357 311 407 1792 234 188 115 1518 1029 259 770 357 299 620
is_linear=0
shrinkage=0.05


Tree=6
num_leaves=63
num_cat=0
split_feature=0 0 0 0 11 11 64 0 67 0 0 5 48 49 5 2 5 20 11 23 0 50 66 0 50 5 41 67 62 26 11 11 11 2 11 11 0 11 5 0 59 5 2 13 2 18 11 0 49 64 11 48 2 0 36 11 50 0 0 18 0 0
split_gain=1498.82 343.886 219.594 97.3199 63.8599 55.3935 51.2539 47.2849 30.0023 22.4501 29.6065 27.2014 21.4275 22.3611 14.4818 13.0398 12.2935 11.523 9.29927 8.52692 8.00719 7.69155 7.67791 7.9143 9.07396 7.77708 7.65975 7.33548 7.27996 7.17413 7.13644 7.12706 7.3345 6.97901 8.66828 7.77692 6.80422 6.51148 6.41975 6.17549 6.12902 6.06441 5.87133 5.28066 5.26244 5.14986 6.40682 5.83432 4.80624 4.56714 4.50028 4.46987 4.9928 5.63581 4.36206 4.33051 3.99285 3.92181 9.42893 17.9823 9.83127 3.87937
threshold=96578.034832602745 93255.550251918234 44608.058846027801 95497.788282897134 5.7348001701159284 6.8539910692723671 1.0000000180025095e-35 96382.582529982596 1.0000000180025095e-35 89478.294061633016 58731.37403577954 93447.721255070806 1.0000000180025095e-35 1.0000000180025095e-35 78653.712902221116 111522.90296302047 69612.223127105768 1.0000000180025095e-35 5.303255401883141 1.0000000180025095e-35 95699.170142955452 1.0000000180025095e-35 1.0000000180025095e-35 74238.093622338143 1.0000000180025095e-35 78653.712902221116 1.0000000180025095e-35 1.0000000180025095e-35 1.0000000180025095e-35 1.0000000180025095e-35 2.1383330595080281 5.1619206365690227 5.0369315191558419 93529.49890451337 1.2424533248940004 5.1732847621078006 96206.537896869544 2.249904835165133 89659.307348389455 95065.388362241923 1.0000000180025095e-35 89659.307348389455 107958.32781049599 1.0000000180025095e-35 86248.408015409615 1.0000000180025095e-35 5.489671427040812 92006.936073840086 1.0000000180025095e-35 1.0000000180025095e-35 2.4414009612931857 1.0000000180025095e-35 92395.129907811162 54088.978690293683 1.0000000180025095e-35 2.9174053685313028 1.0000000180025095e-35 96016.960728398422 95937.77766952703 1.0000000180025095e-35 95920.734455005033 67676.357575333008
decision_type=2 2 2 2 2 2 2 2 2 2 2 2 2 2 2 2 2 2 2 2 2 2 2 2 2 2 2 2 2 2 2 2 2 2 2 2 2 2 2 2 2 2 2 2 2 2 2 2 2 2 2 2 2 2 2 2 2 2 2 2 2 2
left_child=1 2 5 4 12 31 8 20 9 10 11 51 13 14 -3 26 -8 29 -9 27 -5 -6 23 25 28 -12 45 33 40 -10 -18 32 56 49 41 42 57 -13 -21 -15 -25 -35 -36 -40 -27 46 48 -48 -11 -16 -44 52 53 -4 -39 -26 -1 58 60 -60 -22 -32
right_child=-2 3 6 7 21 -7 16 18 17 15 22 37 -14 39 19 -17 30 -19 -20 38 36 -23 -24 24 55 44 -28 -29 -30 -31 61 -33 -34 34 35 -37 -38 54 43 -41 -42 -43 50 -45 -46 -47 47 -49 -50 -51 -52 -53 -54 -55 -56 -57 -58 -59 59 -61 -62 -63
leaf_value=-611.46537354123654 789.6478514066672 -576.85890585220898 -419.44212216527433 -36.198009748917684 -150.64185835893576 -654.26739160006446 -617.64882038317683 -33.322648757345426 -618.42689190929877 -519.55831849161223 -437.29199129810007 -361.14319678490489 -312.22660104586396 -314.1113056604575 -442.70543258611929 -170.90511587626656 -217.69779424439548 -394.85368679259795 -26.522155961052256 -117.0410569115902 -17.712354142143489 -466.14978329678382 -241.09763029034994 259.7919046211461 -699.72751424689682 -214.80506509519489 494.41782522098305 -614.58241534643128 -444.88524219644006 -707.9716476776448 -312.87312170948184 -223.8770648353053 -306.15241203235348 -249.84304967322061 -400.90255703037855 -467.92627356801535 -18.60026776588311 -2.912097085325235 -502.87536055407264 -175.66022225702898 -391.81781190005347 -586.62592979528858 -391.7782817787745 -361.28575597504391 -33.149970421887879 21.441646726866022 -595.3253371493397 -818.44705198405541 144.78040850510897 -526.64256743695421 -301.16318532447457 -167.81640738518084 -276.88792153802819 -405.03879438620788 -281.08161027325298 -388.05204211222832 -174.70513611505376 -5.5396417104595459 -29.45357975543957 726.83781922499338 1.2476928894466255 -602.8954588087887
leaf_weight=422 49960 244 128 484 315 448 92 462 107 695 75 238 98 133 1386 402 70 80 74 50 515 46 77 3416 56 873 74 220 57 75 86 213 46 74 583 169 473 647 83 42 57 320 83 43 2155 70 63 60 62 90 167 49 121 173 76 236 49 489 190 69 255 111
leaf_count=422 49960 244 128 484 315 448 92 462 107 695 75 238 98 133 1386 402 70 80 74 50 515 46 77 3416 56 873 74 220 57 75 86 213 46 74 583 169 473 647 83 42 57 320 83 43 2155 70 63 60 62 90 167 49 121 173 76 236 49 489 190 69 255 111
internal_value=0.000281058 -0.0117464 -0.00645038 -0.0203738 -0.0253425 -0.0269185 -0.00414989 -0.013532 -0.0034914 -0.00304767 -0.00206663 -0.00861732 -0.0272589 -0.0278723 -0.0287415 -0.00884993 -0.0227159 -0.0201908 -0.0269963 -0.0278641 -0.0106162 -0.00524931 -0.000726935 -0.000552346 0.000970696 -0.00242829 -0.0118457 -0.0284735 0.00167139 -0.0271429 -0.0172846 -0.0184247 -0.0215957 -0.0277994 -0.025265 -0.0227944 -0.00921396 -0.00379292 -0.0171591 -0.0104286 0.00196228 -0.0315482 -0.0208103 -0.0231746 -0.00203435 -0.0130526 -0.0140909 -0.0246748 -0.0123712 -0.0301965 -0.0144 -0.0184607 -0.0168009 -0.0202492 -0.00143154 -0.0075 -0.0197346 -0.00758234 -0.0093343 -0.0175869 -0.00655844 -0.0221574
internal_weight=68776 18816 11659 7157 4146 1178 10481 3011 10122 9860 8434 1432 3785 3687 3512 1426 359 262 536 3268 2475 361 7002 6925 3822 3103 1024 3092 3530 182 267 730 517 2872 1396 1002 1991 961 176 175 3473 394 833 126 3028 950 880 123 757 1476 250 471 422 301 723 292 471 1518 1029 259 770 197
internal_count=68776 18816 11659 7157 4146 1178 10481 3011 10122 9860 8434 1432 3785 3687 3512 1426 359 262 536 3268 2475 361 7002 6925 3822 3103 1024 3092 3530 182 267 730 517 2872 1396 1002 1991 961 176 175 3473 394 833 126 3028 950 880 123 757 1476 250 471 422 301 723 292 471 1518 1029 259 770 197
is_linear=0
shrinkage=0.05


Tree=7
num_leaves=63
num_cat=0
split_feature=0 0 0 0 48 64 10 1 0 49 10 0 0 5 4 15 1 5 5 0 5 5 10 59 0 4 10 15 10 10 10 10 0 2 10 66 0 0 0 0 18 1 0 5 2 1 19 18 31 10 4 10 10 0 10 2 2 1 10 49 0 4
split_gain=1416.65 302.641 207.408 117.04 62.3506 52.1372 36.554 35.8326 32.9164 27.7557 18.2984 18.2292 27.2631 15.5806 21.6991 14.8582 12.3889 11.6114 9.38457 9.26581 11.7435 8.8051 10.7611 8.43453 8.3317 7.77798 7.56845 7.37205 6.95903 6.48935 5.90183 5.85016 5.57853 5.52821 6.60656 5.29668 5.16138 8.13332 7.66792 12.8858 17.9823 6.2024 5.02611 4.77456 4.76447 4.56855 4.42847 4.35497 4.25244 4.25046 5.85085 4.14721 4.76367 4.13649 4.06767 3.82559 3.52648 4.2904 5.24896 3.4963 3.39513 6.82434
threshold=96677.434667339301 93255.550251918234 43610.970036831153 95393.817263388177 1.0000000180025095e-35 1.0000000180025095e-35 969.00000000000011 95679.286270072436 96476.358802630639 1.0000000180025095e-35 325.50000000000006 58731.37403577954 89478.294061633016 78653.712902221116 1.5000000000000002 1.0000000180025095e-35 95497.733485523699 69612.223127105768 93447.721255070806 58731.37403577954 93447.721255070806 93447.721255070806 2.5000000000000004 1.0000000180025095e-35 89478.294061633016 1.5000000000000002 7.5000000000000009 1.0000000180025095e-35 36.500000000000007 173.50000000000003 31.500000000000004 26.500000000000004 94514.990621892081 69961.002899275991 10.500000000000002 1.0000000180025095e-35 96206.537896869544 95920.734455005033 95937.77766952703 96016.960728398422 1.0000000180025095e-35 96111.083056205069 93961.455282881725 89659.307348389455 111522.90296302047 115356.68885942594 1.0000000180025095e-35 1.0000000180025095e-35 1.0000000180025095e-35 31.500000000000004 1.5000000000000002 153.00000000000003 79.500000000000014 95065.388362241923 153.00000000000003 97147.204895892035 95805.063442499071 92736.750928095498 2.5000000000000004 1.0000000180025095e-35 67676.357575333008 1.5000000000000002
decision_type=2 2 2 2 2 2 2 2 2 2 2 2 2 2 2 2 2 2 2 2 2 2 2 2 2 2 2 2 2 2 2 2 2 2 2 2 2 2 2 2 2 2 2 2 2 2 2 2 2 2 2 2 2 2 2 2 2 2 2 2 2 2
left_child=1 2 6 4 9 7 29 11 36 10 13 18 25 -3 16 31 51 -7 -4 20 -9 42 -23 -20 35 28 -19 46 33 30 -1 -10 -12 34 -13 49 37 41 -39 40 -40 -5 -18 -38 54 -24 -16 -45 -22 50 55 52 56 -11 -26 -21 -15 58 -58 -14 -28 -62
right_child=-2 3 5 8 -6 17 -8 19 15 53 32 12 59 14 27 -17 21 26 23 24 48 22 45 -25 44 -27 60 -29 -30 -31 -32 -33 -34 -35 -36 -37 43 38 39 -41 -42 -43 -44 47 -46 -47 -48 -49 -50 -51 -52 -53 -54 -55 -56 -57 57 -59 -60 -61 61 -63
leaf_value=-342.05742130151998 758.53797587357985 -553.92575895606626 -396.09249209695486 -16.476953076963579 113.60518799661099 -575.84878089953463 -617.15059898437869 -287.89640062257632 -38.225621351680481 -293.34908957756033 -468.50935101727202 -389.04098291218617 -588.96422406386637 -524.24977248466678 -353.8725053587998 -24.602057979309777 -582.01764022754071 -198.98561099856309 -224.72431705421278 -203.22102769445212 -70.022831781169231 -502.90923845434804 -455.33167646188105 -627.87173150923195 -374.92408674715762 181.51602552593943 -295.2565155104673 1183.135315028326 -80.023768431134002 -227.3833285575158 -622.15634111738621 -34.159935751744896 -356.38888938650234 -345.55864806944561 -594.02894818005768 -203.80194203696794 -14.837363841380649 1.1853082449742942 -27.980900767667482 -5.2626596249367141 690.49592826374362 -34.388109261471982 -348.61447540809496 -23.349481792411098 -115.46234412257543 -381.03136723689158 -462.45988064514381 -0.91100558397774523 -423.85606755880872 185.93509052897494 409.03823098101276 -483.9346292392209 -362.74681496854174 -160.45694090726866 -637.03809266719679 -44.710001156699221 -593.72514804747323 -521.56112495359719 -514.07727931535453 -286.06395964995278 -686.18364303122837 -396.22236590641006
leaf_weight=154 49695 235 248 637 215 99 441 296 267 166 108 51 494 809 265 84 77 74 490 699 648 247 497 96 481 510 89 45 789 123 103 157 48 1148 43 54 235 255 190 489 69 624 372 490 362 106 56 41 45 2128 766 217 41 55 82 986 72 150 103 49 62 49
leaf_count=154 49695 235 248 637 215 99 441 296 267 166 108 51 494 809 265 84 77 74 490 699 648 247 497 96 481 510 89 45 789 123 103 157 48 1148 43 54 235 255 190 489 69 624 372 490 362 106 56 41 45 2128 766 217 41 55 82 986 72 150 103 49 62 49
internal_value=0.000342125 -0.0112387 -0.00621451 -0.019131 -0.0251236 -0.00437904 -0.0304446 -0.00372432 -0.0125523 -0.0266571 -0.0277581 -0.00750638 -0.00573281 -0.028551 -0.0275973 -0.0243307 -0.0291509 -0.022748 -0.0140647 -0.00146097 -0.00592012 -0.025639 -0.0226471 -0.0106143 -0.000667506 -0.00355962 -0.0174453 -0.0161749 -0.00494584 -0.0190789 -0.0235992 -0.0281368 -0.0110256 -0.00727858 -0.0189362 0.000197496 -0.0105776 -0.00937721 -0.00601695 -0.00856952 -0.0175869 -0.01205 -0.0313029 -0.0141253 -0.005 -0.0190464 -0.0188318 -0.0167514 -0.00235931 0.000381088 -0.00103835 -0.0324282 -0.0312553 -0.00947964 -0.00787744 -0.00268546 -0.0318607 -0.0274615 -0.0221429 -0.0159024 -0.0225 -0.0283333
internal_weight=68776 19081 11659 7422 3884 10838 821 10465 3538 3669 3448 3918 3084 3292 3057 508 2691 373 834 6547 989 1299 850 586 5558 2541 274 366 2031 380 257 424 156 1242 94 4633 3030 2264 1003 748 259 1261 449 766 925 603 321 531 693 4579 2451 1392 1175 221 563 1685 1134 325 175 543 200 111
internal_count=68776 19081 11659 7422 3884 10838 821 10465 3538 3669 3448 3918 3084 3292 3057 508 2691 373 834 6547 989 1299 850 586 5558 2541 274 366 2031 380 257 424 156 1242 94 4633 3030 2264 1003 748 259 1261 449 766 925 603 321 531 693 4579 2451 1392 1175 221 563 1685 1134 325 175 543 200 111
is_linear=0
shrinkage=0.05


Tree=8
num_leaves=63
num_cat=0
split_feature=0 0 0 0 48 5 10 1 0 49 0 0 0 10 5 10 1 15 19 0 1 5 0 0 15 0 17 0 10 10 39 1 0 10 0 5 10 50 10 0 50 5 1 54 15 10 0 49 49 0 10 19 18 18 31 0 0 0 18 0 10 10
split_gain=1378.41 278.342 204.306 92.0012 58.0396 47.2252 38.0589 35.0261 34.2026 27.0342 21.1481 18.4901 20.5594 17.5671 13.7308 13.6021 12.4028 9.69486 8.46582 8.42366 12.0882 8.13228 8.08071 7.45131 6.74604 6.42092 6.39836 5.7385 5.61678 6.53903 5.60212 5.56417 5.54793 4.97274 4.9193 10.2606 4.83644 4.57505 4.5192 4.36683 4.31075 4.28959 4.22137 4.10159 4.87368 5.11076 4.31665 4.09993 4.09335 4.79614 4.54573 4.07839 4.06067 3.99594 3.93637 3.76799 3.62271 9.91521 17.9823 8.93349 3.45754 4.83829
threshold=96871.625745575948 93255.550251918234 43610.970036831153 95336.957257922069 1.0000000180025095e-35 63157.750998645235 969.00000000000011 95808.339406096333 96476.358802630639 1.0000000180025095e-35 96755.022530851813 89478.294061633016 58731.37403577954 325.50000000000006 63157.750998645235 345.50000000000006 95367.28598451725 1.0000000180025095e-35 1.0000000180025095e-35 95609.229537861363 95808.339406096333 93447.721255070806 96206.537896869544 57981.359374433152 1.0000000180025095e-35 44608.058846027801 1.0000000180025095e-35 80923.570728190665 173.50000000000003 31.500000000000004 1.0000000180025095e-35 93306.266571003551 89478.294061633016 153.00000000000003 58731.37403577954 93447.721255070806 299.00000000000006 1.0000000180025095e-35 6.5000000000000009 94514.990621892081 1.0000000180025095e-35 89659.307348389455 95173.94996974674 1.0000000180025095e-35 1.0000000180025095e-35 33.500000000000007 94853.550280646668 1.0000000180025095e-35 1.0000000180025095e-35 74238.093622338143 36.500000000000007 1.0000000180025095e-35 1.0000000180025095e-35 1.0000000180025095e-35 1.0000000180025095e-35 93961.455282881725 96016.960728398422 95937.77766952703 1.0000000180025095e-35 95920.734455005033 13.500000000000002 294.50000000000006
decision_type=2 2 2 2 2 2 2 2 2 2 2 2 2 2 2 2 2 2 2 2 2 2 2 2 2 2 2 2 2 2 2 2 2 2 2 2 2 2 2 2 2 2 2 2 2 2 2 2 2 2 2 2 2 2 2 2 2 2 2 2 2 2
left_child=1 2 6 4 9 18 28 11 19 13 15 12 21 14 -3 17 24 38 23 20 -5 -7 56 -4 33 31 30 48 29 -1 32 -23 34 -16 35 -9 -22 -29 -10 -15 -40 -24 -25 44 45 55 -47 -13 49 -14 -51 -32 60 -43 -37 -18 57 59 -59 -21 -34 -62
right_child=-2 3 5 8 -6 7 -8 26 10 -11 -12 47 27 39 16 -17 43 -19 -20 22 36 25 41 42 -26 -27 -28 37 -30 -31 51 -33 52 -35 -36 54 -38 -39 40 -41 -42 53 -44 -45 -46 46 -48 -49 -50 50 -52 -53 -54 -55 -56 -57 -58 58 -60 -61 61 -63
leaf_value=-324.95455023644399 796.58730014521063 -551.6299445463668 -383.6139839349384 -32.511254249098997 162.19962451222818 -398.81996217219944 -586.29306903515976 -262.72645554727688 -36.868810857730772 -215.52020394951725 -7.7614399573452832 -553.21124344122927 -216.5402733431975 -445.08388346640834 -496.03490690077246 -21.524519724247199 -647.62743530614455 -27.124399173431705 -439.93703033163257 -18.683195454519307 -41.842380042351671 -244.63602918409998 -14.095495649311488 -561.89948078427915 -386.52086339606723 -206.44154879813016 349.7617626858501 14.831013620743398 -216.01416212963997 -591.04852406151701 -380.88826047141674 -624.6153525689308 -519.89774918965918 -462.09451740437635 -19.901851899662553 23.484814219559393 -83.047307405692919 -631.36655757769449 -36.561439957345286 -342.24770346565788 -28.398296048168845 -22.182007702790727 -207.77848830456969 -315.83937395350375 -338.06452594590428 -510.6745047137436 -166.05789057585886 -222.70433691977084 164.60968555377804 -544.38223208963063 -125.639629110426 149.51193416539246 619.03828643855968 -0.865455304778876 -366.55310715545352 -363.84163272550154 -4.9995266436897516 -26.581855729284143 655.9711318505565 1.1260428327255796 -195.95250209623964 -515.20336935592343
leaf_weight=154 49186 195 46 376 211 235 441 224 255 209 248 521 1151 108 1179 84 164 76 106 756 358 66 235 84 54 467 850 981 123 103 176 71 258 207 3781 508 43 60 301 44 53 490 107 54 44 238 175 54 170 145 92 50 111 41 41 730 489 190 69 255 405 78
leaf_count=154 49186 195 46 376 211 235 441 224 255 209 248 521 1151 108 1179 84 164 76 106 756 358 66 235 84 54 467 850 981 123 103 176 71 258 207 3781 508 43 60 301 44 53 490 107 54 44 238 175 54 170 145 92 50 111 41 41 730 489 190 69 255 405 78
internal_value=0.000330493 -0.0108857 -0.00597007 -0.0181118 -0.0240006 -0.00414837 -0.0300183 -0.00355169 -0.0131871 -0.0255792 -0.0212045 -0.00722278 -0.00583479 -0.0267199 -0.0275493 -0.0252991 -0.0266696 -0.0276277 -0.0224052 -0.0107177 -0.0152703 -0.01264 -0.00931683 -0.0171519 -0.0299306 -0.00956954 -0.00127893 -0.00363794 -0.0184211 -0.0226265 -0.0018892 -0.0190876 -0.00156678 -0.0306061 -0.000873957 -0.00450841 -0.0213092 -0.000763689 -0.0297291 -0.0101316 -0.0260734 -0.0136031 -0.012801 -0.0233274 -0.0238675 -0.0244185 -0.0198184 -0.0155217 -0.00555841 -0.00645533 -0.0129325 -0.00960177 -0.00526995 -0.0160923 -0.000828779 -0.0265436 -0.00745026 -0.00885827 -0.0175869 -0.00662216 -0.00660594 -0.00410973
internal_weight=68776 19590 11659 7931 3612 10838 821 10495 4319 3401 1017 4013 3438 3192 3040 769 2845 685 343 3302 777 839 2525 237 1440 604 6482 2599 380 257 5632 137 5406 1386 4554 773 401 1041 609 152 354 766 191 1405 1351 1307 413 575 1558 1388 237 226 852 531 549 894 1759 1270 259 1011 741 483
internal_count=68776 19590 11659 7931 3612 10838 821 10495 4319 3401 1017 4013 3438 3192 3040 769 2845 685 343 3302 777 839 2525 237 1440 604 6482 2599 380 257 5632 137 5406 1386 4554 773 401 1041 609 152 354 766 191 1405 1351 1307 413 575 1558 1388 237 226 852 531 549 894 1759 1270 259 1011 741 483
is_linear=0
shrinkage=0.05


Tree=9
num_leaves=63
num_cat=0
split_feature=0 0 0 0 48 5 10 1 49 67 0 0 10 0 0 10 5 4 1 0 1 26 0 5 0 53 59 2 59 40 2 10 4 4 10 10 67 4 10 5 10 50 10 4 53 1 10 33 0 5 1 10 10 10 1 2 0 0 18 0 4 54
split_gain=1313.29 253.14 194.032 99.4942 54.3053 43.0455 36.7915 31.2807 25.7839 22.209 20.3733 42.3867 16.1694 14.8891 20.4862 13.232 12.0421 17.4042 9.28275 8.07724 12.4122 7.92372 7.9897 7.63835 7.35393 7.18367 7.02775 6.63449 6.93019 6.68136 6.24338 5.38742 5.31942 6.12687 5.29999 6.28321 5.17531 6.27617 6.41848 5.12308 4.97984 4.89879 4.88623 4.83702 6.19474 4.614 4.53674 4.50832 4.36683 3.95002 3.93949 3.9196 3.87546 6.95492 3.85019 3.71831 3.70133 10.285 17.6661 8.08134 9.26208 4.31232
threshold=96972.885849971659 93255.550251918234 43610.970036831153 95336.957257922069 1.0000000180025095e-35 63157.750998645235 969.00000000000011 95679.286270072436 1.0000000180025095e-35 1.0000000180025095e-35 96476.358802630639 96755.022530851813 325.50000000000006 89478.294061633016 58731.37403577954 345.50000000000006 78653.712902221116 1.5000000000000002 95262.740648557068 95609.229537861363 95808.339406096333 1.0000000180025095e-35 74238.093622338143 93447.721255070806 96206.537896869544 1.0000000180025095e-35 1.0000000180025095e-35 89427.958466089753 1.0000000180025095e-35 1.0000000180025095e-35 94451.233644787673 8.5000000000000018 1.5000000000000002 1.0000000180025095e-35 173.50000000000003 31.500000000000004 1.0000000180025095e-35 -1.0000000180025095e-35 2.5000000000000004 55419.107101568858 153.00000000000003 1.0000000180025095e-35 33.500000000000007 2.5000000000000004 1.0000000180025095e-35 93306.266571003551 299.00000000000006 1.0000000180025095e-35 94514.990621892081 89659.307348389455 96500.463981116802 3.5000000000000004 167.50000000000003 90.500000000000014 108006.17913966665 96946.10825320131 96016.960728398422 95937.77766952703 1.0000000180025095e-35 95920.734455005033 1.5000000000000002 1.0000000180025095e-35
decision_type=2 2 2 2 2 2 2 2 2 2 2 2 2 2 2 2 2 2 2 2 2 2 2 2 2 2 2 2 2 2 2 2 2 2 2 2 2 2 2 2 2 2 2 2 2 2 2 2 2 2 2 2 2 2 2 2 2 2 2 2 2 2
left_child=1 2 6 4 8 25 34 9 12 13 19 15 16 14 23 -12 -3 18 40 20 -5 27 42 -7 56 39 -25 29 -29 43 -11 -19 33 41 35 -1 37 38 -20 -4 55 47 -23 44 -9 -28 -22 -16 -14 -26 -37 -41 53 -40 -51 -18 57 59 -59 60 61 -21
right_child=-2 3 5 10 -6 7 -8 21 -10 30 11 -13 48 -15 32 -17 17 31 36 24 46 22 -24 26 49 -27 45 28 -30 -31 -32 -33 -34 -35 -36 50 -38 -39 52 51 -42 -43 -44 -45 -46 -47 -48 -49 -50 54 -52 -53 -54 -55 -56 -57 -58 58 -60 -61 -62 -63
leaf_value=-308.70682272462187 792.02521536072095 -524.04844531846527 -324.33148690104736 -30.885691536644146 154.08964328661679 -369.91263499734259 -556.9784155834019 -167.46951267889116 -204.74419375204127 -607.27460410341814 -34.537376988633604 -6.514706806772451 -422.82968929308782 -471.0997839485085 -75.129906929024898 -20.44829373803482 -481.49155452570267 -245.7255246196911 -464.67572037621488 -11.328281556440899 -39.750261040233909 -418.85802403739683 -476.18354449520871 -190.37145692437409 -13.390720866846095 -122.1024914264119 -339.79935625738466 28.923763851700194 -312.90027299758407 -512.85393778307412 -418.85604980999847 -320.59887944395354 153.40435672361772 -359.8489774499842 -205.21345402315785 -609.1461779000482 -510.20914910043876 -313.17565572204006 -394.63311171485651 -352.93812505035532 -440.404805849235 -436.64573784574389 377.63543066398671 387.67479925954223 -286.39217279259941 -588.71267115645207 -78.894942035408235 -385.59379187402806 -325.13531829237513 -20.088404289811606 -390.50326191956884 -466.58924324004869 -417.55302804013155 -207.60330228775098 -17.630008073417049 -479.18141746896868 -4.7495503115052999 -25.252762942820119 623.17257525802859 1.0697406910894642 -26.877464793738184 -32.502954943995292
leaf_weight=154 48941 211 62 376 211 230 441 1035 209 104 685 493 108 535 1384 84 781 158 287 616 358 85 179 461 235 58 49 4608 128 45 50 181 506 316 123 48 92 232 421 45 199 165 127 296 53 47 43 92 44 431 55 178 112 91 100 275 489 190 69 255 95 45
leaf_count=154 48941 211 62 376 211 230 441 1035 209 104 685 493 108 535 1384 84 781 158 287 616 358 85 179 461 235 58 49 4608 128 45 50 181 506 316 123 48 92 232 421 45 199 165 127 296 53 47 43 92 44 431 55 178 112 91 100 275 489 190 69 255 95 45
internal_value=0.000393015 -0.01046 -0.00572991 -0.0172052 -0.0234053 -0.0039546 -0.0291657 -0.00338494 -0.0249324 -0.00690657 -0.0122984 -0.0177021 -0.0260464 -0.00614927 -0.00487692 -0.025039 -0.0268421 -0.0259827 -0.0274297 -0.0102332 -0.0146911 -0.00126907 -0.00817136 -0.0118996 -0.00886139 -0.0213848 -0.00873429 -0.000831306 6.96792e-05 -0.00381735 -0.0255195 -0.015354 -0.00263297 -0.00381451 -0.0177632 -0.0218482 -0.0243522 -0.0234339 -0.0215642 -0.0246491 -0.0304582 -0.00258684 -0.00160377 -0.00320087 -0.00474265 -0.0210417 -0.0208105 -0.00167344 -0.0101316 -0.0129504 -0.0314078 -0.0281839 -0.0187179 -0.016875 -0.015339 -0.0290909 -0.00708073 -0.00850394 -0.0173938 -0.00622651 -0.00882275 -0.00672466
internal_weight=68776 19835 11659 8176 3612 10838 821 10495 3401 3939 4564 1262 3192 3785 3250 769 3040 2829 2490 3302 777 6556 391 787 2525 343 557 6165 4736 1429 154 339 2463 1957 380 257 1235 1143 911 285 1255 1641 212 1384 1088 96 401 1476 152 766 103 223 624 512 531 1056 1759 1270 259 1011 756 661
internal_count=68776 19835 11659 8176 3612 10838 821 10495 3401 3939 4564 1262 3192 3785 3250 769 3040 2829 2490 3302 777 6556 391 787 2525 343 557 6165 4736 1429 154 339 2463 1957 380 257 1235 1143 911 285 1255 1641 212 1384 1088 96 401 1476 152 766 103 223 624 512 531 1056 1759 1270 259 1011 756 661
is_linear=0
shrinkage=0.05


Tree=10
num_leaves=63
num_cat=0
split_feature=1 64 26 63 15 48 63 5 4 2 15 64 1 5 17 10 10 13 2 59 2 59 10 5 26 39 26 59 1 1 26 4 39 16 64 2 10 2 10 62 10 4 62 5 2 48 4 48 10 16 5 10 10 1 48 5 10 2 14 4 36 10
split_gain=212.358 84.2343 72.1231 60.9513 51.4373 41.838 37.4633 30.1515 25.9959 24.38 18.5445 16.2152 16.0126 12.1199 11.114 9.73394 19.7064 12.0495 9.25212 8.70632 8.32412 8.24161 8.00475 7.91666 7.35995 7.29556 7.2942 5.7561 5.65127 7.50014 5.38336 5.20994 4.86962 4.74858 4.73703 4.66795 4.63147 4.63115 4.55057 4.52192 4.34896 6.96975 5.48901 3.95032 3.91593 3.86129 3.85039 4.3594 4.11731 3.78738 3.60219 3.4681 9.71534 3.45411 3.37404 4.41568 3.25117 3.10134 3.08152 3.20199 3.00663 2.96386
threshold=97664.978115478778 1.0000000180025095e-35 1.0000000180025095e-35 1.0000000180025095e-35 1.0000000180025095e-35 1.0000000180025095e-35 1.0000000180025095e-35 69612.223127105768 2.5000000000000004 96946.10825320131 1.0000000180025095e-35 1.0000000180025095e-35 101067.97193792609 78653.712902221116 1.0000000180025095e-35 2377.0000000000005 969.00000000000011 1.0000000180025095e-35 67145.52097302959 1.0000000180025095e-35 82299.426191969964 1.0000000180025095e-35 10.500000000000002 63157.750998645235 1.0000000180025095e-35 1.0000000180025095e-35 1.0000000180025095e-35 1.0000000180025095e-35 92952.955201081815 95148.567990318479 1.0000000180025095e-35 2.5000000000000004 1.0000000180025095e-35 1.0000000180025095e-35 1.0000000180025095e-35 93988.35481669131 9.5000000000000018 78336.025738336917 34.500000000000007 1.0000000180025095e-35 32.500000000000007 2.5000000000000004 1.0000000180025095e-35 78653.712902221116 116264.05562568226 1.0000000180025095e-35 1.5000000000000002 1.0000000180025095e-35 12.500000000000002 1.0000000180025095e-35 93447.721255070806 2377.0000000000005 969.00000000000011 95173.94996974674 1.0000000180025095e-35 105831.60128504939 17.500000000000004 59673.136810185031 1.0000000180025095e-35 1.5000000000000002 1.0000000180025095e-35 50.500000000000007
decision_type=2 2 2 2 2 2 2 2 2 2 2 2 2 2 2 2 2 2 2 2 2 2 2 2 2 2 2 2 2 2 2 2 2 2 2 2 2 2 2 2 2 2 2 2 2 2 2 2 2 2 2 2 2 2 2 2 2 2 2 2 2 2
left_child=1 2 4 5 8 7 46 11 9 14 12 33 30 -3 15 16 18 -18 36 39 31 23 -15 -20 27 -23 44 40 54 35 34 61 -29 58 -9 37 -1 -30 -38 45 41 42 -22 49 -5 51 47 48 -4 -10 -7 52 56 -8 -25 -56 -11 -45 59 -2 -58 -14
right_child=3 13 6 26 -6 50 53 10 43 19 -12 -13 20 22 -16 -17 17 -19 21 -21 24 25 -24 28 -26 -27 -28 32 29 -31 -32 -33 -34 -35 -36 -37 38 -39 -40 -41 -42 -43 -44 57 -46 -47 -48 -49 -50 -51 -52 -53 -54 -55 55 -57 60 -59 -60 -61 -62 -63
leaf_value=-155.62772650491115 -323.88866516552935 -603.59852987712054 -415.57864286815516 -315.20946740621412 450.59769263256788 -0.77614967640978294 -514.19145582696808 -8.1009076446149262 -297.59279655653575 -34.526221494003423 1157.3114953490779 -340.21554104128381 -130.86416533705858 -166.61641961630127 0.032571670149559931 1208.9168486296323 -621.56143921962041 -295.42810607987087 -285.97919578012369 -265.96763482357045 12.573586034953346 -73.045243710531949 -475.00892989128454 -145.41697679941754 -87.001580340184489 -472.89246220351089 -419.45449468016818 11.740062587638672 -353.41697679941757 -68.499134098885406 -306.65135755191557 436.80793812675876 -220.23019373269824 2.0188206841310605 -341.92211157403437 -394.98538394991465 -525.11523403970477 -216.7049800586135 -249.41697679941754 -295.19913368392571 577.93241671439034 818.77976243115518 -143.1948569985428 -241.33719691051775 0.80473167531417578 543.81504423384911 -19.880916332419105 30.980789405989771 -227.99454269353134 390.71058565350853 1860.5017332240877 1448.0645319252972 -537.52744414315896 -357.50324471917338 -70.293242910055056 882.657702855759 8.0689013884385616 141.09303699709457 8.3217110316389178 -23.261528015127141 -319.24182883919889 9.5218993653320538
leaf_weight=188 148 150 434 114 3196 367 226 5391 89 2189 5551 72 655 107 774 195 70 57 199 208 6348 104 224 3837 602 200 201 128 248 1728 267 519 106 121 57 181 126 939 136 169 7938 2524 204 54 61 547 107 61 341 67 15227 247 63 60 51 207 1947 2126 45 50 69 231
leaf_count=188 148 150 434 114 3196 367 226 5391 89 2189 5551 72 655 107 774 195 70 57 199 208 6348 104 224 3837 602 200 201 128 248 1728 267 519 106 121 57 181 126 939 136 169 7938 2524 204 54 61 547 107 61 341 67 15227 247 63 60 51 207 1947 2126 45 50 69 231
internal_value=0.000545986 -0.00351695 -0.0030527 0.0024439 -0.00233759 0.00260585 -0.0148129 0.00154198 -0.0034308 -0.00421044 0.00172848 -0.0115138 0.00114738 -0.02421 -0.00577381 -0.00629813 -0.00655846 -0.0261024 -0.00625368 -0.00155451 0.00183719 -0.00584611 -0.0188671 -0.00551421 0.00212885 -0.0139145 -0.0176064 0.00231853 -0.00524197 -0.006854 -0.00117673 -0.00186833 -0.00547009 -0.00722527 -0.000837004 -0.00961988 -0.0132222 -0.00847936 -0.0175191 -0.00115561 0.00242565 0.00167805 0.000818071 0.00146832 -0.0101429 -0.000887001 -0.0100053 -0.0111483 -0.0121613 -0.00621795 0.00471784 -0.00136766 -0.00170103 -0.0306643 -0.0040232 0.00151163 -0.00140904 0.00201835 -0.0112551 -0.0139394 3.96827e-05 -0.00419865
internal_weight=68848 21921 21440 46927 20211 46551 1229 30957 17015 14679 30521 436 24970 481 9240 8466 8271 127 8144 5439 19255 7694 331 7390 17850 304 376 17248 7191 3096 5715 1405 234 364 5448 1368 450 1187 262 5231 17014 9076 6552 2336 175 5062 943 836 775 156 15594 4515 4268 286 4095 258 4205 2180 243 198 2016 886
internal_count=68848 21921 21440 46927 20211 46551 1229 30957 17015 14679 30521 436 24970 481 9240 8466 8271 127 8144 5439 19255 7694 331 7390 17850 304 376 17248 7191 3096 5715 1405 234 364 5448 1368 450 1187 262 5231 17014 9076 6552 2336 175 5062 943 836 775 156 15594 4515 4268 286 4095 258 4205 2180 243 198 2016 886
is_linear=0
shrinkage=0.05


Tree=11
num_leaves=63
num_cat=0
split_feature=0 0 0 0 12 1 0 48 1 49 0 0 0 5 1 49 50 18 0 0 5 4 0 0 5 17 5 5 0 0 4 4 59 29 1 5 4 4 1 0 0 0 0 5 4 0 19 12 12 0 52 4 12 36 49 12 1 12 0 0 0 4
split_gain=1163.34 200.561 172.593 122.521 36.3874 30.9234 25.8351 21.718 18.3879 17.9832 17.0437 15.1075 15.3219 14.9976 13.47 12.8056 11.1642 10.8148 10.2146 16.0588 8.21014 9.51621 7.75743 10.5592 7.59882 6.60733 6.43895 6.37607 7.33042 7.19145 6.99194 5.97648 5.94036 5.86386 5.83833 6.32696 6.57065 5.72105 5.38648 5.32872 8.83193 5.30105 5.30735 5.1308 7.98685 5.09577 5.00462 4.44594 4.36465 3.95469 3.92205 3.91129 4.92841 4.01349 3.90099 3.87054 3.86844 3.71343 3.98251 3.60325 3.35828 3.32166
threshold=97027.9954738292 93255.550251918234 43610.970036831153 95239.749313471242 121098.58476618232 95679.286270072436 34031.044675267236 1.0000000180025095e-35 95497.733485523699 1.0000000180025095e-35 95937.77766952703 89478.294061633016 58731.37403577954 63157.750998645235 95148.567990318479 1.0000000180025095e-35 1.0000000180025095e-35 1.0000000180025095e-35 96755.022530851813 96578.034832602745 78653.712902221116 1.5000000000000002 96755.022530851813 96578.034832602745 78653.712902221116 1.0000000180025095e-35 93447.721255070806 63157.750998645235 95609.229537861363 95937.77766952703 1.5000000000000002 1.5000000000000002 1.0000000180025095e-35 1.0000000180025095e-35 94143.20096472661 63157.750998645235 1.5000000000000002 1.0000000180025095e-35 102951.45528773881 96016.960728398422 96206.537896869544 96016.960728398422 96206.537896869544 93447.721255070806 1.5000000000000002 85894.674021758619 1.0000000180025095e-35 103602.13565864976 103602.13565864976 95124.88423667723 1.0000000180025095e-35 1.0000000180025095e-35 90439.580024997878 1.0000000180025095e-35 1.0000000180025095e-35 103602.13565864976 93306.266571003551 103602.13565864976 96303.263568579787 97957.171967510731 58731.37403577954 1.5000000000000002
decision_type=2 2 2 2 2 2 2 2 2 2 2 2 2 2 2 2 2 2 2 2 2 2 2 2 2 2 2 2 2 2 2 2 2 2 2 2 2 2 2 2 2 2 2 2 2 2 2 2 2 2 2 2 2 2 2 2 2 2 2 2 2 2
left_child=1 2 6 4 7 11 -1 9 10 14 15 12 26 46 34 61 37 18 19 27 -16 51 23 39 33 38 -4 -10 -29 30 55 47 -28 -14 35 -3 49 -8 43 -12 -41 -31 -43 44 -15 -45 -7 50 -11 -37 54 52 -22 -54 -26 -30 -34 58 -19 -2 -40 -5
right_child=59 3 5 8 -6 13 16 -9 17 48 22 -13 24 25 20 -17 -18 57 -20 -21 21 -23 -24 -25 31 -27 32 28 29 41 -32 -33 56 -35 -36 36 -38 -39 60 40 -42 42 -44 45 -46 -47 -48 -49 -50 -51 -52 -53 53 -55 -56 -57 -58 -59 -60 -61 -62 -63
leaf_value=-511.80211375489034 50.336672725964583 -548.40293860108147 -310.92389608233282 1.9755648353867601 -275.57726682799023 -304.8733520072339 -299.6905905460826 -258.09587674002012 0.93517512164325878 -433.9856276290285 -20.131888898437467 -467.59282233071895 -429.19979025168959 -265.58549952889638 -418.27151025128296 -79.79915282232119 -440.35343171472016 -17.645536947481773 -30.512737467813327 -48.883978702428799 -455.85513334762891 -258.72278061780816 -12.169721265161355 -28.322564145651256 -361.05523640608362 330.98799861055647 -169.48679787103606 -68.442179057884999 -10.336801911632826 -41.35335949269502 -44.427520782753959 131.67177996486018 -298.13777736497565 -449.71130102189528 -396.8831281505025 -459.55980295506583 -292.95023771453305 -459.11953539144827 -181.35141247005379 -0.50051023673494777 -19.038008427192 -26.485029568782195 -30.328229104159103 -25.65906721502941 -77.92346085416473 -392.65889633567861 -361.3808014380275 -50.430744722424436 663.50683729343336 -36.891487355288341 275.23697849369347 -299.0538081750878 -390.48221984128622 -384.37837934626003 187.12012114417914 -50.479821538606096 -538.74702390986533 800.39214664160079 -66.009436107264634 1014.826854651755 21.064211672977038 -30.087796350157454
leaf_weight=424 2603 90 293 779 236 122 246 109 63 97 99 577 55 444 96 46 85 116 436 278 299 180 301 183 1172 883 500 468 336 104 64 521 51 49 276 842 126 84 325 202 412 278 588 1396 323 402 41 598 54 78 135 216 603 42 120 96 43 135 59 46084 2781 104
leaf_count=424 2603 90 293 779 236 122 246 109 63 97 99 577 55 444 96 46 85 116 436 278 299 180 301 183 1172 883 500 468 336 104 64 521 51 49 276 842 126 84 325 202 412 278 588 1396 323 402 41 598 54 78 135 216 603 42 120 96 43 135 59 46084 2781 104
internal_value=0.00057213 -0.00952805 -0.00527421 -0.0153745 -0.022826 -0.00358185 -0.0271216 -0.0242632 -0.0105333 -0.02506 -0.00697084 -0.00699562 -0.00577184 -0.00149099 -0.0259515 -0.00188913 -0.018253 -0.0130404 -0.014052 -0.0153956 -0.0225418 -0.0215299 -0.0109148 -0.0132478 -0.00386792 -0.0011184 -0.01146 -0.0138282 -0.0143382 -0.0125989 -0.00770161 -0.00332679 -0.00846801 -0.0171154 -0.0294193 -0.0278345 -0.02674 -0.0140909 -0.00174484 -0.0104979 -0.00876221 -0.0151031 -0.0138222 -0.00344055 -0.00686441 -0.00197998 -0.0164724 -0.00455556 -0.00824503 -0.0282065 -0.00607218 -0.0231897 -0.0218008 -0.0193411 -0.0069195 -0.00541667 -0.02 -0.00419355 -0.009 0.00475455 -0.000344494 -0.000549264
internal_weight=68848 20161 11670 8491 3344 10831 839 3108 5147 2999 2126 4114 3537 6717 2848 929 415 3021 2711 2275 1436 1340 1197 896 2650 6554 887 1997 1934 1466 496 2546 594 104 1412 1136 1046 330 5671 713 614 970 866 2565 767 1798 163 2025 151 920 1427 1160 944 645 1292 432 94 310 175 48687 3106 883
internal_count=68848 20161 11670 8491 3344 10831 839 3108 5147 2999 2126 4114 3537 6717 2848 929 415 3021 2711 2275 1436 1340 1197 896 2650 6554 887 1997 1934 1466 496 2546 594 104 1412 1136 1046 330 5671 713 614 970 866 2565 767 1798 163 2025 151 920 1427 1160 944 645 1292 432 94 310 175 48687 3106 883
is_linear=0
shrinkage=0.05


Tree=12
num_leaves=63
num_cat=0
split_feature=1 26 67 5 63 15 63 48 67 2 4 4 54 5 5 36 16 5 15 67 10 2 10 10 13 39 66 39 63 4 66 10 33 39 10 10 10 10 10 10 10 66 48 5 10 2 10 14 22 4 2 13 2 10 1 13 4 1 10 2 10 4
split_gain=171.967 75.3394 46.2883 42.0482 38.9086 37.1259 31.2534 25.1295 16.346 14.7496 18.9909 21.9638 14.3436 14.0784 14.06 13.2435 11.9024 11.0158 10.6181 8.47265 7.53218 7.53176 6.96957 23.1313 12.7823 6.12704 5.90526 6.10126 5.71683 5.32795 5.26337 5.21372 4.44556 4.70966 4.1858 9.91993 25.1659 4.56241 6.56349 4.17109 4.11071 4.05217 3.98598 4.94821 4.61094 3.91365 3.86861 5.66949 3.82395 3.79635 3.70351 3.67132 4.64535 3.4064 3.33519 3.17681 3.11126 3.12814 3.08357 3.50096 3.01333 2.97494
threshold=101067.97193792609 1.0000000180025095e-35 1.0000000180025095e-35 63157.750998645235 1.0000000180025095e-35 1.0000000180025095e-35 1.0000000180025095e-35 1.0000000180025095e-35 1.0000000180025095e-35 96946.10825320131 1.5000000000000002 -1.0000000180025095e-35 1.0000000180025095e-35 63157.750998645235 105831.60128504939 1.0000000180025095e-35 1.0000000180025095e-35 69612.223127105768 1.0000000180025095e-35 1.0000000180025095e-35 969.00000000000011 82299.426191969964 2377.0000000000005 969.00000000000011 1.0000000180025095e-35 1.0000000180025095e-35 1.0000000180025095e-35 1.0000000180025095e-35 1.0000000180025095e-35 1.5000000000000002 1.0000000180025095e-35 28.500000000000004 1.0000000180025095e-35 1.0000000180025095e-35 241.50000000000003 299.00000000000006 297.50000000000006 154.50000000000003 153.00000000000003 59.500000000000007 10.500000000000002 1.0000000180025095e-35 1.0000000180025095e-35 93447.721255070806 15.500000000000002 69559.704015669631 266.00000000000006 1.0000000180025095e-35 1.0000000180025095e-35 2.5000000000000004 73935.535985367096 1.0000000180025095e-35 78048.880129367375 87.500000000000014 95173.94996974674 1.0000000180025095e-35 1.5000000000000002 104207.52428141296 18.500000000000004 82920.393648965503 17.500000000000004 2.5000000000000004
decision_type=2 2 2 2 2 2 2 2 2 2 2 2 2 2 2 2 2 2 2 2 2 2 2 2 2 2 2 2 2 2 2 2 2 2 2 2 2 2 2 2 2 2 2 2 2 2 2 2 2 2 2 2 2 2 2 2 2 2 2 2 2 2
left_child=1 2 3 16 8 9 7 13 17 10 11 22 -7 29 -14 -4 58 -3 19 21 -8 49 23 26 -25 42 27 28 34 -2 32 -6 33 48 37 36 46 38 50 40 -13 -19 44 53 -11 -12 47 -36 55 -15 -5 52 -42 -44 -33 61 57 -34 -1 -60 -52 -23
right_child=6 4 15 5 31 12 20 -9 -10 25 45 39 14 18 -16 -17 -18 41 -20 -21 -22 30 -24 24 -26 -27 -28 -29 -30 -31 -32 54 56 -35 35 -37 -38 -39 -40 -41 51 -43 43 -45 -46 -47 -48 -49 -50 -51 60 -53 -54 -55 -56 -57 -58 -59 59 -61 -62 -63
leaf_value=-248.47463181059481 -278.07973843059051 -592.30450688812459 -456.46324970818426 -175.2876317952516 -406.21851895070597 579.04681521418036 -231.13568090873093 1820.8703759804343 -505.93856942397207 -16.817488365456096 -200.60931803862047 -197.42276915664181 -80.784259780120806 -70.731548225647998 149.81689493589039 -375.53207672534853 -51.710636777381914 -146.1942125077662 1348.7575793967048 -388.19224182189953 -334.18232950260682 109.66242132931221 1080.4049328553044 -564.91590791310773 -272.4067129966752 -140.78836613370601 -267.40912319383096 -280.79113196858481 -463.42807439617928 0.86855386624592945 -91.222421977140499 -455.1508902221442 -363.12215227146845 -93.728317058543212 -590.88578495920979 -15.523764251983117 -320.64132506047639 297.12926401322437 -313.60501339602956 -60.803165750425286 -252.48652989336406 -269.59315828833104 63.588043485233271 810.57091179069403 14.150796929387571 13.82070300777832 3.6596468134261118 -3.5735141754050077 -26.857552001008344 398.49061766726868 -32.188525090786548 -359.31171323474473 -167.16813781169333 -60.965774586433014 -386.74895039367368 722.61345123832689 114.64117964806901 -22.701258710608585 -444.34337875680507 -137.93821911640089 2.0573339629720642 881.45844604001672
leaf_weight=263 216 40 331 614 43 4782 119 13923 144 3593 331 846 107 886 118 58 159 933 4632 142 133 8967 286 80 68 384 155 460 107 113 275 198 101 306 90 623 91 387 44 296 225 241 67 1000 3853 3087 201 85 671 520 3410 214 362 43 97 4048 265 382 96 68 1767 2702
leaf_count=263 216 40 331 614 43 4782 119 13923 144 3593 331 846 107 886 118 58 159 933 4632 142 133 8967 286 80 68 384 155 460 107 113 275 198 101 306 90 623 91 387 44 296 225 241 67 1000 3853 3087 201 85 671 520 3410 214 362 43 97 4048 265 382 96 68 1767 2702
internal_value=0.000682518 -0.00212385 -0.00151977 -0.00128482 -0.0123644 -0.00100518 0.00290761 0.00302354 -0.00858616 -0.0018624 -0.0028856 -0.00394727 0.00289295 0.00205069 -0.00944444 -0.0186504 -0.0145392 -0.00669687 0.00219212 0.00167532 -0.0146429 0.00176567 -0.00284719 -0.00311537 -0.0227027 -0.000279642 -0.00275454 -0.00256441 -0.00221795 -0.00822188 0.00204521 -0.0275444 0.00215342 0.00232239 -0.00205005 -0.00490826 -0.0104176 -0.00154934 -0.00189803 -0.00874164 -0.00972374 -0.00581772 -2.33735e-06 0.00279279 -0.000419017 0.000348157 -0.00470745 -0.0101429 0.00243715 -0.00175676 -0.00175186 -0.0122909 -0.010247 -0.00727273 -0.0299153 0.00259496 -0.00161765 -0.00400621 -0.0188876 -0.0242683 -0.0013164 0.00217628
internal_weight=68848 30447 28751 28362 1696 27776 38401 38149 1358 22769 13829 10411 5007 24226 225 389 586 1214 23897 19265 252 19123 8468 8182 148 8940 8034 7879 7419 329 17717 338 17442 16694 7312 1090 467 6222 5835 1943 1647 1174 8556 1110 7446 3418 376 175 16388 1406 5791 801 587 110 295 15717 748 483 427 164 5177 11669
internal_count=68848 30447 28751 28362 1696 27776 38401 38149 1358 22769 13829 10411 5007 24226 225 389 586 1214 23897 19265 252 19123 8468 8182 148 8940 8034 7879 7419 329 17717 338 17442 16694 7312 1090 467 6222 5835 1943 1647 1174 8556 1110 7446 3418 376 175 16388 1406 5791 801 587 110 295 15717 748 483 427 164 5177 11669
is_linear=0
shrinkage=0.05


Tree=13
num_leaves=63
num_cat=0
split_feature=0 0 0 0 10 10 1 64 67 0 0 49 5 1 18 0 1 0 10 5 54 49 67 5 4 66 2 59 4 4 54 0 4 0 38 0 10 10 2 10 0 10 31 26 10 10 2 2 10 10 10 64 1 16 10 4 0 0 10 19 2 1
split_gain=1045.42 171.927 156.16 120.981 45.0072 33.9737 30.7061 30.4437 25.9501 19.7301 17.5221 17.2168 15.052 14.2445 13.1796 11.1086 9.4578 9.32622 8.75032 7.72104 7.49398 8.01286 7.4431 6.97116 6.84184 6.63545 6.86 6.36617 6.34225 6.31983 6.05101 5.99151 5.91161 5.49142 5.1965 5.13016 5.12829 5.10848 5.1039 6.51804 4.98403 4.60579 4.46708 4.16976 4.12548 7.78987 4.09577 4.0141 4.00677 3.82522 3.94873 4.72926 3.73412 3.72142 3.55345 3.52112 3.51382 5.67475 3.49264 3.47618 3.47097 3.43589
threshold=97027.9954738292 93255.550251918234 43610.970036831153 95124.88423667723 299.00000000000006 969.00000000000011 98417.555084824489 1.0000000180025095e-35 1.0000000180025095e-35 58731.37403577954 89478.294061633016 1.0000000180025095e-35 93447.721255070806 95049.816979801937 1.0000000180025095e-35 96206.537896869544 95367.28598451725 96755.022530851813 9.5000000000000018 69612.223127105768 1.0000000180025095e-35 1.0000000180025095e-35 1.0000000180025095e-35 78653.712902221116 1.5000000000000002 1.0000000180025095e-35 82488.175643770592 1.0000000180025095e-35 2.5000000000000004 1.5000000000000002 1.0000000180025095e-35 97263.023913036057 1.0000000180025095e-35 95393.817263388177 1.0000000180025095e-35 73490.035742926106 43.500000000000007 2.5000000000000004 107113.75849054854 153.00000000000003 96382.582529982596 42.500000000000007 1.0000000180025095e-35 1.0000000180025095e-35 172.50000000000003 31.500000000000004 111773.28769287966 78336.025738336917 50.500000000000007 153.00000000000003 3.5000000000000004 1.0000000180025095e-35 95973.699704319108 1.0000000180025095e-35 24.500000000000004 2.5000000000000004 96755.022530851813 96677.434667339301 24.500000000000004 1.0000000180025095e-35 82299.426191969964 94870.309070231437
decision_type=2 2 2 2 2 2 2 2 2 2 2 2 2 2 2 2 2 2 2 2 2 2 2 2 2 2 2 2 2 2 2 2 2 2 2 2 2 2 2 2 2 2 2 2 2 2 2 2 2 2 2 2 2 2 2 2 2 2 2 2 2 2
left_child=1 2 5 4 11 44 15 8 9 12 25 13 36 24 19 20 -12 40 -9 -8 21 52 23 -15 49 26 28 42 -11 32 33 -2 37 -21 -28 59 -4 -25 39 -18 -17 54 -14 -10 45 -1 -39 -35 -16 50 -3 60 55 -7 -29 -5 57 -49 -13 -20 -52 -23
right_child=31 3 7 6 -6 53 14 18 43 10 16 58 27 22 48 17 38 -19 35 30 -22 61 -24 29 -26 -27 34 41 -30 -31 -32 -33 -34 47 -36 -37 -38 46 -40 -41 -42 -43 -44 -45 -46 -47 -48 56 -50 -51 51 -53 -54 -55 -56 -57 -58 -59 -60 -61 -62 -63
leaf_value=-248.13230529369949 -15.72457703415057 -466.03960032660183 -268.50732934116724 -2.2156234949169238 -205.06075762266821 -366.93838709206761 1.6278677127809738 -122.08974827021711 -488.1772634158213 -205.01878394566594 -424.69457581977889 -502.3350432806813 -82.771435845736733 -397.20265185081541 -49.289622480342445 -16.184120642131894 -260.22359245545698 -37.607229048490943 -323.26195211611889 -94.615201379911582 -55.241282910509256 -104.13583708098705 -467.77290589445795 -447.25361383169979 -294.15190145046074 -191.07641238889366 67.12225115696836 -317.31100238346716 357.71446862367662 -291.46613670755755 -114.96455099583423 752.66587556297111 -289.49341296702403 -47.889281220297953 -393.37223105678396 -508.13778914174702 -281.72196995731855 -407.09123846344846 136.58478382621016 -567.21634916796893 -25.706797163998672 -26.548657319562292 -350.28818085588546 -530.67005796737885 -175.94630883439658 -457.48473696558386 -290.86416243090474 -59.485853600663852 402.46310066827959 -381.90703630057106 -425.55871155715397 -541.88928154371831 -22.259073716430475 -536.12322411541788 -528.55529617623654 -24.857683354327467 -71.311458060249592 -64.944509447171569 429.45560603562154 -29.012846396349374 -371.17034988328743 -35.434564820213566
leaf_weight=158 491 341 398 1230 280 330 53 100 156 1063 500 70 984 93 128 291 448 446 59 247 91 67 86 272 170 74 5450 67 355 175 90 48196 202 140 88 161 131 416 402 72 589 66 56 118 126 99 155 1061 152 162 204 71 311 126 42 97 262 93 64 41 329 53
leaf_count=158 491 341 398 1230 280 330 53 100 156 1063 500 70 984 93 128 291 448 446 59 247 91 67 86 272 170 74 5450 67 355 175 90 48196 202 140 88 161 131 416 402 72 589 66 56 118 126 99 155 1061 152 162 204 71 311 126 42 97 262 93 64 41 329 53
internal_value=0.000726092 -0.00884852 -0.00491003 -0.0142616 -0.0221521 -0.0256913 -0.00974727 -0.00330025 -0.00280802 -0.00239996 -0.00140085 -0.0240569 -0.00724197 -0.0249327 -0.0142498 -0.00659055 -0.00646273 -0.010083 -0.0175762 -0.0157091 -0.00408599 -0.00336177 -0.0214475 -0.0205141 -0.028751 -0.000376956 -0.000218516 -0.00417695 -0.00332158 -0.0195082 -0.0162361 0.00469088 -0.0209809 -0.0156045 0.00057602 -0.0223946 -0.0142817 -0.01914 -0.00345987 -0.00673077 -0.0130682 -0.013 -0.00269231 -0.0179927 -0.0147128 -0.0183463 -0.0164536 -0.0145051 -0.00410714 -0.0301852 -0.0289683 -0.0265397 -0.00244811 -0.0349123 -0.0193119 -0.00129239 -0.0153037 -0.0164905 -0.00656716 -0.0135 -0.024925 -0.0158333
internal_weight=68848 20161 11670 8491 3090 839 5401 10831 10470 10196 8452 2810 1744 2676 2226 3175 1422 1326 361 1946 1849 1758 1399 1313 1277 7030 6956 1215 1418 1220 1893 48687 1045 1803 5538 261 529 843 922 520 880 175 1040 274 383 257 571 1556 280 1107 945 604 1638 456 109 1327 1416 1154 134 100 533 120
internal_count=68848 20161 11670 8491 3090 839 5401 10831 10470 10196 8452 2810 1744 2676 2226 3175 1422 1326 361 1946 1849 1758 1399 1313 1277 7030 6956 1215 1418 1220 1893 48687 1045 1803 5538 261 529 843 922 520 880 175 1040 274 383 257 571 1556 280 1107 945 604 1638 456 109 1327 1416 1154 134 100 533 120
is_linear=0
shrinkage=0.05


Tree=14
num_leaves=63
num_cat=0
split_feature=0 0 0 0 0 2 15 1 64 10 0 10 0 1 26 0 10 0 5 0 0 10 59 5 18 2 5 0 0 1 0 64 0 10 10 0 10 10 10 0 10 50 23 15 0 13 5 10 62 1 2 10 13 10 0 10 10 2 23 1 1 1
split_gain=953.21 136.856 146.801 94.4323 40.3467 35.7028 32.8423 24.5071 24.2022 19.5815 18.9984 18.0392 15.9779 12.6523 11.5419 14.195 10.271 9.88632 10.3914 9.2815 25.7747 8.40894 7.83359 7.67987 7.30073 6.69636 6.59766 6.54539 6.52748 6.07119 11.448 5.67605 5.51202 5.50582 5.1995 5.09961 5.31087 5.08741 10.9296 4.95761 4.74989 4.73431 4.72143 5.74511 4.54235 4.43004 4.40236 4.30256 5.25955 4.2517 4.00115 3.91659 3.80263 3.74658 3.6058 3.57304 5.2665 3.56631 3.43104 3.37069 3.3544 3.19469
threshold=97134.615824057211 92006.936073840086 34031.044675267236 95239.749313471242 46504.551259969172 111522.90296302047 1.0000000180025095e-35 100604.37508251988 1.0000000180025095e-35 10.500000000000002 93255.550251918234 308.50000000000006 94853.550280646668 95049.816979801937 1.0000000180025095e-35 74238.093622338143 969.00000000000011 58731.37403577954 93447.721255070806 96303.263568579787 96755.022530851813 241.50000000000003 1.0000000180025095e-35 105831.60128504939 1.0000000180025095e-35 81938.465569607521 78653.712902221116 79407.90011727855 96755.022530851813 96500.463981116802 95065.388362241923 1.0000000180025095e-35 96476.358802630639 43.500000000000007 28.500000000000004 96476.358802630639 1.5000000000000002 48.500000000000007 31.500000000000004 93255.550251918234 17.500000000000004 1.0000000180025095e-35 1.0000000180025095e-35 1.0000000180025095e-35 97957.171967510731 1.0000000180025095e-35 78653.712902221116 25.500000000000004 1.0000000180025095e-35 94143.20096472661 89394.522508150098 153.00000000000003 1.0000000180025095e-35 6.5000000000000009 90400.94395885487 153.00000000000003 172.50000000000003 113772.26263332997 1.0000000180025095e-35 95173.94996974674 107737.92232206966 97714.242553701348
decision_type=2 2 2 2 2 2 2 2 2 2 2 2 2 2 2 2 2 2 2 2 2 2 2 2 2 2 2 2 2 2 2 2 2 2 2 2 2 2 2 2 2 2 2 2 2 2 2 2 2 2 2 2 2 2 2 2 2 2 2 2 2 2
left_child=1 2 45 5 16 10 7 19 14 39 21 12 13 31 17 53 37 18 33 -5 35 -3 25 51 28 -19 -15 -17 32 30 -14 49 46 -6 -24 -21 -37 38 -4 -7 -10 47 43 -28 -2 -1 -9 48 54 58 -42 -8 -30 -16 -27 -39 -57 -26 -12 -47 -11 -56
right_child=44 3 4 6 8 9 23 24 40 60 11 -13 29 26 15 27 -18 22 -20 20 -22 -23 34 -25 57 41 42 -29 52 -31 -32 -33 -34 -35 -36 36 -38 55 -40 -41 50 -43 -44 -45 -46 59 -48 -49 -50 -51 -52 -53 -54 -55 61 56 -58 -59 -60 -61 -62 -63
leaf_value=-526.30137240873103 64.932190949989192 -476.34656749051965 -280.28117971211606 -8.2848815703802963 -257.3630658295985 -408.51216486647127 -115.85631435625815 0.74373278729472081 -184.233507378187 -228.22464867963072 -433.20509405133083 -269.05073431984823 -89.828999481432675 -438.87297655126571 -400.33890471774185 -535.77409343569593 -536.63495324029861 -172.28192324052895 -129.10243767194495 -13.825148644196171 -0.4993566532134166 -614.71854845481982 -358.82194957979692 -118.92335204524545 -121.50075905261417 16.618877337142315 -410.31519834748764 -257.01375146248273 -34.358503462945009 -140.19944892493587 -34.355687633615993 -514.79481746653221 -59.667861239297579 -179.93687796535636 -213.51610218276957 -29.205184359140929 -23.243963580254217 -60.768196876034523 -508.17700329544397 -454.98387257482347 -499.42164180237836 -308.14061788608711 -399.54984507739982 -229.79473064049867 922.4926943223777 -396.50582093217326 -55.614319764764247 190.9321726803025 -353.07401430072974 -361.98246377806834 -412.55562336918274 -87.961134157937707 -52.258405513140474 195.31522891974953 -311.03979051208898 -186.10072400801749 -162.90590235495887 11.160895443450883 -242.72614289958042 -333.33862755284758 138.32286096749235 -173.09264182417041
leaf_weight=93 2352 486 479 1984 273 46 137 45 113 171 677 156 262 68 105 59 40 1317 800 334 623 63 41 165 73 2735 691 223 234 371 219 84 198 95 71 86 343 146 80 202 87 458 47 40 46084 161 883 2596 101 173 58 85 58 205 56 42 229 150 40 170 304 81
leaf_count=93 2352 486 479 1984 273 46 137 45 113 171 677 156 262 68 105 59 40 1317 800 334 623 63 41 165 73 2735 691 223 234 371 219 84 198 95 71 86 343 146 80 202 87 458 47 40 46084 161 883 2596 101 173 58 85 58 205 56 42 229 150 40 170 304 81
internal_value=0.000879329 -0.00818342 -0.00436412 -0.0125721 -0.00319828 -0.0182927 -0.00822712 -0.00714328 -0.00218282 -0.00820885 -0.0204516 -0.022104 -0.0230689 -0.0257143 -0.00175998 -0.00851351 -0.0126673 -0.00129638 -0.00557363 -0.00470326 -0.00784271 -0.0119399 -0.000626341 -0.022261 -0.0121542 -0.000426198 -0.0212411 -0.0166312 -0.0134767 -0.0174178 -0.013711 -0.0295996 -0.0152043 -0.0125272 -0.01375 -0.0140039 -0.0176107 -0.0116496 -0.0147674 -0.0195968 -0.0172868 0.000279575 -0.0199357 -0.0209234 0.00469857 -0.0332075 -0.0135884 0.000681451 -0.000617221 -0.028427 -0.0232759 -0.0283333 -0.00681507 -0.00112903 -0.000222841 -0.00747002 -0.0108672 -0.00374439 -0.0267294 -0.0304985 -0.00226316 -0.00813869
internal_weight=68848 20412 10914 9498 10490 4100 5398 5011 9474 723 3377 2828 2672 1820 9216 592 1016 8624 1168 3370 1386 549 7456 387 1641 7344 846 282 1418 852 481 974 1126 368 112 763 429 976 559 248 258 6027 778 731 48436 424 928 5569 2973 890 145 222 292 310 2872 417 271 223 717 331 475 137
internal_count=68848 20412 10914 9498 10490 4100 5398 5011 9474 723 3377 2828 2672 1820 9216 592 1016 8624 1168 3370 1386 549 7456 387 1641 7344 846 282 1418 852 481 974 1126 368 112 763 429 976 559 248 258 6027 778 731 48436 424 928 5569 2973 890 145 222 292 310 2872 417 271 223 717 331 475 137
is_linear=0
shrinkage=0.05


Tree=15
num_leaves=63
num_cat=0
split_feature=0 0 0 0 0 15 0 48 64 67 1 49 0 1 26 0 5 59 0 0 0 5 63 50 67 5 18 1 2 66 0 0 23 19 4 4 31 33 0 0 16 0 5 4 1 0 14 1 39 0 15 21 0 0 0 4 2 4 1 2 18 5
split_gain=890.45 118.083 144.295 93.5605 36.6806 31.1509 30.1221 22.2807 21.7112 19.6688 19.619 19.052 17.2416 16.6859 9.95261 9.74475 9.2853 8.43777 8.27677 19.9691 10.5955 8.18009 7.66329 7.67979 7.47651 7.55822 6.99679 5.71603 5.60203 5.56504 5.54523 9.62954 5.04244 5.2532 4.98508 8.49404 4.82474 4.81056 4.56282 7.78588 4.44535 4.42935 4.4209 4.30151 4.29971 10.2866 4.28295 4.17978 3.81832 3.71863 3.74553 3.80691 3.66393 3.94315 3.63995 4.39068 3.53936 3.50078 3.43369 3.40596 3.3574 3.21613
threshold=97134.615824057211 92006.936073840086 34031.044675267236 95239.749313471242 46504.551259969172 1.0000000180025095e-35 93255.550251918234 1.0000000180025095e-35 1.0000000180025095e-35 1.0000000180025095e-35 99997.783844736652 1.0000000180025095e-35 94853.550280646668 95049.816979801937 1.0000000180025095e-35 58731.37403577954 105831.60128504939 1.0000000180025095e-35 96206.537896869544 96755.022530851813 96476.358802630639 105831.60128504939 1.0000000180025095e-35 1.0000000180025095e-35 1.0000000180025095e-35 78653.712902221116 1.0000000180025095e-35 93306.266571003551 111691.28373829738 1.0000000180025095e-35 96755.022530851813 96476.358802630639 1.0000000180025095e-35 1.0000000180025095e-35 1.5000000000000002 1.0000000180025095e-35 1.0000000180025095e-35 1.0000000180025095e-35 96476.358802630639 96578.034832602745 1.0000000180025095e-35 98069.049814969054 78653.712902221116 2.5000000000000004 96500.463981116802 95065.388362241923 1.0000000180025095e-35 97714.242553701348 1.0000000180025095e-35 94710.329563931882 1.0000000180025095e-35 1.0000000180025095e-35 89478.294061633016 74238.093622338143 94710.329563931882 1.5000000000000002 78336.025738336917 2.5000000000000004 116195.92142649759 107113.75849054854 1.0000000180025095e-35 78653.712902221116
decision_type=2 2 2 2 2 2 2 2 2 2 2 2 2 2 2 2 2 2 2 2 2 2 2 2 2 2 2 2 2 2 2 2 2 2 2 2 2 2 2 2 2 2 2 2 2 2 2 2 2 2 2 2 2 2 2 2 2 2 2 2 2 2
left_child=1 2 40 6 32 10 28 11 9 15 18 12 13 27 -11 16 57 22 -5 20 -20 38 23 29 25 -15 30 54 46 37 31 42 33 -4 35 -10 -18 47 -7 -40 -1 -2 -12 56 45 -14 60 52 -19 50 51 -27 53 61 55 59 -44 -6 -46 -8 -3 -17
right_child=41 3 4 5 8 21 7 -9 34 14 26 -13 44 24 -16 17 36 48 19 -21 -22 -23 -24 -25 -26 49 -28 -29 -30 -31 -32 -33 -34 -35 -36 -37 -38 -39 39 -41 -42 -43 43 -45 58 -47 -48 -49 -50 -51 -52 -53 -54 -55 -56 -57 -58 -59 -60 -61 -62 -63
leaf_value=-334.18647841901003 63.299396937198622 -553.59234537693362 -365.38731113401053 -6.9932269143928325 -240.61698009700973 -108.33216662081198 -455.42339149925829 -72.129903999048992 -86.902927451251102 -283.46553492439665 0.91277295528608304 -185.4552046952947 -84.473814505944034 -391.8082535389803 -423.58782157349907 -263.75862679057366 -49.925772535711651 -218.44661952360264 -9.752881835543441 -0.027163593308980452 -23.660775827867113 -109.58172808661882 -464.61193147952031 -328.61474830476482 -442.45252572054369 -400.0509103752089 -26.16225634277265 -414.91186123004331 -154.18464531695156 -172.04043779788032 -44.061741951661553 -53.954456269419467 34.196969709565046 -68.73868215025179 -235.4014709292866 -475.90032159157136 -297.09303377048519 -133.05901327931153 -67.128345892762084 -101.61149397571535 -497.73389661003722 897.5080847670265 -4.7933898086320639 -105.40110356101073 -122.54236161520812 -27.273526356857687 -93.263279418700932 235.97686530047741 -305.65499359190079 -194.50987750537826 -164.45515626662359 -302.48061039276439 -215.75916648909299 172.22388963046708 -126.93711785533836 -314.93170262495443 -40.096206046447477 249.77189840091819 -129.99024543829569 -480.12874754136413 181.25055973390096 -86.062284698581323
leaf_weight=318 2619 438 823 1786 373 123 427 165 51 98 54 210 280 65 89 40 786 81 477 632 422 158 128 530 69 699 231 311 206 100 318 200 76 139 103 124 59 664 42 54 102 45910 70 74 354 241 81 3414 55 106 40 48 202 1368 110 80 741 45 86 67 43 1079
leaf_count=318 2619 438 823 1786 373 123 427 165 51 98 54 210 280 65 89 40 786 81 477 632 422 158 128 530 69 699 231 311 206 100 318 200 76 139 103 124 59 664 42 54 102 45910 70 74 354 241 81 3414 55 106 40 48 202 1368 110 80 741 45 86 67 43 1079
internal_value=0.000970037 -0.00780766 -0.00424219 -0.0118753 -0.00308478 -0.00753252 -0.01754 -0.0195831 -0.00209873 -0.00167874 -0.00648851 -0.0205089 -0.0215337 -0.0241543 -0.0177273 -0.00134245 -0.00541172 -0.000671583 -0.00425535 -0.00695297 -0.0117408 -0.0213926 -0.000448505 -0.00023861 -0.0196835 -0.0185386 -0.0108768 -0.0287688 -0.00860677 0.000208971 -0.0121585 -0.0137884 -0.0120039 -0.0129834 -0.0158633 -0.021 -0.00239645 0.000382001 -0.0276484 -0.0194792 -0.0329762 0.00465175 -0.0116667 -0.0125141 -0.0160198 -0.0129463 -0.0111922 0.000821727 -0.0130147 -0.0173404 -0.0161563 -0.0169545 -0.000652659 -0.000126658 -0.0262134 -0.0246167 -0.0114612 -0.0115072 -0.0196591 -0.0263765 -0.0129834 -0.00232797
internal_weight=68884 20355 10847 9508 10427 5382 4126 3358 9389 9111 5005 3193 2983 2022 187 8924 1263 7661 3317 1531 899 377 7525 7397 1027 958 1688 995 768 6867 1457 1139 1038 962 278 175 845 6767 219 96 420 48529 939 885 961 521 562 6103 136 893 787 747 2689 2487 684 574 811 418 440 494 481 1119
internal_count=68884 20355 10847 9508 10427 5382 4126 3358 9389 9111 5005 3193 2983 2022 187 8924 1263 7661 3317 1531 899 377 7525 7397 1027 958 1688 995 768 6867 1457 1139 1038 962 278 175 845 6767 219 96 420 48529 939 885 961 521 562 6103 136 893 787 747 2689 2487 684 574 811 418 440 494 481 1119
is_linear=0
shrinkage=0.05


Tree=16
num_leaves=63
num_cat=0
split_feature=0 0 0 0 10 0 15 1 64 49 0 1 0 0 5 5 50 1 4 10 4 10 26 0 4 0 0 0 5 4 4 10 10 53 0 59 0 0 18 48 54 13 0 0 10 10 10 38 10 26 0 18 49 0 1 1 63 39 1 18 10 4
split_gain=839.401 115.186 130.516 117.226 36.8461 30.3956 28.4704 22.5199 20.8823 18.9697 15.0588 13.8393 9.99417 9.39734 7.73976 7.66006 7.65719 7.42563 7.29631 7.27886 6.92289 6.73849 6.62979 6.58014 6.27987 6.10669 8.69659 6.08649 6.07657 5.96958 8.06469 5.8759 12.854 5.77292 5.48801 5.00069 4.8676 15.7213 6.93754 4.76735 4.58914 4.28909 4.21647 7.29696 4.1502 3.8369 3.8115 3.79546 3.90112 8.28686 5.91078 5.82119 3.69416 3.58664 3.47098 3.2503 3.24303 3.51884 3.17948 2.93718 2.92908 2.92444
threshold=97027.9954738292 93255.550251918234 34031.044675267236 95065.388362241923 299.00000000000006 46504.551259969172 1.0000000180025095e-35 96374.026548644601 1.0000000180025095e-35 1.0000000180025095e-35 89478.294061633016 95049.816979801937 95239.749313471242 80923.570728190665 78653.712902221116 105831.60128504939 1.0000000180025095e-35 95367.28598451725 1.5000000000000002 515.00000000000011 2.5000000000000004 52.500000000000007 1.0000000180025095e-35 98069.049814969054 1.5000000000000002 96206.537896869544 96755.022530851813 94853.550280646668 78653.712902221116 1.5000000000000002 1.0000000180025095e-35 48.500000000000007 31.500000000000004 1.0000000180025095e-35 96476.358802630639 1.0000000180025095e-35 96755.022530851813 96476.358802630639 1.0000000180025095e-35 1.0000000180025095e-35 1.0000000180025095e-35 1.0000000180025095e-35 96476.358802630639 96578.034832602745 33.500000000000007 8.5000000000000018 2.5000000000000004 1.0000000180025095e-35 36.500000000000007 1.0000000180025095e-35 74238.093622338143 1.0000000180025095e-35 1.0000000180025095e-35 93961.455282881725 95148.567990318479 93306.266571003551 1.0000000180025095e-35 1.0000000180025095e-35 100604.37508251988 1.0000000180025095e-35 8.5000000000000018 2.5000000000000004
decision_type=2 2 2 2 2 2 2 2 2 2 2 2 2 2 2 2 2 2 2 2 2 2 2 2 2 2 2 2 2 2 2 2 2 2 2 2 2 2 2 2 2 2 2 2 2 2 2 2 2 2 2 2 2 2 2 2 2 2 2 2 2 2
left_child=1 2 41 4 9 19 7 25 10 11 13 24 21 28 -13 42 22 -12 39 31 36 -9 35 -2 27 52 34 55 -7 30 -10 32 -4 47 -27 -15 37 58 46 40 -16 -1 -8 -44 -34 -35 -39 48 49 56 -51 -50 61 -26 -43 -3 57 -30 -14 -19 -11 -5
right_child=23 3 5 6 -6 8 15 12 29 60 17 14 20 16 18 -17 -18 59 -20 -21 -22 -23 -24 -25 53 26 -28 -29 33 -31 -32 -33 44 45 -36 -37 -38 38 -40 -41 -42 54 43 -45 -46 -47 -48 -49 51 50 -52 -53 -54 -55 -56 -57 -58 -59 -60 -61 -62 -63
leaf_value=-472.84720177953545 38.710426668500425 -413.23611822900261 -265.14624354237503 -0.99450169506284392 -202.73815760303125 -240.61569108323917 -106.22867249965216 -82.565419695640983 -104.20342070815389 -468.00473692165525 -436.20985462684052 -342.96261064772943 -12.633996798728427 221.58159719067703 -355.19750220578106 -106.53739569741525 -414.93176906352613 -309.14642410974534 -260.69107437431569 -513.08732482028915 -74.863632389516354 -56.914628995729487 -150.58351544995978 852.63268052867522 -237.77255824341842 -8.4491850467303546 0.28360846469129186 -63.995166077080718 -102.25257083552907 -232.17405159711257 -449.20578117728502 -124.60315961861221 -461.70253559735312 -83.546467897039108 -21.332649553661881 -113.59020440757259 -15.7371936372222 -27.837393660540211 -18.716625003994704 -406.60156499464114 -221.70360342825154 -360.58790517192193 -63.77192859812385 -96.530919276929495 -445.53080939574465 -286.98674968894039 -37.950283577412648 -342.064610913021 27.122410897150715 -206.38311262709499 -341.87609460686139 -150.1007265795522 -68.603873863820283 -237.57151834598901 -300.06348553701139 -404.08809154744932 -459.44139312973579 -344.47501560122669 -31.035202219263425 518.69093263687739 126.20523678260327 -26.756086253472059
leaf_weight=102 2861 554 493 1393 292 173 133 172 61 58 516 78 614 2918 899 157 175 794 159 46 195 64 98 45910 43 320 322 189 2406 125 130 411 46 60 288 42 400 85 57 50 55 150 42 49 42 83 210 55 1988 152 75 87 75 115 168 278 47 46 959 126 85 108
leaf_count=102 2861 554 493 1393 292 173 133 172 61 58 516 78 614 2918 899 157 175 794 159 46 195 64 98 45910 43 320 322 189 2406 125 130 411 46 60 288 42 400 85 57 50 55 150 42 49 42 83 210 55 1988 152 75 87 75 115 168 278 47 46 959 126 85 108
internal_value=0.00105569 -0.00753915 -0.00430263 -0.0119628 -0.0202189 -0.00327602 -0.00778575 -0.0068301 -0.00244314 -0.0221362 -0.00203689 -0.0231818 -0.0099492 -0.00122844 -0.0194964 -0.0209843 0.000886174 -0.0067688 -0.0184738 -0.0114258 -0.00902778 -0.0197881 0.00146828 0.00460017 -0.0270611 -0.00339984 -0.0066129 -0.0284966 -0.00255027 -0.0150949 -0.0206544 -0.0105242 -0.0137608 -0.00223145 -0.0101316 0.00189189 -0.00826882 -0.00931169 -0.0188636 -0.0200498 -0.0208386 -0.0316667 -0.0269196 -0.0186264 -0.0313636 -0.0121329 -0.0219492 -0.00193987 -0.00179025 -0.00303375 -0.0121806 -0.000156626 -0.00150381 -0.0177848 -0.028805 -0.0303365 -0.00220288 -0.00195351 -0.00717419 -0.00407609 -0.00444056 -0.000962691
internal_weight=68884 20113 11615 8498 2855 11195 5643 5262 10157 2563 9841 2420 2756 8405 1241 381 3233 1436 1163 1038 2520 236 3058 48771 1179 2506 930 1021 5172 316 191 992 581 4999 608 2960 2325 1925 352 1004 954 420 224 91 88 143 295 4856 4801 2726 227 2075 1576 158 318 832 2499 2452 1573 920 143 1501
internal_count=68884 20113 11615 8498 2855 11195 5643 5262 10157 2563 9841 2420 2756 8405 1241 381 3233 1436 1163 1038 2520 236 3058 48771 1179 2506 930 1021 5172 316 191 992 581 4999 608 2960 2325 1925 352 1004 954 420 224 91 88 143 295 4856 4801 2726 227 2075 1576 158 318 832 2499 2452 1573 920 143 1501
is_linear=0
shrinkage=0.05


Tree=17
num_leaves=63
num_cat=0
split_feature=0 0 0 0 0 10 15 0 64 1 49 0 1 26 0 4 0 48 22 1 10 2 0 0 0 18 4 10 48 10 10 1 10 36 13 0 10 0 2 13 0 0 15 54 1 10 4 0 54 0 0 1 33 10 1 10 39 2 22 23 10 10
split_gain=789.351 98.8816 127.157 89.4035 30.52 31.8915 30.3055 29.7066 17.5032 17.4172 14.9739 13.7748 14.3334 10.47 11.5839 8.39881 8.39865 7.50439 7.34616 6.94519 6.93798 6.22446 6.03127 14.6715 5.77981 5.32109 5.20484 5.07647 5.01371 4.98398 11.651 4.86094 5.72749 4.7327 4.62536 4.61326 4.58354 4.57714 4.44528 4.4382 5.26294 8.03959 4.38928 4.60799 4.35082 4.3355 5.48107 4.52049 4.16298 4.05474 3.94281 5.11266 3.92076 3.89761 3.82717 3.7832 3.62002 3.61692 3.50365 3.37154 3.36764 3.28632
threshold=97134.615824057211 92006.936073840086 34031.044675267236 95124.88423667723 93255.550251918234 299.00000000000006 1.0000000180025095e-35 46504.551259969172 1.0000000180025095e-35 101227.72428605736 1.0000000180025095e-35 94958.848089382125 95049.816979801937 1.0000000180025095e-35 74238.093622338143 2.5000000000000004 58731.37403577954 1.0000000180025095e-35 1.0000000180025095e-35 97714.242553701348 515.00000000000011 84605.540452466943 96871.625745575948 96382.582529982596 96755.022530851813 1.0000000180025095e-35 1.5000000000000002 39.500000000000007 1.0000000180025095e-35 48.500000000000007 31.500000000000004 96500.463981116802 52.500000000000007 1.0000000180025095e-35 1.0000000180025095e-35 81302.055976677904 1.5000000000000002 98069.049814969054 96124.307460390031 1.0000000180025095e-35 96871.625745575948 96476.358802630639 1.0000000180025095e-35 1.0000000180025095e-35 104035.11870495421 36.500000000000007 1.5000000000000002 82370.763612128168 1.0000000180025095e-35 93961.455282881725 95609.229537861363 95808.339406096333 1.0000000180025095e-35 18.500000000000004 95148.567990318479 33.500000000000007 1.0000000180025095e-35 103734.5447594517 1.0000000180025095e-35 1.0000000180025095e-35 5.5000000000000009 1.5000000000000002
decision_type=2 2 2 2 2 2 2 2 2 2 2 2 2 2 2 2 2 2 2 2 2 2 2 2 2 2 2 2 2 2 2 2 2 2 2 2 2 2 2 2 2 2 2 2 2 2 2 2 2 2 2 2 2 2 2 2 2 2 2 2 2 2
left_child=1 2 34 4 44 10 9 20 13 17 11 12 26 16 36 25 18 22 48 45 29 53 23 50 38 27 61 39 33 30 -4 -13 -33 42 -1 -16 -15 -2 -25 40 41 -11 43 59 -3 46 47 -18 52 -28 51 -5 -9 -10 -36 -32 -21 -8 -41 -14 -40 -6
right_child=37 3 7 6 5 -7 57 8 21 15 -12 31 28 14 35 -17 19 -19 -20 56 -22 -23 -24 24 -26 -27 49 -29 -30 -31 55 32 -34 -35 54 -37 -38 -39 60 58 -42 -43 -44 -45 -46 -47 -48 -49 -50 -51 -52 -53 -54 -55 -56 -57 -58 -59 -60 -61 -62 -63
