tree
version=v4
num_class=1
num_tree_per_iteration=1
label_index=0
max_feature_idx=67
objective=quantile
feature_names=title city state country experience_ordinal work_type remote_allowed has_employee_count log_employee_count has_company_posting_count company_posting_count log_company_posting_count company_scale_tier_proxy skill_MGMT skill_IT skill_ENG skill_HCPR skill_FIN skill_ANLS skill_SALE skill_GENB skill_LGL skill_MNFC skill_HR skill_CNSL skill_PRJM skill_CUST skill_PROD skill_ACCT skill_BD skill_MRKT skill_TRNG skill_SCI skill_ADM skill_RSCH skill_PRDM skill_SUPL skill_STRA skill_EDU skill_DIST skill_OTHR skill_QA skill_DSGN skill_WRT skill_PRCH skill_PR skill_ART skill_ADVR ind_it-jobs ind_engineering-jobs ind_healthcare-nursing-jobs ind_accounting-finance-jobs ind_sales-jobs ind_14 ind_trade-construction-jobs ind_43 ind_96 ind_104 ind_legal-jobs ind_logistics-warehouse-jobs ind_4 ind_pr-advertising-marketing-jobs ind_admin-jobs ind_retail-jobs ind_27 ind_hr-jobs ind_customer-services-jobs ind_hospitality-catering-jobs
feature_infos=[26091.829203130641:322270.07536239247] [63649.070999991724:192810.12670973301] [57233.637716981466:185159.58514200299] none [-1:5] [54053.737272618797:111878.9473190866] [-1:1] none none none [1:4131] [0.69314718055994529:8.3265168302395285] [87068.758564637683:132388.10448193611] [0:1] [0:1] [0:1] [0:1] [0:1] [0:1] [0:1] [0:1] [0:1] [0:1] [0:1] [0:1] [0:1] [0:1] [0:1] [0:1] [0:1] [0:1] [0:1] [0:1] [0:1] [0:1] [0:1] [0:1] [0:1] [0:1] [0:1] [0:1] [0:1] [0:1] [0:1] [0:1] [0:1] [0:1] [0:1] [0:1] [0:1] [0:1] [0:1] [0:1] [0:1] [0:1] [0:1] [0:1] [0:1] [0:1] [0:1] [0:1] [0:1] [0:1] [0:1] [0:1] [0:1] [0:1] [0:1]
tree_sizes=5308 5478 5492 5440 5461 5469 5487 5455 5458 5472 5587 5457 5633 5433 5493 5513 5454 5475 5485 5641 5675 5503

Tree=0
num_leaves=63
num_cat=0
split_feature=0 1 0 0 10 0 1 50 0 10 52 10 0 14 48 49 10 24 5 0 1 48 0 53 15 0 10 24 1 0 0 5 0 48 0 0 0 15 49 10 5 10 10 10 15 10 10 0 0 18 10 0 18 5 51 21 10 0 1 10 10 10
split_gain=2202.01 293.937 147.205 151.762 69.1509 68.1826 55.6256 39.5843 39.4347 27.4906 20.8563 19.0357 25.9815 18.559 17.1708 13.9725 13.8206 13.1845 11.9044 11.0814 10.8479 10.4778 10.2531 9.97919 9.66079 9.06772 10.0793 8.62288 7.85898 7.64255 7.26536 6.45674 6.32913 6.30118 6.05583 5.81041 5.43852 5.39285 5.17571 4.69469 4.53822 4.1991 4.32913 5.81657 5.00763 4.03132 12.2044 5.6216 6.71523 4.21293 4.02404 3.88226 4.71255 3.79875 4.20469 3.72451 3.62888 5.26886 3.61892 3.58051 3.95683 3.48814
threshold=113665.38084283075 132531.4509956445 182765.25077140852 123812.38736480458 455.50000000000006 149340.35858948113 157043.78647585158 1.0000000180025095e-35 169685.43390542161 64.500000000000014 1.0000000180025095e-35 455.50000000000006 131515.98062255932 1.0000000180025095e-35 1.0000000180025095e-35 1.0000000180025095e-35 64.500000000000014 1.0000000180025095e-35 93447.721255070806 140378.15553512855 106286.83948024908 1.0000000180025095e-35 144076.41212584169 1.0000000180025095e-35 1.0000000180025095e-35 163742.398948168 615.00000000000011 1.0000000180025095e-35 114029.3783969686 147213.06021429782 114588.35141086152 105831.60128504939 127048.46146916515 1.0000000180025095e-35 111071.4832427592 140353.8008495761 157168.18765132938 1.0000000180025095e-35 1.0000000180025095e-35 7.5000000000000009 105831.60128504939 13.500000000000002 51.500000000000007 46.500000000000007 1.0000000180025095e-35 371.50000000000006 215.00000000000003 131638.60886537793 126052.0161821167 1.0000000180025095e-35 23.500000000000004 117119.28542509791 1.0000000180025095e-35 93447.721255070806 1.0000000180025095e-35 1.0000000180025095e-35 301.50000000000006 118371.46239321484 157043.78647585158 299.00000000000006 24.500000000000004 133.50000000000003
decision_type=2 2 2 2 2 2 2 2 2 2 2 2 2 2 2 2 2 2 2 2 2 2 2 2 2 2 2 2 2 2 2 2 2 2 2 2 2 2 2 2 2 2 2 2 2 2 2 2 2 2 2 2 2 2 2 2 2 2 2 2 2 2
left_child=34 2 3 4 7 13 8 9 11 23 17 12 16 20 36 32 -3 24 -14 -13 53 55 38 30 -11 -16 -27 51 56 39 -2 -8 -15 -26 -1 61 -7 -38 45 -20 -34 -32 43 44 -43 46 47 48 -22 -47 -41 -18 -53 -5 59 -6 57 -9 -36 60 -55 -17
right_child=1 6 -4 5 21 14 31 28 -10 10 -12 19 18 15 25 35 27 -19 29 -21 22 -23 -24 -25 33 26 -28 -29 -30 -31 41 -33 40 -35 58 -37 37 -39 -40 50 -42 42 -44 -45 -46 49 -48 -49 -50 -51 -52 52 -54 54 -56 -57 -58 -59 -60 -61 -62 -63
leaf_value=176277.67656250001 178988.5370548158 183115.27584472988 185422.09023231099 179990.47398872377 180223.81789511052 185344.58351783492 181714.27644748689 179649.9780442224 186474.22148368842 180625.79372708351 176994.13823420554 180830.88878484274 179027.67656250001 182642.37469012832 180173.17010912887 184143.75322311447 180025.23154887074 179167.76264012494 183426.42002170943 182829.03965893685 182775.13076041098 179179.71530532761 186541.55049055218 181317.67642898561 181543.29079908319 182340.64223123231 179468.85529673527 180615.32150540539 181983.61093749999 184103.23350811619 181677.11039771661 185325.27963640355 178097.67656250001 181279.01550296732 178527.67656250001 183866.30573318191 184975.38152486813 180590.3152836088 183587.64216697961 185517.51333307364 179451.45811474015 181485.24074469125 181143.9593740454 180107.86541472562 180980.73226041271 180467.18069709075 183146.59235668424 181320.43874222934 184777.67656250001 178436.06481252814 184285.73769970034 182809.32438721322 181860.74668894632 182975.00529935228 177837.3758766219 180140.95464690978 181645.21107005328 179474.59196273034 179171.47731696145 179503.54759049712 182962.37325942965 182302.47776763031
leaf_weight=51383 220 470 400 520 180 66 73 134 239 345 81 802 92 242 328 48 125 82 79 225 104 509 59 113 232 117 147 50 72 100 664 1140 775 267 2552 144 102 115 64 48 2234 174 83 69 137 247 68 350 119 143 338 239 53 156 69 46 49 246 171 161 139 70
leaf_count=51383 220 470 400 520 180 66 73 134 239 345 81 802 92 242 328 48 125 82 79 225 104 509 59 113 232 117 147 50 72 100 664 1140 775 267 2552 144 102 115 64 48 2234 174 83 69 137 247 68 350 119 143 338 239 53 156 69 46 49 246 171 161 139 70
internal_value=178713 178713 178713 178713 178713 178713 178713 178713 178713 178713 178713 178713 178713 178713 178713 178713 178713 178713 178713 178713 178713 178713 178713 178713 178713 178713 178713 178713 178713 178713 178713 178713 178713 178713 178713 178713 178713 178713 178713 178713 178713 178713 178713 178713 178713 178713 178713 178713 178713 178713 178713 178713 178713 178713 178713 178713 178713 178713 178713 178713 178713 178713
internal_weight=68869 14763 10690 10290 3703 6587 4073 2968 2860 2467 1007 2621 1594 5712 875 3513 937 926 657 1027 2199 735 1154 1460 844 592 264 467 501 565 1347 1213 3251 499 54106 262 283 217 1095 465 3009 1127 463 380 311 1031 641 573 223 390 386 417 292 1045 525 226 429 380 2723 456 295 118
internal_count=68869 14763 10690 10290 3703 6587 4073 2968 2860 2467 1007 2621 1594 5712 875 3513 937 926 657 1027 2199 735 1154 1460 844 592 264 467 501 565 1347 1213 3251 499 54106 262 283 217 1095 465 3009 1127 463 380 311 1031 641 573 223 390 386 417 292 1045 525 226 429 380 2723 456 295 118
is_linear=0
shrinkage=1


Tree=1
num_leaves=63
num_cat=0
split_feature=0 1 0 0 11 0 2 0 16 13 13 11 15 0 0 11 0 24 0 0 11 0 0 11 1 11 5 11 28 2 2 0 21 11 11 11 0 11 11 11 0 11 25 44 0 13 50 14 14 0 0 18 16 0 2 15 0 2 2 5 0 2
split_gain=1976.97 256.283 120.875 146.555 66.7242 59.6493 55.1791 45.0696 42.4958 32.9574 27.7214 23.2133 19.6807 17.5511 18.2391 21.5541 14.2575 13.4988 13.2504 12.0561 11.8736 11.4282 18.7054 10.1878 11.5998 10.0047 8.91193 8.07807 12.8411 7.61653 11.6592 7.27319 6.97856 6.79164 6.67295 7.39581 6.92834 6.62922 6.44033 6.37371 6.32332 6.27245 8.12486 6.51866 5.87141 5.46876 6.73013 7.01282 5.23076 6.06769 5.22851 5.12644 5.17019 5.91653 4.95275 4.91677 4.69611 4.61051 10.6819 4.60964 4.56324 4.54322
threshold=113665.38084283075 132531.4509956445 182765.25077140852 123812.38736480458 4.1820210059610323 149340.35858948113 152502.99321172063 169685.43390542161 1.0000000180025095e-35 1.0000000180025095e-35 1.0000000180025095e-35 6.1235833015325687 1.0000000180025095e-35 128629.35257333338 114203.73971134431 6.1235833015325687 131515.98062255932 1.0000000180025095e-35 114855.75642002861 147213.06021429782 4.945201156493737 118516.4277019099 118371.46239321484 4.7833076179467886 111576.25667068698 5.3327071242454505 93447.721255070806 6.1235833015325687 1.0000000180025095e-35 119648.26290638119 126456.56946418034 114203.73971134431 1.0000000180025095e-35 1.7005986908310777 2.6735537653587347 3.9607678160667752 114588.35141086152 3.8606743063089755 8.254677770502779 6.5664191615491569 110578.77224861212 8.254677770502779 1.0000000180025095e-35 1.0000000180025095e-35 114855.75642002861 1.0000000180025095e-35 1.0000000180025095e-35 1.0000000180025095e-35 1.0000000180025095e-35 138856.64791363463 194177.89813768971 1.0000000180025095e-35 1.0000000180025095e-35 124999.95656636087 119830.98586162513 1.0000000180025095e-35 131638.60886537793 144210.19612846716 133299.54743758906 105831.60128504939 163742.398948168 134736.09550743908
decision_type=2 2 2 2 2 2 2 2 2 2 2 2 2 2 2 2 2 2 2 2 2 2 2 2 2 2 2 2 2 2 2 2 2 2 2 2 2 2 2 2 2 2 2 2 2 2 2 2 2 2 2 2 2 2 2 2 2 2 2 2 2 2
left_child=40 2 3 4 8 10 7 9 34 13 16 12 25 14 -3 -16 27 44 -8 -15 -11 22 31 24 33 26 -6 28 51 -22 56 -10 -13 -12 36 37 -2 59 39 -17 -1 43 54 45 -14 46 47 -7 49 -25 55 52 -5 -54 -43 -4 -31 58 -32 -36 -47 -18
right_child=1 6 50 5 11 41 18 -9 21 20 23 32 17 19 15 38 61 -19 -20 -21 29 -23 -24 48 -26 -27 -28 -29 -30 30 57 -33 -34 -35 35 -37 -38 -39 -40 -41 -42 42 -44 -45 -46 60 -48 -49 -50 -51 -52 -53 53 -55 -56 -57 -58 -59 -60 -61 -62 -63
leaf_value=-2396.4546240461436 252.57312985465398 -75.172955477144157 3879.9057731539856 4356.2632337998139 2183.6233893708527 1975.9441686527964 713.98270430536945 7683.2323093773994 45.868088808021781 5388.6782052889748 385.82966147865261 832.18843186827985 443.29635061675657 2054.1931957540783 3459.0486058112856 1118.8987420679596 18.249541368027199 -676.10654755583096 6349.9490825501271 3389.4323671093553 4330.1201489298592 3120.8625070786325 -1651.0447093584489 1363.3210847744706 5431.2122311083103 2372.1433065567435 682.45772692698961 -781.53743879402043 -574.52479020118778 694.94149694898226 4359.820837158104 1354.5462091953257 1676.605256675369 4224.5671617894559 2352.7377891967117 2296.832890557991 2862.2849024380748 1196.6959358570166 -216.59600818595791 2762.2519526471297 -176.3838281250006 5.9495121773055875 1520.8022307338122 1014.1632503826246 2716.3138977920062 3755.9202502341404 7095.8852246914148 2179.7573560217611 1593.1257504644216 2994.8507894642717 7065.280959806676 1287.1813148571248 2918.405302930772 5955.402675280955 1546.2784804101668 1637.3343472656707 1874.60219018199 4617.1168669321696 1993.3463658276571 2102.8170506703113 3556.2969334360769 2530.9592029036635
leaf_weight=50839 147 70 51 320 55 108 59 254 43 412 134 681 80 673 423 77 2851 44 971 103 119 97 179 399 216 269 363 188 184 87 225 113 54 242 113 84 639 87 75 48 3267 112 56 50 419 148 55 140 779 105 266 69 49 75 93 83 83 226 168 236 113 101
leaf_count=50839 147 70 51 320 55 108 59 254 43 412 134 681 80 673 423 77 2851 44 971 103 119 97 179 399 216 269 363 188 184 87 225 113 54 242 113 84 639 87 75 48 3267 112 56 50 419 148 55 140 779 105 266 69 49 75 93 83 83 226 168 236 113 101
internal_value=-0.000243144 0.0159747 0.0119083 0.0108601 0.0188185 0.00638606 0.0266474 0.0232616 0.0259551 0.0214252 0.00452381 0.0125064 0.0167073 0.016273 0.0220563 0.0247753 0.00208887 0.0238214 0.0366505 0.0111082 0.0271591 0.0123611 0.00798507 0.00950667 0.0149324 0.0110844 0.00624402 0.00765537 0.0101363 0.0239648 0.0221863 0.020641 0.00547619 0.00962766 0.0304518 0.0260577 0.0333588 0.0234404 0.01125 0.0182 -0.00466825 0.0185429 0.0120498 0.0213029 0.0261623 0.0228369 0.0182673 0.0147581 0.00700312 0.0109722 0.038875 0.0142008 0.0161712 0.0248387 0.00743902 0.0308209 0.0105882 0.0253716 0.0220992 0.0265186 0.0281418 0.000420053
internal_weight=68869 14763 10690 10290 3703 6587 4073 3043 1738 2789 5712 1965 1230 1469 693 623 3837 543 1030 776 1320 432 335 1875 592 687 418 885 697 908 789 156 735 376 1306 520 786 436 200 125 54106 875 261 614 499 564 303 248 1283 504 400 513 444 124 205 134 170 619 393 349 261 2952
internal_count=68869 14763 10690 10290 3703 6587 4073 3043 1738 2789 5712 1965 1230 1469 693 623 3837 543 1030 776 1320 432 335 1875 592 687 418 885 697 908 789 156 735 376 1306 520 786 436 200 125 54106 875 261 614 499 564 303 248 1283 504 400 513 444 124 205 134 170 619 393 349 261 2952
is_linear=0
shrinkage=0.05


Tree=2
num_leaves=63
num_cat=0
split_feature=0 2 0 0 13 10 1 50 10 52 0 1 0 0 1 0 0 49 0 0 10 10 28 0 0 16 21 1 49 0 2 1 10 18 24 10 18 10 10 10 1 13 10 32 0 1 15 10 10 10 10 0 0 10 10 10 10 1 0 25 1 0
split_gain=1793.2 237.644 135.358 149.191 73.6481 71.8189 41.9047 37.2183 29.142 22.8326 21.9052 21.4455 16.9935 14.0625 12.7431 12.6874 11.6167 10.7337 9.27326 10.0758 11.1824 9.10388 12.5642 8.98956 11.3094 11.1333 8.08294 7.58531 7.23584 7.02092 7.57732 6.9967 7.42409 6.85825 6.79144 6.66592 7.20507 9.42843 6.5274 6.0893 5.50662 5.45375 5.23132 9.57411 5.20664 5.6424 5.95467 5.109 4.98643 4.9092 4.8566 7.39153 4.85474 15.2326 4.81877 4.81604 10.9134 4.79759 5.01978 4.77727 4.70287 4.55562
threshold=114203.73971134431 139774.07201307474 182765.25077140852 123812.38736480458 1.0000000180025095e-35 455.50000000000006 126311.68504721223 1.0000000180025095e-35 66.000000000000014 1.0000000180025095e-35 157168.18765132938 154686.24760016598 112378.98732242887 131515.98062255932 121434.05974934078 147213.06021429782 115626.25032097324 1.0000000180025095e-35 176240.27352395342 130002.94020434242 139.50000000000003 744.00000000000011 1.0000000180025095e-35 119195.83814572719 118371.46239321484 1.0000000180025095e-35 1.0000000180025095e-35 147967.24159581357 1.0000000180025095e-35 169685.43390542161 119648.26290638119 150828.27721928104 72.500000000000014 1.0000000180025095e-35 1.0000000180025095e-35 70.500000000000014 1.0000000180025095e-35 427.00000000000006 119.50000000000001 206.00000000000003 129768.19404313319 1.0000000180025095e-35 367.00000000000006 1.0000000180025095e-35 194177.89813768971 125095.30519109637 1.0000000180025095e-35 118.50000000000001 3854.5000000000005 3.5000000000000004 118.50000000000001 127821.42227969035 113665.38084283075 10.500000000000002 167.50000000000003 615.00000000000011 3854.5000000000005 192506.06189958518 144076.41212584169 1.0000000180025095e-35 117271.17534716148 144076.41212584169
decision_type=2 2 2 2 2 2 2 2 2 2 2 2 2 2 2 2 2 2 2 2 2 2 2 2 2 2 2 2 2 2 2 2 2 2 2 2 2 2 2 2 2 2 2 2 2 2 2 2 2 2 2 2 2 2 2 2 2 2 2 2 2 2
left_child=12 2 3 5 10 7 15 8 23 17 13 18 -1 21 54 28 -13 34 19 20 -3 22 33 24 49 -26 55 61 50 30 -8 32 -32 40 35 -10 37 38 47 -40 -5 -21 43 -12 45 46 -4 -37 -17 -2 51 -6 -14 -54 -9 -7 -57 58 -18 -50 -53 -15
right_child=1 11 44 4 6 26 29 14 9 -11 42 16 52 27 -16 48 57 -19 -20 41 -22 -23 -24 -25 25 -27 -28 -29 -30 -31 31 -33 -34 -35 -36 36 -38 -39 39 -41 -42 -43 -44 -45 -46 -47 -48 -49 59 -51 -52 60 53 -55 -56 56 -58 -59 -60 -61 -62 -63
leaf_value=-1965.1068183271345 1233.4219593489952 3735.687932807723 3310.3178195528367 4136.6131575295494 4279.7847687750227 -246.25588042778546 5565.6793816109803 827.0861912223977 219.52816940262483 -1303.6113422934593 4983.2928974895212 1229.2011686111568 -67.573702008173868 66.760779003673605 3821.3484136208326 3138.5477304499118 4356.5481506022397 2616.8448888482617 6595.4851196909731 2776.5124409701239 2952.6862323792802 -1308.7503517088433 -806.20514780457449 3287.1474740290064 1772.3138407142299 867.43329581328635 1823.2348060734789 1958.3820255820729 4683.8102652092521 3028.7787466321761 6405.1815250013569 4968.7707131306333 2346.2529805280624 356.3145348424456 1332.4306201389963 2159.529144177282 1585.1202355921146 49.085197822561895 1543.9720009378379 2510.2128408885173 5721.3207180179834 6241.3556738411025 912.45648753774879 -22.242707989165503 7209.6072858899151 6638.4997499265482 475.29747351030528 2843.9102133613196 220.3091024608633 1228.7196850521025 1279.834946351086 2284.6930637814207 93.613388277542256 -22.561114646186173 2019.105144340635 1479.1125509497697 178.24231854210322 7440.3988658989547 7660.8224987506464 1175.0062568148962 3924.9241090601677 1533.2623035078659
leaf_weight=52814 278 339 40 462 61 224 182 343 41 88 149 75 1292 3042 42 287 475 168 63 265 286 145 187 376 123 74 49 160 164 81 63 153 381 107 81 60 103 42 144 304 98 219 114 40 332 68 65 76 114 567 952 321 113 330 97 315 299 438 91 45 54 308
leaf_count=52814 278 339 40 462 61 224 182 343 41 88 149 75 1292 3042 42 287 475 168 63 265 286 145 187 376 123 74 49 160 164 81 63 153 381 107 81 60 103 42 144 304 98 219 114 40 332 68 65 76 114 567 952 321 113 330 97 315 299 438 91 45 54 308
internal_value=-0.000432634 0.0153142 0.0125325 0.011426 0.0073794 0.0193965 0.0137369 0.0230845 0.0255149 0.0194354 0.00360349 0.0302288 -0.00456645 0.00272899 0.0103527 0.00976476 0.0353151 0.0215456 0.0255461 0.024486 0.02868 0.00796296 0.00992974 0.0302609 0.0278695 0.0170812 0.00689402 0.00123932 0.00762886 0.0229651 0.0215083 0.0187856 0.0156081 0.0131409 0.0192656 0.0207143 0.0218176 0.0238339 0.0254795 0.022567 0.0153571 0.0190702 0.0166172 0.0217196 0.0378713 0.0308381 0.0235714 0.0350735 0.0171973 0.0303846 0.00645533 0.0108257 0.000302592 0.00481941 0.00784091 0.00573986 0.00802931 0.0367331 0.0336926 0.0100943 0.0082 0.000731342
internal_weight=68869 14320 12069 11564 7670 3894 2858 3007 2525 1107 4812 2251 54549 4509 482 1998 1079 1019 1172 1109 625 999 854 1418 1042 197 887 3510 1552 860 779 597 444 667 851 770 729 626 584 448 560 484 303 189 505 173 105 136 446 845 1388 436 1735 443 440 838 614 1004 566 159 375 3350
internal_count=68869 14320 12069 11564 7670 3894 2858 3007 2525 1107 4812 2251 54549 4509 482 1998 1079 1019 1172 1109 625 999 854 1418 1042 197 887 3510 1552 860 779 597 444 667 851 770 729 626 584 448 560 484 303 189 505 173 105 136 446 845 1388 436 1735 443 440 838 614 1004 566 159 375 3350
is_linear=0
shrinkage=0.05


Tree=3
num_leaves=63
num_cat=0
split_feature=0 1 0 0 10 0 2 16 0 0 0 10 15 0 0 10 10 0 1 2 0 0 1 5 48 17 52 1 0 0 0 10 10 5 10 10 10 15 0 5 10 1 0 10 10 48 10 10 0 0 10 15 2 0 10 49 10 10 1 0 2 10
split_gain=1589.08 202.05 111.028 118.86 69.4113 50.2596 48.9495 35.9811 32.3263 28.7599 26.5193 20.8392 18.8285 15.5101 15.4731 12.2296 12.1505 16.2664 11.825 10.7959 10.2525 17.5258 9.15835 8.66913 8.56689 9.73653 8.22111 7.66281 7.52306 7.35728 6.9723 6.84851 7.21075 6.70149 6.54669 8.38006 7.01508 6.37278 6.08807 6.93803 8.70011 5.49816 5.18121 6.07371 5.06106 4.85179 4.83365 4.66967 4.96847 4.51094 7.30302 5.15942 4.3944 4.31813 6.41451 6.03674 6.26193 5.84861 4.2911 4.04142 4.00782 4.32505
threshold=113665.38084283075 139440.31641565191 123812.38736480458 182765.25077140852 64.500000000000014 116009.70669434046 144210.19612846716 1.0000000180025095e-35 149340.35858948113 169685.43390542161 114855.75642002861 455.50000000000006 1.0000000180025095e-35 114588.35141086152 131515.98062255932 455.50000000000006 345.50000000000006 131515.98062255932 129768.19404313319 114793.14131611212 118516.4277019099 118371.46239321484 192506.06189958518 105831.60128504939 1.0000000180025095e-35 1.0000000180025095e-35 1.0000000180025095e-35 106565.56120280655 147213.06021429782 114588.35141086152 110038.96531088279 13.500000000000002 51.500000000000007 105831.60128504939 124.50000000000001 110.50000000000001 206.00000000000003 1.0000000180025095e-35 114855.75642002861 93447.721255070806 206.00000000000003 147241.20864662674 120302.33751324385 376.50000000000006 46.500000000000007 1.0000000180025095e-35 42.500000000000007 79.500000000000014 124350.6152529301 194177.89813768971 89.500000000000014 1.0000000180025095e-35 139912.240790526 140378.15553512855 34.500000000000007 1.0000000180025095e-35 70.500000000000014 195.00000000000003 124989.70140855252 147213.06021429782 91546.02560901572 7.5000000000000009
decision_type=2 2 2 2 2 2 2 2 2 2 2 2 2 2 2 2 2 2 2 2 2 2 2 2 2 2 2 2 2 2 2 2 2 2 2 2 2 2 2 2 2 2 2 2 2 2 2 2 2 2 2 2 2 2 2 2 2 2 2 2 2 2
left_child=30 2 4 8 7 -3 9 10 14 16 -2 12 26 -14 15 18 17 41 23 -18 21 29 28 47 25 37 38 -16 -8 -9 -1 -12 44 -19 35 -15 -36 -10 -6 -40 -41 46 43 -42 -33 -13 -7 48 -4 51 -51 -5 -32 55 -55 -29 -57 -58 -26 -21 -50 -62
right_child=1 5 3 49 11 6 22 20 24 -11 31 45 13 34 27 -17 19 33 -20 59 -22 -23 -24 -25 58 -27 -28 53 -30 -31 52 32 -34 -35 36 -37 -38 -39 39 40 42 -43 -44 -45 -46 -47 -48 -49 60 50 -52 -53 -54 54 -56 56 57 -59 -60 -61 61 -63
leaf_value=-2315.2933204346746 119.62583415198533 541.62656692383212 -1636.1805122687092 3859.9972678180015 -5.9414438972843051 4680.1829266816821 4099.0399197448514 69.484575861500318 6677.8165131055157 6927.3349702854948 2608.672861290815 1255.7829763233735 -21.73420716189932 1452.4929616717586 143.27936743201374 645.07783067488458 2793.0506356755791 698.65632817803419 4836.0267461900758 1501.0658090367228 2848.3935702576714 -1609.8467834516459 7165.3536729192192 3961.3034579383475 1010.8822748826277 4525.0304450502072 -1566.0840935862159 829.60645828024394 6986.3598858857513 1222.2967055208444 -245.94812544052886 2275.5658414504983 2763.2271874056873 5586.0007506215188 1434.7342822600112 2750.4757949838913 2531.3933331435496 709.60897062064214 2001.5526618213607 1211.5570274691331 1834.601397918605 4299.2555460480989 2660.1217024621615 3376.8643202359012 2499.527325653622 483.63437585417159 2288.4180441232402 -1500.3456283299165 995.87550892328591 1319.9998440942452 6768.2106428874386 1339.1614207077932 265.86668054043798 10109.89869597389 1614.8055214419453 265.34780630635743 5138.3445093404771 1685.5820639974486 2169.1383719768774 2700.6967770301208 4086.4723523085313 4496.6821691299547
leaf_weight=50131 310 332 67 55 88 40 837 63 98 155 669 246 68 61 1946 420 77 84 106 516 98 179 428 610 451 82 89 1900 158 102 3460 297 85 287 85 97 270 120 51 292 67 225 73 76 98 576 78 137 91 44 236 92 515 73 419 58 41 53 178 99 83 47
leaf_count=50131 310 332 67 55 88 40 837 63 98 155 669 246 68 61 1946 420 77 84 106 516 98 179 428 610 451 82 89 1900 158 102 3460 297 85 287 85 97 270 120 51 292 67 225 73 76 98 576 78 137 91 44 236 92 515 73 419 58 41 53 178 99 83 47
internal_value=-0.000658425 0.0138817 0.0107334 0.00709666 0.017401 0.0247497 0.0268029 0.024353 0.00553008 0.0206887 0.0281391 0.0112225 0.0151215 0.0218503 0.00419683 0.00848494 0.0184353 0.0230112 0.01117 0.0137139 0.0118552 0.0077907 0.0335102 0.00954106 0.0142142 0.0211667 0.00980978 0.00270601 0.0308794 0.0195455 -0.00462574 0.0316406 0.0270833 0.0157547 0.0248246 0.0332911 0.0210563 0.0156422 0.0117697 0.0136941 0.0119291 0.0308601 0.019537 0.0250699 0.0242405 0.00497567 0.0221186 0.00405882 0.00767361 0.0327049 0.0364286 0.0256122 -0.00261006 0.00451258 0.00871951 0.0035039 0.0130921 0.0210638 0.0108983 0.0115041 0.0112896 0.0169231
internal_weight=68869 14763 11447 7407 4040 3316 2984 1901 6980 1561 1459 2139 1317 581 6051 1561 1406 714 1141 692 442 344 1423 1035 929 300 736 4490 995 165 54106 1149 480 371 513 158 355 218 647 559 508 343 216 143 395 822 118 425 288 427 280 147 3975 2544 492 2052 152 94 629 615 221 130
internal_count=68869 14763 11447 7407 4040 3316 2984 1901 6980 1561 1459 2139 1317 581 6051 1561 1406 714 1141 692 442 344 1423 1035 929 300 736 4490 995 165 54106 1149 480 371 513 158 355 218 647 559 508 343 216 143 395 822 118 425 288 427 280 147 3975 2544 492 2052 152 94 629 615 221 130
is_linear=0
shrinkage=0.05


Tree=4
num_leaves=63
num_cat=0
split_feature=0 2 0 0 10 13 0 1 16 0 1 0 10 52 0 1 0 0 0 0 15 5 10 0 10 0 0 10 1 2 10 0 1 10 0 48 20 10 10 19 15 10 32 0 1 13 0 10 1 0 2 10 10 1 0 2 13 1 17 0 10 10
split_gain=1431.51 182.739 92.5679 108.303 68.0026 57.8027 50.6777 35.0841 31.7271 25.9636 22.2804 21.0635 22.6521 16.5183 12.6109 11.9398 11.1971 15.8878 10.3604 9.90625 9.01244 8.53976 8.3757 8.37291 13.1325 12.2517 7.25366 7.10366 7.11598 7.00433 6.96744 6.86454 6.85928 6.6942 6.48686 5.96902 5.76034 5.4895 11.5336 5.88113 5.9535 5.21522 6.39524 5.13348 5.03453 6.082 4.71062 5.94781 4.6953 4.94957 4.68916 4.65083 8.13422 4.49966 4.3235 4.18741 4.11761 3.93851 3.93228 3.68765 3.65508 9.37912
threshold=113665.38084283075 139774.07201307474 182765.25077140852 123812.38736480458 63.500000000000007 1.0000000180025095e-35 116306.75865324336 135690.33914403708 1.0000000180025095e-35 115626.25032097324 154686.24760016598 114855.75642002861 455.50000000000006 1.0000000180025095e-35 157168.18765132938 119835.90270449191 118516.4277019099 118371.46239321484 131515.98062255932 147213.06021429782 1.0000000180025095e-35 93447.721255070806 206.00000000000003 130002.94020434242 139.50000000000003 176240.27352395342 117559.99442526359 744.00000000000011 129768.19404313319 119648.26290638119 390.50000000000006 109294.4017831614 104950.59689658087 17.500000000000004 114203.73971134431 1.0000000180025095e-35 1.0000000180025095e-35 615.00000000000011 3854.5000000000005 1.0000000180025095e-35 1.0000000180025095e-35 367.00000000000006 1.0000000180025095e-35 169685.43390542161 149854.83602930864 1.0000000180025095e-35 120302.33751324385 376.50000000000006 192506.06189958518 144076.41212584169 139912.240790526 51.500000000000007 46.500000000000007 132825.6679254206 115626.25032097324 102484.04839866371 1.0000000180025095e-35 133019.07372403322 1.0000000180025095e-35 219116.42208274468 86.500000000000014 129.50000000000003
decision_type=2 2 2 2 2 2 2 2 2 2 2 2 2 2 2 2 2 2 2 2 2 2 2 2 2 2 2 2 2 2 2 2 2 2 2 2 2 2 2 2 2 2 2 2 2 2 2 2 2 2 2 2 2 2 2 2 2 2 2 2 2 2
left_child=31 2 3 4 8 14 -3 19 9 53 23 -6 13 20 18 58 17 34 27 30 21 -13 56 24 -8 44 -12 28 -5 -9 32 -1 -7 -11 -10 -21 -37 -14 39 40 -39 42 43 -16 45 -25 47 -24 49 -28 -33 52 -35 -2 -22 -34 -23 -20 59 -4 -56 -62
right_child=1 6 15 5 11 7 10 29 16 33 26 12 37 -15 41 -17 -18 -19 57 35 54 22 46 25 -26 -27 48 -29 -30 -31 -32 50 55 51 -36 36 -38 38 -40 -41 -42 -43 -44 -45 -46 -47 -48 -49 -50 -51 -52 -53 -54 -55 60 -57 -58 -59 -60 -61 61 -63
leaf_value=-2327.2148834110399 190.65467444914128 492.43258885137158 2691.856597950637 3352.9715005007292 -2.3514511164162868 2589.7221827063036 3552.848717105976 5573.4180572147634 33.022934054258805 2483.6231245247523 1119.6013410600951 1951.4750538773501 -396.96253122140774 -1398.7125102231062 6231.9582427213281 7144.5128647890524 2774.3435110684077 -1529.3544442790635 52.332795258604818 4298.778917553579 142.5682144724162 329.31901118215319 1757.6795768034515 2540.5403512595185 2729.4010572861239 5925.1188230087128 4344.9292587298141 -1275.5667256571451 4840.3885611263913 3573.7637336136272 633.76015842926381 -299.34873221997117 1862.3698518360907 2215.3588343595516 990.8810478734755 1920.1824077401579 -104.79333944888322 1939.8577161420524 300.45060017653384 -331.31022386429686 1251.2671980454195 790.94210425552512 -123.796264552285 1329.9061724732792 349.4706929433151 5902.3480416133498 2538.2513546486603 3416.4358306430304 7069.032004092739 6928.4633795188265 169.88910091058088 2271.1818044268739 2552.8132433054557 78.592023096280386 1448.0430211465014 4146.0617156822618 1477.1477349929571 1218.2049359245163 5608.9876140885808 7157.516919259413 2852.804834241867 2477.4149193092799
leaf_weight=49063 437 324 175 726 385 446 261 113 43 587 60 57 209 85 73 217 99 179 3085 102 54 171 81 234 235 63 411 145 128 420 727 4414 75 202 118 392 57 108 279 45 161 114 40 76 54 196 87 77 394 91 629 66 76 49 48 526 136 425 52 61 90 336
leaf_count=49063 437 324 175 726 385 446 261 113 43 587 60 57 209 85 73 217 99 179 3085 102 54 171 81 234 235 63 411 145 128 420 727 4414 75 202 118 392 57 108 279 45 161 114 40 76 54 196 87 77 394 91 629 66 76 49 48 526 136 425 52 61 90 336
internal_value=-0.000829765 0.0129706 0.0105667 0.00967951 0.0160668 0.00612777 0.0258437 0.01176 0.0232597 0.0268984 0.0288169 0.0105251 0.0125642 0.0168494 0.00278263 0.0315347 0.0115148 0.00720588 0.00211909 0.00910753 0.0184389 0.0142939 0.0123913 0.0237632 0.0284677 0.0194973 0.0343305 0.00661161 0.00834894 0.0233302 0.00728861 -0.00459524 0.00989971 0.0317884 0.0186025 0.0149637 0.0124833 0.00603491 0.00849072 0.0150637 0.0178625 0.0126568 0.0177513 0.0225168 0.0167975 0.0186046 0.0192857 0.0244304 0.0354576 0.032251 -0.00283859 0.02625 0.0234173 0.0175309 0.0232197 0.013386 0.00688925 0.000840455 0.0248611 0.0221186 0.0247468 0.0262207
internal_weight=68869 14763 12440 11935 4265 7670 2323 2858 1856 1417 1999 2409 2024 1222 4812 505 439 340 4509 2325 1137 609 552 1043 496 547 956 999 854 533 1774 54106 1047 931 161 551 449 802 593 314 269 303 189 149 484 430 245 158 896 502 5043 344 278 486 528 601 307 3510 288 236 474 426
internal_count=68869 14763 12440 11935 4265 7670 2323 2858 1856 1417 1999 2409 2024 1222 4812 505 439 340 4509 2325 1137 609 552 1043 496 547 956 999 854 533 1774 54106 1047 931 161 551 449 802 593 314 269 303 189 149 484 430 245 158 896 502 5043 344 278 486 528 601 307 3510 288 236 474 426
is_linear=0
shrinkage=0.05


Tree=5
num_leaves=63
num_cat=0
split_feature=0 2 0 0 10 13 0 50 0 10 0 0 52 10 2 2 0 0 48 2 0 10 49 10 2 0 5 10 0 0 10 21 10 0 0 10 10 2 50 10 10 13 2 0 48 2 4 13 0 0 0 0 19 0 2 23 18 10 0 10 10 10
split_gain=1288.17 176.753 81.8343 96.408 61.8854 53.2064 31.6118 24.0589 23.8111 18.675 17.2363 13.507 14.7172 13.4039 12.2854 11.2879 13.0074 10.4486 10.1502 9.40465 9.24929 8.24044 8.13985 7.62134 7.85361 6.79508 6.76832 9.54909 6.59581 14.4809 11.3748 6.37506 6.17931 6.11907 6.06905 7.16663 6.61053 5.51652 5.18059 9.86919 8.18467 7.12006 4.9274 4.8376 5.79332 4.26438 4.06576 4.04054 4.02194 7.207 3.91936 3.68264 5.65171 5.21145 3.67461 3.65072 3.49181 3.42279 3.77788 4.02866 3.35568 4.47645
threshold=113945.70358850343 139774.07201307474 194177.89813768971 123812.38736480458 63.500000000000007 1.0000000180025095e-35 116306.75865324336 1.0000000180025095e-35 115243.92150621163 455.50000000000006 163742.398948168 114855.75642002861 1.0000000180025095e-35 266.00000000000006 128254.61053547778 152502.99321172063 117867.33344196768 111665.05171408708 1.0000000180025095e-35 90464.053754638226 131515.98062255932 89.500000000000014 1.0000000180025095e-35 455.50000000000006 89755.022602624769 138856.64791363463 93447.721255070806 206.00000000000003 130002.94020434242 147213.06021429782 139.50000000000003 1.0000000180025095e-35 223.00000000000003 119792.17456907684 147213.06021429782 118.50000000000001 10.500000000000002 182565.06709951031 1.0000000180025095e-35 157.50000000000003 116.00000000000001 1.0000000180025095e-35 106195.77540566211 144076.41212584169 1.0000000180025095e-35 100611.05953723165 2.5000000000000004 1.0000000180025095e-35 118371.46239321484 119195.83814572719 144076.41212584169 120732.92079422531 1.0000000180025095e-35 122026.3485838585 128254.61053547778 1.0000000180025095e-35 1.0000000180025095e-35 744.00000000000011 131515.98062255932 70.500000000000014 2377.0000000000005 215.00000000000003
decision_type=2 2 2 2 2 2 2 2 2 2 2 2 2 2 2 2 2 2 2 2 2 2 2 2 2 2 2 2 2 2 2 2 2 2 2 2 2 2 2 2 2 2 2 2 2 2 2 2 2 2 2 2 2 2 2 2 2 2 2 2 2 2
left_child=17 2 3 4 7 10 -3 8 -2 11 20 -6 22 32 18 28 -17 -1 25 48 23 -4 26 24 -5 42 -13 38 30 -30 -8 51 -12 46 35 36 -20 50 39 40 -28 -42 -7 -22 -45 -9 47 -21 -10 -50 -18 -11 53 -53 56 -29 -26 58 -44 -60 61 -32
right_child=1 6 21 5 9 14 15 45 19 31 13 12 -14 -15 -16 16 37 -19 34 33 43 -23 -24 -25 54 -27 27 55 29 -31 60 -33 -34 -35 -36 -37 -38 -39 -40 -41 41 -43 57 44 -46 -47 -48 -49 49 -51 -52 52 -54 -55 -56 -57 -58 -59 59 -61 -62 -63
leaf_value=-1791.4169779763849 125.95333606539789 617.41649298121956 1125.2722577653826 -23.11849614443927 14.369876800759664 2920.2638510071943 3782.3782196788302 107.14024266731253 908.88606304300401 328.49769569513944 1483.0201527373383 1853.9013011834832 -1040.0416851643342 920.9710375893743 3492.8825640670461 1148.5555006595359 4450.2060531124944 -46.92110873531638 3427.7020173615365 1308.9052115432414 48.583330355354867 6649.2915439540884 2259.0249007140292 -613.02294041066034 3714.1655980015476 4673.3319829997472 858.71451222398218 2384.4083340630441 3343.0947313493289 5797.7930576820145 1723.9086886855516 1634.510564121751 6487.090685282702 2899.5485857301524 1392.693229232618 1001.820859166021 3707.6751525387613 6434.9891329112161 -412.3202488551222 280.31692434069117 2727.9002193077977 1814.9172715919035 4558.8630471249899 4565.5188371351742 276.64971139518309 1854.3126999672961 1470.3412975203119 1231.4909779399852 162.27370030435122 2791.3841832936128 5032.4464638784075 2427.3516412040349 -1341.4684704769434 1654.6576810666324 4391.1698806091417 1561.797632917788 -526.56058519400847 345.28984406904351 -236.5746239865108 2772.0082676081747 2273.8037331489177 2992.7110098055769
leaf_weight=51945 340 293 43 192 182 173 226 130 74 746 45 60 85 176 588 88 408 2189 118 319 3231 295 165 242 422 266 91 366 390 164 59 50 42 258 509 948 152 404 106 153 73 54 104 153 271 138 115 235 58 54 75 42 40 62 86 60 63 55 43 56 57 149
leaf_count=51945 340 293 43 192 182 173 226 130 74 746 45 60 85 176 588 88 408 2189 118 319 3231 295 165 242 422 266 91 366 390 164 59 50 42 258 509 948 152 404 106 153 73 54 104 153 271 138 115 235 58 54 75 42 40 62 86 60 63 55 43 56 57 149
internal_value=-0.0009877 0.0121698 0.00979033 0.00910641 0.0153772 0.00590107 0.024853 0.0225712 0.0251101 0.0100749 0.00269856 0.0137455 0.0156513 0.0151521 0.0111355 0.0270792 0.0309487 -0.0045465 0.00956271 0.0286478 0.00199571 0.0340533 0.0171631 0.00624378 0.00869594 0.0146557 0.015405 0.0143245 0.0234689 0.0197292 0.0276884 0.00462766 0.0312069 0.0307066 0.00750724 0.00559113 0.0127778 0.0327678 0.00946541 0.0122507 0.0190826 0.0272835 0.0107773 0.000827632 0.00584906 0.00880597 0.0281839 0.0264079 0.0183871 0.0124107 0.0291615 0.00365168 0.0109722 0.0171154 0.0116375 0.0197653 0.00994845 0.015155 0.0181527 0.0111616 0.0206604 0.0236058
internal_weight=68776 14642 12329 11991 4056 7935 2313 1721 1453 2335 4923 1395 1213 263 3012 2020 975 54134 2424 1113 4660 338 1128 1005 763 697 963 903 1045 554 491 940 87 927 1727 1218 270 887 477 371 218 127 431 3655 424 268 669 554 186 112 483 890 144 104 571 426 485 258 203 99 265 208
internal_count=68776 14642 12329 11991 4056 7935 2313 1721 1453 2335 4923 1395 1213 263 3012 2020 975 54134 2424 1113 4660 338 1128 1005 763 697 963 903 1045 554 491 940 87 927 1727 1218 270 887 477 371 218 127 431 3655 424 268 669 554 186 112 483 890 144 104 571 426 485 258 203 99 265 208
is_linear=0
shrinkage=0.05


Tree=6
num_leaves=63
num_cat=0
split_feature=0 2 0 0 11 13 0 16 0 2 0 11 0 11 52 0 2 48 0 0 0 11 0 0 2 0 11 11 28 11 0 49 11 11 11 0 2 2 11 0 0 5 11 50 48 5 11 21 14 0 11 0 50 37 0 19 14 13 34 2 0 14
split_gain=1152.43 146.88 71.9448 82.4961 66.0292 41.891 33.5577 28.3538 21.9958 20.9068 16.5011 13.8816 17.5373 13.0812 11.882 10.5965 9.69725 9.13721 8.80859 8.66718 9.59111 8.60791 8.3226 12.7738 7.94015 8.44937 7.81129 6.84263 10.5687 6.70498 6.69091 6.55822 5.72638 5.96572 5.60321 7.67787 5.77708 5.16069 4.87565 6.21795 10.7101 4.70399 6.98657 4.82602 9.07591 4.62494 5.39274 4.49352 4.28942 4.15784 4.94806 6.28512 4.05351 3.95594 3.73938 5.65171 5.44051 3.73816 3.64177 3.56132 3.51213 3.37305
threshold=113945.70358850343 139774.07201307474 123812.38736480458 194177.89813768971 4.166635176627655 1.0000000180025095e-35 119195.83814572719 1.0000000180025095e-35 115243.92150621163 159289.94894018731 163742.398948168 6.1235833015325687 115626.25032097324 5.5872416446462791 1.0000000180025095e-35 110038.96531088279 128254.61053547778 1.0000000180025095e-35 131515.98062255932 130002.94020434242 147213.06021429782 2.6735537653587347 118516.4277019099 118371.46239321484 182565.06709951031 117119.28542509791 4.945201156493737 6.1235833015325687 1.0000000180025095e-35 5.4113968666853713 114855.75642002861 1.0000000180025095e-35 4.5053345884235583 6.4231626251677989 6.613092254408989 149340.35858948113 111025.06877009485 182565.06709951031 3.7726948748059121 126052.0161821167 124999.95656636087 93447.721255070806 5.3327071242454505 1.0000000180025095e-35 1.0000000180025095e-35 93447.721255070806 3.9607678160667752 1.0000000180025095e-35 1.0000000180025095e-35 147213.06021429782 4.7833076179467886 128629.35257333338 1.0000000180025095e-35 1.0000000180025095e-35 120732.92079422531 1.0000000180025095e-35 1.0000000180025095e-35 1.0000000180025095e-35 1.0000000180025095e-35 119648.26290638119 137539.32884474794 1.0000000180025095e-35
decision_type=2 2 2 2 2 2 2 2 2 2 2 2 2 2 2 2 2 2 2 2 2 2 2 2 2 2 2 2 2 2 2 2 2 2 2 2 2 2 2 2 2 2 2 2 2 2 2 2 2 2 2 2 2 2 2 2 2 2 2 2 2 2
left_child=15 2 4 5 7 10 24 8 -2 19 18 12 -6 29 31 -1 17 34 27 26 57 -10 23 30 25 -3 -8 28 38 -12 -9 41 -5 -34 35 36 -7 -11 39 40 -4 -14 43 44 48 -23 -47 54 -43 50 51 -19 53 58 -13 56 -56 -21 -20 -36 -54 -33
right_child=1 6 3 32 11 16 9 22 21 37 13 47 14 -15 -16 -17 -18 49 52 20 -22 45 -24 -25 -26 -27 -28 -29 -30 -31 -32 61 33 -35 59 -37 -38 -39 -40 -41 -42 42 -44 -45 -46 46 -48 -49 -50 -51 -52 -53 60 -55 55 -57 -58 -59 -60 -61 -62 -63
leaf_value=-1991.5474561686483 122.48879490845155 575.5916474599635 3090.8045591982263 1069.0086448771137 43.579127943624229 4244.2021698939398 3925.6054717712091 56.151015372422989 2269.6739146057175 4616.9709294778295 1408.869145100472 312.07281091038226 1761.2062361243095 874.92248570990614 -1044.1580760960669 -117.87828887932265 3318.2384358636937 3644.0577322822737 -25.751472256653898 2367.3345674721941 5426.7042239190241 2743.741635110382 2436.5938019283999 -1257.8359331678555 672.58985892125395 1290.899868654303 2951.3259329559896 -582.37179339012789 -612.19876553525035 6162.7361510185674 1062.3898666714711 2327.6502639520277 6195.024723669223 6336.3170643387248 -129.72248627389638 4251.5003048724557 4243.0389828932539 6198.3760490065943 3105.6973928669872 5094.2464083632221 2568.9187807006674 2105.2049049696338 2284.4532740382215 -258.35247716330849 1131.4551267673589 1808.9308653222979 2023.5114025893592 1552.7850359156641 2574.0286465967615 1323.0585677709869 951.72981620772066 2215.2599034148816 757.99785691911563 1648.6741653704821 2245.3545614757386 -1274.395046953096 1872.9797798556292 5205.1600594559904 2152.4029717565409 612.58212832376364 6015.5543818050728 1930.0798466601111
leaf_weight=49993 301 295 40 43 328 286 156 57 562 358 45 746 50 176 67 4141 588 52 3347 256 178 82 104 175 155 204 182 242 180 42 101 71 84 211 70 82 205 362 349 93 101 50 384 94 233 279 60 50 49 509 948 218 75 61 50 40 54 167 94 54 78 69
leaf_count=49993 301 295 40 43 328 286 156 57 562 358 45 746 50 176 67 4141 588 52 3347 256 178 82 104 175 155 204 182 242 180 42 101 71 84 211 70 82 205 362 349 93 101 50 384 94 233 279 60 50 49 509 948 218 75 61 50 40 54 167 94 54 78 69
internal_value=-0.00114255 0.0113024 0.00913334 0.00645896 0.0145883 0.00542848 0.0228642 0.0220192 0.0257632 0.0266456 0.00258684 0.00911135 0.012276 0.0147719 0.0153843 -0.00450863 0.010073 0.00867574 0.00189914 0.0217306 0.0181281 0.0293845 0.0110183 0.00716216 0.0132722 0.0163427 0.0281361 0.00604477 0.00836828 0.0306322 0.0174684 0.01675 0.0306509 0.0331356 0.0135079 0.0155934 0.0132281 0.0330556 0.0116381 0.0172222 0.0106028 0.0151163 0.0141975 0.00978873 0.0126205 0.0239786 0.0214012 0.00441489 0.025303 0.00672553 0.00513957 0.0111111 0.000759233 0.000411192 0.0035955 0.0109722 0.0171154 0.0140307 0.000187444 0.00387097 0.00872549 0.0267857
internal_weight=68776 14642 12329 8273 4056 7935 2313 1721 1284 1659 4923 2335 1395 263 1067 54134 3012 2424 4660 939 601 983 437 333 654 499 338 1005 763 87 158 1000 338 295 697 573 491 720 583 234 141 860 810 426 332 421 339 940 99 1727 1218 270 3655 3502 890 144 104 423 3441 124 153 140
internal_count=68776 14642 12329 8273 4056 7935 2313 1721 1284 1659 4923 2335 1395 263 1067 54134 3012 2424 4660 939 601 983 437 333 654 499 338 1005 763 87 158 1000 338 295 697 573 491 720 583 234 141 860 810 426 332 421 339 940 99 1727 1218 270 3655 3502 890 144 104 423 3441 124 153 140
is_linear=0
shrinkage=0.05


Tree=7
num_leaves=63
num_cat=0
split_feature=0 1 0 10 0 0 2 0 16 0 0 1 13 0 10 2 1 13 0 49 10 13 0 10 2 0 0 0 2 0 0 48 0 1 5 0 10 10 10 10 15 10 20 0 1 10 10 28 10 0 0 0 2 0 2 0 49 10 0 10 10 10
split_gain=1043.21 136.675 77.4706 57.7386 50.198 41.939 33.0168 24.4317 22.3201 26.249 16.8505 16.2147 15.3645 14.3401 19.8172 15.6857 12.8322 12.5252 10.6173 13.466 10.6017 10.3362 9.87829 9.04289 9.03163 8.70125 8.06714 11.6719 7.97883 7.02228 6.79786 6.67757 6.46409 6.31244 6.2678 5.9997 5.64618 11.927 5.44021 5.43083 6.68107 10.5397 5.30752 5.16558 5.15808 5.14915 4.72039 6.55757 4.69959 5.11942 4.65008 4.57848 4.53521 4.42776 4.05828 4.00825 3.8689 3.76394 6.39095 3.6832 3.67789 3.59617
threshold=113665.38084283075 132531.4509956445 123812.38736480458 63.500000000000007 116306.75865324336 194177.89813768971 144210.19612846716 194177.89813768971 1.0000000180025095e-35 116306.75865324336 119792.17456907684 192506.06189958518 1.0000000180025095e-35 130002.94020434242 64.500000000000014 117562.87775674371 183476.34426264671 1.0000000180025095e-35 115243.92150621163 1.0000000180025095e-35 455.50000000000006 1.0000000180025095e-35 147213.06021429782 13.500000000000002 128254.61053547778 108932.78843944636 118516.4277019099 118371.46239321484 133299.54743758906 157168.18765132938 131515.98062255932 1.0000000180025095e-35 128629.35257333338 114029.3783969686 93447.721255070806 114855.75642002861 51.500000000000007 46.500000000000007 367.00000000000006 206.00000000000003 1.0000000180025095e-35 129.50000000000003 1.0000000180025095e-35 219116.42208274468 104035.11870495421 2377.0000000000005 455.50000000000006 1.0000000180025095e-35 42.500000000000007 126052.0161821167 147213.06021429782 138856.64791363463 139774.07201307474 131515.98062255932 90887.123085509011 147213.06021429782 1.0000000180025095e-35 390.50000000000006 127048.46146916515 223.00000000000003 656.00000000000011 89.500000000000014
decision_type=2 2 2 2 2 2 2 2 2 2 2 2 2 2 2 2 2 2 2 2 2 2 2 2 2 2 2 2 2 2 2 2 2 2 2 2 2 2 2 2 2 2 2 2 2 2 2 2 2 2 2 2 2 2 2 2 2 2 2 2 2 2
left_child=25 2 3 8 -3 12 7 13 9 -2 16 21 29 14 -6 -16 -8 22 -5 20 34 32 -15 54 -17 -1 27 35 -19 30 46 33 -12 56 -20 -10 37 44 59 40 -36 -42 50 60 -25 51 47 48 49 -4 57 53 -27 -35 -11 -34 -14 58 -33 -31 61 -7
right_child=1 4 5 18 6 43 10 -9 26 23 11 -13 31 17 15 24 -18 28 19 -21 -22 -23 -24 36 -26 52 -28 -29 -30 38 -32 42 55 45 39 -37 -38 -39 -40 -41 41 -43 -44 -45 -46 -47 -48 -49 -50 -51 -52 -53 -54 -55 -56 -57 -58 -59 -60 -61 -62 -63
leaf_value=-2093.5198855305366 175.4374593778638 297.93667695686457 2923.4964879521867 10.357839435690865 3259.1556736698471 1015.5582126332579 1121.3347718908242 8222.767547255713 47.034044994974927 2021.630644903709 2867.2191818517808 6173.706019350645 2024.9405479855466 1246.7712700375669 2661.5955239049781 447.96513932828532 446.16520683629062 3913.7013980710562 1673.1459243180943 1720.0359254088851 591.41369559399539 4627.5706110633209 3004.7296687974836 1522.343465737616 2266.2268644795904 -280.3725958630431 2333.1221068469235 -1225.3036356770326 1804.306253049235 1060.6118695046491 72.4856192599417 3389.8156001829484 2563.3393860784663 3635.9535386113671 619.99765970204533 1041.6114891031327 2359.9975134443885 -223.4958414023389 226.79923622814459 2176.5325201254323 2053.1764931703301 689.57283590472514 -221.22419121786211 6413.4869471038874 2260.3627323271317 441.07409012963535 -1116.5209135541679 -366.16368992311476 2795.405757744596 4757.5451333366755 1556.0225327556241 4887.9020171540715 150.16992877265324 820.58081469848116 2338.1612571503051 5319.6140990232789 4401.3731700429016 383.97105512446416 1938.4481404021008 3979.8896581552385 929.79108527069775 4919.1429781570087
leaf_weight=48457 548 508 133 404 211 43 226 92 66 59 132 321 296 505 118 158 108 377 45 182 560 492 127 56 293 4679 103 177 148 102 3143 67 261 72 300 95 50 59 122 339 74 83 257 108 114 88 189 175 300 87 459 94 777 66 376 51 99 521 442 74 57 51
leaf_count=48457 548 508 133 404 211 43 226 92 66 59 132 321 296 505 118 158 108 377 45 182 560 492 127 56 293 4679 103 177 148 102 3143 67 261 72 300 95 50 59 122 339 74 83 257 108 114 88 189 175 300 87 459 94 777 66 376 51 99 521 442 74 57 51
internal_value=-0.00127705 0.0104511 0.00747787 0.0133469 0.0181831 0.00440383 0.0202486 0.0160202 0.0201028 0.0234865 0.0256411 0.0282936 0.00365016 0.0148245 0.0200641 0.0152109 0.0156587 0.0112921 0.00755662 0.00940303 0.0077409 0.0249679 0.00655063 0.0298039 0.0109645 -0.00451032 0.0104195 0.00668639 0.017 0.00185549 0.00130742 0.00680414 0.0194369 0.0108741 0.0112901 0.0164286 0.0227778 0.0194541 0.00926174 0.0102638 0.00670678 0.0150637 0.00513746 0.0241506 0.0261765 0.0160937 0.00518099 0.00708633 0.00990384 0.0154545 0.00628274 0.02 -0.0026173 0.0142029 0.0343103 0.0155128 0.00664557 0.00441747 0.00747544 0.0148864 0.0181788 0.0242553
internal_weight=68776 14863 10735 3690 4128 7045 3620 2029 1703 1262 1591 1257 6786 1937 780 569 334 1157 1987 1583 1401 936 632 714 451 53913 441 338 525 4325 4027 2461 444 715 841 161 279 229 298 796 457 157 1746 259 170 320 884 695 520 220 1489 232 5456 138 435 312 395 1030 509 176 151 94
internal_count=68776 14863 10735 3690 4128 7045 3620 2029 1703 1262 1591 1257 6786 1937 780 569 334 1157 1987 1583 1401 936 632 714 451 53913 441 338 525 4325 4027 2461 444 715 841 161 279 229 298 796 457 157 1746 259 170 320 884 695 520 220 1489 232 5456 138 435 312 395 1030 509 176 151 94
is_linear=0
shrinkage=0.05


Tree=8
num_leaves=63
num_cat=0
split_feature=0 1 0 10 0 0 1 0 16 0 0 0 10 1 0 0 49 0 49 1 10 0 10 14 48 10 10 10 10 10 1 10 0 0 0 0 1 52 0 32 0 0 16 10 5 1 10 10 1 24 15 10 1 1 10 0 10 10 1 5 10 0
split_gain=941.984 111.864 71.4974 56.0521 45.4653 40.8131 29.4829 24.4521 21.9388 27.02 21.7825 20.9931 30.1683 12.9423 12.1749 11.727 14.7971 11.3554 11.7626 10.6898 9.55385 9.47283 8.79825 8.20031 5.86138 5.77508 5.56934 10.8757 5.56579 5.79288 5.5087 5.39535 5.39493 10.9396 5.68221 5.02357 4.96216 4.8877 4.88532 4.8159 5.05697 4.74541 4.43479 10.3332 9.14829 4.2144 3.99124 3.98932 3.98931 3.77621 4.93882 4.83674 3.5 3.40874 3.40481 3.25439 3.24119 3.17674 3.10203 3.04945 4.97805 2.95376
threshold=113665.38084283075 132531.4509956445 123812.38736480458 63.500000000000007 117119.28542509791 194177.89813768971 161129.50578369785 120732.92079422531 1.0000000180025095e-35 116306.75865324336 194177.89813768971 130002.94020434242 67.500000000000014 192506.06189958518 147213.06021429782 116306.75865324336 1.0000000180025095e-35 147213.06021429782 1.0000000180025095e-35 192506.06189958518 13.500000000000002 108932.78843944636 455.50000000000006 1.0000000180025095e-35 1.0000000180025095e-35 266.00000000000006 51.500000000000007 46.500000000000007 455.50000000000006 215.00000000000003 124989.70140855252 215.00000000000003 118516.4277019099 118371.46239321484 114855.75642002861 163742.398948168 106286.83948024908 1.0000000180025095e-35 124999.95656636087 1.0000000180025095e-35 140353.8008495761 219116.42208274468 1.0000000180025095e-35 43.500000000000007 93447.721255070806 157043.78647585158 159.50000000000003 615.00000000000011 142843.52244893039 1.0000000180025095e-35 1.0000000180025095e-35 129.50000000000003 106534.07355597404 115356.68885942594 375.50000000000006 115243.92150621163 51.500000000000007 181.50000000000003 139440.31641565191 93447.721255070806 89.500000000000014 131515.98062255932
decision_type=2 2 2 2 2 2 2 2 2 2 2 2 2 2 2 2 2 2 2 2 2 2 2 2 2 2 2 2 2 2 2 2 2 2 2 2 2 2 2 2 2 2 2 2 2 2 2 2 2 2 2 2 2 2 2 2 2 2 2 2 2 2
left_child=21 2 3 8 55 17 10 13 9 -2 11 12 -6 -8 59 -5 22 18 23 31 -11 -1 37 42 -16 35 27 36 29 46 -27 -9 33 34 -10 56 -22 49 -25 40 54 47 52 44 -44 -23 -14 -7 58 50 53 -52 -4 -17 61 -3 -19 -53 -30 -13 -61 -20
right_child=1 4 5 15 6 41 7 19 32 20 -12 14 28 -15 24 16 -18 25 39 -21 26 45 -24 38 -26 30 -28 -29 48 -31 -32 -33 -34 -35 -36 -37 -38 -39 -40 -41 -42 -43 43 -45 -46 -47 -48 -49 -50 -51 51 57 -54 -55 -56 -57 -58 -59 -60 60 -62 -63
leaf_value=-1988.8438912540093 166.66558640897065 117.02844567600846 480.69909713404945 64.272144503041602 3298.9074397983368 3819.6496531286002 1417.4495534229602 3520.9335761714133 44.682342745226293 2140.6256190913423 7795.4135611822703 -9.1086729117858347 3007.8613110671258 -36.072435347946886 5186.8951855931164 1545.585727758895 1830.7660316786341 5376.3187815376386 4133.4868854893675 6101.2196609460507 1500.3505226456323 -235.83966842645015 774.45242606639624 2658.3065467905308 2391.3312544692044 486.09201915772655 2241.9976377721687 -212.32104933222251 1578.706889392294 2985.6544153453324 1606.5844210251489 4591.9839442238263 2216.4660015045779 -1164.038453893181 989.53091464797535 3861.9756804998501 2185.4703665655875 -999.0576752201232 -65.452077057955194 -884.37366800588268 3808.4277098752937 6092.8125997486923 7996.4343094782353 924.89348571796609 5323.1442593094544 413.81852030849114 616.89632593221631 1012.2070972029338 783.09040306492295 113.75498770867824 2140.9964330393409 708.62553977941434 1903.8917988952962 2287.1193890897248 2551.5212717743052 549.87036427618557 2805.6977447483691 2177.2641819631094 2068.6228591056361 4995.9660794326201 1814.7606237574307 7250.1906748584579
leaf_weight=48457 548 296 842 659 308 76 117 126 66 435 103 88 147 108 105 246 149 47 41 297 74 5161 472 72 308 662 50 59 73 121 193 298 103 177 95 82 96 43 3064 42 134 108 48 204 87 295 52 75 171 62 64 40 924 116 115 337 185 136 131 295 647 44
leaf_count=48457 548 296 842 659 308 76 117 126 66 435 103 88 147 108 105 246 149 47 41 297 74 5161 472 72 308 662 50 59 73 121 193 298 103 177 95 82 96 43 3064 42 134 108 48 204 87 295 52 75 171 62 64 40 924 116 115 337 185 136 131 295 647 44
internal_value=-0.00141009 0.00973457 0.00704471 0.0126829 0.0167296 0.00409155 0.0189628 0.0265011 0.0193394 0.0226941 0.0161652 0.0152167 0.0207727 0.0121111 0.0113548 0.00697785 0.00968373 0.00334807 0.00241499 0.0309917 0.0291036 -0.0044825 0.00780746 0.00180214 0.0186077 0.00783148 0.0218817 0.0185808 0.015 0.0198437 0.00570175 0.0258962 0.00973923 0.00668639 0.016118 0.0136306 0.025 0.0113366 0.000181759 0.0109574 0.0129641 0.0235714 0.00421615 0.00945428 0.0201852 -0.00250733 0.014598 0.0178477 0.0108667 0.0123946 0.0136046 0.0191667 0.00321064 0.00991713 0.018 0.00439968 0.00987069 0.0148864 0.0155882 0.0084466 0.00927813 0.0255882
internal_weight=68776 14863 10735 3690 4128 7045 3495 946 1703 1262 2549 2446 1003 225 1443 1987 1328 6786 5617 721 714 53913 1179 5241 413 1169 279 229 695 320 855 424 441 338 161 314 170 707 3136 376 334 259 2105 339 135 5456 199 151 375 664 602 240 1766 362 200 633 232 176 204 1030 942 85
internal_count=68776 14863 10735 3690 4128 7045 3495 946 1703 1262 2549 2446 1003 225 1443 1987 1328 6786 5617 721 714 53913 1179 5241 413 1169 279 229 695 320 855 424 441 338 161 314 170 707 3136 376 334 259 2105 339 135 5456 199 151 375 664 602 240 1766 362 200 633 232 176 204 1030 942 85
is_linear=0
shrinkage=0.05


Tree=9
num_leaves=63
num_cat=0
split_feature=0 2 0 10 0 0 0 1 0 13 49 10 0 13 50 0 13 0 10 0 1 1 52 1 10 49 10 53 2 0 10 0 48 1 23 10 10 4 0 10 1 10 14 1 2 1 10 28 10 0 1 0 1 10 10 1 2 18 0 0 10 10
split_gain=862.455 96.6122 57.5231 53.9896 50.4694 33.4837 27.8918 25.9689 15.3609 14.0141 12.9205 12.9153 12.9033 11.6502 11.541 14.574 9.64188 9.48437 8.35551 8.29971 23.5354 13.0079 7.2649 7.75405 7.12544 9.67117 6.94602 6.81128 6.77145 6.50102 5.48558 5.48288 6.66253 5.22609 5.1435 5.10702 10.7222 4.97345 5.38213 6.10325 4.93605 4.82875 4.72301 4.70052 4.48018 4.43791 4.34209 4.16455 4.09259 4.02683 3.91509 3.84101 5.68695 3.77977 3.67403 3.43997 3.37587 3.35516 4.43457 3.34696 3.25684 3.24777
threshold=113665.38084283075 136102.87534703306 123812.38736480458 63.500000000000007 194177.89813768971 117559.99442526359 119792.17456907684 135690.33914403708 116306.75865324336 1.0000000180025095e-35 1.0000000180025095e-35 744.00000000000011 131515.98062255932 1.0000000180025095e-35 1.0000000180025095e-35 115626.25032097324 1.0000000180025095e-35 108737.80484612494 455.50000000000006 121381.0554502767 157043.78647585158 183476.34426264671 1.0000000180025095e-35 129768.19404313319 687.50000000000011 1.0000000180025095e-35 139.50000000000003 1.0000000180025095e-35 119648.26290638119 147213.06021429782 17.500000000000004 144076.41212584169 1.0000000180025095e-35 144438.06370092215 1.0000000180025095e-35 615.00000000000011 89.500000000000014 3.5000000000000004 163742.398948168 367.00000000000006 140461.64526732583 86.500000000000014 1.0000000180025095e-35 139440.31641565191 139774.07201307474 125095.30519109637 455.50000000000006 1.0000000180025095e-35 32.500000000000007 219116.42208274468 132531.4509956445 115243.92150621163 128911.08071900958 36.500000000000007 345.50000000000006 107991.09643030317 102950.64876081176 1.0000000180025095e-35 120732.92079422531 117867.33344196768 51.500000000000007 390.50000000000006
decision_type=2 2 2 2 2 2 2 2 2 2 2 2 2 2 2 2 2 2 2 2 2 2 2 2 2 2 2 2 2 2 2 2 2 2 2 2 2 2 2 2 2 2 2 2 2 2 2 2 2 2 2 2 2 2 2 2 2 2 2 2 2 2
left_child=17 2 3 6 7 51 14 13 -5 11 18 12 57 34 15 50 29 -1 22 21 40 26 23 -10 25 31 -11 48 -18 -9 -8 56 -33 -14 37 36 -6 38 -4 -40 45 -42 -12 49 -19 -21 -35 -39 -17 -37 -2 -3 -53 -27 -30 -32 -15 58 -7 -16 -50 -58
right_child=1 5 4 8 35 9 30 16 10 19 42 -13 33 24 59 27 28 44 -20 20 -22 -23 -24 -25 -26 53 -28 -29 54 -31 55 32 -34 46 -36 43 -38 47 39 -41 41 -43 -44 -45 -46 -47 -48 -49 60 -51 -52 52 -54 -55 -56 -57 61 -59 -60 -61 -62 -63
leaf_value=-1934.0108632649485 96.232101999083753 137.47683048016924 124.05551363925822 61.058532029972277 773.79781934516507 1272.5288792113888 2378.1598626915943 1733.0726662980135 1482.5474754825304 1564.9095035842693 1806.875812605233 334.75550483730694 2218.3226141558471 355.41522253348967 581.22672542519763 887.87337195052032 4441.5726670060121 -269.19262251264183 780.68284366993703 4436.6481247526444 5559.9477178264806 -75.054728665205772 -1122.1515862885014 1872.7970254489483 268.10304965379083 3976.8122917397486 1203.1216758315595 960.19163690685969 4365.5400083368741 3051.3593368026072 1830.5724136522044 4261.2621105188109 1849.2216521574983 4991.628513171313 3817.6633570749714 958.38814782779809 5347.0446891188294 4217.5547340233034 2909.3868461015645 -114.2990308524348 3998.2860762293117 1214.0024443825771 2044.5850543040358 7992.7406085448492 150.3310997682795 3805.5202928581357 1967.3261766048599 330.51536432803255 769.47716560893082 5929.6943034745054 -103.95834796060012 477.54899640016657 840.7900591883805 4116.5886942282341 1474.9903269009164 2462.2412318776901 2874.8356679427397 1524.2450971455626 3470.2944710856787 254.2234691476983 809.5834626233991 177.96583803170901
leaf_weight=48226 441 223 3824 779 43 154 207 461 589 60 87 135 222 363 79 495 117 4880 610 73 372 68 60 169 748 40 122 81 130 99 62 80 304 154 117 78 76 62 104 102 46 101 80 47 807 259 43 74 85 82 51 51 234 94 289 61 594 61 219 157 55 190
leaf_count=48226 441 223 3824 779 43 154 207 461 589 60 87 135 222 363 79 495 117 4880 610 73 372 68 60 169 748 40 122 81 130 99 62 80 304 154 117 78 76 62 104 102 46 101 80 47 807 259 43 74 85 82 51 51 234 94 289 61 594 61 219 157 55 190
internal_value=-0.00149442 0.00916941 0.00731453 0.0121046 0.00486696 0.0179303 0.0187035 0.00406057 0.00717355 0.02073 0.00998432 0.0164069 0.0186811 0.00289277 0.0157064 0.0176821 0.0111953 -0.00443427 0.00844538 0.0246094 0.0269624 0.0166 0.0117482 0.0130739 0.00567136 0.00749249 0.0235714 0.0222346 0.0159888 0.00660714 0.0318182 0.00636512 0.0115365 0.0124224 0.00132734 0.0241411 0.032395 0.00103696 0.000719602 0.00859223 0.0196347 0.0120068 0.0231437 0.0193961 -0.00250308 0.023012 0.0183503 0.0104412 0.0239764 0.0153125 0.0110569 0.00641732 0.0102632 0.0203731 0.0130191 0.0234553 0.00463383 0.0247235 0.0265013 0.00559322 0.0164286 0.00647959
internal_weight=68776 14863 12266 4148 8118 2597 1774 7792 2374 2089 1595 988 853 6696 1444 1208 1096 53913 1428 1101 851 250 818 758 2413 1665 182 716 536 560 330 1531 384 419 4283 326 119 4166 4030 206 479 147 167 207 5687 332 197 136 635 160 492 508 285 134 419 123 1147 434 373 236 140 784
internal_count=68776 14863 12266 4148 8118 2597 1774 7792 2374 2089 1595 988 853 6696 1444 1208 1096 53913 1428 1101 851 250 818 758 2413 1665 182 716 536 560 330 1531 384 419 4283 326 119 4166 4030 206 479 147 167 207 5687 332 197 136 635 160 492 508 285 134 419 123 1147 434 373 236 140 784
is_linear=0
shrinkage=0.05


Tree=10
num_leaves=63
num_cat=0
split_feature=1 15 1 13 4 1 1 15 1 48 13 13 13 4 10 10 10 14 17 4 10 10 10 2 1 10 4 10 2 10 10 17 10 10 10 2 10 13 2 15 48 19 13 10 10 48 10 2 10 2 48 32 2 1 10 2 38 2 2 10 10 1
split_gain=179.665 51.3363 34.033 27.033 22.2854 19.7019 16.6317 15.5911 12.5799 10.3527 9.86192 9.41875 8.42182 7.16141 5.52406 6.25356 5.14653 5.10519 4.85834 4.60772 4.42701 5.1884 4.31208 4.2831 3.95979 3.81309 3.43063 3.218 3.22128 3.17176 5.66611 3.76818 3.08982 3.22013 3.08464 3.69071 2.92821 2.82252 2.76183 2.47679 2.40264 2.35948 2.28178 2.21998 3.29966 2.85474 3.16101 2.03757 1.96416 1.95338 1.93865 1.76807 1.98645 3.68961 1.805 2.3428 1.75789 1.71095 2.49967 1.68574 2.46302 1.63772
threshold=125095.30519109637 1.0000000180025095e-35 102861.42591874297 1.0000000180025095e-35 3.5000000000000004 161129.50578369785 154686.24760016598 1.0000000180025095e-35 161129.50578369785 1.0000000180025095e-35 1.0000000180025095e-35 1.0000000180025095e-35 1.0000000180025095e-35 4.5000000000000009 42.500000000000007 71.500000000000014 67.500000000000014 1.0000000180025095e-35 1.0000000180025095e-35 4.5000000000000009 215.00000000000003 297.50000000000006 687.50000000000011 112945.53493741051 188387.99531863999 438.50000000000006 3.5000000000000004 144.50000000000003 144210.19612846716 656.00000000000011 215.00000000000003 1.0000000180025095e-35 490.00000000000006 223.00000000000003 13.500000000000002 144210.19612846716 744.00000000000011 1.0000000180025095e-35 93861.7275205802 1.0000000180025095e-35 1.0000000180025095e-35 1.0000000180025095e-35 1.0000000180025095e-35 371.50000000000006 254.50000000000003 1.0000000180025095e-35 687.50000000000011 128254.61053547778 146.50000000000003 98763.251739062849 1.0000000180025095e-35 1.0000000180025095e-35 119648.26290638119 132825.6679254206 656.00000000000011 112273.65574074374 1.0000000180025095e-35 144210.19612846716 145683.16175972423 14.500000000000002 371.50000000000006 117885.40244988192
decision_type=2 2 2 2 2 2 2 2 2 2 2 2 2 2 2 2 2 2 2 2 2 2 2 2 2 2 2 2 2 2 2 2 2 2 2 2 2 2 2 2 2 2 2 2 2 2 2 2 2 2 2 2 2 2 2 2 2 2 2 2 2 2
left_child=2 5 9 8 7 12 14 37 25 19 41 47 26 -6 -5 -16 50 -13 22 39 -8 -22 59 -17 -23 38 -2 -25 32 30 -19 -32 33 -29 -14 51 -24 -4 -3 -1 61 -7 -11 44 48 -45 -47 -9 -18 -15 -12 52 53 -36 55 -55 -40 -27 -59 -10 -61 -39
right_child=1 3 4 6 13 10 20 11 18 42 16 17 34 49 15 23 43 29 -20 -21 21 24 36 27 -26 57 -28 28 -30 -31 31 -33 -34 -35 35 -37 -38 40 56 -41 -42 -43 -44 45 -46 46 -48 -49 -50 -51 -52 -53 -54 54 -56 -57 -58 58 -60 60 -62 -63
leaf_value=-2128.0932359656249 -439.03206923855407 -1113.7133921043248 -873.71339210432495 1602.6670345499915 814.88107386122419 187.45834830709762 3167.3179773414777 -255.77864548054959 -129.94669016136763 -593.71339210432495 570.50364878936887 -18.943028729973829 -180.98235430724264 2357.3999384086042 4120.8862709951154 2427.2174668606363 3181.0694374757318 614.86595848685192 5110.2325990223153 1185.616151880098 6340.1348224480143 3700.4005890563794 1887.626874683096 89.611053507441156 843.52151484279011 -80.540742290078995 1620.6762132876547 775.82877289064186 3141.1402146666619 238.87100336892942 1739.4200017598005 3817.4719271180134 1420.6715350708394 3551.6961104304191 -193.25805874862419 1756.2997993823481 255.36387466350573 -674.59591226013583 1054.9653337291213 -873.71339210432495 34.01313914315849 3648.4363530550909 -1.6199827988137259 723.13980461643689 5823.8398419794139 1198.3981907491652 2525.0816837566122 315.37806728628971 297.96844148477322 3661.8462366817157 3763.2725385075355 2186.247822138746 149.28394989118206 1524.8583762536712 -198.84653831833134 3528.4022946009991 -417.20559785860132 1013.6115298120526 -278.13606689607934 2251.9003627706534 -91.270812512416001 34.737341061153266
leaf_weight=25195 3575 80 11464 374 409 516 139 4047 60 2705 149 843 494 77 102 129 65 669 55 76 62 154 136 92 50 656 58 65 145 459 373 51 515 136 196 397 41 2696 1817 3236 1449 77 1647 77 90 40 94 408 43 40 45 62 1059 107 40 53 42 87 93 190 62 485
leaf_count=25195 3575 80 11464 374 409 516 139 4047 60 2705 149 843 494 77 102 129 65 669 55 76 62 154 136 92 50 656 58 65 145 459 373 51 515 136 196 397 41 2696 1817 3236 1449 77 1647 77 90 40 94 408 43 40 45 62 1059 107 40 53 42 87 93 190 62 485
internal_value=-0.00154747 0.00387052 -0.0027516 0.00761833 -0.0012974 0.00113514 0.0122695 -0.00153068 0.00486743 -0.00379029 0.00699833 0.000467152 -2.56592e-05 0.00887833 0.00992298 0.0115963 0.0115008 0.00299582 0.0118199 -0.00413706 0.0212963 0.0250752 0.0102352 0.0104806 0.0212255 0.0035045 -0.00154556 0.00932319 0.0102729 0.00469716 0.00616194 0.010684 0.00889665 0.0141542 0.00226744 0.00317659 0.0164689 -0.00238101 0.0047215 -0.00416992 -0.00133909 0.0024199 -0.00151884 0.0146822 0.0184848 0.0111137 0.0155224 -0.000892257 0.0125926 0.0197863 0.00479381 0.00205339 0.00170103 0.00472222 0.0095 0.011875 0.00511296 0.000681817 0.005 0.00669872 0.00849206 -0.00210783
internal_weight=68848 12519 56329 5282 23470 7237 1963 22944 3319 32859 1196 6850 6041 526 1558 1184 603 2395 544 28507 405 266 489 1082 204 2775 3633 953 861 1552 1093 424 716 201 2408 1914 177 16094 1939 28431 4630 593 4352 409 198 211 134 4455 108 117 194 1517 1455 396 200 160 1859 836 180 312 252 3181
internal_count=68848 12519 56329 5282 23470 7237 1963 22944 3319 32859 1196 6850 6041 526 1558 1184 603 2395 544 28507 405 266 489 1082 204 2775 3633 953 861 1552 1093 424 716 201 2408 1914 177 16094 1939 28431 4630 593 4352 409 198 211 134 4455 108 117 194 1517 1455 396 200 160 1859 836 180 312 252 3181
is_linear=0
shrinkage=0.05


Tree=11
num_leaves=63
num_cat=0
split_feature=0 1 0 12 0 0 0 0 0 1 12 0 0 0 0 0 0 49 18 50 49 1 0 1 1 48 1 0 0 0 1 14 0 32 52 24 0 17 1 1 12 17 12 1 1 12 1 20 48 5 1 0 0 0 24 0 1 1 5 31 20 0
split_gain=810.314 66.6305 70.1735 50.8828 33.2362 28.5443 26.025 17.6314 21.8464 19.6056 14.1768 11.8322 11.0826 15.4 10.0271 22.4951 9.34001 9.93091 7.52857 6.51469 6.19005 5.87701 10.9248 8.22954 6.10242 5.47947 6.75203 5.46095 5.38102 5.30816 5.15475 5.13333 5.02993 4.79588 4.48562 5.04931 4.25318 3.95582 3.84874 3.71995 3.59044 3.50877 3.41463 3.37163 3.30346 3.17334 3.15124 3.04356 2.86955 2.75546 3.33101 4.05668 2.65644 2.64092 2.59366 3.93528 4.3182 3.48835 2.54551 2.49173 2.48572 3.01841
threshold=113211.63902950463 139440.31641565191 124999.95656636087 103602.13565864976 118371.46239321484 194177.89813768971 118516.4277019099 176240.27352395342 131515.98062255932 192506.06189958518 121098.58476618232 116306.75865324336 123812.38736480458 124350.6152529301 118371.46239321484 116306.75865324336 140378.15553512855 1.0000000180025095e-35 1.0000000180025095e-35 1.0000000180025095e-35 1.0000000180025095e-35 167668.72985192607 122026.3485838585 183476.34426264671 140461.64526732583 1.0000000180025095e-35 114029.3783969686 131515.98062255932 147213.06021429782 107436.71294652887 128529.03794317236 1.0000000180025095e-35 119195.83814572719 1.0000000180025095e-35 1.0000000180025095e-35 1.0000000180025095e-35 219116.42208274468 1.0000000180025095e-35 129768.19404313319 124989.70140855252 121098.58476618232 1.0000000180025095e-35 103602.13565864976 104837.97598050222 154686.24760016598 103602.13565864976 192506.06189958518 1.0000000180025095e-35 1.0000000180025095e-35 105831.60128504939 157043.78647585158 140353.8008495761 116681.63564662887 114203.73971134431 1.0000000180025095e-35 122026.3485838585 176573.81937598836 180708.46330609833 105831.60128504939 1.0000000180025095e-35 1.0000000180025095e-35 120732.92079422531
decision_type=2 2 2 2 2 2 2 2 2 2 2 2 2 2 2 2 2 2 2 2 2 2 2 2 2 2 2 2 2 2 2 2 2 2 2 2 2 2 2 2 2 2 2 2 2 2 2 2 2 2 2 2 2 2 2 2 2 2 2 2 2 2
left_child=29 2 3 6 52 16 14 8 10 28 42 -5 19 58 15 30 17 27 20 32 34 24 23 -23 -12 26 -18 38 49 -1 47 -22 -8 39 35 60 40 -28 59 -19 -7 44 46 -16 -9 -40 -6 53 -30 -10 -51 -52 -3 -2 55 57 -57 -44 -14 -4 61 -13
right_child=1 4 5 11 7 36 12 41 9 -11 21 18 13 -15 43 -17 25 33 -20 -21 31 22 -24 -25 -26 -27 37 -29 48 -31 -32 -33 -34 -35 -36 -37 -38 -39 45 -41 -42 -43 54 -45 -46 -47 -48 -49 -50 50 51 -53 -54 -55 -56 56 -58 -59 -60 -61 -62 -63
leaf_value=-2054.8159794231156 76.744850890526138 508.10703769790501 2830.4003287201713 82.190478533863228 3318.6363522809938 3390.4796706389989 997.85155935965747 4715.1801387351061 -227.97803269053753 8023.6746676130997 2148.6722768492855 1039.1734975536315 -1804.0058419903257 2695.9107742326014 -993.74963139787985 642.85384678935895 2675.9070073386342 3186.5316246751781 318.80849977632317 1852.2012760947587 1926.3548159332995 931.55246060260799 2801.1501391009824 -131.05442266588727 1179.248972345348 818.08532824989231 4573.7464502559751 120.81152297132752 5102.3161735719623 -373.16805419204593 27.342785305860254 1774.4241948202916 2275.3042022856498 -937.20297914604635 -1024.3866832822612 321.26360887994912 5655.1872373205297 3684.0411097158621 3750.6461512643164 3347.9684230280909 952.46773604021405 7900.6929998864471 1402.5226818395608 1096.867821407325 6859.6502182491749 2252.0383704812475 2598.1552033561557 237.81636302009156 1638.4570115016297 2140.8603388224824 5554.8723151558443 2002.6099728171337 747.36025660787345 184.07499818780485 2456.6036612592616 4108.5123999242633 3135.9567776919389 274.85098226336743 2069.0748338754729 -2110.876875806789 591.87156823687383 2376.7003539208731
leaf_weight=46055 382 493 929 925 210 75 118 124 94 110 76 675 66 43 140 373 284 248 237 71 84 64 139 61 271 1211 207 3591 65 7384 129 70 363 46 52 162 123 80 44 55 79 43 66 55 45 81 49 56 219 636 92 93 233 441 40 81 83 41 40 83 82 281
leaf_count=46055 382 493 929 925 210 75 118 124 94 110 76 675 66 43 140 373 284 248 237 71 84 64 139 61 271 1211 207 3591 65 7384 129 70 363 46 52 162 123 80 44 55 79 43 66 55 45 81 49 56 219 636 92 93 233 441 40 81 83 41 40 83 82 281
internal_value=-0.00155764 0.00854403 0.00678533 0.0114293 0.0146908 0.00363229 0.0168709 0.0172428 0.0160643 0.0116157 0.0209949 0.00660436 0.0248859 0.0127852 0.0133058 0.0148045 0.00299679 0.00190368 0.00915094 0.0281522 0.0105405 0.0157038 0.0213258 0.0106 0.0114265 0.00611111 0.0101489 0.00130288 0.0097623 -0.00447043 0.0109226 0.02 0.0302391 0.010043 0.009377 0.01 0.0193682 0.0155575 0.00432278 0.0123267 0.0138312 0.0310849 0.0266667 0.00269231 0.0278402 0.0126 0.0309073 0.0122924 0.0157746 0.00789617 0.0088246 0.0147297 0.00519284 0.0115249 0.023135 0.0248893 0.0297561 0.0174299 0.00254717 0.00330039 0.0112813 0.0119979
internal_weight=68848 15409 11981 4845 3428 7136 2277 2702 2490 1309 1181 2568 701 149 1576 1381 6859 5077 1643 552 1406 611 264 125 347 1782 571 4728 1199 53439 1008 154 481 349 1252 1200 277 287 1137 303 154 212 570 195 169 125 259 879 284 915 821 185 726 823 311 271 164 107 106 1012 1038 956
internal_count=68848 15409 11981 4845 3428 7136 2277 2702 2490 1309 1181 2568 701 149 1576 1381 6859 5077 1643 552 1406 611 264 125 347 1782 571 4728 1199 53439 1008 154 481 349 1252 1200 277 287 1137 303 154 212 570 195 169 125 259 879 284 915 821 185 726 823 311 271 164 107 106 1012 1038 956
is_linear=0
shrinkage=0.05


Tree=12
num_leaves=63
num_cat=0
split_feature=1 15 1 13 1 48 4 1 1 15 13 13 13 10 4 10 50 10 10 10 2 14 10 10 17 15 10 1 2 10 2 10 10 10 2 4 1 10 17 50 13 4 15 17 13 10 4 19 10 48 21 10 2 10 2 10 10 1 10 32 10 10
split_gain=146.25 38.6012 29.7513 21.1344 15.9938 11.5546 11.6041 10.9374 10.5498 9.32742 7.50963 6.66065 6.55757 5.4769 4.80423 4.27664 4.21318 4.18108 5.31738 3.65687 3.63253 3.61396 3.49796 3.74678 3.02699 2.95284 2.93357 4.17389 2.88532 2.76906 3.06803 3.08679 3.42438 2.75739 3.58878 2.7533 2.71139 2.68457 2.55583 2.54682 2.82562 3.01489 2.53093 2.60256 2.70375 2.50207 2.29915 2.13593 2.10188 1.98135 1.97476 1.94721 1.91197 1.85779 1.85315 1.76848 2.6283 2.4781 1.8195 1.74659 1.67155 7.80144
threshold=125095.30519109637 1.0000000180025095e-35 105191.28529169447 1.0000000180025095e-35 161129.50578369785 1.0000000180025095e-35 3.5000000000000004 159316.5980624083 150889.90881152093 1.0000000180025095e-35 1.0000000180025095e-35 1.0000000180025095e-35 1.0000000180025095e-35 151.50000000000003 4.5000000000000009 79.500000000000014 1.0000000180025095e-35 42.500000000000007 71.500000000000014 5.5000000000000009 112945.53493741051 1.0000000180025095e-35 656.00000000000011 215.00000000000003 1.0000000180025095e-35 1.0000000180025095e-35 297.50000000000006 188387.99531863999 130982.02910703342 144.50000000000003 144210.19612846716 490.00000000000006 223.00000000000003 13.500000000000002 144210.19612846716 3.5000000000000004 98804.199413044131 448.50000000000006 1.0000000180025095e-35 1.0000000180025095e-35 1.0000000180025095e-35 2.5000000000000004 1.0000000180025095e-35 1.0000000180025095e-35 1.0000000180025095e-35 390.50000000000006 4.5000000000000009 1.0000000180025095e-35 358.00000000000006 1.0000000180025095e-35 1.0000000180025095e-35 70.500000000000014 144210.19612846716 390.50000000000006 145683.16175972423 371.50000000000006 254.50000000000003 192506.06189958518 710.00000000000011 1.0000000180025095e-35 79.500000000000014 119.50000000000001
decision_type=2 2 2 2 2 2 2 2 2 2 2 2 2 2 2 2 2 2 2 2 2 2 2 2 2 2 2 2 2 2 2 2 2 2 2 2 2 2 2 2 2 2 2 2 2 2 2 2 2 2 2 2 2 2 2 2 2 2 2 2 2 2
left_child=2 4 5 8 11 6 25 17 45 14 47 16 53 -9 39 -12 35 -5 -19 -10 -20 -14 23 49 28 -1 -15 -28 -21 -22 31 32 -31 -13 -35 -2 -8 -18 -25 40 41 -4 -7 -44 -45 48 -38 -6 -3 51 -43 -23 -47 -11 -54 56 -17 58 -57 -42 -27 -62
right_child=1 3 9 7 10 42 36 13 19 12 15 33 21 26 -16 55 37 18 20 24 29 22 -24 38 -26 60 27 -29 -30 30 -32 -33 -34 34 -36 -37 46 -39 -40 -41 59 50 43 44 -46 52 -48 -49 -50 -51 -52 -53 54 -55 -56 57 -58 -59 -60 -61 61 -63
leaf_value=-1727.2869235279534 -551.46565366843777 732.72004923198597 -977.34146241895201 1558.8583553388858 168.73131375487398 -662.08709982714765 -49.522848921922382 2448.9460124799293 -185.66497401930968 11.45210857195184 1040.7524869640317 -191.27566709642787 -12.3767453792209 5513.8541292670916 2323.1945270396359 2423.8133519080543 707.9311851308496 3864.8745624046387 2141.4503715830874 462.19816701864886 13.838088213370384 808.82675415880647 84.373466627731162 1646.4084554317371 3628.1661338833906 -889.02191991133827 3233.2761631880276 665.08085444514882 1557.0573909538539 771.24729761991057 2794.4137382010758 1305.6586777060331 3067.8032915838949 327.39332915674174 1532.6848353790458 1389.360496365468 710.8461337752625 1863.2796805982246 3351.731426775591 65.759655568281971 -226.97837609363694 -133.99219075206639 -75.542550862040827 74.263271502065621 2080.2681674552455 -154.72253030965956 2242.6991829805593 3220.5617169406773 938.40952549892518 277.07048412380664 873.11834699570397 3308.8194061711956 844.36528479295885 -619.14919484202017 -270.2897461156619 1014.282694472091 5131.4641164997884 956.86832468082321 2495.178704518325 868.30859686764495 1404.6091729661437 -778.90285097600054
leaf_weight=29251 3299 1540 5505 389 516 2359 292 98 94 2589 202 494 663 75 66 100 202 108 131 110 96 94 426 333 72 2973 118 50 528 68 147 543 140 1517 397 58 226 74 46 1204 3307 1412 2637 165 101 676 62 77 129 394 73 45 96 886 74 44 90 88 79 113 223 884
leaf_count=29251 3299 1540 5505 389 516 2359 292 98 94 2589 202 494 663 75 66 100 202 108 131 110 96 94 426 333 72 2973 118 50 528 68 147 543 140 1517 397 58 226 74 46 1204 3307 1412 2637 165 101 676 62 77 129 394 73 45 96 886 74 44 90 88 79 113 223 884
internal_value=-0.0016368 0.00325146 -0.0027232 0.00650132 0.000879507 -0.00348365 -0.00382192 0.0106139 0.004069 -0.000986828 0.00616221 -0.000166364 0.00071585 0.0187537 -0.0017851 0.0100912 -0.00151803 0.00890259 0.0103285 0.00905473 0.00931111 0.002996 0.00449178 0.00623903 0.0102817 -0.00394393 0.0227778 0.0191071 0.00918495 0.00827968 0.00914254 0.00784953 0.0130288 0.00187292 0.0027325 -0.00200626 0.00318965 0.00442029 0.0100396 -0.00186155 -0.00211335 -0.00268956 -0.00130369 -0.000315192 0.0043985 0.00247515 0.00663194 0.00216695 0.00359796 0.00353658 -0.000690237 0.00866906 0.000260046 -0.000597123 0.005 0.0130798 0.0165789 0.00992891 0.0145122 -0.000935674 -0.00268382 -0.00102529
internal_weight=68848 12519 56329 5282 7237 39173 33911 1963 3319 17156 1196 6041 5476 341 11680 603 3633 1622 1233 804 1125 2001 1338 912 710 33331 243 168 638 994 898 751 208 2408 1914 3357 580 276 379 11614 10410 6990 5262 2903 266 2515 288 593 1669 533 1485 139 846 3475 170 401 190 211 123 3420 4080 1107
internal_count=68848 12519 56329 5282 7237 39173 33911 1963 3319 17156 1196 6041 5476 341 11680 603 3633 1622 1233 804 1125 2001 1338 912 710 33331 243 168 638 994 898 751 208 2408 1914 3357 580 276 379 11614 10410 6990 5262 2903 266 2515 288 593 1669 533 1485 139 846 3475 170 401 190 211 123 3420 4080 1107
is_linear=0
shrinkage=0.05


Tree=13
num_leaves=63
num_cat=0
split_feature=0 2 0 10 0 0 0 1 0 0 0 1 10 0 10 0 1 16 0 1 1 0 0 0 2 10 10 10 0 1 50 49 10 0 0 10 49 4 18 14 1 10 14 16 5 6 2 2 1 1 5 1 2 0 0 10 0 0 17 5 10 0
split_gain=733.498 50.8716 55.356 57.5594 29.0606 28.9026 21.2039 17.2427 12.6201 11.6745 17.874 18.7614 13.5704 11.5099 13.5036 8.96173 12.5952 8.00917 14.1227 8.10058 7.6028 7.51773 10.903 7.39067 6.81908 6.81843 9.76992 6.48408 5.61031 5.56546 5.51441 5.47482 5.30554 5.27308 4.74595 9.01642 5.15086 4.6681 4.62939 5.68921 6.70435 4.35027 4.25385 3.82388 4.01844 3.7943 3.65 3.5977 3.52005 3.41232 3.3557 3.3527 3.30042 3.27588 5.03629 4.69319 3.24437 3.05086 2.9919 2.89812 2.87304 2.85733
threshold=113211.63902950463 136102.87534703306 124999.95656636087 64.500000000000014 194177.89813768971 118852.69210658259 119195.83814572719 126311.68504721223 123812.38736480458 176240.27352395342 131515.98062255932 192506.06189958518 70.500000000000014 117119.28542509791 455.50000000000006 122739.06651875771 180708.46330609833 1.0000000180025095e-35 116681.63564662887 128529.03794317236 167668.72985192607 130002.94020434242 140378.15553512855 118371.46239321484 112945.53493741051 615.00000000000011 89.500000000000014 46.500000000000007 114588.35141086152 121434.05974934078 1.0000000180025095e-35 1.0000000180025095e-35 469.00000000000006 107605.4228730959 144076.41212584169 615.00000000000011 1.0000000180025095e-35 3.5000000000000004 1.0000000180025095e-35 1.0000000180025095e-35 104988.51065086869 206.00000000000003 1.0000000180025095e-35 1.0000000180025095e-35 93447.721255070806 1.0000000180025095e-35 152107.17863084123 108084.35618516071 170468.47060072832 192506.06189958518 105831.60128504939 154686.24760016598 100960.4167315612 138856.64791363463 132711.94189219497 367.00000000000006 113665.38084283075 219116.42208274468 1.0000000180025095e-35 89659.307348389455 3854.5000000000005 115626.25032097324
decision_type=2 2 2 2 2 2 2 2 2 2 2 2 2 2 2 2 2 2 2 2 2 2 2 2 2 2 2 2 2 2 2 2 2 2 2 2 2 2 2 2 2 2 2 2 2 2 2 2 2 2 2 2 2 2 2 2 2 2 2 2 2 2
left_child=33 2 3 6 7 29 17 34 30 10 12 51 49 47 31 16 48 18 19 37 -17 32 53 28 -24 26 -6 -20 -19 61 -8 38 -9 -1 36 -36 42 45 39 41 -41 -15 43 -4 -45 56 -11 -5 -14 -7 -10 -12 -43 54 -23 -56 59 60 -26 -2 -27 -3
right_child=1 5 4 13 25 9 8 21 50 46 11 -13 15 14 -16 20 -18 23 27 -21 -22 22 24 -25 58 57 -28 -29 -30 -31 -32 -33 -34 -35 35 -37 -38 -39 -40 40 -42 52 -44 44 -46 -47 -48 -49 -50 -51 -52 -53 -54 -55 55 -57 -58 -59 -60 -61 -62 -63
leaf_value=-1890.9225773515559 37.419096089324036 181.13565279122415 824.17571601672682 233.79627893299187 719.47332980288536 3064.4340230559451 2170.2096683962927 3144.9304584141669 2123.4306182049836 6036.8158056868215 1969.7803828957831 7500.1692936456184 1205.3683333193057 1329.6593261648195 848.60738582420606 2596.0561126665671 -74.36504401155274 99.925112805165156 860.12995918393813 13.122598528760207 2829.5752014342647 754.2840446629599 4698.4803943442157 158.14491088575659 1334.8393803712197 2327.8844547059557 4491.5414491539914 611.67770281558546 836.32224498733399 537.60168587615578 1971.3391960558727 2326.9410300158206 1165.2522245798298 -336.08557503525952 2336.7767680795869 -6.097360677474736 2757.392245008275 79.216470958053719 314.21699359218911 2223.5222778903758 1516.2446706793471 1811.647190694089 -118.58513037953463 7116.1903140848372 2925.2614939811701 249.40769507202117 6997.9428176301171 2.6767186271248016 1159.302084435275 2443.0097607517114 2542.8011380094285 3970.1117787747953 1989.1082605880647 -75.273777124693282 5268.8245245916623 2764.2308434739307 211.26016628498525 5914.0480875413823 2170.1063797937832 132.8044320090782 -226.96329602864341 953.77086136239927
leaf_weight=46283 75 50 1435 429 45 199 348 169 87 76 563 110 133 282 693 156 105 89 286 131 193 280 73 184 440 42 68 70 107 686 51 99 105 7156 617 459 269 87 102 86 203 54 2643 46 171 46 45 738 42 47 55 220 96 430 81 128 476 113 87 99 52 58
leaf_count=46283 75 50 1435 429 45 199 348 169 87 76 563 110 133 282 693 156 105 89 286 131 193 280 73 184 440 42 68 70 107 686 51 99 105 7156 617 459 269 87 102 86 203 54 2643 46 171 46 45 738 42 47 55 220 96 430 81 128 476 113 87 99 52 58
internal_value=-0.00165422 0.00795671 0.00663759 0.0107551 0.00399652 0.0142136 0.0168165 0.00336136 0.0254067 0.0175781 0.0165498 0.0115733 0.0216286 0.00598131 0.00871517 0.0177345 0.0110714 0.014 0.0159055 0.0126149 0.0230802 0.00763246 0.0062574 0.00763158 0.0115 0.01875 0.0286283 0.0243539 0.0143878 0.00620907 0.0299624 0.012679 0.0152555 -0.00442551 0.00200354 0.00499071 0.0012993 0.0145402 0.0113426 0.0127531 0.0181834 0.00912037 0.000878928 0.00286925 0.0090553 0.0159052 0.0326033 0.00219794 0.0192857 0.0315854 0.0126056 0.00885696 0.016 0.0028346 0.00563395 0.0115072 0.0149231 0.0133575 0.00951613 0.00908046 0.00670213 0.0167593
internal_weight=68848 15409 12726 4973 7753 2683 2191 7433 541 1889 1768 893 875 2782 1615 629 280 1650 1270 914 349 1793 1519 380 600 320 113 356 196 794 399 922 274 53439 5640 1076 4564 783 823 721 289 432 4295 1652 217 696 121 1167 175 246 142 783 150 919 489 209 650 207 527 174 94 108
internal_count=68848 15409 12726 4973 7753 2683 2191 7433 541 1889 1768 893 875 2782 1615 629 280 1650 1270 914 349 1793 1519 380 600 320 113 356 196 794 399 922 274 53439 5640 1076 4564 783 823 721 289 432 4295 1652 217 696 121 1167 175 246 142 783 150 919 489 209 650 207 527 174 94 108
is_linear=0
shrinkage=0.05


Tree=14
num_leaves=63
num_cat=0
split_feature=0 0 10 0 1 0 28 10 2 0 13 2 10 1 0 0 0 1 0 10 0 10 10 1 10 1 10 0 1 15 0 0 50 13 1 48 17 0 24 0 10 0 0 0 1 15 10 48 50 48 17 13 15 10 10 10 17 0 10 16 5 2
split_gain=679.463 46.6197 57.9768 41.6254 32.0753 21.6975 28.1344 19.1184 17.6598 20.1451 13.3143 13.0411 12.1821 11.6987 13.98 13.5795 11.5719 11.4997 14.0442 9.92252 11.9868 15.0496 13.3842 12.0787 12.0693 9.0662 8.60263 6.80571 6.69314 6.23995 5.65287 5.57494 5.55902 5.4347 5.2919 5.02265 9.52671 4.96896 4.91401 4.87311 4.80404 4.69178 4.60034 4.94318 4.43884 4.10202 3.9744 3.62705 3.62435 3.57785 7.17753 3.57403 3.16279 3.12794 5.24291 4.60304 7.56893 5.92501 3.71043 3.11592 4.76658 4.50611
threshold=113211.63902950463 131515.98062255932 64.500000000000014 182765.25077140852 157043.78647585158 118516.4277019099 1.0000000180025095e-35 455.50000000000006 139774.07201307474 122739.06651875771 1.0000000180025095e-35 144210.19612846716 89.500000000000014 125537.10183787522 118371.46239321484 116681.63564662887 140378.15553512855 129768.19404313319 123812.38736480458 455.50000000000006 117559.99442526359 206.00000000000003 126.00000000000001 119835.90270449191 103.50000000000001 183476.34426264671 12.500000000000002 219116.42208274468 192506.06189958518 1.0000000180025095e-35 106985.49925002713 115243.92150621163 1.0000000180025095e-35 1.0000000180025095e-35 122797.01640630324 1.0000000180025095e-35 1.0000000180025095e-35 132711.94189219497 1.0000000180025095e-35 116681.63564662887 744.00000000000011 119195.83814572719 126052.0161821167 124999.95656636087 99746.630148921235 1.0000000180025095e-35 27.500000000000004 1.0000000180025095e-35 1.0000000180025095e-35 1.0000000180025095e-35 1.0000000180025095e-35 1.0000000180025095e-35 1.0000000180025095e-35 615.00000000000011 3854.5000000000005 710.00000000000011 1.0000000180025095e-35 114855.75642002861 656.00000000000011 1.0000000180025095e-35 89659.307348389455 109277.2864240021
decision_type=2 2 2 2 2 2 2 2 2 2 2 2 2 2 2 2 2 2 2 2 2 2 2 2 2 2 2 2 2 2 2 2 2 2 2 2 2 2 2 2 2 2 2 2 2 2 2 2 2 2 2 2 2 2 2 2 2 2 2 2 2 2
left_child=30 2 5 4 16 13 17 12 19 25 28 27 -5 14 15 29 33 18 26 20 -4 22 24 51 48 31 -7 38 -6 44 -1 -10 47 -3 -18 36 45 -35 -9 -15 -11 -19 43 46 -2 -36 -20 -28 -22 50 -39 -23 -26 -21 55 58 57 -57 -55 60 -46 -62
right_child=1 3 8 7 10 6 -8 11 9 40 -12 -13 -14 39 -16 -17 34 41 42 53 21 23 -24 -25 52 -27 32 -29 -30 -31 -32 -33 -34 37 35 -37 -38 49 -40 -41 -42 -43 -44 -45 59 -47 -48 -49 -50 -51 -52 -53 -54 54 -56 56 -58 -59 -60 -61 61 -63
leaf_value=-1914.8546657075481 236.93876293146596 49.38228412910663 108.80947294603496 683.49966331274095 971.97093272763595 1990.2925518171569 40.272722213033688 -8.7704159639729919 455.91473253966871 2783.3637239725963 6185.8042504591713 3511.6770655034779 5784.0451681900595 134.22955281573905 396.94064898738065 677.70206611312653 1162.8784539049452 531.26783862962782 2428.483886689452 -668.40630230188594 2344.9093720776818 1654.9862587995156 559.51964079986863 2612.8177951313733 2022.1859291466515 -62.747861848719872 2121.0466033309208 5708.7936469403303 6757.8342716989373 139.77441980214641 -342.21249179576989 964.16831068906652 590.71138753440073 -158.68386345349697 4550.2558474649195 1288.2960626294305 3992.0293383697071 4853.4416907805053 2127.4297419796508 557.18202144070983 1566.1749547107211 2887.35131782915 4568.054018544186 2157.690783701581 120.93966495893892 234.42988402975831 2100.2013927368603 1382.3058606212046 -1142.857847468428 1546.8468499102732 167.8002427242622 2098.9531624303181 2289.9390236879194 1085.4190475609196 -146.96240582791154 116.49175757035319 -180.38399502552505 1809.1368125571016 -258.08299512431762 99.967442835718202 335.22389920433801 149.58823731518621
leaf_weight=45207 179 3166 836 45 162 244 156 188 115 272 192 50 111 326 184 220 1205 49 56 358 142 226 521 197 43 218 80 121 51 420 8232 379 46 328 53 597 66 175 64 109 46 334 134 138 147 92 47 97 72 609 126 172 63 145 525 60 64 134 238 76 69 71
leaf_count=45207 179 3166 836 45 162 244 156 188 115 272 192 50 111 326 184 220 1205 49 56 358 142 226 521 197 43 218 80 121 51 420 8232 379 46 328 53 597 66 175 64 109 46 334 134 138 147 92 47 97 72 609 126 172 63 145 525 60 64 134 238 76 69 71
internal_value=-0.00172177 0.00752839 0.0101723 0.00466761 0.0035752 0.0154117 0.0201267 0.0175389 0.00671778 0.0125243 0.0172222 0.0120213 0.0325 0.0117962 0.0140703 0.016066 0.00271388 0.0226735 0.0194062 0.00514225 0.00723591 0.010007 0.00570154 0.0160924 0.01375 0.00785112 0.0251927 0.00880697 0.00861502 0.0135031 -0.00438902 0.0115992 0.0180942 0.00127838 0.00585444 0.00898515 0.0156161 0.00408724 0.00412698 0.00465517 0.0229874 0.0298564 0.0122 0.00807054 0.017048 0.00844827 0.0163592 0.0221186 0.00691589 0.00598901 0.0104485 0.0110804 0.0275472 0.002021 0.00327616 0.00631045 0.0114729 0.0163918 0.0028329 0.0138705 0.0162544 0.0228571
internal_weight=68848 15409 8008 7401 6822 3182 1381 579 4826 1030 405 423 156 1801 1366 1182 6417 1225 842 3796 2272 1436 841 595 320 712 467 373 213 962 53439 494 223 4404 2013 808 211 1238 252 435 318 383 375 241 542 145 103 177 214 910 301 398 106 1524 1166 641 258 194 383 363 287 140
internal_count=68848 15409 8008 7401 6822 3182 1381 579 4826 1030 405 423 156 1801 1366 1182 6417 1225 842 3796 2272 1436 841 595 320 712 467 373 213 962 53439 494 223 4404 2013 808 211 1238 252 435 318 383 375 241 542 145 103 177 214 910 301 398 106 1524 1166 641 258 194 383 363 287 140
is_linear=0
shrinkage=0.05


Tree=15
num_leaves=63
num_cat=0
split_feature=0 0 1 0 0 2 1 2 0 4 0 0 1 16 1 2 28 18 15 2 0 0 31 1 24 0 50 18 2 1 4 0 48 0 20 2 0 0 0 15 1 0 1 48 1 23 0 2 0 2 2 0 24 48 17 16 0 14 16 19 0 15
split_gain=629.486 50.0208 40.228 29.9811 21.115 20.1394 18.6509 18.279 18.0885 25.6604 14.5999 11.8447 14.4014 8.70753 10.7602 7.55109 7.26709 7.06029 6.69265 6.41701 6.36421 6.09408 6.09182 5.80483 5.49572 5.30912 5.08228 5.06372 4.24909 7.36052 4.13358 4.44442 3.84726 4.51086 3.7213 3.71842 3.46504 3.80092 6.61646 3.46703 3.46186 17.1169 3.45487 3.34862 3.34726 3.31156 3.20179 3.10006 2.9498 2.93088 3.59371 2.8768 2.84726 3.17862 12.0485 2.60357 2.57838 2.98292 3.35675 3.02702 2.60309 2.55902
threshold=113211.63902950463 131515.98062255932 136921.17755745465 117119.28542509791 194177.89813768971 182565.06709951031 108323.28809800489 126456.56946418034 123812.38736480458 1.5000000000000002 182765.25077140852 120732.92079422531 140461.64526732583 1.0000000180025095e-35 109711.63055079339 139774.07201307474 1.0000000180025095e-35 1.0000000180025095e-35 1.0000000180025095e-35 103242.67902690159 147213.06021429782 109118.2576246579 1.0000000180025095e-35 110123.44859725246 1.0000000180025095e-35 123812.38736480458 1.0000000180025095e-35 1.0000000180025095e-35 119648.26290638119 129994.22724503168 3.5000000000000004 116306.75865324336 1.0000000180025095e-35 120302.33751324385 1.0000000180025095e-35 107174.61439301055 147213.06021429782 138856.64791363463 132711.94189219497 1.0000000180025095e-35 183476.34426264671 123812.38736480458 113565.27472380589 1.0000000180025095e-35 101419.33350541764 1.0000000180025095e-35 219116.42208274468 144210.19612846716 118516.4277019099 144210.19612846716 120159.4023052578 122026.3485838585 1.0000000180025095e-35 1.0000000180025095e-35 1.0000000180025095e-35 1.0000000180025095e-35 132054.61749620127 1.0000000180025095e-35 1.0000000180025095e-35 1.0000000180025095e-35 134441.08651329557 1.0000000180025095e-35
decision_type=2 2 2 2 2 2 2 2 2 2 2 2 2 2 2 2 2 2 2 2 2 2 2 2 2 2 2 2 2 2 2 2 2 2 2 2 2 2 2 2 2 2 2 2 2 2 2 2 2 2 2 2 2 2 2 2 2 2 2 2 2 2
left_child=21 3 4 6 20 10 18 8 9 13 36 12 -9 14 24 25 17 22 30 -16 56 -1 28 48 26 -13 34 40 29 42 31 45 33 -21 51 -8 37 38 -4 -40 -17 -42 -10 -25 -11 55 -6 -12 -15 50 -38 -5 53 54 -22 -2 -3 58 -58 60 61 -59
right_child=1 2 5 7 46 -7 35 11 16 44 47 15 -14 23 19 27 -18 -19 -20 32 52 -23 -24 43 -26 -27 -28 -29 -30 -31 -32 -33 -34 -35 -36 -37 49 -39 39 -41 41 -43 -44 -45 -46 -47 -48 -49 -50 -51 -52 -53 -54 -55 -56 -57 57 59 -60 -61 -62 -63
leaf_value=-1437.914723005536 205.24159464898526 -417.44468705524918 964.94186187119874 1228.2767321273448 2057.3972502611 6364.3201407636107 144.9396911868109 1102.7789826067742 3035.327626696223 1866.5422699204146 4781.3659558712925 2000.650676034232 413.63719149583039 -604.76003000413664 1324.9959983212211 2788.0116421624807 -1021.6434793227359 -465.72042827161897 154.58975002454378 595.19719647397164 2795.2964374063654 -237.31275301668018 -2027.2850843422675 1867.2290635294551 530.07861077999166 2402.7169048427268 1096.6547432765196 1581.043806141211 710.62851916450086 3224.5700153482521 86.453429403065869 430.85098354390914 899.48851762114214 1986.2102978270632 791.97453223295497 91.597204787991245 2292.4049411317169 1116.1390356686293 3881.4842655806897 4931.0067474078351 -52.467105112835526 2607.194938907262 2138.0708329545646 615.61864980558153 1958.7693356412128 149.51855973549669 4656.6635732737695 6719.2579187751899 1549.6894601400375 2777.9746648561927 1365.7109810764537 2203.6077652389213 -101.07037126004487 772.19091625672968 3653.7048160184418 197.32369760410117 1031.7731116298528 -328.53558116954792 6307.7627627450111 3036.4013650386851 -154.68505064981292 5436.626202069855
leaf_weight=48642 278 784 205 333 145 137 295 368 449 43 125 116 387 232 98 357 205 222 482 131 198 4741 73 64 47 294 41 107 163 79 84 63 496 76 45 1492 51 588 95 121 66 94 239 43 147 57 113 41 91 121 198 58 193 738 71 144 923 68 124 62 2265 76
leaf_count=48642 278 784 205 333 145 137 295 368 449 43 125 116 387 232 98 357 205 222 482 131 198 4741 73 64 47 294 41 107 163 79 84 63 496 76 45 1492 51 588 95 121 66 94 239 43 147 57 113 41 91 121 198 58 193 738 71 144 923 68 124 62 2265 76
internal_value=-0.00178372 0.00708632 0.00413061 0.00981573 0.0021441 0.0109334 0.00574266 0.0120991 0.00993333 0.013072 0.00930421 0.016185 0.0114238 0.0111823 0.0131887 0.0196615 0.00566433 0.00712245 0.0108393 0.00954432 0.00148855 -0.00435935 0.00890827 0.005 0.0187595 0.0143902 0.0203669 0.023125 0.01 0.011558 0.0142492 0.0158487 0.0078734 0.013599 0.0219495 0.00258254 0.00761784 0.0061001 0.00972684 0.0158333 0.0251741 0.0190625 0.00989825 0.0150935 0.0305263 0.0142067 0.016124 0.0233133 0.00165635 0.0117568 0.00865462 0.0235166 0.00470833 0.00577458 0.0104275 0.0157346 0.000590422 0.00116828 0.00340497 0.000220557 -6.01921e-05 0.00645833
internal_weight=68884 15501 7442 8059 5760 1682 2895 5164 3375 1945 1545 1789 755 1755 1325 1034 1430 1225 1108 801 5502 53383 1003 430 524 410 477 624 930 767 626 542 703 207 436 1787 1379 1009 421 216 517 160 688 107 190 479 258 166 323 370 249 391 1200 1007 269 422 4302 3518 1047 2471 2409 144
internal_count=68884 15501 7442 8059 5760 1682 2895 5164 3375 1945 1545 1789 755 1755 1325 1034 1430 1225 1108 801 5502 53383 1003 430 524 410 477 624 930 767 626 542 703 207 436 1787 1379 1009 421 216 517 160 688 107 190 479 258 166 323 370 249 391 1200 1007 269 422 4302 3518 1047 2471 2409 144
is_linear=0
shrinkage=0.05


Tree=16
num_leaves=63
num_cat=0
split_feature=0 0 10 1 0 0 0 0 1 10 1 1 1 0 0 13 10 0 10 10 10 10 10 15 4 10 0 1 1 0 13 0 48 0 0 1 1 0 1 15 0 10 10 0 50 10 0 13 1 49 10 15 0 0 1 1 1 1 1 1 16 10
split_gain=578.498 46.345 48.7685 34.7348 32.0541 27.152 18.3293 18.0281 19.6035 15.1078 14.4 13.9934 13.5129 15.6102 16.5311 10.9511 10.6245 10.0676 7.97688 7.77725 7.51597 7.68648 11.6875 6.16769 8.0902 6.0645 6.04009 8.02381 5.72124 5.31014 5.30408 5.30316 4.9102 4.87677 4.72462 4.1968 4.08506 8.58 4.90419 3.98858 3.87904 3.87727 3.84045 3.83778 3.70981 3.70479 3.55544 3.51351 3.45638 3.41342 3.39537 3.30185 3.24477 3.23198 3.00941 2.96484 2.813 2.81089 4.647 2.69719 2.6169 3.63016
threshold=112904.75623689238 131515.98062255932 64.500000000000014 188387.99531863999 118516.4277019099 182765.25077140852 117559.99442526359 123812.38736480458 129768.19404313319 455.50000000000006 139440.31641565191 136921.17755745465 121139.96357889367 118371.46239321484 117119.28542509791 1.0000000180025095e-35 455.50000000000006 119792.17456907684 455.50000000000006 89.500000000000014 325.50000000000006 126.00000000000001 103.50000000000001 1.0000000180025095e-35 3.5000000000000004 17.500000000000004 123812.38736480458 192506.06189958518 180708.46330609833 114588.35141086152 1.0000000180025095e-35 107143.7925685846 1.0000000180025095e-35 219116.42208274468 128629.35257333338 140461.64526732583 167668.72985192607 121381.0554502767 176573.81937598836 1.0000000180025095e-35 140353.8008495761 206.00000000000003 283.50000000000006 147213.06021429782 1.0000000180025095e-35 13.500000000000002 113665.38084283075 1.0000000180025095e-35 115628.92909271723 1.0000000180025095e-35 51.500000000000007 1.0000000180025095e-35 126052.0161821167 116681.63564662887 125095.30519109637 125095.30519109637 132067.02537821888 176573.81937598836 180708.46330609833 118992.80440952296 1.0000000180025095e-35 118.50000000000001
decision_type=2 2 2 2 2 2 2 2 2 2 2 2 2 2 2 2 2 2 2 2 2 2 2 2 2 2 2 2 2 2 2 2 2 2 2 2 2 2 2 2 2 2 2 2 2 2 2 2 2 2 2 2 2 2 2 2 2 2 2 2 2 2
left_child=31 2 4 5 12 11 -4 17 34 19 16 43 13 14 23 -13 20 45 26 -7 21 22 44 24 29 -19 27 -12 -28 -2 54 -1 -17 55 47 -20 -37 -38 -39 -34 -5 56 -43 60 -8 -6 -25 -9 -27 -18 -45 -24 -32 -14 -22 -11 -23 -33 -59 -35 -3 -62
right_child=1 3 6 40 7 9 10 8 -10 33 18 15 53 -15 -16 32 49 25 35 -21 30 41 51 46 -26 48 28 -29 -30 -31 52 57 39 59 -36 36 37 38 -40 -41 -42 42 -44 50 -46 -47 -48 -49 -50 -51 -52 -53 -54 -55 -56 -57 -58 58 -60 -61 61 -63
leaf_value=-1730.2837486814381 143.84968166479902 80.231485101752725 145.62612625756668 4350.9473789487993 824.69859214314624 521.1767113580504 2084.507013389471 2052.1408708732124 3175.6958495956892 -85.071043177821622 1159.1604697172131 817.58974842941916 98.454298648509962 -1066.4820342361779 642.58874190064716 4641.3620731341007 226.04197462557875 1869.2007752783222 1544.8350246334062 5096.499122232427 1659.0099007002555 -286.34695525614251 1841.6401909297315 26.874402957143037 66.135005501808479 1549.487797864695 3041.6126339239249 -125.74438922125019 2762.3564854616852 276.23606657239583 1649.9505988045014 -354.53770532839434 1109.4476517155699 4024.0625776709117 4661.5183111777305 397.53964818445922 111.39795451918218 1970.3625246953643 1502.8395165938673 2421.5364460543656 6929.0121041249722 2303.2477011550277 309.96143059501884 4753.4707715677087 -1130.3021012411407 778.61296892176836 176.79704455410976 2557.5491628287805 1983.5731251110712 1279.65887982197 726.61470783969241 1964.2687534572615 3885.360301610343 364.82030104907176 1887.4704326320611 1259.5602888061544 1645.2533354575583 606.34506974891701 -137.704932316721 6413.6388631823538 5927.6178643417425 0.75533197529926488
leaf_weight=45409 255 3977 1792 80 122 43 142 355 171 137 189 737 425 185 166 153 791 262 75 113 169 412 43 150 101 98 117 66 80 251 76 7498 176 48 47 260 120 53 80 299 71 103 75 48 70 135 298 85 90 57 1022 71 49 117 42 135 45 47 198 78 142 183
leaf_count=45409 255 3977 1792 80 122 43 142 355 171 137 189 737 425 185 166 153 791 262 75 113 169 412 43 150 101 98 117 66 80 251 76 7498 176 48 47 260 120 53 80 299 71 103 75 48 70 135 298 85 90 57 1022 71 49 117 42 135 45 47 198 78 142 183
internal_value=-0.00184397 0.00657831 0.00914958 0.00371405 0.01385 0.00322246 0.00602069 0.0197253 0.013769 0.0138628 0.0082967 0.00234748 0.00973306 0.0123186 0.0143694 0.00686813 0.00595571 0.0252687 0.013125 0.0270513 0.00880108 0.00655047 0.0127914 0.0120616 0.015346 0.0297778 0.0181195 0.0130392 0.0246954 0.0179249 0.0152381 -0.00433681 0.0117197 0.00869347 0.00865503 0.00928571 0.00767056 0.0121937 0.0209398 0.00921053 0.0274503 0.00334646 0.00960674 0.00119881 0.00584906 0.0173735 0.00761161 0.00704545 0.0229255 0.00160377 0.0038785 0.0257018 0.0234 0.00302583 0.0104028 0.00492647 0.000908095 -0.00312734 0.00214286 0.0168254 0.000532309 0.00484615
internal_weight=68884 15732 8290 7442 3313 7291 4977 1365 658 554 3185 6737 1948 1406 1221 1365 2145 707 1040 156 1297 961 326 1055 607 450 452 255 197 506 336 53152 628 398 487 588 513 253 133 475 151 635 178 5372 212 257 448 440 188 848 1070 114 125 542 211 272 457 7743 245 126 4302 325
internal_count=68884 15732 8290 7442 3313 7291 4977 1365 658 554 3185 6737 1948 1406 1221 1365 2145 707 1040 156 1297 961 326 1055 607 450 452 255 197 506 336 53152 628 398 487 588 513 253 133 475 151 635 178 5372 212 257 448 440 188 848 1070 114 125 542 211 272 457 7743 245 126 4302 325
is_linear=0
shrinkage=0.05


Tree=17
num_leaves=63
num_cat=0
split_feature=0 0 10 1 0 0 28 0 10 1 1 1 0 0 2 50 10 13 10 0 0 15 4 0 10 10 10 18 0 0 2 2 1 0 48 0 0 10 10 1 0 1 2 10 10 1 2 0 0 48 10 13 24 0 0 50 2 2 2 2 49 10
split_gain=540.288 44.2664 46.5937 33.8137 30.7082 22.8194 22.6454 16.3939 14.7743 14.7717 13.5746 12.2603 14.404 17.2443 9.73377 7.95187 8.45655 7.75167 7.17671 6.59968 15.1739 6.18471 7.28599 6.17119 6.03037 10.0259 14.8671 5.98314 5.54099 5.51558 5.77901 4.65464 4.64944 4.64031 4.59488 4.54995 4.24252 4.80678 14.7405 4.14167 4.05141 3.55692 3.5498 3.54024 5.19511 3.505 3.46812 3.35764 3.28025 4.46566 3.08663 3.0259 3.00565 2.94433 2.89003 2.86993 2.85304 2.82087 3.39945 2.71409 2.63591 2.51606
threshold=112904.75623689238 131515.98062255932 64.500000000000014 192506.06189958518 118516.4277019099 194177.89813768971 1.0000000180025095e-35 117867.33344196768 455.50000000000006 129768.19404313319 139440.31641565191 121139.96357889367 118371.46239321484 117119.28542509791 144210.19612846716 1.0000000180025095e-35 20.500000000000004 1.0000000180025095e-35 209.00000000000003 124999.95656636087 126052.0161821167 1.0000000180025095e-35 3.5000000000000004 119792.17456907684 206.00000000000003 119.50000000000001 103.50000000000001 1.0000000180025095e-35 106985.49925002713 124999.95656636087 133299.54743758906 111522.90296302047 129768.19404313319 114855.75642002861 1.0000000180025095e-35 122739.06651875771 147213.06021429782 266.00000000000006 223.00000000000003 180708.46330609833 176240.27352395342 104039.3712927788 144210.19612846716 615.00000000000011 89.500000000000014 129768.19404313319 134394.41703703886 113945.70358850343 149340.35858948113 1.0000000180025095e-35 710.00000000000011 1.0000000180025095e-35 1.0000000180025095e-35 116681.63564662887 123812.38736480458 1.0000000180025095e-35 139774.07201307474 91546.02560901572 159289.94894018731 131879.08941889499 1.0000000180025095e-35 3.5000000000000004
decision_type=2 2 2 2 2 2 2 2 2 2 2 2 2 2 2 2 2 2 2 2 2 2 2 2 2 2 2 2 2 2 2 2 2 2 2 2 2 2 2 2 2 2 2 2 2 2 2 2 2 2 2 2 2 2 2 2 2 2 2 2 2 2
left_child=28 2 4 5 11 10 15 -4 9 24 36 12 13 21 60 19 -17 40 52 23 32 22 33 59 25 26 55 31 -1 30 -20 -26 -21 41 -19 39 -3 38 48 -16 -12 -2 -36 44 -7 -22 -45 -23 -38 -50 -37 -33 54 -13 -11 -9 -30 -25 -59 -6 -10 -35
right_child=1 3 7 -5 6 43 -8 8 14 18 17 53 -14 -15 35 16 -18 34 29 20 45 47 -24 57 27 -27 -28 -29 56 -31 -32 51 -34 61 42 50 37 -39 -40 -41 -42 -43 -44 46 -46 -47 -48 -49 49 -51 -52 -53 -54 -55 -56 -57 -58 58 -60 -61 -62 -63
leaf_value=-1669.6559413479879 157.17227793586815 189.36833584151077 164.7901859778047 5971.8698878536916 782.25542549544264 495.11787579014828 63.923958423364105 2041.246626105617 241.21363806561089 923.96789631150887 757.13565853902742 93.531583716084086 -1013.1579325243698 610.45930480561412 816.80464364988723 2292.64217081077 487.08018058418975 4372.7559440231562 1840.3650760778562 1616.0848819623004 3894.0062482698218 26.286491211440911 62.828255226718603 1822.3866639561697 1567.4530688642758 -148.14644862596001 1994.040958110209 -646.3064193373616 -350.99373370844933 2896.443711006852 748.38450106666482 1910.2761871491903 1830.4543404461085 259.88097208195757 1709.0055301065731 882.67755210379551 3807.1812105442204 355.10623750209658 4113.1694890292183 -176.85282804950214 4335.9975383313049 56.242842372269962 2868.0405092084475 3795.5423411888078 4037.8529007166067 3294.3206350921096 5781.0030028783194 172.00626979914591 3574.3011240281699 -366.61446962213495 1915.4099828316889 2822.1515022021299 74.891263983809424 346.57928599661835 2510.0194898888249 -1066.9776848019346 -78.965973683519849 1848.5422204021474 964.50734918414605 573.83429186894489 1204.109696182494 311.88759252478735
leaf_weight=45170 156 4384 1906 126 165 43 149 115 960 163 667 425 185 166 128 40 106 142 80 122 113 171 101 56 203 401 79 77 6968 92 89 83 41 77 305 41 41 911 42 75 43 144 163 185 85 90 47 277 120 138 113 84 45 117 106 69 1014 394 40 49 68 129
leaf_count=45170 156 4384 1906 126 165 43 149 115 960 163 667 425 185 166 128 40 106 142 80 122 113 171 101 56 203 401 79 77 6968 92 89 83 41 77 305 41 41 911 42 75 43 144 163 185 85 90 47 277 120 138 113 84 45 117 106 69 1014 394 40 49 68 129
internal_value=-0.00189478 0.0062446 0.00875754 0.00344531 0.0133519 0.00300301 0.0191026 0.00569922 0.00795995 0.0111032 0.00236774 0.00932238 0.0117852 0.0137551 0.00413357 0.0213569 0.010411 0.00693182 0.0176087 0.0228505 0.0174044 0.0113981 0.014687 0.0256818 0.00773627 0.00471385 0.0123004 0.0122259 -0.00430388 0.0237356 0.0183728 0.0148649 0.00604294 0.0171344 0.0110656 0.0112465 0.00129879 0.00386581 0.00892962 0.00633005 0.00338028 0.0131667 0.00867521 0.0152778 0.0219531 0.0265271 0.0115948 0.00694196 0.00503344 0.00294574 0.0177273 0.0210479 0.0125159 0.00293358 0.0145167 0.00451087 -0.00308945 0.0287755 0.0301382 0.0185981 0.00166342 0.0229126
