tree
version=v4
num_class=1
num_tree_per_iteration=1
label_index=0
max_feature_idx=67
objective=quantile
feature_names=title city state country experience_ordinal work_type remote_allowed has_employee_count log_employee_count has_company_posting_count company_posting_count log_company_posting_count company_scale_tier_proxy skill_IT skill_MGMT skill_ENG skill_HCPR skill_FIN skill_ANLS skill_SALE skill_GENB skill_LGL skill_MNFC skill_PRJM skill_CNSL skill_HR skill_CUST skill_ACCT skill_PROD skill_BD skill_MRKT skill_SCI skill_RSCH skill_PRDM skill_ADM skill_TRNG skill_STRA skill_QA skill_DSGN skill_OTHR skill_SUPL skill_EDU skill_DIST skill_WRT skill_PRCH skill_PR skill_ART skill_ADVR ind_it-jobs ind_engineering-jobs ind_healthcare-nursing-jobs ind_accounting-finance-jobs ind_14 ind_sales-jobs ind_trade-construction-jobs ind_43 ind_96 ind_104 ind_4 ind_27 ind_legal-jobs ind_logistics-warehouse-jobs ind_pr-advertising-marketing-jobs ind_25 ind_41 ind_admin-jobs ind_48 ind_retail-jobs
feature_infos=[27049.425488318218:332299.56279286754] [64050.145517207267:195165.32585476551] [55727.349885569325:185645.03310167309] none [-1:5] [53096.004394796262:113121.81484822542] [-1:1] none none none [1:3329] [0.69314718055994529:8.1107275829744889] [88470.583200354609:128144.99159890191] [0:1] [0:1] [0:1] [0:1] [0:1] [0:1] [0:1] [0:1] [0:1] [0:1] [0:1] [0:1] [0:1] [0:1] [0:1] [0:1] [0:1] [0:1] [0:1] [0:1] [0:1] [0:1] [0:1] [0:1] [0:1] [0:1] [0:1] [0:1] [0:1] [0:1] [0:1] [0:1] [0:1] [0:1] [0:1] [0:1] [0:1] [0:1] [0:1] [0:1] [0:1] [0:1] [0:1] [0:1] [0:1] [0:1] [0:1] [0:1] [0:1] [0:1] [0:1] [0:1] [0:1] [0:1] [0:1]
tree_sizes=5242 5410 5414 5429 5444 5453 5474 5447 5451 5462 5609 5478 5664 5442 5427 5455 5483 5489 5473 5660 5640 5525

Tree=0
num_leaves=63
num_cat=0
split_feature=0 1 0 0 10 1 0 14 50 50 0 10 14 0 10 10 0 10 10 0 0 10 0 5 10 10 10 48 1 1 32 0 0 0 49 1 49 10 0 0 10 0 10 0 0 17 23 10 10 10 4 1 0 1 10 10 15 10 0 0 0 0
split_gain=1748.55 209.789 111.529 137.195 61.5919 52.5922 47.0776 29.9685 27.9589 23.3392 20.9609 18.4978 17.6631 19.4943 14.954 14.9149 13.2845 15.1562 12.9998 19.791 12.9671 12.7528 11.4181 11.1284 10.9865 10.9834 10.0501 8.67746 8.55669 7.20004 7.14881 8.47315 6.57267 6.13253 6.03448 5.99082 5.73731 5.71038 5.56333 5.00329 4.81754 4.74594 6.65936 4.41215 4.38589 4.3577 4.33536 4.24617 5.55416 13.5684 4.2106 3.69981 3.46435 3.58878 3.125 3.05986 4.83128 4.28955 6.3327 2.95226 3.81655 11.5079
threshold=112560.72946237196 128374.84976520164 177228.95203707725 120077.40369627949 272.50000000000006 156673.23941787539 165272.59380715649 1.0000000180025095e-35 1.0000000180025095e-35 1.0000000180025095e-35 126836.83478740197 130.00000000000003 1.0000000180025095e-35 119074.91248039306 76.500000000000014 39.500000000000007 113964.26528243057 60.500000000000007 270.00000000000006 122204.65634507303 139288.69559318651 3308.0000000000005 143211.70113388859 108013.86558363776 106.00000000000001 108.00000000000001 161.50000000000003 1.0000000180025095e-35 101782.97207535595 102202.5862070124 1.0000000180025095e-35 165272.59380715649 136439.21374114897 120477.2490879165 1.0000000180025095e-35 150598.31861218257 1.0000000180025095e-35 7.5000000000000009 121663.86626836529 147195.5183203276 46.500000000000007 126836.83478740197 264.50000000000006 113742.60293032449 138005.69238955839 1.0000000180025095e-35 1.0000000180025095e-35 219.50000000000003 130.00000000000003 111.50000000000001 3.5000000000000004 151848.85791525716 110269.56044977214 173160.14438661363 62.000000000000007 62.000000000000007 1.0000000180025095e-35 36.500000000000007 127869.48191083047 137957.32929278084 130084.54841921716 135223.10468763192
decision_type=2 2 2 2 2 2 2 2 2 2 2 2 2 2 2 2 2 2 2 2 2 2 2 2 2 2 2 2 2 2 2 2 2 2 2 2 2 2 2 2 2 2 2 2 2 2 2 2 2 2 2 2 2 2 2 2 2 2 2 2 2 2
left_child=52 2 3 4 9 6 12 8 10 16 18 29 13 24 -14 -11 28 -18 19 33 26 -6 34 -7 -3 -17 -10 -24 43 37 31 50 45 -5 -13 41 47 -9 -35 -29 -21 42 -15 -2 -43 -16 55 48 49 -19 59 -34 -1 -54 -39 57 -57 58 -31 60 -12 -62
right_child=1 5 -4 7 21 23 -8 11 20 15 30 22 14 35 32 25 17 36 -20 40 -22 -23 27 -25 -26 -27 -28 39 -30 46 -32 -33 51 38 -36 -37 -38 54 -40 -41 -42 44 -44 -45 -46 -47 -48 -49 -50 -51 -52 -53 53 -55 -56 56 -58 -59 -60 -61 61 -63
leaf_value=173846.92343749999 176571.02798344259 178302.61946274285 183093.00642886088 174846.92343749999 176347.59724436523 179196.92343749999 183968.02522029279 179707.55189631172 179369.19059657009 177906.91681898927 176310.92281856536 177035.30459304963 182106.6271209335 180705.64982397406 179817.51441019541 175119.9578048382 178589.74553650868 177741.92318835258 175668.988268652 181196.37833138107 183606.76083556414 177826.09504732984 181021.17165845036 183222.48898195213 177709.35124882311 177797.71232360826 179813.90464563278 178460.49425644148 176627.42778680436 180929.48549942113 179299.06447922662 178233.83079649732 179821.46663242663 179442.70780270043 180457.94197022635 180540.8216037169 178234.78338148241 181538.18952280638 179826.92343749999 177508.11323081105 180550.76465180516 177993.12377084728 178973.97948768092 176607.5504485961 179131.82847203239 177280.54449324234 179881.62305054255 178739.23422711491 177637.46039988863 178711.73620540247 180596.92033805847 180773.43736556795 176051.96264817117 176888.32784681051 178915.45893724076 178941.6956100745 179629.93174768734 182191.07405972536 181728.05291833766 175892.09900852822 183703.71871629654 177346.92343749999
leaf_weight=40856 124 171 300 109 398 75 277 116 189 94 650 720 246 124 470 132 766 111 151 64 69 114 49 750 145 43 96 47 354 62 79 45 186 79 58 151 55 96 156 241 73 396 90 67 119 63 55 44 123 56 105 46 1729 52 48 68 74 86 115 1560 73 290
leaf_count=40856 124 171 300 109 398 75 277 116 189 94 650 720 246 124 470 132 766 111 151 64 69 114 49 750 145 43 96 47 354 62 79 45 186 79 58 151 55 96 156 241 73 396 90 67 119 63 55 44 123 56 105 46 1729 52 48 68 74 86 115 1560 73 290
internal_value=176155 176155 176155 176155 176155 176155 176155 176155 176155 176155 176155 176155 176155 176155 176155 176155 176155 176155 176155 176155 176155 176155 176155 176155 176155 176155 176155 176155 176155 176155 176155 176155 176155 176155 176155 176155 176155 176155 176155 176155 176155 176155 176155 176155 176155 176155 176155 176155 176155 176155 176155 176155 176155 176155 176155 176155 176155 176155 176155 176155 176155 176155
internal_weight=54350 11713 8404 8104 2481 3309 2484 5623 3788 1969 3434 1835 2207 1196 1011 269 1700 1155 632 481 354 512 1115 825 316 175 285 337 545 720 2802 2723 765 344 778 880 389 260 235 288 137 729 214 191 515 533 460 334 290 167 2678 232 42637 1781 144 405 142 263 177 2573 1013 363
internal_count=54350 11713 8404 8104 2481 3309 2484 5623 3788 1969 3434 1835 2207 1196 1011 269 1700 1155 632 481 354 512 1115 825 316 175 285 337 545 720 2802 2723 765 344 778 880 389 260 235 288 137 729 214 191 515 533 460 334 290 167 2678 232 42637 1781 144 405 142 263 177 2573 1013 363
is_linear=0
shrinkage=1


Tree=1
num_leaves=63
num_cat=0
split_feature=0 2 0 0 11 14 1 0 1 11 50 0 0 11 11 0 11 11 0 0 1 1 24 0 11 13 0 11 11 1 11 50 0 11 1 11 18 0 16 11 32 1 2 11 0 11 11 11 11 0 15 11 11 1 0 11 1 1 1 0 1 2
split_gain=1589.31 203.349 130.448 116.936 63.3862 56.1424 34.0901 25.5793 21.8333 20.8325 22.0242 19.6477 19.1808 15.3926 15.3168 13.4935 14.5791 10.8311 9.81339 8.42383 8.39654 7.44158 7.12541 6.68941 7.40554 6.56416 6.55503 9.0438 6.47521 8.38738 6.41039 6.38344 6.22632 6.94645 6.06342 5.99311 9.96244 5.53847 8.93984 5.49563 5.21301 4.77552 5.15012 4.67388 11.9015 4.62462 4.35569 5.61032 8.28327 4.33483 4.32567 4.28964 4.28516 4.27097 4.26243 4.23084 4.18045 4.03061 3.72812 3.68805 3.61735 3.52083
threshold=112560.72946237196 139075.57888348558 177228.95203707725 120077.40369627949 3.6505739029280164 1.0000000180025095e-35 130015.62871228367 126836.83478740197 150598.31861218257 5.6112865819812852 1.0000000180025095e-35 147195.5183203276 113964.26528243057 4.8750807662917142 8.1043811695752819 122926.82059966512 3.795426061844291 4.6913057964583187 136439.21374114897 165272.59380715649 101782.97207535595 148477.10256364945 1.0000000180025095e-35 126836.83478740197 4.9051650270249398 1.0000000180025095e-35 128937.37535217426 2.1383330595080281 4.9732735209982879 134404.62073305104 5.395874555844391 1.0000000180025095e-35 136439.21374114897 4.8402344967050359 115945.38969486838 3.9607678160667752 1.0000000180025095e-35 120477.2490879165 1.0000000180025095e-35 7.3386429840930871 1.0000000180025095e-35 155446.00571086493 119419.54344463063 4.1430087342023825 136439.21374114897 4.4127799275304271 4.945201156493737 4.7229433450037179 4.3757372435704527 114253.13362125035 1.0000000180025095e-35 5.520812497595097 3.6242520361853052 118689.8391834334 139288.69559318651 3.3140206880897671 141996.41363463373 141141.25517640743 131224.63958613659 113742.60293032449 101782.97207535595 110075.02970359281
decision_type=2 2 2 2 2 2 2 2 2 2 2 2 2 2 2 2 2 2 2 2 2 2 2 2 2 2 2 2 2 2 2 2 2 2 2 2 2 2 2 2 2 2 2 2 2 2 2 2 2 2 2 2 2 2 2 2 2 2 2 2 2 2
left_child=-1 2 3 4 12 7 13 15 19 10 22 21 20 26 58 37 -17 -12 -15 23 59 31 30 24 -3 -20 45 -28 -13 -30 34 40 33 -8 46 -18 -37 61 39 -39 60 42 -35 44 -29 -7 47 48 -6 -10 -45 -27 -46 -36 -25 -33 -26 -34 -11 -2 -9 -5
right_child=1 8 -4 5 9 6 32 11 49 14 17 28 -14 18 -16 16 35 -19 25 -21 -22 -23 -24 54 56 51 27 43 29 -31 -32 55 57 41 53 36 -38 38 -40 -41 -42 -43 -44 50 52 -47 -48 -49 -50 -51 -52 -53 -54 -55 -56 -57 -58 -59 -60 -61 -62 -63
leaf_value=-1824.3992968749999 386.74540653374572 3750.8216967282187 7503.9319844836755 -921.94379901102809 1964.1690828457649 4724.6462945920421 5986.4261091966655 -674.23227683200867 989.9006663325622 148.6692300270268 -983.45414802068854 7719.2424148388955 2318.163534693947 1407.2880514198596 1584.4377132955328 4854.3109901329881 -817.03080190695766 1627.34141076792 1984.0272808553186 6385.5016076768197 437.24416308591174 3640.1635994530475 1032.9687642535055 4696.4252171789767 3062.7639232905049 5018.8400962907081 1742.5952568783441 2455.0222104732065 1080.8262921371527 6204.6720546120232 2101.3240653074536 5748.8246329125577 4032.7390701585446 3565.5895820395326 863.38869312590987 4333.4922789418497 -186.66801208369611 3459.8888297936401 3532.4045214030357 -490.08931199998824 3334.4702910474316 5882.8071674113398 1729.4981355530444 1229.116781996275 5170.9122943410803 3481.1091986347383 1396.0048290210027 2224.7106454480586 1112.903840582371 6783.6361468243795 1567.9017372944713 532.89752198192832 6742.7274847978688 2037.3595408328156 5951.710167559283 5334.9719425506046 1566.6429443293157 4039.4232856665922 1234.5702530824813 372.17209127052632 706.8457619908412 3169.0328927183614
leaf_weight=42637 96 306 430 192 147 166 75 891 67 392 134 40 770 595 127 73 40 41 215 64 275 119 59 299 190 47 140 75 171 42 66 52 104 52 57 118 46 285 50 72 68 43 128 65 53 52 65 88 64 728 73 234 68 205 100 44 42 161 141 56 1991 64
leaf_count=42637 96 306 430 192 147 166 75 891 67 392 134 40 770 595 127 73 40 41 215 64 275 119 59 299 190 47 140 75 171 42 66 52 104 52 57 118 46 285 50 72 68 43 128 65 53 52 65 88 64 728 73 234 68 205 100 44 42 161 141 56 1991 64
internal_value=-0.000212513 0.0161005 0.0132969 0.012076 0.0206917 0.0084994 0.0147357 0.00514227 0.0315813 0.0141362 0.0189741 0.00313341 0.0293776 0.0113488 0.00734848 0.0124468 0.0217148 0.003 0.00764894 0.0266683 0.0208782 0.00206161 0.0226964 0.0254696 0.0291078 0.0128427 0.0171821 0.0138819 0.0165415 0.0130751 0.0241185 0.0015824 0.0254618 0.0205034 0.0225559 0.0148529 0.0190854 0.00857466 0.012199 0.00942577 0.00116949 0.0160762 0.0125 0.0183533 0.0233163 0.0243578 0.0267308 0.0292809 0.0248578 0.0377673 0.0113043 0.00781139 0.0330165 0.0167557 0.0205639 0.0142708 0.0223707 0.0310377 0.00363039 0.0114474 0.000846633 0.0028125
internal_weight=54350 11713 9917 9487 2783 6704 2346 4358 1796 1586 926 3418 1197 1783 660 940 277 175 1091 1001 427 3165 751 937 538 496 692 474 253 213 692 3046 563 298 626 204 164 663 407 357 2950 223 180 334 196 218 364 299 211 795 138 281 121 262 399 96 232 265 533 152 2882 256
internal_count=54350 11713 9917 9487 2783 6704 2346 4358 1796 1586 926 3418 1197 1783 660 940 277 175 1091 1001 427 3165 751 937 538 496 692 474 253 213 692 3046 563 298 626 204 164 663 407 357 2950 223 180 334 196 218 364 299 211 795 138 281 121 262 399 96 232 265 533 152 2882 256
is_linear=0
shrinkage=0.05


Tree=2
num_leaves=63
num_cat=0
split_feature=0 2 0 0 10 14 50 1 1 4 0 2 10 0 10 0 0 0 0 10 10 10 0 0 0 16 5 50 0 10 10 1 0 0 10 1 2 1 0 17 10 0 13 0 33 10 10 1 1 15 14 13 10 2 10 2 1 24 0 10 1 10
split_gain=1471.94 181.384 101.9 114.032 75.4488 49.2269 33.9817 26.0797 23.9351 16.26 14.349 14.2254 13.7078 13.6901 12.8921 11.6028 10.9732 10.5461 25.9386 10.4593 9.82903 10.9605 8.6438 8.14357 7.43734 6.69113 9.81491 6.67909 8.73636 6.47987 15.723 6.29347 6.24112 8.54084 10.4222 6.05651 5.93725 5.92178 5.87441 5.6872 5.36394 6.93148 5.25328 5.38579 6.4106 5.12838 12.9449 5.10578 4.97473 6.57539 4.79441 5.73826 4.87594 4.72426 4.55914 4.50536 4.2861 5.60425 4.20013 4.18595 5.23657 4.06448
threshold=112308.19082867577 139075.57888348558 177228.95203707725 125901.14032656376 264.50000000000006 1.0000000180025095e-35 1.0000000180025095e-35 130015.62871228367 159885.96068291421 3.5000000000000004 147195.5183203276 83474.610537191838 3308.0000000000005 113056.78815110969 39.500000000000007 136439.21374114897 165272.59380715649 120077.40369627949 122204.65634507303 108.00000000000001 79.500000000000014 219.50000000000003 113964.26528243057 200922.06529910667 112560.72946237196 1.0000000180025095e-35 93465.704071680564 1.0000000180025095e-35 120077.40369627949 62.000000000000007 32.500000000000007 148477.10256364945 113321.51793950646 128937.37535217426 134.00000000000003 134404.62073305104 103956.33749472238 96800.816416476882 113742.60293032449 1.0000000180025095e-35 130.00000000000003 128937.37535217426 1.0000000180025095e-35 143211.70113388859 1.0000000180025095e-35 111.50000000000001 130.00000000000003 128809.85222331977 133399.38835664964 1.0000000180025095e-35 1.0000000180025095e-35 1.0000000180025095e-35 74.500000000000014 151918.27360836061 46.500000000000007 128032.87433236645 141996.41363463373 1.0000000180025095e-35 120077.40369627949 26.500000000000004 138665.018467357 395.50000000000006
decision_type=2 2 2 2 2 2 2 2 2 2 2 2 2 2 2 2 2 2 2 2 2 2 2 2 2 2 2 2 2 2 2 2 2 2 2 2 2 2 2 2 2 2 2 2 2 2 2 2 2 2 2 2 2 2 2 2 2 2 2 2 2 2
left_child=-1 2 3 4 6 10 9 15 16 11 25 58 27 24 -8 40 32 20 50 -16 22 36 37 48 -13 31 -27 -6 -29 30 -17 -5 -3 34 -34 -12 -22 -15 -10 -14 41 -7 43 -31 61 -38 -47 -35 49 -4 52 -52 -19 59 -20 -48 57 -36 -2 -49 -61 -45
right_child=1 8 23 5 12 7 14 -9 38 -11 35 13 39 17 19 29 -18 18 54 -21 21 -23 -24 -25 -26 26 -28 28 -30 42 -32 -33 33 47 56 -37 45 -39 -40 -41 -42 -43 -44 44 -46 46 55 53 -50 -51 51 -53 -54 -55 -56 -57 -58 -59 -60 60 -62 -63
leaf_value=-1778.1706166748293 1154.4105868591348 149.42017143597943 3216.6377371558915 294.63725888098332 570.70265408697321 5516.6086738351123 2778.6484810290785 4523.6579614894817 1207.662690554376 3335.6593866353187 1834.1918623551319 75.373701964490465 1796.6434995767822 202.1112828174679 -923.80436898106279 4877.8678479263972 6049.1624200406941 2854.144992268315 4491.4218236738325 1757.8549776756627 1932.5371641305928 2111.8582984997934 2170.9408062394591 8210.6460399337757 77.68728749358975 7698.5253399308203 1082.3026350013808 542.21565825166181 3984.9725558753244 780.39225130470197 5438.921600569116 3626.1695220380689 3838.9465775211934 5076.9388446527655 3122.3037255004956 5894.4384518814222 628.22098295313845 442.91411831999142 6541.7748410068125 221.30888513730648 486.42604335352519 2190.9600988516672 957.14782593357529 1521.4842954426958 103.64785266016803 2546.0992087674649 1229.3556318273145 1230.6991002151881 4986.2967519632257 1556.6035989592667 3156.4228351458428 3377.8703677765257 3180.9045725483602 4237.2419716158647 4347.7708932697824 1670.3338201595559 1500.2768391705049 1457.6348432329996 866.91492816707819 5602.1287118847004 3392.1637279857587 2306.8826293629104
leaf_weight=42454 120 85 95 2793 874 58 178 446 42 246 211 75 113 41 219 122 75 223 93 54 85 54 713 188 170 51 245 72 60 92 83 114 313 122 148 42 73 194 659 44 424 172 316 67 43 44 120 40 57 90 78 51 51 68 110 48 54 43 75 96 89 75
leaf_count=42454 120 85 95 2793 874 58 178 446 42 246 211 75 113 41 219 122 75 223 93 54 85 54 713 188 170 51 245 72 60 92 83 114 313 122 148 42 73 194 659 44 424 172 316 67 43 44 120 40 57 90 78 51 51 68 110 48 54 43 75 96 89 75
internal_value=-0.000327508 0.0152169 0.012581 0.0115179 0.017604 0.00665484 0.0216613 0.0131243 0.0296783 0.0238101 0.00310185 0.0225641 0.00673689 0.0237 0.00896896 0.00987603 0.0251853 0.0250809 0.0195875 0.00214286 0.0275073 0.0211792 0.0303376 0.0363953 0.012551 0.00219638 0.00935811 0.00459244 0.0150758 0.0139223 0.0215854 0.00146715 0.0238752 0.0250103 0.0290502 0.0145652 0.0181081 0.0220213 0.0369401 0.0204777 0.00493884 0.011087 0.0112732 0.0162996 0.0212162 0.0146491 0.0185849 0.0195783 0.0303306 0.0263514 0.0122457 0.0201938 0.00850365 0.023157 0.0341626 0.0122619 0.0213265 0.0248429 0.00961538 0.0196667 0.0228378 0.026338
internal_weight=54350 11896 10062 9632 4278 5354 3115 1898 1834 2664 3456 2418 1163 2223 451 1452 1133 1978 606 273 1372 424 948 430 245 3203 296 1006 132 798 205 2907 1058 973 558 253 370 235 701 157 654 230 593 277 185 285 212 415 242 185 403 129 274 293 203 168 245 191 195 225 185 142
internal_count=54350 11896 10062 9632 4278 5354 3115 1898 1834 2664 3456 2418 1163 2223 451 1452 1133 1978 606 273 1372 424 948 430 245 3203 296 1006 132 798 205 2907 1058 973 558 253 370 235 701 157 654 230 593 277 185 285 212 415 242 185 403 129 274 293 203 168 245 191 195 225 185 142
is_linear=0
shrinkage=0.05


Tree=3
num_leaves=63
num_cat=0
split_feature=0 2 0 0 10 1 0 50 1 0 0 0 0 10 10 0 0 0 10 10 10 10 10 10 10 50 2 48 0 48 10 48 16 2 0 33 0 2 1 0 0 15 5 10 0 17 1 16 0 10 0 2 1 2 1 0 0 1 1 10 1 10
split_gain=1324.07 144.612 85.8183 104.483 69.6508 33.7792 33.5743 32.9657 23.6705 22.8018 24.0131 30.372 15.4549 13.8756 13.1655 13.0352 10.5531 9.79041 9.93559 9.71183 9.43401 9.20571 8.87616 9.36222 10.2437 8.48136 7.52774 9.38411 7.7938 6.49813 6.32736 5.8428 5.73203 5.4836 4.66751 4.5289 4.52828 4.42821 4.3528 4.29487 5.74835 5.42735 7.52006 4.32128 4.25359 3.85096 3.67204 3.49855 7.07979 3.25857 3.20732 4.17922 3.13933 3.6711 2.9801 3.92187 3.33139 2.96417 2.90072 2.73179 3.12692 2.726
threshold=112026.42531442578 139075.57888348558 177228.95203707725 125901.14032656376 264.50000000000006 134404.62073305104 115163.97100687596 1.0000000180025095e-35 159885.96068291421 114253.13362125035 120077.40369627949 122204.65634507303 138005.69238955839 76.500000000000014 3308.0000000000005 139288.69559318651 165272.59380715649 126836.83478740197 63.500000000000007 39.500000000000007 149.50000000000003 108.00000000000001 111.50000000000001 139.50000000000003 219.50000000000003 1.0000000180025095e-35 102856.5866520735 1.0000000180025095e-35 133498.3326656766 1.0000000180025095e-35 46.500000000000007 1.0000000180025095e-35 1.0000000180025095e-35 91368.787852251146 133498.3326656766 1.0000000180025095e-35 165272.59380715649 163148.35712307773 141996.41363463373 113056.78815110969 112560.72946237196 1.0000000180025095e-35 90066.572566288931 34.500000000000007 116342.94894731625 1.0000000180025095e-35 142256.13842423944 1.0000000180025095e-35 120077.40369627949 161.50000000000003 109370.29463850852 177667.13963985795 148477.10256364945 128032.87433236645 151848.85791525716 113964.26528243057 112560.72946237196 107291.05556873849 110475.7020939221 74.500000000000014 103263.18432905359 38.500000000000007
decision_type=2 2 2 2 2 2 2 2 2 2 2 2 2 2 2 2 2 2 2 2 2 2 2 2 2 2 2 2 2 2 2 2 2 2 2 2 2 2 2 2 2 2 2 2 2 2 2 2 2 2 2 2 2 2 2 2 2 2 2 2 2 2
left_child=50 2 3 4 7 12 54 9 16 39 13 33 26 -11 29 52 17 18 -8 -9 -4 -21 44 -24 49 61 32 28 -28 47 -13 -32 57 -12 -34 -22 -17 -19 -20 40 -2 43 -43 -41 -15 -16 -31 -6 -49 -25 -1 -52 -7 -54 55 56 -3 -5 -30 60 -35 -14
right_child=1 6 20 5 14 15 8 19 -10 10 11 30 25 22 45 36 -18 37 38 21 35 -23 23 24 -26 -27 27 -29 58 46 31 -33 34 59 -36 -37 -38 -39 -40 41 -42 42 -44 -45 -46 -47 -48 48 -50 -51 51 -53 53 -55 -56 -57 -58 -59 -60 -61 -62 -63
leaf_value=-2205.1208975818986 73.13017186367361 225.95671402095172 1528.0812091508299 -508.0567606353174 1066.9221927333735 2559.5259585072522 3776.7290988076784 2629.0405498520922 6654.238013166344 2069.2380400177408 2534.7085128471463 4252.7212090098428 6174.302439315059 148.86830894656887 1702.6225735992675 3430.3651552526626 5746.704299038659 4878.2503326249389 2962.5060097907203 -877.61415053200915 7276.3693346496939 1609.4248706086526 2248.3953265935997 687.35197943788216 2132.7003909093037 5847.1995489406108 4921.4851465553147 937.3936343938426 106.6940398145108 -47.012645554549955 4136.820715918926 4024.5569534443184 6293.9423561997764 2538.4146317820223 71.933657541461329 1992.296627950074 3360.1609227249664 3144.4034207678942 1432.5771601437323 386.13096502038115 85.925121131549531 89.045873162530199 418.50995718251392 268.89454747415067 1750.0467929784945 219.49133323957005 1112.6095391767183 540.32805194088724 4496.0373796707081 2117.9123044401799 -143.30586273757217 830.50783050051837 3141.3605987374026 5520.1137492746902 1032.1085627047244 827.26855637210156 65.621231082342476 1202.9922175422259 4291.7748656530648 3208.9768493877 3126.6783282530428 1308.4196893225148
leaf_weight=39900 199 63 66 1236 247 289 197 181 601 808 123 109 154 59 119 208 75 406 180 219 284 56 83 56 42 75 170 1216 119 553 48 67 44 85 41 80 58 46 46 133 202 79 195 62 58 46 131 50 44 65 2302 65 72 107 115 62 91 477 118 109 189 970
leaf_count=39900 199 63 66 1236 247 289 197 181 601 808 123 109 154 59 119 208 75 406 180 219 284 56 83 56 42 75 170 1216 119 553 48 67 44 85 41 80 58 46 46 133 202 79 195 62 58 46 131 50 44 65 2302 65 72 107 115 62 91 477 118 109 189 970
internal_value=-0.000503221 0.0140929 0.0117435 0.0107814 0.0164738 0.00608517 0.0268278 0.0202866 0.029913 0.0223367 0.025405 0.0182877 0.00450216 0.029842 0.00613445 0.016049 0.025 0.0234571 0.0289243 0.00782895 0.0336046 0.00190909 0.0217218 0.0271138 0.0201534 0.00938699 0.00279012 0.00525878 0.0118305 0.00402439 0.0336161 0.0254348 0.000561734 0.011502 0.0132353 0.0367582 0.0248872 0.0183407 0.0217699 0.0156322 0.0118329 0.0188806 0.0143431 0.0252564 0.0103846 0.0192424 0.00121345 0.00966276 0.0178723 0.0127686 -0.00467587 -0.00288762 0.0110256 0.016229 0.0123716 0.0158333 0.0115584 -6.71349e-05 0.00597046 0.0144517 0.0117883 0.00830071
internal_weight=54350 12083 10201 9771 4417 5354 1882 3227 1551 2771 1901 730 4620 1171 1190 734 950 875 423 456 430 275 363 246 163 1199 3421 1623 407 1025 224 115 1798 506 85 364 266 452 226 870 401 469 274 195 117 165 684 341 94 121 42267 2367 468 179 331 216 154 1713 237 383 274 1124
internal_count=54350 12083 10201 9771 4417 5354 1882 3227 1551 2771 1901 730 4620 1171 1190 734 950 875 423 456 430 275 363 246 163 1199 3421 1623 407 1025 224 115 1798 506 85 364 266 452 226 870 401 469 274 195 117 165 684 341 94 121 42267 2367 468 179 331 216 154 1713 237 383 274 1124
is_linear=0
shrinkage=0.05


Tree=4
num_leaves=63
num_cat=0
split_feature=0 2 0 0 10 0 0 1 1 0 10 50 13 0 4 0 0 10 0 10 13 1 0 0 10 1 10 1 15 18 10 10 10 10 1 20 5 48 2 0 10 15 2 50 1 48 10 0 2 1 1 0 0 4 16 48 0 17 0 0 0 10
split_gain=1191.76 129.857 73.5791 88.2735 56.862 34.4732 33.1901 31.0951 18.8141 18.1202 17.8047 18.6732 14.233 14.3271 13.1592 13.0512 10.919 16.3641 10.9019 8.85611 8.45428 8.44331 7.88197 10.0577 11.5921 6.83695 6.12258 5.66692 5.6134 5.46737 5.38986 5.40695 12.7127 10.9202 5.34246 5.30999 5.27288 8.52133 5.23996 6.64504 5.22117 5.06491 5.03787 4.70045 4.33331 4.01037 3.92144 5.72711 3.98746 3.89735 3.77566 5.6542 3.74641 3.58444 3.39222 3.38716 3.34476 3.23622 3.38625 3.95228 3.16843 4.00141
threshold=112026.42531442578 139075.57888348558 120077.40369627949 177228.95203707725 36.500000000000007 115608.05425961268 113964.26528243057 130015.62871228367 159885.96068291421 125901.14032656376 272.50000000000006 1.0000000180025095e-35 1.0000000180025095e-35 139288.69559318651 3.5000000000000004 113321.51793950646 122926.82059966512 43.500000000000007 200922.06529910667 3308.0000000000005 1.0000000180025095e-35 135071.68399788628 165272.59380715649 128937.37535217426 63.500000000000007 101782.97207535595 108.00000000000001 106546.2161226693 1.0000000180025095e-35 1.0000000180025095e-35 219.50000000000003 130.00000000000003 111.50000000000001 79.500000000000014 155446.00571086493 1.0000000180025095e-35 108013.86558363776 1.0000000180025095e-35 121280.5689697554 138005.69238955839 74.500000000000014 1.0000000180025095e-35 163148.35712307773 1.0000000180025095e-35 141996.41363463373 1.0000000180025095e-35 485.50000000000006 120477.2490879165 108929.1009503009 134404.62073305104 159885.96068291421 114253.13362125035 130084.54841921716 1.0000000180025095e-35 1.0000000180025095e-35 1.0000000180025095e-35 113056.78815110969 1.0000000180025095e-35 165272.59380715649 151985.75565179883 151985.75565179883 127.50000000000001
decision_type=2 2 2 2 2 2 2 2 2 2 2 2 2 2 2 2 2 2 2 2 2 2 2 2 2 2 2 2 2 2 2 2 2 2 2 2 2 2 2 2 2 2 2 2 2 2 2 2 2 2 2 2 2 2 2 2 2 2 2 2 2 2
left_child=-1 2 4 7 6 50 25 9 22 14 11 15 13 27 16 -6 46 -18 21 -12 -9 28 23 24 -7 53 -13 -11 -5 40 31 32 33 41 38 57 -14 60 39 -22 -19 -17 52 -8 49 -33 47 48 -4 -26 51 -3 -25 -2 -49 -42 -27 58 59 -15 61 -38
right_child=1 5 3 18 10 8 43 20 -10 12 19 26 36 35 -16 30 17 29 -20 -21 34 -23 -24 42 44 56 -28 -29 -30 -31 -32 45 -34 -35 -36 -37 37 -39 -40 -41 55 -43 -44 -45 -46 -47 -48 54 -50 -51 -52 -53 -54 -55 -56 -57 -58 -59 -60 -61 -62 -63
leaf_value=-1632.5609055617047 329.24952766175898 165.82832382156124 -686.9112101519363 2931.9141442996597 58.936027439356259 4087.4285136563471 1980.7646648968716 3899.0889452246797 6361.1676261547927 946.20134350849844 456.95145772951469 -819.46043115149087 -580.91231260008578 3464.5176826953657 3732.0464490673476 1087.2654252358554 4040.25829407524 3227.7227694414414 7436.2952712046017 1305.2826394508113 2718.4133723228078 4543.5658253307765 5459.3690840867266 681.65259807816881 2139.7022705461172 73.873854675747864 1277.9531365551827 3522.4300662042983 1138.3903021851468 -264.11856428584122 1825.543687469275 1648.6623402626246 2137.3400169673405 1261.8290478406107 4391.4861299312151 289.22256876427417 4655.74708684082 320.21835796569104 1446.675021231486 3574.6504000153918 3754.4719771436048 2114.0409304168847 2987.1832497294995 1366.9758826803636 1366.8026518813278 1137.5967141936278 -481.36279931102911 2934.649921582879 2575.2952225735307 3232.6333590267059 987.9529139739318 766.03044556028044 4606.0368762169301 -19.123944174912843 2915.2236853823533 3922.8161732303706 383.98663530866907 5183.7659551787265 256.66374798244794 2649.8296521451757 4258.969257450507 296.24198353417154
leaf_weight=42267 110 183 192 97 183 199 679 398 587 730 579 143 777 159 43 145 75 44 188 140 174 48 75 58 87 186 44 534 97 56 62 42 72 103 138 68 202 1627 371 68 47 104 43 80 51 144 129 355 74 107 124 54 314 71 47 51 180 41 65 59 49 131
leaf_count=42267 110 183 192 97 183 199 679 398 587 730 579 143 777 159 43 145 75 44 188 140 174 48 75 58 87 186 44 534 97 56 62 42 72 103 138 68 202 1627 371 68 47 104 43 80 51 144 129 355 74 107 124 54 314 71 47 51 180 41 65 59 49 131
internal_value=-0.000681694 0.013166 0.0109396 0.00815531 0.017416 0.0252338 0.0253216 0.00674672 0.0285306 0.00519802 0.0115531 0.0157294 0.00376857 0.00743961 0.010903 0.0188596 0.00981308 0.0184432 0.0301163 0.00550069 0.0142341 0.0230992 0.0241221 0.0227648 0.0279955 0.0159324 0.00141711 0.00484968 0.0184536 0.0109091 0.0220833 0.0206557 0.0237736 0.019858 0.0111118 0.0157908 0.0015865 0.00293927 0.00911093 0.0148347 0.0161268 0.0255221 0.0171687 0.0320883 0.0207143 0.0135484 0.00685696 0.0083982 0.00270677 0.0241237 0.0113435 0.0150422 0.0152957 0.00798342 0.0121642 0.022551 0.0198634 0.0184568 0.0165548 0.0195413 0.00965968 0.00791291
internal_weight=54350 12083 10201 7134 3067 1882 1306 6704 1521 5555 1761 1042 4442 1656 1113 855 1070 273 430 719 1149 242 934 859 444 547 187 1264 194 198 672 610 424 352 751 392 2786 2009 613 242 142 249 415 759 245 186 797 668 266 194 361 237 372 181 402 98 366 324 283 218 382 333
internal_count=54350 12083 10201 7134 3067 1882 1306 6704 1521 5555 1761 1042 4442 1656 1113 855 1070 273 430 719 1149 242 934 859 444 547 187 1264 194 198 672 610 424 352 751 392 2786 2009 613 242 142 249 415 759 245 186 797 668 266 194 361 237 372 181 402 98 366 324 283 218 382 333
is_linear=0
shrinkage=0.05


Tree=5
num_leaves=63
num_cat=0
split_feature=0 2 0 0 10 0 50 0 0 0 0 10 2 13 2 0 0 10 10 10 48 2 10 10 10 10 4 48 50 0 27 0 2 10 2 0 21 0 0 13 10 0 2 49 13 15 0 10 10 10 10 10 48 0 2 10 48 2 10 0 13 2
split_gain=1097.55 113.517 78.6942 90.4435 74.5361 33.7376 32.1405 29.0179 16.529 15.4672 30.7929 21.0716 14.2311 19.7722 10.518 9.26871 9.73333 9.25996 8.89625 8.84561 7.93443 7.81904 7.58278 10.9581 7.67084 5.70462 5.64766 5.44392 5.16101 6.44714 4.67009 4.45792 4.2986 4.06178 5.3476 3.91856 3.81274 3.80843 3.74295 3.73272 3.53069 3.48212 3.80225 3.37268 3.35427 4.0642 7.08247 3.37571 3.47933 3.32399 5.78156 5.57756 5.45141 4.15184 3.30974 3.29254 4.58352 3.27997 3.22669 3.12862 3.0718 3.00051
threshold=111808.90281101964 139075.57888348558 125901.14032656376 165272.59380715649 260.00000000000006 116342.94894731625 1.0000000180025095e-35 113964.26528243057 200922.06529910667 120077.40369627949 122204.65634507303 76.500000000000014 102363.54572557731 1.0000000180025095e-35 159276.07450530495 177228.95203707725 128937.37535217426 127.50000000000001 39.500000000000007 301.50000000000006 1.0000000180025095e-35 91368.787852251146 111.50000000000001 130.00000000000003 216.50000000000003 3308.0000000000005 3.5000000000000004 1.0000000180025095e-35 1.0000000180025095e-35 117886.83173426279 1.0000000180025095e-35 139288.69559318651 116478.02140999363 5.5000000000000009 94587.047020172977 221809.85734441516 1.0000000180025095e-35 113742.60293032449 116677.94821711535 1.0000000180025095e-35 96.000000000000014 107884.59182463879 177667.13963985795 1.0000000180025095e-35 1.0000000180025095e-35 1.0000000180025095e-35 120477.2490879165 78.500000000000014 37.500000000000007 25.500000000000004 48.500000000000007 78.500000000000014 1.0000000180025095e-35 146529.23936257919 151918.27360836061 46.500000000000007 1.0000000180025095e-35 115091.81957370907 12.500000000000002 117530.0692384107 1.0000000180025095e-35 184569.16701310346
decision_type=2 2 2 2 2 2 2 2 2 2 2 2 2 2 2 2 2 2 2 2 2 2 2 2 2 2 2 2 2 2 2 2 2 2 2 2 2 2 2 2 2 2 2 2 2 2 2 2 2 2 2 2 2 2 2 2 2 2 2 2 2 2
left_child=41 2 4 12 6 61 7 33 19 11 21 57 26 36 15 16 17 -7 -8 20 -5 -11 38 -24 39 28 -4 -15 -6 -30 -28 -18 60 34 -2 -10 49 -27 -13 -25 -20 -1 -43 59 45 46 -23 48 -46 -14 -51 -52 53 -53 -19 -12 -57 -9 -59 -16 -21 -3
right_child=1 5 3 8 25 14 18 9 35 10 55 22 13 27 43 -17 31 54 40 32 -22 44 23 24 -26 37 30 -29 29 -31 -32 -33 -34 -35 -36 -37 -38 -39 -40 -41 -42 42 -44 -45 47 -47 -48 -49 -50 50 51 52 -54 -55 -56 56 -58 58 -60 -61 -62 -63
leaf_value=-2307.3199869864666 224.24009762271513 578.78788531222324 123.04191734577969 2991.974952235953 434.52563997362296 3833.3867297447805 2170.2664891539084 1849.6775333364724 3916.7519240517463 1087.5942164109788 3854.2998625172363 317.98479701336464 4979.3387716202578 4401.6252601426195 1299.2538716681127 8775.1336644630155 4156.6130036402919 2679.7922892302413 -866.50917619160032 1263.6278920577515 4168.5251566248289 1433.9597330600409 2053.3436380883354 1947.3847096073719 1901.7443509871127 28.462655612066722 7452.4416410738959 677.9835436555212 474.61327927392853 3365.3403602462918 182.21512160459116 4924.9872989637797 1422.5140697099314 250.60919924267898 336.39522759405145 8308.4384253783683 406.78966866799078 1450.8486053665561 1541.2024412747378 1012.5625152740151 668.48649924240897 -236.3111536321245 652.28520754199417 3052.6024539044643 2825.9401784375341 1965.7092259269841 2869.8857245301074 2901.795510839172 1983.1471068184023 4604.2892388384116 -53.128171863254629 4360.3578388406322 2348.0721457072154 1156.1763397423972 3043.0164867981021 3879.8090568037569 3547.6523081909909 1910.6024813795784 1632.2078367435142 6165.9878685192562 -417.8623264312817 527.5454713506864
leaf_weight=38143 107 392 1942 131 945 194 185 621 109 121 113 74 151 353 53 49 277 157 192 83 52 54 58 52 45 42 55 1790 91 79 62 129 169 572 182 78 78 117 56 111 50 3834 109 59 70 84 87 42 46 62 64 103 399 40 42 54 58 112 122 473 40 76
leaf_count=38143 107 392 1942 131 945 194 185 621 109 121 113 74 151 353 53 49 277 157 192 83 52 54 58 52 45 42 55 1790 91 79 62 129 169 572 182 78 78 117 56 111 50 3834 109 59 70 84 87 42 46 62 64 103 399 40 42 54 58 112 122 473 40 76
internal_value=-0.000785597 0.0124164 0.010345 0.00646502 0.0152664 0.0236428 0.0192656 0.021188 0.023852 0.0245202 0.0187311 0.0278937 0.00420769 0.00638158 0.0274494 0.0238915 0.022597 0.0282061 0.00647541 0.0188947 0.0275137 0.0118651 0.0183586 0.0231955 0.0178365 0.00500785 0.000998056 0.00377275 0.00374439 0.0117647 0.0116667 0.0171675 0.0134931 0.013525 0.0183564 0.0364438 0.0126143 0.0138679 0.00846154 0.0127914 0.000165288 -0.00461389 -0.00319934 0.0326068 0.0153655 0.0114444 0.0166312 0.0209494 0.0165517 0.0136203 0.0151347 0.0136469 0.0152952 0.0236713 0.0206281 0.0341111 0.0280357 0.0323099 0.027265 0.0338783 0.00638211 0.0119872
internal_weight=54290 12204 10303 5761 4542 1901 3268 2841 662 1980 729 1251 5099 3040 1433 848 799 393 427 475 183 504 396 266 208 1274 2059 2143 1115 170 117 406 292 861 289 187 897 159 130 163 242 42086 3943 585 383 225 141 158 116 819 668 606 542 143 199 225 112 855 234 526 123 468
internal_count=54290 12204 10303 5761 4542 1901 3268 2841 662 1980 729 1251 5099 3040 1433 848 799 393 427 475 183 504 396 266 208 1274 2059 2143 1115 170 117 406 292 861 289 187 897 159 130 163 242 42086 3943 585 383 225 141 158 116 819 668 606 542 143 199 225 112 855 234 526 123 468
is_linear=0
shrinkage=0.05


Tree=6
num_leaves=63
num_cat=0
split_feature=0 2 0 0 11 0 50 0 14 0 0 11 48 0 0 2 0 11 0 23 2 0 2 11 11 13 16 32 13 5 14 0 20 11 2 2 2 50 0 2 11 17 0 11 2 49 0 2 11 11 48 11 11 13 14 0 0 5 0 17 26 0
split_gain=985.324 92.6924 68.6169 81.6334 67.7166 38.5028 32.6956 34.4429 26.1379 15.6241 29.4457 15.2999 12.6649 12.0894 8.27908 8.18258 10.1387 11.4025 8.26255 7.33259 7.26899 6.86812 6.8672 6.6005 5.95946 5.86513 8.98781 7.31537 5.56879 5.39157 5.25606 4.55242 11.1542 4.52585 4.54488 4.52386 4.24697 4.03069 5.9297 3.86368 3.88701 3.82624 5.98035 3.77658 3.84394 3.67712 3.5233 3.7709 3.50484 3.29684 3.78325 3.26687 3.28175 3.22257 4.20131 3.16456 3.10035 6.55426 3.03632 2.82571 3.63999 4.50989
threshold=111808.90281101964 139075.57888348558 125901.14032656376 177228.95203707725 5.5645130673883125 115608.05425961268 1.0000000180025095e-35 114253.13362125035 1.0000000180025095e-35 120077.40369627949 122204.65634507303 4.0689902272260703 1.0000000180025095e-35 221809.85734441516 177228.95203707725 159276.07450530495 126836.83478740197 4.166635176627655 117886.83173426279 1.0000000180025095e-35 91368.787852251146 151985.75565179883 116210.65553463377 3.7012257604091228 8.1043811695752819 1.0000000180025095e-35 1.0000000180025095e-35 1.0000000180025095e-35 1.0000000180025095e-35 93465.704071680564 1.0000000180025095e-35 143211.70113388859 1.0000000180025095e-35 5.3821750687503345 102969.32983711545 126314.48884415514 131319.39930200289 1.0000000180025095e-35 117886.83173426279 102856.5866520735 3.2769667020129059 1.0000000180025095e-35 114253.13362125035 1.8688348091416842 94587.047020172977 1.0000000180025095e-35 107884.59182463879 177667.13963985795 4.8750807662917142 3.8606743063089755 1.0000000180025095e-35 5.6112865819812852 5.3821750687503345 1.0000000180025095e-35 1.0000000180025095e-35 114253.13362125035 120477.2490879165 93465.704071680564 115608.05425961268 1.0000000180025095e-35 1.0000000180025095e-35 188779.027080528
decision_type=2 2 2 2 2 2 2 2 2 2 2 2 2 2 2 2 2 2 2 2 2 2 2 2 2 2 2 2 2 2 2 2 2 2 2 2 2 2 2 2 2 2 2 2 2 2 2 2 2 2 2 2 2 2 2 2 2 2 2 2 2 2
left_child=46 2 4 8 6 55 7 43 21 11 20 58 19 36 15 16 17 -7 -17 22 -11 25 -10 -8 37 26 39 -27 31 -28 -18 48 -33 34 -13 -30 59 -6 -39 -4 -41 42 -26 44 -2 -20 -1 -48 -14 -12 -51 52 -23 56 -55 -3 -22 -58 -9 60 61 -5
right_child=1 5 3 13 24 14 23 9 12 10 49 33 28 -15 -16 18 30 -19 45 -21 53 51 -24 -25 41 27 29 -29 35 -31 -32 32 -34 -35 -36 -37 -38 38 -40 40 -42 -43 -44 -45 -46 -47 47 -49 -50 50 -52 -53 -54 54 -56 -57 57 -59 -60 -61 -62 -63
leaf_value=-2191.9539876371432 187.50656323207255 398.17043350923956 797.47210841940284 47.070506575059369 412.7993579749425 3364.0911886858048 2061.7531646962134 456.11135668059143 4882.6542209045574 1033.21450559043 3661.584869391374 1690.765228534452 3983.0080220591453 7893.0165041094488 8946.5982053009502 960.42142783751626 2567.446596147076 2681.390499638846 5816.1920319592382 302.23346657226273 1362.261746407039 4048.7006080876108 4882.4798576294625 -9.9835502081408034 48.479246359806297 -205.97329651334286 9992.9811376388552 2114.4151167096848 737.22803517156899 1608.3412531510482 4711.1503981708693 2298.760416090659 132.29189647327519 1806.6571334377572 1593.2635719036507 2238.6930114360471 3858.4163195239498 450.88261531023164 3197.0733422339781 -284.77794468659232 3766.3225830662859 92.832005025387943 1960.5697090146796 218.90360371725271 325.42578573191059 3774.7996506755358 -224.49559595051835 619.67094716489373 634.11791649845281 3685.8186039635689 3370.2696927814413 302.29936342706833 5243.8086174839354 2586.5421902205235 2756.7057352972133 646.45668589293825 2746.3914383036013 2388.0115658162072 1896.6192935306794 5340.5714781631614 3453.2848659345846 1497.2410355819152
leaf_weight=38143 114 294 716 49 945 175 185 212 219 121 113 110 98 78 70 95 220 223 445 67 54 58 128 242 54 2173 42 51 680 115 224 152 91 45 273 207 61 91 79 69 100 43 62 638 196 52 3834 109 232 54 58 84 57 105 53 103 51 120 524 51 46 137
leaf_count=38143 114 294 716 49 945 175 185 212 219 121 113 110 98 78 70 95 220 223 445 67 54 58 128 242 54 2173 42 51 680 115 224 152 91 45 273 207 61 91 79 69 100 43 62 638 196 52 3834 109 232 54 58 84 57 105 53 103 51 120 524 51 46 137
internal_value=-0.000956899 0.0115519 0.00968019 0.00605711 0.0142756 0.0216965 0.0180875 0.0200264 0.00438378 0.0239223 0.0181824 0.0275172 0.00914087 0.0272275 0.0253524 0.0245328 0.0213658 0.0271608 0.0290372 0.0168599 0.0114683 0.00181097 0.0197839 0.00518735 0.00449764 0.00126148 0.004357 -0.00018885 0.00695205 0.0153822 0.0161712 0.0107941 0.0159877 0.02 0.0182376 0.00447012 0.0231977 0.00320628 0.0102941 0.00240113 0.00920118 0.0135535 0.0182759 0.0122468 0.0167742 0.0316197 -0.00458419 -0.0031613 0.0069697 0.0332222 0.0271429 0.0108291 0.0163043 0.0148433 0.0203165 0.00784635 0.011 0.0142982 0.0318886 0.0206184 0.0182759 0.0151613
internal_weight=54290 12204 10303 5761 4542 1901 3268 2841 5339 1893 729 1164 1874 422 1504 1434 842 398 592 414 504 3465 347 427 1274 3266 1042 2224 1460 157 444 573 243 428 383 887 344 1115 170 885 169 159 116 948 310 497 42086 3943 330 225 112 199 115 383 158 397 225 171 736 283 232 186
internal_count=54290 12204 10303 5761 4542 1901 3268 2841 5339 1893 729 1164 1874 422 1504 1434 842 398 592 414 504 3465 347 427 1274 3266 1042 2224 1460 157 444 573 243 428 383 887 344 1115 170 885 169 159 116 948 310 497 42086 3943 330 225 112 199 115 383 158 397 225 171 736 283 232 186
is_linear=0
shrinkage=0.05


Tree=7
num_leaves=63
num_cat=0
split_feature=0 1 0 10 0 50 0 2 0 0 0 0 10 0 0 0 0 10 13 2 2 2 1 2 1 2 49 10 16 10 32 10 1 10 2 0 2 10 48 48 0 0 2 1 2 0 1 0 2 2 10 15 2 0 10 2 1 0 0 10 1 48
split_gain=897.187 88.0782 97.524 51.5883 37.7221 34.3328 32.6855 27.4037 29.882 14.9301 17.3874 23.9419 14.8146 19.7487 23.1133 14.7666 14.6553 13.3685 8.90555 7.75312 7.15943 6.26531 6.76791 6.62696 6.3176 5.94704 5.59905 5.3779 4.97982 4.95084 4.80529 4.73551 4.72523 4.20247 4.09855 4.05846 4.38831 3.70024 3.93113 3.64948 3.55812 3.46471 3.7709 3.37135 4.21279 5.01405 3.34105 3.33878 3.15159 3.28932 3.10154 3.04782 4.83557 4.43504 2.92592 2.83656 2.76071 2.64321 2.6351 2.78293 4.21941 2.61612
threshold=112766.08520427231 128374.84976520164 125901.14032656376 260.00000000000006 221809.85734441516 1.0000000180025095e-35 177228.95203707725 151918.27360836061 118424.45619675172 114253.13362125035 120077.40369627949 122204.65634507303 138.50000000000003 128937.37535217426 114253.13362125035 111808.90281101964 177228.95203707725 57.500000000000007 1.0000000180025095e-35 102561.89770749661 96384.127684926629 118062.50530844608 131224.63958613659 145452.36993847607 155446.00571086493 91368.787852251146 1.0000000180025095e-35 3308.0000000000005 1.0000000180025095e-35 39.500000000000007 1.0000000180025095e-35 45.500000000000007 159885.96068291421 216.50000000000003 103956.33749472238 140700.05247889602 146708.24723502036 46.500000000000007 1.0000000180025095e-35 1.0000000180025095e-35 112560.72946237196 107884.59182463879 177667.13963985795 194016.36624156366 163148.35712307773 140700.05247889602 134404.62073305104 137957.32929278084 118062.50530844608 139075.57888348558 96.000000000000014 1.0000000180025095e-35 96384.127684926629 113056.78815110969 57.500000000000007 126314.48884415514 141141.25517640743 143211.70113388859 119074.91248039306 6.5000000000000009 99755.737844308955 1.0000000180025095e-35
decision_type=2 2 2 2 2 2 2 2 2 2 2 2 2 2 2 2 2 2 2 2 2 2 2 2 2 2 2 2 2 2 2 2 2 2 2 2 2 2 2 2 2 2 2 2 2 2 2 2 2 2 2 2 2 2 2 2 2 2 2 2 2 2
left_child=15 2 3 5 16 9 7 12 32 51 17 25 13 14 -3 41 18 58 19 28 -15 22 -14 24 39 -12 30 61 -4 -7 -20 -16 -9 34 -19 36 -25 -13 -39 -23 -17 -1 -43 44 -10 -46 -8 -28 -33 -50 -31 53 -53 -2 -49 -36 -24 -41 59 60 -11 -5
right_child=1 6 4 27 -6 29 46 8 43 10 11 37 21 20 31 40 -18 33 26 -21 -22 23 56 35 -26 -27 47 -29 -30 50 -32 48 -34 -35 55 -37 -38 38 -40 57 -42 42 -44 -45 45 -47 -48 54 49 -51 -52 52 -54 -55 -56 -57 -58 -59 -60 -61 -62 -63
leaf_value=-2082.3562882552856 60.78944114223745 317.56347185062316 849.18824140862716 1421.8409424002293 6430.6775964386097 1971.7358402564246 4808.3890639801766 1019.4660206679106 4982.5175493596871 1485.2774654586481 1009.6742819261414 3432.4512309909219 9.0339240294020371 224.31196542757826 3407.8246750823055 36.251200074488587 1976.1277399366202 1617.6043135702989 18.203036209991524 2111.941876292839 4534.7830241227521 2476.0315706245083 2681.9519464494774 2683.5968298202079 3165.0502457939488 2544.5144507154992 4479.9517583911502 1051.6189233975863 5941.50958200276 -825.99555102330203 2008.6941780098089 3174.9492292419582 966.36499551937311 1760.7401136054516 1157.60926605998 4407.0486853437878 93.662922907813595 3541.8897847459266 3122.4698552121699 305.51407750063544 -48.583550807552825 -213.2708161529925 588.68739980664975 7232.5984270266636 2679.9737027596129 2569.7213678971425 8084.0515313504093 -736.64712976435158 2442.2346739322634 3299.7505208669681 670.58698514145658 33.491140963235608 327.53227862648492 322.25271573629374 4225.6886362408695 1393.0429741229557 2097.8996324213836 1005.0769526802544 2123.2287225367122 1389.2451783116878 1456.2425295388066 -0.13796487933637372
leaf_weight=38143 57 105 795 287 55 171 48 56 185 79 119 99 41 116 268 516 237 105 2555 794 365 141 62 117 135 342 43 126 77 175 51 44 198 49 157 59 59 41 43 471 178 3834 109 199 109 49 152 49 63 40 46 91 207 181 82 45 86 142 77 311 223 431
leaf_count=38143 57 105 795 287 55 171 48 56 185 79 119 99 41 116 268 516 237 105 2555 794 365 141 62 117 135 342 43 126 77 175 51 44 198 49 157 59 59 41 43 471 178 3834 109 199 109 49 152 49 63 40 46 91 207 181 82 45 86 142 77 311 223 431
internal_value=-0.00111899 0.0112728 0.0084939 0.0148729 0.00383284 0.0183384 0.0181571 0.0168971 0.0248995 0.0207412 0.0230473 0.0165838 0.0141443 0.0187263 0.0254808 -0.00445302 0.00334935 0.0270268 0.00270355 0.00559424 0.0114241 0.0106512 0.0190741 0.00923487 0.00726097 0.0105098 0.000971222 0.00412322 0.00233945 0.00469388 0.000391403 0.0307831 0.010748 0.0191573 0.016987 0.0167021 0.0128977 0.0318852 0.0241667 0.00547745 0.00278098 -0.00457231 -0.0031613 0.0315314 0.0285277 0.0225316 0.03775 0.00965517 0.0235714 0.0187864 -0.00024887 0.0134701 0.0101007 0.0176891 0.00568702 0.0128218 0.0240541 0.00380913 0.031087 0.0299918 0.0334106 0.00245125
internal_weight=54290 11510 8200 3462 4738 2618 3310 3110 796 2226 1690 644 2314 1001 520 42780 4683 1046 4446 1666 481 1313 189 1124 889 461 2780 844 872 392 2606 415 254 356 307 235 176 183 84 754 694 42086 3943 542 343 158 200 174 147 103 221 536 298 238 131 202 148 613 690 613 302 718
internal_count=54290 11510 8200 3462 4738 2618 3310 3110 796 2226 1690 644 2314 1001 520 42780 4683 1046 4446 1666 481 1313 189 1124 889 461 2780 844 872 392 2606 415 254 356 307 235 176 183 84 754 694 42086 3943 542 343 158 200 174 147 103 221 536 298 238 131 202 148 613 690 613 302 718
is_linear=0
shrinkage=0.05


Tree=8
num_leaves=63
num_cat=0
split_feature=0 1 0 10 0 0 0 50 0 1 0 0 0 10 10 0 0 14 5 14 48 10 10 14 16 14 25 0 0 10 48 10 0 1 10 1 10 10 48 10 16 0 5 0 0 1 10 10 10 0 48 10 10 0 0 15 49 32 10 0 0 0
split_gain=805.746 63.5331 75.6944 51.5228 40.9958 37.8424 31.3446 40.486 27.7189 20.4545 18.5565 21.5211 17.6755 13.4708 12.6313 9.99483 9.63941 11.3949 9.14509 8.00016 6.8237 6.78929 6.14937 5.65408 5.79534 5.33477 5.19182 4.77898 4.70169 4.45706 5.94204 7.66522 4.28631 4.0202 4.2486 3.62391 3.60938 3.48495 3.5183 3.3843 3.35386 3.77754 5.63016 3.36353 3.30925 4.14297 3.27032 4.10268 3.67441 3.23747 4.329 2.916 2.88873 3.62821 2.88116 3.17353 2.86135 2.84975 4.50261 2.78756 4.36957 8.55599
threshold=111591.55140025726 130015.62871228367 125901.14032656376 260.00000000000006 221809.85734441516 165272.59380715649 114634.02093639584 1.0000000180025095e-35 114634.02093639584 156673.23941787539 120077.40369627949 122204.65634507303 119553.28507288652 127.50000000000001 52.500000000000007 177228.95203707725 128937.37535217426 1.0000000180025095e-35 108013.86558363776 1.0000000180025095e-35 1.0000000180025095e-35 41.500000000000007 46.500000000000007 1.0000000180025095e-35 1.0000000180025095e-35 1.0000000180025095e-35 1.0000000180025095e-35 188779.027080528 120477.2490879165 216.50000000000003 1.0000000180025095e-35 99.500000000000014 118424.45619675172 151848.85791525716 301.50000000000006 116237.24619958935 236.50000000000003 46.500000000000007 1.0000000180025095e-35 3308.0000000000005 1.0000000180025095e-35 111808.90281101964 93465.704071680564 113056.78815110969 108688.54741224257 182863.40878572778 485.50000000000006 467.50000000000006 258.50000000000006 121663.86626836529 1.0000000180025095e-35 301.50000000000006 8.5000000000000018 116677.94821711535 113964.26528243057 1.0000000180025095e-35 1.0000000180025095e-35 1.0000000180025095e-35 50.500000000000007 137957.32929278084 130084.54841921716 135223.10468763192
decision_type=2 2 2 2 2 2 2 2 2 2 2 2 2 2 2 2 2 2 2 2 2 2 2 2 2 2 2 2 2 2 2 2 2 2 2 2 2 2 2 2 2 2 2 2 2 2 2 2 2 2 2 2 2 2 2 2 2 2 2 2 2 2
left_child=44 2 3 6 15 8 40 10 -3 13 14 25 36 16 52 19 22 -18 -14 26 35 -9 -10 32 -25 28 57 33 -12 30 31 -16 -15 34 -7 -21 -11 -13 -39 -5 41 42 -2 -43 -1 -46 47 48 -20 50 -30 -17 -8 -54 -41 -56 -45 59 -59 60 -4 -62
right_child=1 5 4 39 -6 27 7 21 9 12 11 37 18 23 29 51 17 -19 46 20 -22 -23 -24 24 -26 -27 -28 -29 49 -31 -32 -33 -34 -35 -36 -37 -38 38 -40 54 -42 43 -44 56 45 -47 -48 -49 -50 -51 -52 -53 53 -55 55 -57 -58 58 -60 -61 61 -63
leaf_value=-1794.3763177189933 0.027579970678198153 257.78219656055381 34.426330289807709 311.51932704290812 6123.8757395222083 5068.2721813811304 1660.74039197364 2078.2369036530331 3255.0151986474757 1313.9924007351249 -692.48100859847546 3297.4278432472333 2000.3268096105521 1133.2912060889569 1131.7541479380959 2721.9439294230465 2247.3005611093763 5120.0323105744419 6577.8509304046984 3657.1530360547622 829.03192214392936 -523.85624276446765 2846.5024888968528 2131.804406959825 3540.3836920607669 2489.8095483574652 4693.7562768870348 8140.7345753960999 2357.5359158847637 1673.4176797678208 1071.778638393386 1687.1971021697486 1161.1426382622178 4952.9785034479828 1425.4786019917519 3851.2948581426263 102.41589671220282 3444.9092436691699 2959.1505794859536 12.407000349589509 107.05376626591197 43.020903784564908 1.0719536449963927 274.22412092048097 -234.47547271203075 766.94446741659056 3117.5010843037485 3571.9685523944008 2688.1908468076767 2428.0903374688555 1912.1775683042226 899.26041224277287 620.54925949255585 1726.037204051763 1155.58384915036 653.01490970034945 637.05572060384782 5432.5860655147553 -55.718362700428003 -220.65627321795665 6075.9279605275151 1210.8732763955929
leaf_weight=39022 41 458 788 847 59 49 368 150 184 103 117 106 56 58 83 90 225 152 287 255 1128 194 121 561 41 127 102 125 44 45 145 61 463 48 67 113 96 43 46 59 165 426 55 486 2810 78 62 68 44 145 40 160 162 132 41 54 67 45 40 1672 99 312
leaf_count=39022 41 458 788 847 59 49 368 150 184 103 117 106 56 58 83 90 225 152 287 255 1128 194 121 561 41 127 102 125 44 45 145 61 463 48 67 113 96 43 46 59 165 426 55 486 2810 78 62 68 44 145 40 160 162 132 41 54 67 45 40 1672 99 312
internal_value=-0.00122767 0.0099798 0.00783472 0.01271 0.00357495 0.0159608 0.0157666 0.0196265 0.014285 0.0163407 0.0228546 0.0164072 0.0234916 0.0135042 0.0271787 0.00306619 0.0190469 0.0137003 0.0283656 0.00253184 0.00552807 0.00401163 0.0256557 0.010138 0.0134385 0.0106448 0.00106606 0.0332353 0.00742774 0.0192515 0.0169723 0.0241667 0.00632438 0.027622 0.0225862 0.0114402 0.0108291 0.0303846 0.0230899 0.00279221 0.00951613 0.0105349 0.02 0.00960674 -0.0045383 -0.00290513 0.0306833 0.0323434 0.0300453 0.0115939 0.0194048 0.0128 0.0311782 0.027483 0.00961039 0.015 0.012179 0.000683355 0.00970588 0.00041623 0.00225605 0.00643552
internal_weight=54290 12380 9112 4249 4863 3268 3248 2008 2979 2521 1664 668 716 1805 996 4804 682 377 517 4554 1496 344 305 1123 602 473 3058 289 346 334 289 144 521 164 116 368 199 195 89 1001 1240 1075 96 979 41910 2888 461 399 331 229 84 250 662 294 154 95 553 2956 85 2871 1199 411
internal_count=54290 12380 9112 4249 4863 3268 3248 2008 2979 2521 1664 668 716 1805 996 4804 682 377 517 4554 1496 344 305 1123 602 473 3058 289 346 334 289 144 521 164 116 368 199 195 89 1001 1240 1075 96 979 41910 2888 461 399 331 229 84 250 662 294 154 95 553 2956 85 2871 1199 411
is_linear=0
shrinkage=0.05


Tree=9
num_leaves=63
num_cat=0
split_feature=0 1 0 10 0 0 50 0 0 2 0 0 0 10 0 10 0 14 48 1 14 2 1 10 36 2 2 13 0 1 10 48 10 23 0 5 0 1 2 10 0 2 10 48 10 50 0 14 0 2 0 10 5 10 1 0 0 2 2 2 0 17
split_gain=741.262 53.2848 68.2499 49.6194 44.2436 41.2769 41.7592 33.2638 22.7049 22.2073 18.1635 14.1053 24.2756 13.0437 11.5635 11.4151 17.7683 10.3208 7.49 7.14 6.82815 6.76368 6.29502 5.9685 4.71735 4.70269 5.66826 4.68597 5.14503 4.60728 4.26516 5.28142 7.22757 4.08601 4.01902 4.65054 8.22387 3.96273 4.53599 3.65718 3.59682 3.93229 3.53083 3.62863 3.45786 3.2968 4.97197 3.19808 3.17764 3.14465 3.06898 5.53453 5.14327 3.0294 5.47109 2.98057 2.94649 2.93457 2.88046 2.86149 2.75523 5.19848
threshold=111591.55140025726 134404.62073305104 125901.14032656376 260.00000000000006 221809.85734441516 114634.02093639584 1.0000000180025095e-35 115937.24075172846 165272.59380715649 151918.27360836061 120477.2490879165 120077.40369627949 122204.65634507303 52.500000000000007 177228.95203707725 34.500000000000007 127869.48191083047 1.0000000180025095e-35 1.0000000180025095e-35 140111.38344198835 1.0000000180025095e-35 91368.787852251146 123821.98106475758 41.500000000000007 1.0000000180025095e-35 184569.16701310346 167632.48828296966 1.0000000180025095e-35 127869.48191083047 155446.00571086493 216.50000000000003 1.0000000180025095e-35 99.500000000000014 1.0000000180025095e-35 113056.78815110969 90066.572566288931 111808.90281101964 118903.84413248381 120802.78433252942 184.00000000000003 107884.59182463879 177667.13963985795 46.500000000000007 1.0000000180025095e-35 3308.0000000000005 1.0000000180025095e-35 117886.83173426279 1.0000000180025095e-35 114253.13362125035 119419.54344463063 113742.60293032449 39.500000000000007 90066.572566288931 301.50000000000006 151848.85791525716 113964.26528243057 115937.24075172846 90556.256615021499 135116.37955792688 101085.08888954257 139288.69559318651 1.0000000180025095e-35
decision_type=2 2 2 2 2 2 2 2 2 2 2 2 2 2 2 2 2 2 2 2 2 2 2 2 2 2 2 2 2 2 2 2 2 2 2 2 2 2 2 2 2 2 2 2 2 2 2 2 2 2 2 2 2 2 2 2 2 2 2 2 2 2
left_child=40 2 3 5 14 34 11 -3 9 15 -11 13 21 56 17 16 -9 27 22 -17 -21 -13 33 59 29 26 39 28 -4 49 31 32 -15 60 35 36 -2 -20 -39 -12 -1 -42 -14 -44 45 -5 -47 -18 -46 -22 51 -36 -52 -10 -55 -54 -7 -30 -40 -8 61 -19
right_child=1 7 4 44 -6 6 23 8 53 10 25 12 42 30 -16 19 47 18 37 20 24 -23 -24 -25 -26 -27 -28 -29 57 -31 -32 -33 -34 -35 50 -37 -38 38 58 -41 41 -43 43 -45 48 46 -48 -49 -50 -51 52 -53 55 54 -56 -57 -58 -59 -60 -61 -62 -63
leaf_value=-1888.5196579565718 0.026200972143851687 319.31140915301893 4250.8072630068627 34.432878613690264 6354.4196527546192 355.99268699029892 699.80079931163937 3149.453454664937 7757.591032586497 1118.3091731297966 5198.1990221868737 813.19327042036309 3139.8763067883647 1231.8844007073674 1808.478889577842 3542.2915881530748 2124.7187168954474 4153.2958611519125 521.09925328810402 985.9559844710983 2169.5172658508777 2296.4960808866294 4271.7943301729438 -498.60436791758667 5371.2820378381421 6595.7750771341307 2697.8241417613813 -115.70701581159693 -253.70620078677408 3206.9063731592901 1589.2108668974483 1150.4725829452007 1596.9950013584476 -403.11968994073686 282.39399015496559 23.120719171702106 53.778373676796505 2753.5947399168231 448.16909937642288 4498.999729426886 -260.61087779497456 568.14414304425895 3232.6068810894485 2797.1155107173586 8.2391141286344887 -1.5792566718631862 2707.7015689262912 5383.5966259914903 1066.8463723767229 1484.0144386395157 -11.376371731671695 127.41719967385455 339.95874882180419 2205.3360484112263 3364.7119217966756 99.712551870769232 1642.7699567070363 2089.0143595380096 3491.0614218292212 2084.9934564599193 4365.9800567014427 837.37698991119817
leaf_weight=38143 44 500 43 746 64 238 60 110 93 174 59 121 115 90 276 261 102 125 878 444 48 374 49 195 49 173 114 2109 288 112 48 159 65 59 179 524 104 54 213 80 3663 104 47 52 66 90 76 53 96 270 107 97 73 89 59 173 442 740 64 93 58 96
leaf_count=38143 44 500 43 746 64 238 60 110 93 174 59 121 115 90 276 261 102 125 878 444 48 374 49 195 49 173 114 2109 288 112 48 159 65 59 179 524 104 54 213 80 3663 104 47 52 66 90 76 53 96 270 107 97 73 89 59 173 442 740 64 93 58 96
internal_value=-0.00134739 0.00940226 0.00763295 0.0121435 0.00368843 0.0151029 0.0194402 0.0154839 0.0180349 0.0163275 0.0244167 0.0225842 0.0171439 0.026286 0.00316508 0.0129779 0.0223585 0.00259003 0.00587093 0.0108784 0.00881365 0.0110606 0.0119251 0.00362069 0.0129541 0.0299765 0.0256324 0.000943395 0.00363679 0.0112791 0.0186188 0.0164968 0.0230645 0.00949704 0.0081053 0.00541667 0.0132432 0.003933 0.00859516 0.0324101 -0.00452279 -0.00304885 0.031215 0.0242929 0.00277467 0.00157895 0.00795181 0.0114516 0.00950617 0.00820755 0.0109777 0.0149275 0.00788952 0.0325519 0.0281081 0.0118699 0.0303676 0.00292801 0.00601083 0.0110131 0.0120251 0.00947964
internal_weight=54290 12380 9590 4474 5116 3400 2099 2790 2290 2049 600 1751 709 1042 5052 1449 265 4776 1596 1184 923 495 387 348 479 426 253 3180 1071 430 362 314 155 338 1301 672 148 1209 331 139 41910 3767 214 99 1074 912 166 155 162 318 629 276 353 241 148 246 680 1028 277 153 279 221
internal_count=54290 12380 9590 4474 5116 3400 2099 2790 2290 2049 600 1751 709 1042 5052 1449 265 4776 1596 1184 923 495 387 348 479 426 253 3180 1071 430 362 314 155 338 1301 672 148 1209 331 139 41910 3767 214 99 1074 912 166 155 162 318 629 276 353 241 148 246 680 1028 277 153 279 221
is_linear=0
shrinkage=0.05


Tree=10
num_leaves=63
num_cat=0
split_feature=1 14 1 1 4 15 15 15 4 2 15 14 48 33 13 1 17 10 5 17 1 1 13 17 1 4 1 10 10 10 10 13 10 10 10 2 2 2 10 48 14 26 16 21 4 10 15 10 2 5 1 1 1 10 10 10 10 10 10 10 4 17
split_gain=141.578 42.0733 33.6098 23.2481 20.5872 16.6704 15.7949 14.0197 9.01173 8.22286 7.14756 7.11588 6.96753 4.16517 4.01768 3.86141 3.7481 3.70074 3.32156 3.27357 4.59188 3.12861 3.09093 3.26153 3.00688 2.78229 2.72545 2.58586 2.45012 2.35035 2.32098 2.14345 2.00264 3.24369 2.39686 2.0017 1.90447 1.91025 1.85344 1.84391 2.43472 5.00933 1.8797 2.42285 3.9562 1.77641 1.7179 1.70029 1.67873 1.67519 1.65382 1.63201 3.05491 2.33333 1.56236 1.50773 7.53176 2.44227 5.78781 4.7619 1.42916 1.40757
threshold=118903.84413248381 1.0000000180025095e-35 101782.97207535595 168648.67849444071 3.5000000000000004 1.0000000180025095e-35 1.0000000180025095e-35 1.0000000180025095e-35 3.5000000000000004 139075.57888348558 1.0000000180025095e-35 1.0000000180025095e-35 1.0000000180025095e-35 1.0000000180025095e-35 1.0000000180025095e-35 134404.62073305104 1.0000000180025095e-35 216.50000000000003 93465.704071680564 1.0000000180025095e-35 146000.84632187805 122601.33730399392 1.0000000180025095e-35 1.0000000180025095e-35 112917.29735905032 3.5000000000000004 169126.64859788163 13.500000000000002 2003.0000000000002 270.00000000000006 126.50000000000001 1.0000000180025095e-35 236.50000000000003 153.50000000000003 58.500000000000007 145452.36993847607 116478.02140999363 131552.46934070715 42.500000000000007 1.0000000180025095e-35 1.0000000180025095e-35 1.0000000180025095e-35 1.0000000180025095e-35 1.0000000180025095e-35 1.5000000000000002 42.500000000000007 1.0000000180025095e-35 485.50000000000006 93718.566259859901 93465.704071680564 130357.76992966948 141141.25517640743 144317.95111390334 157.00000000000003 164.00000000000003 49.500000000000007 58.500000000000007 138.50000000000003 115.50000000000001 119.50000000000001 4.5000000000000009 1.0000000180025095e-35
decision_type=2 2 2 2 2 2 2 2 2 2 2 2 2 2 2 2 2 2 2 2 2 2 2 2 2 2 2 2 2 2 2 2 2 2 2 2 2 2 2 2 2 2 2 2 2 2 2 2 2 2 2 2 2 2 2 2 2 2 2 2 2 2
left_child=2 7 10 5 6 13 39 8 26 16 25 49 -5 27 28 21 29 -18 -12 -11 -21 -16 -13 24 -24 -1 -2 -3 -7 48 -25 -20 33 34 -26 -29 -17 -38 -14 42 41 -41 43 -4 -45 60 -40 -15 -9 -8 54 53 -53 -39 -50 -33 -57 58 -58 -60 -6 -59
right_child=1 3 4 12 45 14 11 9 -10 19 18 22 38 47 15 36 17 -19 31 20 -22 -23 23 30 32 -27 -28 35 -30 -31 -32 55 -34 -35 -36 -37 37 51 46 40 -42 -43 -44 44 -46 -47 -48 -49 50 -51 -52 52 -54 -55 -56 56 57 61 59 -61 -62 -63
leaf_value=-1962.1072741126061 -289.46348035236355 -69.267240910984867 -886.99137825080493 3212.8778221122411 922.26651389936342 1152.1524964449543 -564.96614197041492 -1007.8804321497014 1850.2459781490165 1148.5477327310957 -1429.9560398095086 123.28202556463793 5269.630694792937 1037.3757288358427 3000.1344835692903 3843.7378901273078 505.92044513003941 5005.3832733999507 -675.80178141769318 782.70660328454676 5033.0975525590666 1856.3723893009828 316.77735672995323 708.5308259995129 2599.6051621883744 0.024890923536440825 818.65280014463224 628.32670423411162 1262.8033277216018 -192.92479810626403 3524.6399407709368 -206.93575885950997 1390.5523594184233 3841.2775264002494 -417.89082452373162 1699.4906919917985 1938.5583131680328 4557.5127354000915 3761.1729706016167 -759.34731918958721 197.68132337011576 2302.9186377119463 -290.91820750376502 -734.27419292565628 1775.8023821214847 32.014840625991745 3777.7812412634157 1268.712838575254 16.968705364817193 37.254782958445674 1151.5523052138346 1018.6628496941412 3141.6348666484441 4798.2921226529206 1169.035521201251 4809.9510563741342 -283.40213909297631 -475.21810250397249 2104.0209832373075 586.69043944323926 2646.0905032300243 2455.2621033618516
leaf_weight=20724 3403 474 8336 204 307 381 913 91 86 999 1206 613 47 161 56 43 123 55 1304 54 46 415 517 49 98 330 306 1004 86 594 65 822 190 49 41 224 148 42 135 1052 899 45 2004 520 180 67 139 59 454 2537 429 68 178 42 42 42 101 479 42 42 96 51
leaf_count=20724 3403 474 8336 204 307 381 913 91 86 999 1206 613 47 161 56 43 123 55 1304 54 46 415 517 49 98 330 306 1004 86 594 65 822 190 49 41 224 148 42 135 1052 899 45 2004 520 180 67 139 59 454 2537 429 68 178 42 42 42 101 479 42 42 96 51
internal_value=-0.00143245 0.00375519 -0.00268875 0.00787762 -0.00107601 0.00635759 -0.00134416 0.0013454 -0.000652175 0.00397125 -0.00388041 0.00102326 0.0176667 0.00329865 0.0103873 0.0121875 0.00187919 0.00876404 -0.00196747 0.00737489 0.016 0.00890658 0.00375462 0.0054559 0.00444134 -0.00425192 -0.00102319 0.00246181 0.00656317 0.00111801 0.0134211 -0.00104579 0.00783069 0.0114894 0.00758993 0.00367264 0.0151535 0.0142469 0.0222586 -0.00226527 -0.000866735 -0.00244759 -0.00251812 -0.00282537 -1.19209e-09 0.00925532 0.0238321 0.00977273 0.00257874 -0.000260871 0.00321622 0.0163636 0.0143089 0.022381 0.00125 0.000193159 0.00180317 0.000594404 0.00554054 0.0152381 0.0105087 -0.00113208
internal_weight=54309 10588 43721 3906 18578 3381 18108 6682 3795 2887 25143 5072 525 1922 1459 992 1788 178 4089 1099 100 471 1622 1009 895 21054 3709 1702 467 1610 114 2883 378 188 139 1228 521 478 321 13036 1996 1097 11040 9036 700 470 274 220 1016 3450 925 330 246 84 496 1579 757 715 185 84 403 530
internal_count=54309 10588 43721 3906 18578 3381 18108 6682 3795 2887 25143 5072 525 1922 1459 992 1788 178 4089 1099 100 471 1622 1009 895 21054 3709 1702 467 1610 114 2883 378 188 139 1228 521 478 321 13036 1996 1097 11040 9036 700 470 274 220 1016 3450 925 330 246 84 496 1579 757 715 185 84 403 530
is_linear=0
shrinkage=0.05


Tree=11
num_leaves=63
num_cat=0
split_feature=0 0 0 1 12 0 0 1 50 0 0 0 49 0 1 1 14 0 1 5 1 18 35 1 49 1 1 5 0 1 14 48 0 1 50 0 4 0 0 0 1 12 0 20 1 1 0 12 1 1 1 12 50 1 1 4 48 0 0 48 14 1
split_gain=671.891 44.9592 50.7084 61.5637 45.488 45.6785 18.3194 18.235 17.1068 18.7717 21.1267 15.9823 13.098 11.2071 10.1132 8.70583 8.20928 7.3796 13.5925 7.2757 6.64207 6.51711 7.02294 6.33812 5.96977 5.60177 5.15567 5.14909 4.86113 4.85406 4.71129 4.26571 4.14748 3.84082 9.88885 3.73334 3.6699 3.4947 4.69703 5.7593 4.86622 3.43765 3.58265 3.23325 3.17367 3.09495 2.93664 2.85152 3.4381 2.81276 2.75941 2.61268 2.5749 2.56761 2.51324 2.47267 2.4942 3.14616 5.68759 2.45454 2.43171 2.36518
threshold=111591.55140025726 221809.85734441516 127869.48191083047 135071.68399788628 102664.27198711204 114634.02093639584 165272.59380715649 184781.08849148251 1.0000000180025095e-35 122204.65634507303 120077.40369627949 114634.02093639584 1.0000000180025095e-35 140700.05247889602 130357.76992966948 124438.85650389119 1.0000000180025095e-35 121663.86626836529 156673.23941787539 90066.572566288931 137747.09578354037 1.0000000180025095e-35 1.0000000180025095e-35 153507.65127045292 1.0000000180025095e-35 151848.85791525716 125597.92218978006 93465.704071680564 120477.2490879165 122601.33730399392 1.0000000180025095e-35 1.0000000180025095e-35 109567.32135372338 110654.40109508768 1.0000000180025095e-35 188779.027080528 1.0000000180025095e-35 135258.81946384456 130084.54841921716 133498.3326656766 109524.80195140983 95209.704768087438 117124.0441139342 1.0000000180025095e-35 137747.09578354037 99534.498890632283 138005.69238955839 118674.30755999871 98718.882880132864 114886.55430432172 119223.5469014742 118674.30755999871 1.0000000180025095e-35 96425.388204685587 159885.96068291421 3.5000000000000004 1.0000000180025095e-35 113742.60293032449 113056.78815110969 1.0000000180025095e-35 1.0000000180025095e-35 104596.42284995767
decision_type=2 2 2 2 2 2 2 2 2 2 2 2 2 2 2 2 2 2 2 2 2 2 2 2 2 2 2 2 2 2 2 2 2 2 2 2 2 2 2 2 2 2 2 2 2 2 2 2 2 2 2 2 2 2 2 2 2 2 2 2 2 2
left_child=32 2 4 13 5 26 7 16 9 10 19 27 14 24 21 28 46 20 44 45 -16 22 33 41 37 -8 43 -6 -12 -14 -26 -18 -1 34 36 -15 47 38 61 40 -40 50 -43 52 -19 -7 -5 53 -49 -10 -21 -42 55 -13 -33 56 57 58 -2 -35 -37 -4
right_child=1 -3 3 6 11 8 25 -9 49 -11 15 12 29 35 17 -17 31 18 -20 23 -22 -23 -24 -25 30 -27 -28 -29 -30 -31 -32 54 -34 59 -36 60 -38 -39 39 -41 51 42 -44 -45 -46 -47 -48 48 -50 -51 -52 -53 -54 -55 -56 -57 -58 -59 -60 -61 -62 -63
leaf_value=-1463.5622864798315 71.800501240168373 8260.2656285088233 -740.62361196233314 1633.2389551727656 162.63002498026114 1380.9296641312644 3595.8764013003479 7531.9446945302279 1202.4491526561412 3502.0140497243956 -961.94917049239291 2144.3158030794634 2155.2420418462571 1047.9642799862827 1635.0342457340389 2036.6040895299575 6017.0767584009382 3576.2639888851063 2406.0127018545822 1550.2211910559774 659.60754126793211 -385.80990978447721 -1413.2317433112901 835.42787833944351 712.73206212099547 4052.5343893378858 64.931458540139104 40.40960101672016 2186.290229251797 2112.6793801026379 4960.7400796430957 2177.474253783309 -112.32460294511459 1634.7809817356842 758.044062760408 2529.285185198135 746.42017311023176 -194.14218656601838 6228.2723497358447 1009.4920298256538 5279.3851772943017 562.48172160676165 1719.0710258451797 384.15871087690937 1517.4743961731119 1460.4635139574677 2964.8532046927298 1038.5244909132757 2364.6300629076845 2353.9129210337196 876.80332267488075 615.8840942793222 -15.577325312342778 1998.1100132900983 3964.182010178642 16.029723376115765 162.45311346401454 322.28820271970926 350.23458652122349 1116.8551442595733 756.07367149919139 713.54122452715194
leaf_weight=40026 190 85 479 409 66 44 137 109 149 209 102 56 125 1091 120 86 82 65 113 193 422 199 118 49 116 73 211 925 179 107 102 321 1849 188 220 71 56 1767 47 358 81 135 75 53 120 177 156 60 80 40 89 74 52 138 56 95 206 122 76 475 130 505
leaf_count=40026 190 85 479 409 66 44 137 109 149 209 102 56 125 1091 120 86 82 65 113 193 422 199 118 49 116 73 211 925 179 107 102 321 1849 188 220 71 56 1767 47 358 81 135 75 53 120 177 156 60 80 40 89 74 52 138 56 95 206 122 76 475 130 505
internal_value=-0.00144534 0.00876066 0.00851121 0.00530175 0.0117098 0.0168602 0.0147692 0.0122551 0.0223084 0.0242975 0.0217493 0.00813988 0.0101578 0.00266438 0.00907407 0.0118937 0.0101855 0.0135119 0.0198322 0.0264961 0.0100369 0.00672956 0.00794033 0.0233734 0.00120572 0.0283333 0.00858209 0.00271947 0.00763345 0.0215086 0.00922018 0.0151525 -0.00447582 0.00902199 0.0118852 0.00664861 0.0166667 0.000678042 0.0024158 0.00607143 0.0128218 0.0250813 0.0202381 0.0104282 0.0114865 0.0341403 0.00615044 0.0186527 0.0132143 0.00822751 0.0286879 0.00854839 0.0095749 0.0225773 0.0129045 0.0103846 0.0115825 0.0139433 0.0169925 0.00638763 0.0129104 0.000335365
internal_weight=54309 12434 12349 6164 6185 2532 1343 1133 1527 1338 1129 3653 2662 4821 2430 367 1024 840 298 762 542 1590 1391 541 3529 210 1005 991 281 232 218 459 41875 1273 610 1292 390 3311 1544 560 202 492 210 794 185 221 565 334 140 189 282 155 741 194 377 689 594 388 266 663 201 984
internal_count=54309 12434 12349 6164 6185 2532 1343 1133 1527 1338 1129 3653 2662 4821 2430 367 1024 840 298 762 542 1590 1391 541 3529 210 1005 991 281 232 218 459 41875 1273 610 1292 390 3311 1544 560 202 492 210 794 185 221 565 334 140 189 282 155 741 194 377 689 594 388 266 663 201 984
is_linear=0
shrinkage=0.05


Tree=12
num_leaves=63
num_cat=0
split_feature=1 1 14 4 15 1 14 15 15 13 48 48 17 4 13 5 15 10 10 23 2 2 10 2 4 1 10 13 14 31 50 10 4 21 10 5 10 2 10 48 1 10 10 19 32 19 48 14 10 48 10 2 13 10 10 10 10 10 17 10 10 10
split_gain=104.453 39.5629 27.1974 15.1438 16.5954 12.1442 11.2992 10.5474 9.48389 6.93817 5.18637 4.93362 4.85061 4.23788 3.63772 3.26297 3.10167 2.88442 9.83675 2.81196 2.52201 2.40421 2.37589 2.72862 2.3104 2.25451 2.00826 1.97448 1.93508 4.34242 2.8462 2.69622 1.99768 2.1427 1.91295 1.86561 1.85143 1.78375 1.75592 1.74827 1.73068 1.71746 2.45 1.68156 1.61834 1.58236 1.58209 2.27236 1.5682 1.54078 1.96952 1.39509 1.36051 1.35044 8.47369 2.4429 6.60967 4.93926 1.67462 1.34455 1.33793 7.50385
threshold=128374.84976520164 103263.18432905359 1.0000000180025095e-35 3.5000000000000004 1.0000000180025095e-35 168648.67849444071 1.0000000180025095e-35 1.0000000180025095e-35 1.0000000180025095e-35 1.0000000180025095e-35 1.0000000180025095e-35 1.0000000180025095e-35 1.0000000180025095e-35 3.5000000000000004 1.0000000180025095e-35 93465.704071680564 1.0000000180025095e-35 288.00000000000006 184.00000000000003 1.0000000180025095e-35 139075.57888348558 135402.61546987214 216.50000000000003 145452.36993847607 3.5000000000000004 173160.14438661363 102.50000000000001 1.0000000180025095e-35 1.0000000180025095e-35 1.0000000180025095e-35 1.0000000180025095e-35 146.50000000000003 2.5000000000000004 1.0000000180025095e-35 161.50000000000003 93465.704071680564 219.50000000000003 146708.24723502036 1.5000000000000002 1.0000000180025095e-35 118133.05358778349 454.50000000000006 309.00000000000006 1.0000000180025095e-35 1.0000000180025095e-35 1.0000000180025095e-35 1.0000000180025095e-35 1.0000000180025095e-35 514.00000000000011 1.0000000180025095e-35 2.5000000000000004 93718.566259859901 1.0000000180025095e-35 49.500000000000007 58.500000000000007 138.50000000000003 115.50000000000001 119.50000000000001 1.0000000180025095e-35 42.500000000000007 319.50000000000006 216.50000000000003
decision_type=2 2 2 2 2 2 2 2 2 2 2 2 2 2 2 2 2 2 2 2 2 2 2 2 2 2 2 2 2 2 2 2 2 2 2 2 2 2 2 2 2 2 2 2 2 2 2 2 2 2 2 2 2 2 2 2 2 2 2 2 2 2
left_child=1 8 7 4 28 9 21 13 24 11 -7 34 20 25 -8 -10 39 18 49 -13 26 44 23 -14 46 -2 38 -17 30 35 32 -31 -3 -34 -4 -30 -20 -23 -9 -11 -32 42 -36 59 -6 -27 -1 -48 -19 50 -16 -40 -12 -29 -55 56 -56 -58 -57 -5 61 -18
right_child=2 3 5 43 6 10 14 12 15 16 52 19 22 -15 17 27 60 48 36 -21 -22 37 -24 -25 -26 45 -28 53 29 31 40 -33 33 -35 41 -37 -38 -39 51 -41 -42 -43 -44 -45 -46 -47 47 -49 -50 -51 -52 -53 -54 54 55 58 57 -59 -60 -61 -62 -63
leaf_value=-1840.191185694511 -185.99785641605851 -919.60068255237695 -128.80250684371273 1796.2352305002687 -66.57556403426203 2844.461185512343 217.68027749490031 -234.82937019867916 -1120.3001383565645 4206.482622103641 3821.0658456133956 1568.5820982626401 497.51342650800075 1845.2191198759433 -17.534587915987242 -546.81910240925617 2821.1855676686228 -244.9029521589764 3244.6681911389883 -0.70077820458878082 975.43287006734317 1040.3199455508163 5374.4416400214177 2999.0994506995353 -0.77783979144587656 522.22202796155614 -66.150120540270336 -45.881239069385266 -1166.352664741318 77.682190363917044 -173.12041000054251 1559.0626619715317 -338.49369471892902 1097.9279770771434 1124.9840939118608 -41.373550505503481 2417.8167764963414 -60.904621730281455 -928.53514890996451 290.14467515754097 1043.3904773212068 222.80392754081913 1878.7956521253641 1101.8612543654974 539.51985595074075 4128.4376126345915 -1081.9399239060051 -45.877530992337199 1201.9462937899657 549.77095095640288 2571.8024426029951 1446.5040410720662 3444.0530256350039 3141.0128033080155 -285.6181862472385 -445.84096723151742 1882.8523463452582 488.56458588966217 2128.5338261463307 25.066615957938485 1815.2674250702698 4594.0991567251922
leaf_weight=21599 2216 5978 501 295 3141 204 641 46 1413 78 138 428 86 64 47 1592 276 109 105 105 895 167 60 55 381 257 521 1161 596 58 805 48 2004 108 72 2575 75 120 46 220 209 141 48 106 175 40 996 625 297 433 124 336 183 51 128 542 51 49 53 43 342 51
leaf_count=21599 2216 5978 501 295 3141 204 641 46 1413 78 138 428 86 64 47 1592 276 109 105 105 895 167 60 55 381 257 521 1161 596 58 805 48 2004 108 72 2575 75 120 46 220 209 141 48 106 175 40 996 625 297 433 124 336 183 51 128 542 51 49 53 43 342 51
internal_value=-0.0015549 -0.00242644 0.00396207 -0.000607647 -0.000834972 0.00786329 0.00146853 0.00160969 -0.00358594 0.00627321 0.0147143 0.00388031 0.00429095 -0.000518045 0.00466685 -0.00161706 0.00947777 0.00630252 0.00807398 0.00757036 0.00348698 -0.000156815 0.0116667 0.00812057 -0.0040064 -0.000841625 0.00169125 -0.000822995 -0.00184597 -0.00080409 -0.002221 0.00915094 -0.00253399 -0.00121212 0.00129921 -0.00113687 0.0183333 0.00423345 0.00422897 0.0052349 0.000276133 0.00477011 0.00916667 0.00851351 -0.000536793 0.00324916 -0.00406977 -0.00256323 0.00288177 0.00501656 0.00903509 0.00534031 0.018676 0.000208844 0.00169336 0.0004678 0.00486842 0.0145 -0.00121849 0.0102367 0.0113677 0.0136544
internal_weight=54309 46900 7409 18259 17815 2787 5434 4622 28641 2262 525 1295 2045 2577 1831 5040 967 1190 784 533 1844 3603 201 141 23601 2513 949 3627 12381 3277 9104 106 8090 2112 762 3171 180 287 428 298 1014 261 120 444 3316 297 23220 1621 406 604 171 382 321 2035 874 823 228 100 595 338 669 327
internal_count=54309 46900 7409 18259 17815 2787 5434 4622 28641 2262 525 1295 2045 2577 1831 5040 967 1190 784 533 1844 3603 201 141 23601 2513 949 3627 12381 3277 9104 106 8090 2112 762 3171 180 287 428 298 1014 261 120 444 3316 297 23220 1621 406 604 171 382 321 2035 874 823 228 100 595 338 669 327
is_linear=0
shrinkage=0.05


Tree=13
num_leaves=63
num_cat=0
split_feature=0 0 0 10 1 0 50 35 2 0 0 10 2 0 1 2 18 14 0 0 1 2 2 0 10 10 1 10 4 10 10 10 2 49 2 10 14 10 10 10 50 0 0 1 1 50 1 0 2 10 10 10 10 10 0 14 1 21 1 1 4 0
split_gain=614.98 46.54 50.9601 49.2933 45.7273 37.0434 24.9389 20.3115 16.222 11.5325 18.6378 15.8094 15.7756 11.2191 10.4926 9.47559 9.3418 8.82812 9.52233 6.61338 6.22925 5.74512 5.43386 10.2871 5.33445 5.09394 5.46033 5.91185 4.86199 4.71117 6.14277 4.5218 4.36604 3.96089 3.90474 3.8409 3.58432 4.58647 3.57533 5.27278 3.97303 3.67883 3.37268 3.30905 3.21142 3.20628 3.20001 3.12482 3.07482 2.94826 2.80236 3.63471 3.02192 3.93282 4.19433 2.69272 2.68298 2.6029 2.59135 2.40713 2.36951 2.88556
threshold=111320.57883128503 221809.85734441516 127869.48191083047 260.00000000000006 135071.68399788628 115163.97100687596 1.0000000180025095e-35 1.0000000180025095e-35 145452.36993847607 122204.65634507303 120077.40369627949 26.500000000000004 105586.77290384918 165272.59380715649 114632.18072238412 184569.16701310346 1.0000000180025095e-35 1.0000000180025095e-35 188779.027080528 165272.59380715649 159885.96068291421 91368.787852251146 135402.61546987214 121663.86626836529 301.50000000000006 195.00000000000003 143496.10663289882 138.50000000000003 3.5000000000000004 216.50000000000003 11.500000000000002 38.500000000000007 159276.07450530495 1.0000000180025095e-35 142403.24202108578 3308.0000000000005 1.0000000180025095e-35 126.50000000000001 622.50000000000011 360.50000000000006 1.0000000180025095e-35 117886.83173426279 106097.37368065314 99998.39475564711 141996.41363463373 1.0000000180025095e-35 124438.85650389119 114634.02093639584 101997.30029518627 33.500000000000007 139.50000000000003 157.00000000000003 115.50000000000001 79.500000000000014 117124.0441139342 1.0000000180025095e-35 123117.85303680702 1.0000000180025095e-35 143324.63635606432 125597.92218978006 3.5000000000000004 128937.37535217426
decision_type=2 2 2 2 2 2 2 2 2 2 2 2 2 2 2 2 2 2 2 2 2 2 2 2 2 2 2 2 2 2 2 2 2 2 2 2 2 2 2 2 2 2 2 2 2 2 2 2 2 2 2 2 2 2 2 2 2 2 2 2 2 2
left_child=42 2 3 5 17 14 7 9 19 10 12 -11 43 15 28 55 25 18 45 36 29 -12 35 44 -21 26 27 -13 -2 30 34 48 -25 56 -14 38 -6 -38 39 40 -5 46 -1 -7 47 60 -41 -24 -8 -45 52 -52 53 54 -32 -10 -19 -37 -26 -58 -4 -62
right_child=1 -3 4 22 8 6 31 -9 13 11 21 16 20 -15 -16 -17 -18 33 -20 24 -22 -23 23 32 58 -27 -28 -29 -30 -31 50 -33 -34 -35 -36 57 37 -39 -40 41 -42 -43 -44 49 -46 -47 -48 -49 -50 -51 51 -53 -54 -55 -56 -57 59 -59 -60 -61 61 -63
leaf_value=-1991.6631615991826 216.34097670400212 7670.0363531821049 -30.323127624537012 -113.08589523667845 1041.841833039374 1340.3267563456595 1049.9075513312368 -618.26748860671012 3605.0527434069127 3453.5661489500289 912.64958118094637 2903.5790391828923 1478.601079727257 5412.2847284209065 144.45264880805476 7394.9107298193603 826.76043477110295 857.58502819577188 2448.8008977746795 4134.9007180804238 855.34846347791927 1909.8945359664858 -5.4738710613748713 1890.0998007071703 561.62724902973332 2996.0033760443048 3002.212657988935 2544.2183368709461 29.956482032208697 1458.414572844956 512.72602946952929 -129.12946639846828 1857.5558163928472 4403.858439049367 661.04591185144659 656.24925966553747 4196.7673459925427 1751.4921676352719 -661.7381219113463 -293.25152223751581 1381.4159668423754 2012.3514192012954 -356.59639285884288 1397.8757468960671 191.83478919775922 3632.3240585189774 506.95934654610659 1471.0427372807383 1977.1468435637287 1148.539452043673 -126.00553126031198 965.35839696957851 1370.4905419204181 356.26420037023593 1624.7695213762338 3728.3952868634633 2044.6683577381045 994.34234756984324 1091.6731842815432 1572.953350776301 275.51267218046269 7180.9051565868403
leaf_weight=35943 920 85 2885 389 388 126 59 122 182 155 117 116 122 64 717 96 55 1181 71 49 85 471 40 69 42 44 59 45 100 45 113 190 60 124 53 148 95 220 420 105 58 205 5751 215 256 135 51 79 87 105 57 56 45 57 106 152 68 44 55 253 62 42
leaf_count=35943 920 85 2885 389 388 126 59 122 182 155 117 116 122 64 717 96 55 1181 71 49 85 471 40 69 42 44 59 45 100 45 113 190 60 124 53 148 95 220 420 105 58 205 5751 215 256 135 51 79 87 105 57 56 45 57 106 152 68 44 55 253 62 42
internal_value=-0.00154569 0.00812723 0.00787709 0.0110148 0.0046366 0.0139104 0.0175693 0.0193774 0.012796 0.0204562 0.0186041 0.027384 0.0222152 0.02 0.00821243 0.017093 0.0210188 0.00236362 0.000837245 0.00860424 0.0177334 0.0113265 0.00432952 0.00878968 0.0182877 0.0249242 0.0218182 0.0170497 0.0114706 0.0193884 0.0182348 0.00482143 0.020969 0.00536285 0.0261429 0.00274648 0.00659317 0.0105556 0.00171824 0.00366337 3.35559e-05 0.00815789 -0.00447235 0.0296413 0.0046 0.000425735 0.00237179 0.0113866 0.0114384 0.0323437 0.0150461 0.00827434 0.0174299 0.015471 0.018516 0.0131138 0.00465379 0.00932292 0.0114948 0.00870716 8.53116e-05 0.0075
internal_weight=54309 12615 12530 6366 6164 4442 2705 2369 1343 2247 1773 474 1185 494 1737 430 319 4821 3195 849 739 588 1924 504 146 264 220 161 1020 654 609 336 129 1626 175 1420 703 315 1228 808 447 361 41694 446 375 3124 156 119 146 320 434 113 321 276 219 334 1502 192 97 321 2989 104
internal_count=54309 12615 12530 6366 6164 4442 2705 2369 1343 2247 1773 474 1185 494 1737 430 319 4821 3195 849 739 588 1924 504 146 264 220 161 1020 654 609 336 129 1626 175 1420 703 315 1228 808 447 361 41694 446 375 3124 156 119 146 320 434 113 321 276 219 334 1502 192 97 321 2989 104
is_linear=0
shrinkage=0.05


Tree=14
num_leaves=63
num_cat=0
split_feature=0 0 0 10 1 0 50 35 2 0 0 24 0 2 10 1 15 10 2 0 48 13 2 0 26 2 10 48 0 1 10 2 10 1 2 0 0 0 0 1 10 10 1 2 1 10 0 1 0 0 1 2 2 2 2 1 0 10 10 16 1 16
split_gain=562.054 39.7959 44.952 44.7365 40.3867 36.8226 23.101 18.6221 15.6798 17.2365 12.7715 20.0584 15.8711 14.9569 9.31201 9.05169 10.2649 8.56203 7.5775 6.48311 6.43797 6.39083 5.46859 10.1357 5.26938 5.26303 5.0716 4.56427 4.53889 4.49552 4.00794 3.98038 3.88575 4.60829 3.63602 3.53616 3.49977 3.48209 3.35892 4.66667 3.29373 5.29263 3.25606 3.21641 3.26939 3.73057 2.86395 2.72558 3.3987 2.65765 2.6418 2.62107 2.61536 2.55224 2.37981 2.31356 2.31041 3.125 2.26101 2.25041 2.21391 2.14265
threshold=111320.57883128503 127869.48191083047 221809.85734441516 260.00000000000006 135071.68399788628 115163.97100687596 1.0000000180025095e-35 1.0000000180025095e-35 184569.16701310346 165272.59380715649 122204.65634507303 1.0000000180025095e-35 120077.40369627949 142403.24202108578 26.500000000000004 114632.18072238412 1.0000000180025095e-35 11.500000000000002 145452.36993847607 177228.95203707725 1.0000000180025095e-35 1.0000000180025095e-35 135402.61546987214 121663.86626836529 1.0000000180025095e-35 91368.787852251146 301.50000000000006 1.0000000180025095e-35 113964.26528243057 106546.2161226693 38.500000000000007 159276.07450530495 195.00000000000003 143496.10663289882 127352.96863397374 119553.28507288652 106097.37368065314 117886.83173426279 117530.0692384107 138665.018467357 164.00000000000003 142.00000000000003 110840.87941934446 155645.09000026577 124733.60605337395 64.500000000000014 151985.75565179883 150598.31861218257 114253.13362125035 188779.027080528 103126.10036783446 100956.41885048996 101997.30029518627 91118.889676621286 122371.38491593154 143324.63635606432 117124.0441139342 60.500000000000007 115.50000000000001 1.0000000180025095e-35 107790.00542746006 1.0000000180025095e-35
decision_type=2 2 2 2 2 2 2 2 2 2 2 2 2 2 2 2 2 2 2 2 2 2 2 2 2 2 2 2 2 2 2 2 2 2 2 2 2 2 2 2 2 2 2 2 2 2 2 2 2 2 2 2 2 2 2 2 2 2 2 2 2 2
left_child=36 3 4 5 19 15 7 10 9 34 12 14 13 17 -12 16 50 -7 26 21 35 29 27 47 49 -14 -11 28 -5 46 52 -25 33 42 -6 37 -1 58 -15 -40 41 56 -16 44 -27 -46 61 48 -24 -21 -2 -30 -8 -23 -53 -28 -22 -58 60 -31 -19 -3
right_child=1 2 -4 22 8 6 30 -9 -10 18 11 -13 25 38 32 -17 -18 20 -20 24 40 53 23 31 -26 43 55 -29 51 59 -32 -33 -34 -35 -36 -37 -38 -39 39 -41 -42 -43 -44 -45 45 -47 -48 -49 -50 -51 -52 54 -54 -55 -56 -57 57 -59 -60 -61 -62 -63
leaf_value=-1892.0800035192228 261.27512797239501 -21.467315989482639 7286.5345355229992 -8.9717398841730116 1348.5458786967117 1401.2056931483394 997.41217376467466 -587.35411417637454 7465.5085305317134 3928.1556821764025 3280.8878415025279 -1941.1074069349197 867.01710212189926 222.4049274258995 3193.8155390977558 137.23001636765252 114.03219324273026 720.71301509187833 5049.3211839766082 -74.31697821950398 472.74192629803503 -775.43207189237637 -37.188375766654175 1795.5948106718124 2463.8335740611992 1840.9369513614031 533.54588657824695 12.06546355414066 809.78454561465185 1442.5501244657601 -122.67299307854461 1764.6780255732046 2831.9384591792177 3078.9021232443774 3284.1573972075998 1507.8925510747524 -338.7665732159013 1459.0365265152791 1219.4319291116303 486.23720863043854 1253.8032600538336 -1385.8586624301197 2675.9631869603163 -14.529046962048021 1732.7937453058639 1479.2439237279923 1966.668349180633 15.815633515820108 1268.8237563683854 1446.4168936684 144.81093743192736 1687.5391922309839 1878.2895013855418 234.37678109503409 456.49092895509051 1037.0895250674664 1287.4338959243353 1178.0745363587107 736.31292359469285 4574.4913483669507 672.4848036810771 4513.3710987314398
leaf_weight=35943 256 694 85 193 361 337 59 122 102 49 154 58 117 116 44 717 468 67 58 71 113 424 60 69 40 307 42 851 107 782 190 60 45 62 676 40 5751 85 42 54 71 42 111 41 63 60 54 198 117 177 296 211 87 2425 58 55 50 40 49 82 79 72
leaf_count=35943 256 694 85 193 361 337 59 122 102 49 154 58 117 116 44 717 468 67 58 71 113 424 60 69 40 307 42 851 107 782 190 60 45 62 676 40 5751 85 42 54 71 42 111 41 63 60 54 198 117 177 296 211 87 2425 58 55 50 40 49 82 79 72
internal_value=-0.00164328 0.00760404 0.00476956 0.0103864 0.00427158 0.013145 0.016793 0.0185331 0.0119397 0.0103908 0.0195661 0.0268565 0.017617 0.0209494 0.0306971 0.00746402 0.0104902 0.0235714 0.0236765 0.00213545 0.0201572 0.00167328 0.00401767 0.00849206 0.00940972 0.0109014 0.0176027 0.00242958 0.00589631 0.0041152 0.00452381 0.0205814 0.0249618 0.0221889 0.00777724 0.0251562 -0.00444117 0.0271429 0.00891509 0.0158333 0.0150949 0.0123469 0.0175806 0.013259 0.0145349 0.0214228 0.00146341 0.00433333 0.00884181 0.00669355 0.0151087 0.00909574 0.0107534 0.000229904 0.0117286 0.0109794 0.0156897 0.0216667 0.0234615 0.00663194 0.0203425 0.00067885
internal_weight=54309 12615 6249 6366 6164 4442 2705 2369 1343 1241 2247 474 1773 1185 416 1737 1020 973 204 4821 636 4533 1924 504 288 588 146 1420 569 1684 336 129 262 217 1037 320 41694 280 212 96 316 245 155 471 430 123 820 375 177 248 552 376 146 2849 269 97 203 90 195 864 146 766
internal_count=54309 12615 6249 6366 6164 4442 2705 2369 1343 1241 2247 474 1773 1185 416 1737 1020 973 204 4821 636 4533 1924 504 288 588 146 1420 569 1684 336 129 262 217 1037 320 41694 280 212 96 316 245 155 471 430 123 820 375 177 248 552 376 146 2849 269 97 203 90 195 864 146 766
is_linear=0
shrinkage=0.05


Tree=15
num_leaves=63
num_cat=0
split_feature=0 0 0 1 0 2 50 48 2 0 0 0 2 4 21 0 24 14 48 15 4 1 14 0 48 0 43 4 0 0 0 16 1 1 1 5 0 2 2 0 15 16 14 0 2 2 1 0 19 0 0 49 2 2 1 0 1 1 6 2 0 2
split_gain=520.053 40.3696 36.3669 39.1892 32.4942 15.1674 13.0397 18.7313 11.1998 10.5314 8.54497 10.9574 12.8784 8.58274 7.68317 6.85647 6.23519 6.12528 6.8012 5.58733 8.29389 6.40201 5.58605 6.22815 5.75519 6.04715 5.49332 5.43619 4.9927 5.02033 7.94759 10.277 6.40478 5.35187 4.92569 4.48517 4.02895 4.19785 3.77957 3.7018 3.47775 5.5236 3.33642 3.29501 3.19159 4.25025 3.05359 2.98313 2.92089 4.10374 5.18349 2.80748 2.75855 4.06093 2.82356 2.65984 2.62231 3.19129 2.58756 3.24912 2.56637 2.5025
threshold=111083.11653068579 221809.85734441516 127869.48191083047 134404.62073305104 114634.02093639584 151918.27360836061 1.0000000180025095e-35 1.0000000180025095e-35 112460.95795319455 165272.59380715649 122204.65634507303 119553.28507288652 131552.46934070715 3.5000000000000004 1.0000000180025095e-35 115937.24075172846 1.0000000180025095e-35 1.0000000180025095e-35 1.0000000180025095e-35 1.0000000180025095e-35 3.5000000000000004 102770.12266973012 1.0000000180025095e-35 151985.75565179883 1.0000000180025095e-35 139288.69559318651 1.0000000180025095e-35 1.0000000180025095e-35 126836.83478740197 125901.14032656376 122926.82059966512 1.0000000180025095e-35 114632.18072238412 112428.19491378368 109524.80195140983 90066.572566288931 155423.86278770809 184569.16701310346 142006.13038742202 119074.91248039306 1.0000000180025095e-35 1.0000000180025095e-35 1.0000000180025095e-35 117886.83173426279 115433.77037533447 139075.57888348558 118133.05358778349 113321.51793950646 1.0000000180025095e-35 120477.2490879165 121663.86626836529 1.0000000180025095e-35 114941.9437188361 91595.847396454497 101017.22660309897 106097.37368065314 123117.85303680702 125597.92218978006 -1.0000000180025095e-35 96738.087244757553 124837.85821058849 167632.48828296966
decision_type=2 2 2 2 2 2 2 2 2 2 2 2 2 2 2 2 2 2 2 2 2 2 2 2 2 2 2 2 2 2 2 2 2 2 2 2 2 2 2 2 2 2 2 2 2 2 2 2 2 2 2 2 2 2 2 2 2 2 2 2 2 2
left_child=55 2 4 22 8 9 7 10 19 17 11 12 15 27 16 -6 26 -5 -19 20 21 58 23 -4 25 51 28 48 29 30 32 38 33 34 39 -23 37 61 -32 -9 41 -25 -41 -14 60 -46 -8 -37 49 -13 -51 -24 53 54 -17 -1 -26 -58 -2 -60 -12 -7
right_child=1 -3 3 5 6 36 46 14 -10 -11 44 13 43 -15 -16 52 -18 18 -20 -21 -22 35 24 40 56 -27 -28 -29 -30 -31 31 -33 -34 -35 -36 47 -38 -39 -40 42 -42 -43 -44 -45 45 -47 -48 -49 -50 50 -52 -53 -54 -55 -56 -57 57 -59 59 -61 -62 -63
leaf_value=-1799.6058613327377 267.82000734112597 5961.9477971846436 44.635769310775146 783.19384324410021 297.56205822877831 4841.5533235761131 875.03277094837495 1024.0844417881362 76.512376450240609 2866.6713067511246 2031.851654338524 1487.6411562825797 171.48793439879884 1870.5997535886943 1894.7304753392787 584.50315136976712 129.20635869520584 7590.9942697833867 1801.2616829772442 92.877217335576262 -8.3159695506969697 75.904245856771055 1636.2713209609162 5358.5129501246702 330.17952890556398 3706.8346190475513 -2240.9711726375026 550.54932890373664 3837.9049093889535 1494.2161631080255 2430.7281947477422 671.82552591700755 998.5269140703324 1797.6398738083001 493.72100839752551 26.983677831120588 6282.8689291448454 6119.8844610874603 1781.3741713212971 1244.4359229776755 733.86334652914479 510.77733422961614 1728.3822835385961 760.85436618299764 2994.0437133875348 2950.2525828178113 1782.011948193328 324.0560667511017 712.019811139372 1724.7124136032071 1688.7622732486498 2918.4392544795878 1037.6303417482175 1378.7298466116117 1192.4771228661389 -393.81433194402308 1858.9721071480044 700.43371724568658 90.325948125230042 330.1604110950891 3647.6765818734589 2432.0386178074086
leaf_weight=36046 63 92 2938 476 205 75 426 202 1162 181 54 117 110 40 55 41 185 69 337 480 137 142 211 47 905 107 61 165 55 156 107 53 903 42 79 177 52 87 72 71 162 53 45 45 74 53 95 48 45 83 61 83 97 205 44 5571 52 225 64 119 52 73
leaf_count=36046 63 92 2938 476 205 75 426 202 1162 181 54 117 110 40 55 41 185 69 337 480 137 142 211 47 905 107 61 165 55 156 107 53 903 42 79 177 52 87 72 71 162 53 45 45 74 53 95 48 45 83 61 83 97 205 44 5571 52 225 64 119 52 73
internal_value=-0.00174225 0.00710775 0.00686723 0.00410647 0.00947612 0.0116296 0.0121791 0.0132555 0.00484532 0.00887582 0.0175352 0.0159062 0.0197657 0.0102642 0.0101965 0.023125 0.00969719 0.00662131 0.011133 0.00817073 0.0108667 0.0133524 0.00198306 0.000781249 0.00441251 0.00958853 0.0105742 0.00837579 0.0110784 0.0106069 0.0114549 0.02 0.00997764 0.0149317 0.013136 0.00916894 0.0218293 0.0190426 0.0257263 0.0159119 0.00816794 0.0155 0.0087931 0.00693548 0.0263305 0.0209843 0.00478887 0.00477778 0.0123203 0.0143487 0.02 0.00588435 0.0270413 0.0294828 0.0202941 -0.00444614 0.00265651 0.00691336 0.0195935 0.0165847 0.0327358 0.0139189
internal_weight=54332 12715 12623 6133 6490 1350 4098 3577 2392 1063 1491 1258 747 511 2086 592 2031 882 406 1230 750 613 4783 3200 1583 401 1846 471 1785 1730 1574 232 1342 439 397 367 287 235 179 318 262 100 116 155 233 127 521 225 306 261 144 294 387 290 85 41617 1182 277 246 183 106 148
internal_count=54332 12715 12623 6133 6490 1350 4098 3577 2392 1063 1491 1258 747 511 2086 592 2031 882 406 1230 750 613 4783 3200 1583 401 1846 471 1785 1730 1574 232 1342 439 397 367 287 235 179 318 262 100 116 155 233 127 521 225 306 261 144 294 387 290 85 41617 1182 277 246 183 106 148
is_linear=0
shrinkage=0.05


Tree=16
num_leaves=63
num_cat=0
split_feature=0 0 0 10 0 1 50 10 0 10 0 1 0 0 1 15 4 1 1 0 13 0 14 48 1 53 10 48 24 10 0 50 0 0 15 0 0 10 10 10 0 1 15 14 48 0 0 1 0 10 0 0 10 10 10 10 16 10 0 10 0 4
split_gain=478.102 34.8172 38.0547 35.6948 34.9561 32.3989 25.5344 16.9064 16.5969 15.2082 14.4771 14.435 11.2073 8.92434 8.76449 7.71834 8.73948 7.64856 7.11138 6.32903 5.59388 5.10039 4.93998 6.13267 4.51657 4.21026 3.72942 3.68727 4.01705 4.94081 6.65163 3.55079 3.79043 3.53935 3.5055 3.29023 3.09754 4.45788 4.19604 8.33644 12.2877 3.63279 3.53882 2.88732 5.26706 3.85182 3.64007 3.33737 2.85833 2.75002 2.72496 3.73602 4.76317 3.30722 2.69719 2.58409 2.52006 4.41266 3.18789 2.51203 2.44746 2.34817
threshold=111320.57883128503 221809.85734441516 127869.48191083047 258.50000000000006 115608.05425961268 134404.62073305104 1.0000000180025095e-35 63.500000000000007 122204.65634507303 216.50000000000003 120077.40369627949 184781.08849148251 177228.95203707725 125901.14032656376 114632.18072238412 1.0000000180025095e-35 3.5000000000000004 118133.05358778349 125597.92218978006 117124.0441139342 1.0000000180025095e-35 120477.2490879165 1.0000000180025095e-35 1.0000000180025095e-35 130015.62871228367 1.0000000180025095e-35 32.500000000000007 1.0000000180025095e-35 1.0000000180025095e-35 78.500000000000014 121663.86626836529 1.0000000180025095e-35 111591.55140025726 116677.94821711535 1.0000000180025095e-35 106097.37368065314 114634.02093639584 3308.0000000000005 622.50000000000011 467.50000000000006 121663.86626836529 148051.28123795256 1.0000000180025095e-35 1.0000000180025095e-35 1.0000000180025095e-35 165272.59380715649 137957.32929278084 109017.72352167053 120477.2490879165 8.5000000000000018 119553.28507288652 120477.2490879165 138.50000000000003 115.50000000000001 301.50000000000006 72.500000000000014 1.0000000180025095e-35 45.500000000000007 140700.05247889602 26.500000000000004 114634.02093639584 3.5000000000000004
decision_type=2 2 2 2 2 2 2 2 2 2 2 2 2 2 2 2 2 2 2 2 2 2 2 2 2 2 2 2 2 2 2 2 2 2 2 2 2 2 2 2 2 2 2 2 2 2 2 2 2 2 2 2 2 2 2 2 2 2 2 2 2 2
left_child=35 2 3 4 14 20 7 8 10 13 18 12 22 25 15 16 31 21 33 -20 24 -12 -7 -24 56 27 -8 50 29 -29 -31 32 -2 49 -23 61 -5 38 39 -38 41 48 -39 45 46 -22 -45 -48 -41 -6 53 -52 -53 -9 -14 -25 58 -58 -4 -10 -17 -1
right_child=1 -3 5 36 6 11 26 9 59 -11 17 -13 54 -15 -16 60 -18 -19 19 -21 43 34 23 55 -26 -27 -28 28 -30 30 -32 -33 -34 -35 -36 -37 37 42 -40 40 -42 -43 -44 44 -46 -47 47 -49 -50 -51 51 52 -54 -55 -56 -57 57 -59 -60 -61 -62 -63
leaf_value=-1728.4632227068164 48.887233942383318 5663.8504073254117 660.78588659983404 7.2679072181962674 296.45985131034718 1543.3715063985908 1901.1503065157267 958.06808396876568 2805.0598766976609 1991.2132553736476 -1342.1639412371042 6568.5308245568567 4300.3220269562889 220.48855951153925 121.43655725353247 102.78515540571826 -0.68257054435525788 1611.3796766035357 120.39795834992726 970.44649607940119 -279.83078665443094 2010.0898518569572 5772.471592745188 3678.7104841927853 2305.5803035373806 -1688.6601102500863 -233.95087559474328 -1.3474775840194639 -858.67342423898572 1055.6327292972308 2088.5573641771216 321.55465512428407 248.53847212328344 1364.7711344594395 1389.2865304544603 -323.79505091755027 780.68372446140017 1013.7915003114027 -127.74332478270135 1609.4389944571285 2470.1890885765056 -82.013967540174434 912.60737061921429 22.171889422208018 331.08296033227066 1705.0628484991732 3659.4392761322301 4680.7243716247904 456.92030071194978 394.49875076483704 819.24916898153265 2226.5462150458329 1233.3546301354481 1049.8246695537057 1688.2284715564515 1375.3854928402397 4921.1504314037511 254.26801510829796 1701.6679746957616 2756.3783065575103 195.46884107210192 -49.480001551402147
leaf_weight=35727 45 92 1132 554 84 587 128 55 145 82 103 107 48 174 774 435 104 112 78 98 2019 93 102 50 80 41 208 60 48 159 63 99 386 315 95 5762 532 47 402 56 86 92 64 52 741 105 54 43 40 76 54 47 50 64 78 378 95 124 338 84 67 319
leaf_count=35727 45 92 1132 554 84 587 128 55 145 82 103 107 48 174 774 435 104 112 78 98 2019 93 102 50 80 41 208 60 48 159 63 99 386 315 95 5762 532 47 402 56 86 92 64 52 741 105 54 43 40 76 54 47 50 64 78 378 95 124 338 84 67 319
internal_value=-0.00182416 0.00674545 0.00651866 0.00924829 0.0116968 0.00371515 0.0155684 0.0175459 0.0212276 0.0122798 0.0185768 0.0105556 0.00903862 0.0102147 0.00659686 0.0093926 0.0130599 0.011129 0.0231874 0.0146023 0.00178444 0.00685567 0.00744405 0.0109434 0.00401639 0.0129407 0.00273809 0.014 0.0104545 0.0127305 0.0161712 0.0156604 0.0176218 0.0263684 0.0117553 -0.00439127 0.00346236 0.00478014 0.00389901 0.00598015 0.0130657 0.00590425 0.0143694 0.000474451 0.00286517 -0.000527308 0.011443 0.0171649 0.0127083 0.0203125 0.0183333 0.0138742 0.0197423 0.0239916 0.0231746 0.00831776 0.00346655 0.00847032 0.00272109 0.0334279 0.00476095 -0.00456861
internal_weight=54332 12524 12432 6299 4426 6133 2516 2180 1283 897 1054 1350 1243 815 1910 1136 634 403 651 176 4783 291 1117 530 1769 641 336 600 330 282 222 530 431 475 188 41808 1873 1319 1208 806 274 188 111 3014 890 2124 149 97 96 160 270 151 97 119 126 428 1689 219 1470 229 502 36046
internal_count=54332 12524 12432 6299 4426 6133 2516 2180 1283 897 1054 1350 1243 815 1910 1136 634 403 651 176 4783 291 1117 530 1769 641 336 600 330 282 222 530 431 475 188 41808 1873 1319 1208 806 274 188 111 3014 890 2124 149 97 96 160 270 151 97 119 126 428 1689 219 1470 229 502 36046
is_linear=0
shrinkage=0.05


Tree=17
num_leaves=63
num_cat=0
split_feature=0 0 0 10 0 1 50 10 0 1 0 2 35 0 24 1 1 15 4 10 13 1 0 6 15 0 0 10 10 10 10 10 10 2 0 10 0 2 10 10 2 0 2 0 4 0 10 2 2 16 10 0 1 16 1 10 2 20 15 2 20 13
split_gain=450.207 32.0152 34.2572 32.3532 38.7381 28.1237 24.3994 16.2409 17.4833 14.0593 13.5695 13.2953 11.5656 11.0338 8.45746 8.34636 8.02344 7.7469 8.82057 6.78578 5.27256 4.64949 4.30604 3.82095 3.67695 3.64325 3.55279 3.51172 6.96754 6.19912 4.61285 5.03731 3.46566 3.35306 9.09086 2.93008 3.33842 2.92827 2.91602 3.37405 2.95079 3.50888 3.58442 2.85442 2.71339 5.54146 2.55563 2.54976 2.51823 2.46926 4.09428 2.58821 2.46602 2.14404 2.05638 2.05372 2.03785 1.96087 3.65429 1.9539 1.94256 3.04105
threshold=111083.11653068579 221809.85734441516 127869.48191083047 258.50000000000006 115608.05425961268 134404.62073305104 1.0000000180025095e-35 45.500000000000007 122204.65634507303 184781.08849148251 120077.40369627949 139075.57888348558 1.0000000180025095e-35 177228.95203707725 1.0000000180025095e-35 114632.18072238412 118689.8391834334 1.0000000180025095e-35 3.5000000000000004 216.50000000000003 1.0000000180025095e-35 130015.62871228367 120477.2490879165 -1.0000000180025095e-35 1.0000000180025095e-35 117530.0692384107 116677.94821711535 190.50000000000003 115.50000000000001 125.50000000000001 161.50000000000003 138.50000000000003 32.500000000000007 145452.36993847607 121663.86626836529 3308.0000000000005 115163.97100687596 151918.27360836061 2003.0000000000002 360.50000000000006 98803.259512430363 117886.83173426279 118062.50530844608 104678.24997528445 3.5000000000000004 96755.677529139633 301.50000000000006 100661.59270740455 167632.48828296966 1.0000000180025095e-35 45.500000000000007 140700.05247889602 102770.12266973012 1.0000000180025095e-35 105170.82820526218 8.5000000000000018 110123.23499611697 1.0000000180025095e-35 1.0000000180025095e-35 91595.847396454497 1.0000000180025095e-35 1.0000000180025095e-35
decision_type=2 2 2 2 2 2 2 2 2 2 2 2 2 2 2 2 2 2 2 2 2 2 2 2 2 2 2 2 2 2 2 2 2 2 2 2 2 2 2 2 2 2 2 2 2 2 2 2 2 2 2 2 2 2 2 2 2 2 2 2 2 2
left_child=43 2 3 4 15 20 7 8 10 13 11 26 14 37 19 17 22 18 23 27 21 49 -12 -2 -24 -13 55 28 -9 -30 31 -31 47 35 -35 38 -37 60 39 -5 -41 -42 -43 44 -1 -46 -15 -8 -39 51 -51 54 -25 56 -4 -6 -28 58 -53 -22 61 -7
right_child=1 -3 5 33 6 9 32 12 -10 -11 16 25 -14 46 -16 -17 -18 -19 -20 -21 59 -23 24 52 -26 -27 53 -29 29 30 -32 -33 -34 34 -36 36 -38 48 -40 40 41 42 -44 -45 45 -47 -48 -49 -50 50 -52 57 -54 -55 -56 -57 -58 -59 -60 -61 -62 -63
leaf_value=-1991.2703298569957 181.63293148206415 5380.6578869591403 -96.329246650627951 6.8557479698828887 281.6368587448294 2700.5891910570281 218.89260047444986 1351.7414526663956 2639.7872067510839 6240.1042833290157 -1190.4261569623311 23.219376922808785 -1131.6499951471517 4085.3059256084739 -87.76321960840022 112.63829285241953 1529.2498546020126 103.95057267025932 -3.7791379900647328 1828.7663602768503 -695.60230030816888 2190.3012883605124 1903.4099529771584 229.89158344033646 1361.6614940651837 716.82361262746622 1267.498985601334 665.27873206434583 1418.0399827108004 1808.1546954619673 2187.9744597449917 621.99374008172936 -222.25333181500596 247.63358870828966 1524.7252735175823 56.52451079527323 1024.2452472574234 4743.3442377044221 -552.57674515983035 -278.94021488065817 147.30771717976356 2903.8252533888131 1284.7889519379892 -417.31763343810911 1927.5759587693269 -1912.0610490205618 1603.8170479786295 2250.8376765579719 1730.2801108254946 4675.0929098335637 241.55461435288277 3632.3125166304412 215.49470608613038 1275.5363002909241 1688.5486379223582 393.21865362045486 1358.3882917411183 -230.68834844163678 156.62936224332785 287.33924915699907 3446.9580653204571 1014.6577131986102
leaf_weight=33494 152 92 647 477 84 232 49 387 203 107 99 66 107 48 92 842 105 538 115 79 434 80 85 204 89 55 159 76 46 69 71 81 208 283 101 123 87 67 441 70 139 92 84 7874 78 171 78 79 101 95 124 156 226 51 485 72 104 67 115 2580 87 630
leaf_count=33494 152 92 647 477 84 232 49 387 203 107 99 66 107 48 92 842 105 538 115 79 434 80 85 204 89 55 159 76 46 69 71 81 208 283 101 123 87 67 441 70 139 92 84 7874 78 171 78 79 101 95 124 156 226 51 485 72 104 67 115 2580 87 630
internal_value=-0.00186189 0.00637239 0.0061582 0.00869029 0.0109591 0.00347872 0.0151312 0.0170642 0.0210666 0.00985185 0.0182714 0.0230034 0.0124107 0.00835479 0.0142564 0.00590515 0.010873 0.00852227 0.0120014 0.01589 0.00167991 0.0038468 0.00635531 0.0145017 0.011092 0.00822314 0.0268085 0.0143836 0.0155657 0.021779 0.0183032 0.0133333 0.00258928 0.00319715 0.00736979 0.00213813 0.00761905 0.0067726 0.0012548 0.00294663 0.00642857 0.00849206 0.0131818 -0.00437766 -0.00457769 0.000622489 0.022381 0.0090625 0.0128571 0.00328893 0.00824201 0.00255102 0.012093 0.0298726 0.00140459 0.020641 0.031692 0.00639053 0.00828413 0.000408094 0.00569547 0.0049768
internal_weight=54332 12715 12623 6490 4593 6133 2516 2180 1172 1350 969 591 1008 1243 901 2077 378 1235 697 809 4783 1769 273 582 174 121 470 730 654 267 221 150 336 1897 384 1513 210 1117 1303 862 385 315 176 41617 33743 249 126 128 168 1689 219 1470 430 314 1132 156 263 338 271 3014 949 862
internal_count=54332 12715 12623 6490 4593 6133 2516 2180 1172 1350 969 591 1008 1243 901 2077 378 1235 697 809 4783 1769 273 582 174 121 470 730 654 267 221 150 336 1897 384 1513 210 1117 1303 862 385 315 176 41617 33743 249 126 128 168 1689 219 1470 430 314 1132 156 263 338 271 3014 949 862
