tree
version=v4
num_class=1
num_tree_per_iteration=1
label_index=0
max_feature_idx=67
objective=quantile
feature_names=title city state country experience_ordinal work_type remote_allowed has_employee_count log_employee_count has_company_posting_count company_posting_count log_company_posting_count company_scale_tier_proxy skill_IT skill_MGMT skill_ENG skill_HCPR skill_FIN skill_ANLS skill_SALE skill_GENB skill_LGL skill_MNFC skill_PRJM skill_CNSL skill_HR skill_CUST skill_ACCT skill_PROD skill_BD skill_MRKT skill_SCI skill_RSCH skill_PRDM skill_ADM skill_TRNG skill_STRA skill_QA skill_DSGN skill_OTHR skill_SUPL skill_EDU skill_DIST skill_WRT skill_PRCH skill_PR skill_ART skill_ADVR ind_it-jobs ind_engineering-jobs ind_healthcare-nursing-jobs ind_accounting-finance-jobs ind_14 ind_sales-jobs ind_trade-construction-jobs ind_43 ind_96 ind_104 ind_4 ind_27 ind_legal-jobs ind_logistics-warehouse-jobs ind_pr-advertising-marketing-jobs ind_25 ind_41 ind_admin-jobs ind_48 ind_retail-jobs
feature_infos=[27049.425488318218:332299.56279286754] [64050.145517207267:195165.32585476551] [55727.349885569325:185645.03310167309] none [-1:5] [53096.004394796262:113121.81484822542] [-1:1] none none none [1:3329] [0.69314718055994529:8.1107275829744889] [88470.583200354609:128144.99159890191] [0:1] [0:1] [0:1] [0:1] [0:1] [0:1] [0:1] [0:1] [0:1] [0:1] [0:1] [0:1] [0:1] [0:1] [0:1] [0:1] [0:1] [0:1] [0:1] [0:1] [0:1] [0:1] [0:1] [0:1] [0:1] [0:1] [0:1] [0:1] [0:1] [0:1] [0:1] [0:1] [0:1] [0:1] [0:1] [0:1] [0:1] [0:1] [0:1] [0:1] [0:1] [0:1] [0:1] [0:1] [0:1] [0:1] [0:1] [0:1] [0:1] [0:1] [0:1] [0:1] [0:1] [0:1] [0:1]
tree_sizes=5029 5620 5540 5587 5548 5574 5596 5580 5571 5615 5714 5577 5749 5568 5567 5614 5605 5604 5613 5738 5731

Tree=0
num_leaves=63
num_cat=0
split_feature=0 0 0 1 10 5 1 59 0 4 10 18 0 0 50 5 5 26 10 19 0 5 26 5 27 4 49 67 15 0 5 4 14 42 1 0 25 0 50 14 0 0 0 1 52 0 0 5 4 59 0 1 14 10 29 5 0 5 4 0 54 0
split_gain=1631.39 623.214 199.217 60.0477 58.1028 35.0916 32.2241 30.2453 26.8144 24.532 22.2956 20.6972 16.4299 15.9281 14.5453 14.0307 12.8473 12.0656 11.0577 8.90235 8.83381 14.9738 8.33734 7.81799 7.17792 7.09731 6.84053 6.4322 6.13228 5.90093 6.60235 5.49271 5.05439 4.90578 4.33729 4.40577 4.31831 4.24672 4.07172 4.02128 3.95267 3.9352 3.65014 3.53943 3.41281 3.25631 3.05842 3.01939 2.99162 4.58624 3.00672 2.78781 2.71001 2.69755 2.694 2.6118 2.57888 2.57814 2.88978 2.67775 2.52841 2.98577
threshold=95081.903635387614 92259.390419998177 46036.455976648926 95119.12174940652 309.00000000000006 80601.187831431598 95119.12174940652 1.0000000180025095e-35 93719.295781605659 1.5000000000000002 622.50000000000011 1.0000000180025095e-35 64411.634132384374 90530.478677791238 1.0000000180025095e-35 93465.704071680564 108013.86558363776 1.0000000180025095e-35 9.5000000000000018 1.0000000180025095e-35 60119.699080467544 108013.86558363776 1.0000000180025095e-35 72630.604042440129 1.0000000180025095e-35 -1.0000000180025095e-35 1.0000000180025095e-35 1.0000000180025095e-35 1.0000000180025095e-35 89603.311294529398 93465.704071680564 1.5000000000000002 1.0000000180025095e-35 1.0000000180025095e-35 91429.680835679683 73370.776292051596 1.0000000180025095e-35 42916.733789346254 1.0000000180025095e-35 1.0000000180025095e-35 73577.525067145849 91908.30993737781 93999.278176179199 95998.451431881025 1.0000000180025095e-35 73370.776292051596 94653.252212758744 80601.187831431598 2.5000000000000004 1.0000000180025095e-35 73370.776292051596 103732.31224400157 1.0000000180025095e-35 16.500000000000004 1.0000000180025095e-35 90066.572566288931 91248.181839497716 80601.187831431598 1.5000000000000002 93999.278176179199 1.0000000180025095e-35 56395.838056017026
decision_type=2 2 2 2 2 2 2 2 2 2 2 2 2 2 2 2 2 2 2 2 2 2 2 2 2 2 2 2 2 2 2 2 2 2 2 2 2 2 2 2 2 2 2 2 2 2 2 2 2 2 2 2 2 2 2 2 2 2 2 2 2 2
left_child=1 2 10 7 6 19 26 9 11 12 23 36 15 17 -6 39 28 25 -18 31 21 24 27 -1 -7 34 57 29 -10 33 56 -5 -19 48 53 -36 -8 38 -25 44 -24 -15 -28 -39 -4 -11 -20 -9 49 50 -22 -42 -32 -14 -27 -52 -31 -3 -59 -60 61 -17
right_child=-2 4 3 5 14 20 8 47 16 45 -12 -13 13 41 -16 60 18 32 46 -21 22 -23 40 37 -26 54 42 -29 -30 30 52 -33 -34 -35 35 -37 -38 43 -40 -41 51 -43 -44 -45 -46 -47 -48 -49 -50 -51 55 -53 -54 -55 -56 -57 -58 58 59 -61 -62 -63
leaf_value=40838.720003223418 42432 40872 41162.150799306095 41184 42090.811368514325 41184 40830.308267498956 40718.600006625056 41183.405001017076 41288 40716.594775769787 41917.600038856268 41288 40872 41079.028809891475 40731.241016999993 41158.646523960946 41184 41200.190156714962 40994.200002983212 41527.340048640224 41524.073242566752 41336.390454543616 40922.431014751601 41641.600006818771 41184 40829.704715091932 41112.023420095538 41392 41184 41040.201773260305 41600 40802.307169669002 41040.544926745402 40871.635418425823 41320.463883790399 40856.048092925856 41025.920001596212 41168.926953125003 41174.100008703768 41005.844415430103 40859.423741794119 41310.537890630745 41184.358066571651 41087.80000127852 41808.000034093857 41479.281172269693 40838.200009569526 42432.600003316998 41117.544018802997 41600 41132.455203505328 41903.324594028578 41683.834047531571 41184 41886.734613546316 40846.367305319109 40961.002539062501 41080 41240.680000922082 41452.100991648491 41186.900007389486
leaf_weight=53 41017 179 119 91 159 152 519 46 804 123 216 107 339 114 49 101 327 88 210 56 601 333 100 146 45 191 43 59 54 60 116 45 63 48 95 382 45 207 52 60 85 44 48 218 56 441 88 96 743 44 651 65 178 310 62 1555 63 1552 104 120 41 172
leaf_count=53 41017 179 119 91 159 152 519 46 804 123 216 107 339 114 49 101 327 88 210 56 601 333 100 146 45 191 43 59 54 60 116 45 63 48 95 382 45 207 52 60 85 44 48 218 56 441 88 96 743 44 651 65 178 310 62 1555 63 1552 104 120 41 172
internal_value=41600 41600 41600 41600 41600 41600 41600 41600 41600 41600 41600 41600 41600 41600 41600 41600 41600 41600 41600 41600 41600 41600 41600 41600 41600 41600 41600 41600 41600 41600 41600 41600 41600 41600 41600 41600 41600 41600 41600 41600 41600 41600 41600 41600 41600 41600 41600 41600 41600 41600 41600 41600 41600 41600 41600 41600 41600 41600 41600 41600 41600 41600
internal_weight=54350 13333 8925 8033 4408 5090 4200 2943 2154 2801 892 671 2237 1688 208 549 1483 1530 625 192 4898 530 4368 676 197 1379 2046 4118 858 4059 417 136 151 3642 1126 477 564 623 198 235 250 158 91 425 175 564 298 142 3594 2851 2807 150 294 649 253 2206 123 1955 1776 224 314 273
internal_count=54350 13333 8925 8033 4408 5090 4200 2943 2154 2801 892 671 2237 1688 208 549 1483 1530 625 192 4898 530 4368 676 197 1379 2046 4118 858 4059 417 136 151 3642 1126 477 564 623 198 235 250 158 91 425 175 564 298 142 3594 2851 2807 150 294 649 253 2206 123 1955 1776 224 314 273
is_linear=0
shrinkage=1


Tree=1
num_leaves=63
num_cat=0
split_feature=0 0 0 0 18 1 59 49 11 5 0 1 4 0 0 0 5 0 11 26 0 5 19 61 4 2 0 2 0 13 0 26 11 0 4 50 4 11 5 0 25 14 52 15 2 11 0 50 42 1 2 4 11 50 67 42 50 35 1 5 4 1
split_gain=1392.16 481.351 188.401 62.2163 55.806 51.0344 29.7493 27.1952 26.9879 24.7667 22.9907 22.2975 21.2558 14.9762 21.7456 14.7641 15.9298 13.7559 12.6386 12.0008 9.85002 9.46497 8.26537 8.14853 7.08642 12.0364 6.61684 6.93406 6.54388 6.04748 5.02501 4.9722 4.70991 4.69028 4.62056 4.42124 4.38937 4.225 4.09657 5.21256 4.02936 3.92179 4.65788 3.86334 4.08828 3.8588 3.77803 3.65563 3.59242 3.45013 3.82625 3.36284 3.34584 3.28788 3.21942 3.70435 3.45218 3.02641 2.8713 2.79636 3.19877 2.75775
threshold=95173.967090762133 92259.390419998177 46036.455976648926 94947.420914116534 1.0000000180025095e-35 95578.561263411131 1.0000000180025095e-35 1.0000000180025095e-35 6.4232258802757327 80601.187831431598 93719.295781605659 94977.799242532346 1.5000000000000002 95081.903635387614 95065.869598284349 60119.699080467544 93465.704071680564 89603.311294529398 5.4700590244241791 1.0000000180025095e-35 93592.951531465354 72630.604042440129 1.0000000180025095e-35 1.0000000180025095e-35 1.5000000000000002 90315.272901078046 42916.733789346254 83706.52248888211 93999.278176179199 1.0000000180025095e-35 95281.601349664474 1.0000000180025095e-35 5.0205801788306017 73370.776292051596 1.5000000000000002 1.0000000180025095e-35 1.0000000180025095e-35 2.0126758453675748 93465.704071680564 60119.699080467544 1.0000000180025095e-35 1.0000000180025095e-35 1.0000000180025095e-35 1.0000000180025095e-35 83138.240741522153 5.6920344214226128 73577.525067145849 1.0000000180025095e-35 1.0000000180025095e-35 90803.263997284303 100362.83922665089 -1.0000000180025095e-35 4.2555875595453383 1.0000000180025095e-35 1.0000000180025095e-35 1.0000000180025095e-35 1.0000000180025095e-35 1.0000000180025095e-35 95578.561263411131 80601.187831431598 1.5000000000000002 108210.4670999073
decision_type=2 2 2 2 2 2 2 2 2 2 2 2 2 2 2 2 2 2 2 2 2 2 2 2 2 2 2 2 2 2 2 2 2 2 2 2 2 2 2 2 2 2 2 2 2 2 2 2 2 2 2 2 2 2 2 2 2 2 2 2 2 2
left_child=1 2 8 4 7 6 12 11 21 22 -6 45 15 14 -5 16 41 19 20 33 29 -1 -7 43 25 51 35 -28 -9 40 -2 38 -19 49 -8 -23 57 -21 39 -27 47 42 -4 44 -22 59 -33 61 53 -17 -51 -11 -30 -18 55 56 -40 -35 -15 -3 -61 -13
right_child=30 3 5 13 10 9 34 28 -10 24 -12 18 -14 58 -16 17 48 32 -20 37 23 26 -24 -25 -26 31 27 -29 52 -31 -32 46 -34 36 -36 -37 -38 -39 54 -41 -42 -43 -44 -45 -46 -47 -48 -49 -50 50 -52 -53 -54 -55 -56 -57 -58 -59 -60 60 -62 -63
leaf_value=-723.2159969377517 -4.0284372470690872 -721.75999270081525 -498.1075399653048 -26.707171853947202 397.54800587829891 -346.31999702453618 -888.28999950215223 -511.69502528368514 -839.23496301870182 -286.92379090130339 -366.0339955249899 -753.12976832514767 15.600000000000001 -37.909277263861441 17.965999953895881 -353.87299264063768 -344.96751384607927 -764.22858627079427 -455.45210244674439 -711.46470357460794 -463.8102891133538 -643.69053598597861 -582.78999727442863 -357.16720540877253 418.94780140623527 -338.82929156230534 -647.90708996251055 -359.57365534157327 -331.64498585066895 -541.5154133749478 855.17104846806615 184.22975944261458 -280.82676646960164 -103.66694138953062 -475.92999723181129 -409.51939453125016 -395.20000000000005 -405.55048785899578 263.79633787166239 -81.231829019075533 -758.73027031136269 -392.10621017221422 -525.58999278023839 -250.49152404323252 -431.69167376104053 -488.05012695312507 -485.04795424956723 -768.71191582989923 -847.10364214668152 -498.10753848913214 -123.11404308454199 -404.94269813104529 -232.86007474521213 -628.4782593586599 -421.8975381406741 -580.16171455994743 -322.83685920907061 -320.10966997514066 -27.421015454654118 -650.75052862971097 -481.51999562978745 -716.31218576978654
leaf_weight=53 197 158 68 193 200 129 108 119 216 532 71 243 594 104 229 219 171 203 106 80 243 146 54 60 1177 56 109 316 50 68 40623 52 48 878 41 52 202 80 1815 410 40 63 48 57 825 44 103 44 50 151 54 220 42 46 59 41 240 41 93 1345 189 82
leaf_count=53 197 158 68 193 200 129 108 119 216 532 71 243 594 104 229 219 171 203 106 80 243 146 54 60 1177 56 109 316 50 68 40623 52 48 878 41 52 202 80 1815 410 40 63 48 57 825 44 103 44 50 151 54 220 42 46 59 41 240 41 93 1345 189 82
internal_value=0.000237351 -0.0136622 -0.00688795 -0.0267915 -0.0290818 -0.0044672 -0.00943561 -0.0306797 -0.0286883 -0.00127046 -0.00717712 -0.0317295 -0.00835113 -0.0120436 -0.00672986 -0.0104455 -0.0186547 -0.00857362 -0.0277771 -0.00696481 -0.0288448 -0.0237722 -0.0193169 -0.0312869 -0.000568544 -0.00168934 -0.0220465 -0.0185294 -0.0132464 -0.0227778 0.00484444 -0.000169308 -0.019502 -0.00561489 -0.0312416 -0.029596 -0.00392061 -0.02 0.000345288 -0.00390558 -0.0250733 -0.0301955 -0.0247414 -0.0322444 -0.0329213 -0.0357546 -0.00887097 -0.0267073 -0.0109176 -0.0100943 -0.0147561 -0.00730053 -0.0232609 -0.00813364 0.0012645 0.00158874 0.00188564 -0.00245375 -0.0234264 -0.0361348 -0.0354824 -0.0285385
internal_weight=54350 13530 8925 4605 3986 8033 3145 3715 892 4888 271 3504 2996 619 422 2402 446 1956 1768 1705 1662 676 183 1185 4705 3528 623 425 211 477 40820 2776 251 1545 149 198 1121 160 2621 466 409 179 116 1125 1068 1736 155 369 267 424 205 752 92 217 2155 2096 2055 919 197 1692 1534 325
internal_count=54350 13530 8925 4605 3986 8033 3145 3715 892 4888 271 3504 2996 619 422 2402 446 1956 1768 1705 1662 676 183 1185 4705 3528 623 425 211 477 40820 2776 251 1545 149 198 1121 160 2621 466 409 179 116 1125 1068 1736 155 369 267 424 205 752 92 217 2155 2096 2055 919 197 1692 1534 325
is_linear=0
shrinkage=0.05


Tree=2
num_leaves=63
num_cat=0
split_feature=0 0 0 0 18 1 10 49 5 0 4 1 4 0 0 10 49 5 0 0 26 5 0 27 0 0 4 4 2 0 2 10 5 13 10 10 50 10 0 5 0 26 0 5 25 50 0 14 0 0 5 10 0 1 4 0 10 10 10 10 1 1
split_gain=1348.62 474.848 180.349 59.4088 53.8422 49.5418 26.9114 25.9091 23.5626 22.9907 21.5502 20.0882 19.7643 14.9762 20.8438 12.3277 10.6423 10.0964 9.39963 9.03629 11.6562 10.8735 9.32547 8.40489 7.77772 6.54388 6.52009 6.34194 9.09376 6.12197 7.10022 6.11368 6.08812 6.00489 5.87334 11.8281 5.16346 5.03533 4.78429 5.79183 4.98159 4.17663 4.04045 4.8835 3.984 4.2239 3.97443 3.82358 3.51617 3.40826 3.36993 3.34584 3.32354 3.17602 3.07828 3.03554 3.03472 2.97643 2.95822 5.28767 2.925 2.8713
threshold=95173.967090762133 92259.390419998177 46036.455976648926 94947.420914116534 1.0000000180025095e-35 95578.561263411131 622.50000000000011 1.0000000180025095e-35 80601.187831431598 93719.295781605659 1.5000000000000002 94920.407949461311 1.0000000180025095e-35 95081.903635387614 95065.869598284349 236.50000000000003 1.0000000180025095e-35 72630.604042440129 93592.951531465354 60119.699080467544 1.0000000180025095e-35 93465.704071680564 89603.311294529398 1.0000000180025095e-35 95366.015005430381 93999.278176179199 1.5000000000000002 2.5000000000000004 90787.788146398627 42916.733789346254 83706.52248888211 150.50000000000003 90066.572566288931 1.0000000180025095e-35 119.50000000000001 36.500000000000007 1.0000000180025095e-35 6.5000000000000009 59935.08312373676 80601.187831431598 89603.311294529398 1.0000000180025095e-35 60119.699080467544 108013.86558363776 1.0000000180025095e-35 1.0000000180025095e-35 73370.776292051596 1.0000000180025095e-35 73577.525067145849 73370.776292051596 80601.187831431598 69.500000000000014 94132.951070465308 108210.4670999073 1.5000000000000002 89603.311294529398 295.50000000000006 119.50000000000001 36.500000000000007 150.50000000000003 101943.32960883153 95578.561263411131
decision_type=2 2 2 2 2 2 2 2 2 2 2 2 2 2 2 2 2 2 2 2 2 2 2 2 2 2 2 2 2 2 2 2 2 2 2 2 2 2 2 2 2 2 2 2 2 2 2 2 2 2 2 2 2 2 2 2 2 2 2 2 2 2
left_child=1 2 6 4 7 10 17 11 26 -6 12 50 16 14 -5 18 19 -1 33 21 22 47 46 38 -2 -9 49 28 42 36 -31 -24 52 44 35 -34 -19 -22 -14 -40 -41 -30 43 -10 45 53 -21 -4 -43 -7 -3 -27 54 -13 -20 -44 57 -52 -23 -60 -37 -15
right_child=24 3 5 13 9 8 -8 25 27 -11 -12 15 23 61 -16 -17 -18 29 32 20 37 58 31 -25 -26 51 -28 -29 41 30 -32 -33 34 -35 -36 60 -38 -39 39 40 -42 48 55 -45 -46 -47 -48 -49 -50 -51 56 -53 -54 -55 -56 -57 -58 -59 59 -61 -62 -63
leaf_value=-687.05519709086411 -3.4489687173841959 -663.83199552983069 -473.2021629670395 -25.371813261249969 377.67060558438396 -435.76454124992802 -797.2732148677668 -486.11027401950099 -374.95286509344771 -347.73229574874057 -71.468036974117794 -716.03218617613175 -439.1335081606897 -36.013813400668369 17.067699956201249 -429.36675528004935 79.883833442344454 -611.50600918667953 -477.58566636280193 -449.35065059272097 -707.51214063232078 -783.05335310034286 -719.13561139577655 -100.32107150433292 835.64144757659676 -315.06273655813555 -213.46129203030929 675.05525358631553 37.152970893867476 -615.5117354643852 -341.59497257449476 37.799026251552505 -415.69930397818911 -514.43964270620052 -438.53437595623586 -356.92621198372183 -389.04342480468767 -597.17920416067784 -739.35549936432403 -476.36104792690696 -653.3885706864603 173.96898930068858 -185.93636243873772 -605.66960096028049 -720.79375679579471 -730.27632003840415 -200.06089914168783 -354.2996899265778 -459.98090808744968 -564.57050028543927 -592.37142337198566 -221.2170710079514 -279.98566636280196 -680.49657648129732 -475.97973559518618 -491.97216713782149 -463.64762060546894 -549.28691654070246 120.93192061505107 -556.16167146558985 -201.7705842671246 -26.049964681921484
leaf_weight=53 385 157 63 193 200 74 216 119 76 71 635 249 57 104 229 108 228 146 145 301 81 94 150 56 40435 50 49 802 2786 109 316 40 420 68 68 72 52 80 65 266 41 62 716 62 40 44 807 46 104 60 1330 42 390 82 57 97 42 187 69 66 45 93
leaf_count=53 385 157 63 193 200 74 216 119 76 71 635 249 57 104 229 108 228 146 145 301 81 94 150 56 40435 50 49 802 2786 109 316 40 420 68 68 72 52 80 65 266 41 62 716 62 40 44 807 46 104 60 1330 42 390 82 57 97 42 187 69 66 45 93
internal_value=0.00026587 -0.0134146 -0.00668627 -0.0264549 -0.0286929 -0.00431781 -0.0280157 -0.0302624 -0.00116817 -0.00717712 -0.00921304 -0.0312871 -0.0112948 -0.0120436 -0.00672986 -0.0275783 -0.00912346 -0.0231065 -0.028631 -0.0104146 -0.00870802 -0.0177811 -0.00713405 -0.0203608 0.00480034 -0.0132464 -0.0187705 -0.000483528 -0.00131565 -0.0213242 -0.0179412 -0.0173684 -0.0310067 -0.0227433 -0.0274793 -0.0257263 -0.0285859 -0.0213975 -0.0227389 -0.020672 -0.0178013 5.42007e-05 -0.00556782 -0.0134783 -0.025 -0.0266 -0.00537906 -0.0307798 -0.0076506 -0.0244776 -0.0351515 -0.0232609 -0.0346115 -0.0285347 -0.0294059 -0.00422509 -0.0344484 -0.0348154 -0.0115939 -0.00685185 -0.0116667 -0.0234264
internal_weight=54350 13530 8925 4605 3986 8033 892 3715 4888 271 3145 3504 2510 619 422 1788 2025 676 1680 1797 1459 338 1298 485 40820 211 183 4705 3903 623 425 190 1197 483 605 537 198 161 429 372 307 2952 951 138 415 375 1108 109 166 134 1716 92 592 331 202 813 1559 1517 229 135 117 197
internal_count=54350 13530 8925 4605 3986 8033 892 3715 4888 271 3145 3504 2510 619 422 1788 2025 676 1680 1797 1459 338 1298 485 40820 211 183 4705 3903 623 425 190 1197 483 605 537 198 161 429 372 307 2952 951 138 415 375 1108 109 166 134 1716 92 592 331 202 813 1559 1517 229 135 117 197
is_linear=0
shrinkage=0.05


Tree=3
num_leaves=63
num_cat=0
split_feature=0 0 0 0 48 59 1 10 10 4 1 0 0 4 0 5 0 0 5 0 50 5 5 4 21 61 0 0 0 4 10 0 49 50 49 27 2 0 10 1 53 50 25 49 5 10 4 4 2 0 0 10 17 51 67 10 1 16 1 10 2 1
split_gain=1271.62 360.082 173.122 136.38 54.0326 48.2436 37.999 27.4523 22.1627 19.4512 16.0303 29.3121 17.4131 15.6718 12.4223 15.4815 12.6661 11.7711 13.8759 10.4765 10.3152 10.1382 9.8305 7.49193 7.10637 7.14317 6.68199 12.0515 20.2593 6.63971 6.63465 6.35516 6.31814 6.28779 6.218 6.20768 5.71801 5.44657 6.2584 5.32541 4.85327 4.82091 4.79274 4.09746 4.50142 6.18368 4.24696 4.00104 5.3661 3.88891 3.74637 3.72568 3.5425 3.24098 3.14377 2.96134 2.95055 3.55909 2.8713 2.83683 2.80623 3.31301
threshold=95477.298084637805 92259.390419998177 46036.455976648926 94947.420914116534 1.0000000180025095e-35 1.0000000180025095e-35 94920.407949461311 622.50000000000011 309.00000000000006 1.5000000000000002 94800.572089044537 94858.567234804563 93719.295781605659 1.5000000000000002 60119.699080467544 93465.704071680564 90530.478677791238 60119.699080467544 108013.86558363776 93527.221247236754 1.0000000180025095e-35 90066.572566288931 72630.604042440129 1.0000000180025095e-35 1.0000000180025095e-35 1.0000000180025095e-35 95065.869598284349 95081.903635387614 95173.967090762133 1.5000000000000002 36.500000000000007 42916.733789346254 1.0000000180025095e-35 1.0000000180025095e-35 1.0000000180025095e-35 1.0000000180025095e-35 83706.52248888211 89603.311294529398 11.500000000000002 103759.30305571451 1.0000000180025095e-35 1.0000000180025095e-35 1.0000000180025095e-35 1.0000000180025095e-35 108013.86558363776 26.500000000000004 1.0000000180025095e-35 2.5000000000000004 76166.219689523699 91908.30993737781 95366.015005430381 9.5000000000000018 1.0000000180025095e-35 1.0000000180025095e-35 1.0000000180025095e-35 22.500000000000004 91155.375582865876 1.0000000180025095e-35 95578.561263411131 2.5000000000000004 95685.824972836665 81182.512510506189
decision_type=2 2 2 2 2 2 2 2 2 2 2 2 2 2 2 2 2 2 2 2 2 2 2 2 2 2 2 2 2 2 2 2 2 2 2 2 2 2 2 2 2 2 2 2 2 2 2 2 2 2 2 2 2 2 2 2 2 2 2 2 2 2
left_child=1 2 7 4 8 6 9 22 10 14 11 32 19 23 15 -4 30 18 35 33 -10 -14 -1 -7 25 34 -5 -28 58 39 40 41 52 42 -23 51 -33 47 59 -21 43 -24 -12 44 46 53 -16 48 -19 -18 -30 -8 -3 60 -50 -15 -32 -58 -29 -39 61 -46
right_child=-2 3 5 26 -6 13 17 -9 20 -11 12 -13 21 55 16 -17 49 37 -20 29 -22 24 31 -25 -26 -27 27 28 50 -31 56 36 -34 -35 -36 -37 -38 38 -40 -41 -42 -43 -44 -45 45 -47 -48 -49 54 -51 -52 -53 -54 -55 -56 -57 57 -59 -60 -61 -62 -63
leaf_value=-652.70243723632086 793.85937519776678 -603.10086465206757 -449.5420548186874 -24.103222598187546 16.60671454395408 -395.43962754358517 -307.42512375385348 -757.40955412437836 335.04432822783713 18.393401848705981 -705.65976142686179 -8.3394290960153743 -369.84125316599921 -36.460018683386082 -142.34049163204136 -655.20270148842212 -649.99937060314562 -330.38156577271047 -63.923011357285695 -487.8088423663113 -452.9728211409037 -387.23382681587236 -580.93070872734575 -813.33366727486418 -157.99121307631322 -314.42708314417581 16.214314958391334 -34.213122730634858 -3.2765202815149679 439.81061900039543 63.269110678118444 -584.73614869116579 -403.85908182629868 -745.45642388761121 -299.5702986528064 13.00381680897115 -324.51522394577006 -479.15847661888711 -129.48289557088145 -463.87408880538464 391.88812285207376 -369.59125356445332 -583.91495505408773 81.619554969209048 -750.03655922400833 -699.32297594413149 -450.47657067919829 774.15617952186085 29.438291921661051 -629.37923541225837 -12.428866987872972 -380.11618396657832 -425.77516921468708 -145.37468708363224 -374.00690352643107 -397.89743568392373 -96.524234388484558 -419.75049019305948 -24.747466447825357 -705.35901166886924 -567.69671104189626 -552.61818470918922
leaf_weight=53 40246 1539 166 193 168 57 102 216 81 552 358 75 613 61 236 239 108 205 341 65 47 498 146 129 47 61 229 104 385 63 300 109 74 45 80 51 316 83 336 69 85 52 41 74 43 44 217 757 2874 44 189 123 62 73 75 42 171 51 93 70 167 157
leaf_count=53 40246 1539 166 193 168 57 102 216 81 552 358 75 613 61 236 239 108 205 341 65 47 498 146 129 47 61 229 104 385 63 300 109 74 45 80 51 316 83 336 69 85 52 41 74 43 44 217 757 2874 44 189 123 62 73 75 42 171 51 93 70 167 157
internal_value=0.000332107 -0.0125872 -0.0065014 -0.0230749 -0.0275138 -0.00418088 -0.00343233 -0.0273991 -0.0287349 -0.00818298 -0.0294444 -0.0329143 -0.0263144 -0.0242388 -0.0103103 -0.0182099 -0.00850282 -0.000850109 -0.00731767 -0.019571 -0.00828125 -0.029642 -0.0224408 -0.0329032 -0.0254665 -0.0268466 -0.00824392 -0.0066 -0.00959144 -0.00997462 -0.00720643 -0.0206822 -0.0342836 -0.0238288 -0.028564 -0.0156522 -0.0172353 5.68184e-05 -0.0049182 -0.0162687 -0.00941606 -0.0280808 -0.0258271 -0.0103808 -0.0112753 -0.0146281 -0.00769316 0.000678855 -0.000104629 -0.0223026 -0.00484321 -0.0192222 -0.0349438 -0.0128409 0.000439132 -0.00859223 -0.00256705 -0.00693694 -0.0234264 -0.0133007 -0.0147548 -0.01875
internal_weight=54350 14104 8925 5179 3986 8033 7744 892 3818 2727 3690 1750 1940 289 2175 405 1770 5017 617 641 128 1299 676 186 686 639 1193 1000 771 197 1618 623 1675 444 578 276 425 4400 489 134 1096 198 399 1011 937 484 453 3911 3154 152 574 225 1601 440 2949 103 522 222 197 153 367 200
internal_count=54350 14104 8925 5179 3986 8033 7744 892 3818 2727 3690 1750 1940 289 2175 405 1770 5017 617 641 128 1299 676 186 686 639 1193 1000 771 197 1618 623 1675 444 578 276 425 4400 489 134 1096 198 399 1011 937 484 453 3911 3154 152 574 225 1601 440 2949 103 522 222 197 153 367 200
is_linear=0
shrinkage=0.05


Tree=4
num_leaves=63
num_cat=0
split_feature=0 0 0 0 48 59 1 10 1 0 10 4 0 4 0 5 52 5 2 0 0 26 15 4 0 0 0 10 0 0 1 10 10 5 4 26 67 5 5 0 15 10 2 1 5 42 10 0 2 50 1 2 10 2 10 10 5 10 10 0 1 1
split_gain=1187.23 312.826 158.401 153.213 49.6681 44.4075 34.439 29.3916 20.6403 23.525 19.2251 17.5433 13.8635 13.6613 11.4375 13.4246 10.2874 9.37792 8.90698 8.61073 7.83515 10.3421 7.46008 7.3901 7.29099 11.2323 21.0348 7.20665 6.97605 6.54847 6.36068 6.01172 7.3871 6.38115 5.97655 5.6717 5.59181 5.55882 5.40716 5.02135 4.91375 5.35094 4.8535 4.9333 4.75592 4.44536 4.39003 4.15895 6.56884 6.2535 3.52473 3.81798 4.5 3.39481 3.23659 4.1845 3.23221 3.81139 3.15536 3.13306 3.12757 4.16461
threshold=95554.491442477374 92259.390419998177 46036.455976648926 94858.567234804563 1.0000000180025095e-35 1.0000000180025095e-35 94920.407949461311 622.50000000000011 94800.572089044537 94769.518392781043 42.500000000000007 1.5000000000000002 93719.295781605659 1.5000000000000002 60119.699080467544 93465.704071680564 1.0000000180025095e-35 72630.604042440129 113249.43308417196 90530.478677791238 64411.634132384374 1.0000000180025095e-35 1.0000000180025095e-35 1.5000000000000002 95065.869598284349 95081.903635387614 95173.967090762133 34.500000000000007 59935.08312373676 93527.221247236754 94920.407949461311 119.50000000000001 169.00000000000003 90066.572566288931 1.0000000180025095e-35 1.0000000180025095e-35 1.0000000180025095e-35 80601.187831431598 93465.704071680564 89603.311294529398 1.0000000180025095e-35 295.50000000000006 83138.240741522153 95696.281911428843 93465.704071680564 1.0000000180025095e-35 6.5000000000000009 42916.733789346254 84529.50190929127 1.0000000180025095e-35 91429.680835679683 91118.889676621286 5.5000000000000009 75483.323403576549 78.500000000000014 68.500000000000014 90066.572566288931 44.500000000000007 44.500000000000007 91908.30993737781 92685.968864643903 93559.505027408552
decision_type=2 2 2 2 2 2 2 2 2 2 2 2 2 2 2 2 2 2 2 2 2 2 2 2 2 2 2 2 2 2 2 2 2 2 2 2 2 2 2 2 2 2 2 2 2 2 2 2 2 2 2 2 2 2 2 2 2 2 2 2 2 2
left_child=1 2 7 4 8 6 11 17 9 37 12 16 23 34 15 27 19 -1 31 20 38 50 42 -10 30 -26 -27 -8 -18 -25 -5 33 -33 -12 -7 36 39 -3 58 45 41 -39 -14 -44 -41 53 -23 49 -49 -19 -22 52 -52 -16 55 -35 -32 -58 -4 -21 -40 -62
right_child=-2 3 5 24 -6 13 14 -9 10 -11 18 -13 22 -15 35 -17 28 47 -20 59 21 46 -24 29 25 26 -28 -29 -30 -31 56 32 -34 54 -36 -37 -38 40 60 44 -42 -43 43 -45 -46 -47 -48 48 -50 -51 51 -53 -54 -55 -56 -57 57 -59 -60 -61 61 -63
leaf_value=-620.06731537450469 776.92711092643594 -622.32535052159619 -427.06495207775299 -12.829492939858392 50.361350634580234 -375.6676461664058 -261.68450890202513 -719.53907641815931 -645.9804877973105 -3.5226589979254004 -407.4019598830339 17.47373175627072 -398.2484286812462 -354.81643170130195 -217.41439458731517 -83.828414082943354 -525.97328434610824 -551.88417329097831 -300.62684182022167 -658.13745298010144 -193.58819333022151 -616.85639562653114 -204.58407741709266 -591.17432757854078 15.403599210471658 -31.10877097443165 -6.9363666849283625 -341.98160228685845 -292.74068534865631 342.53963055951033 -16.013951868786535 -479.01055781210857 -437.11801346699917 -309.31876641235448 -772.66698391112095 -336.20137476042873 -416.00454639688616 -571.68920622267808 -348.73446934335038 -508.15649817973684 -319.19499857470657 -409.51968874982055 -313.52243056537674 -364.39335193426689 -125.76463930280245 -508.25899791169962 -526.03191951738438 -559.77012171431954 -296.04262160433427 -351.11169088623069 -109.82301116009322 -260.68646436074431 -566.03063226352765 169.64257016109426 25.185320966827533 -681.08950047980727 -13.071369803459039 -29.238322979473537 -314.10760268931449 -597.91027364164552 -737.63099917824002 -189.44859730578574
leaf_weight=53 40045 148 103 156 163 57 173 216 352 80 61 552 203 103 256 365 41 146 146 99 773 76 51 55 229 197 775 79 57 54 85 79 92 57 129 244 62 1381 202 121 63 45 67 594 299 48 73 113 312 52 75 312 150 3370 58 40 102 47 67 44 43 60
leaf_count=53 40045 148 103 156 163 57 173 216 352 80 61 552 203 103 256 365 41 146 146 99 773 76 51 55 229 197 775 79 57 54 85 79 92 57 129 244 62 1381 202 121 63 45 67 594 299 48 73 113 312 52 75 312 150 3370 58 40 102 47 67 44 43 60
internal_value=0.000447102 -0.0119172 -0.00617647 -0.0214405 -0.0269082 -0.0039568 -0.00323864 -0.0261659 -0.0281219 -0.0320996 -0.0245443 -0.00776128 -0.0276672 -0.0232007 -0.000780347 -0.00715559 -0.00978161 -0.0210355 -0.0164822 -0.00903466 -0.00815926 -0.00634339 -0.0312295 -0.0205965 -0.00841923 -0.00649042 -0.00883745 -0.0160317 -0.0256122 -0.00922018 -0.014359 -0.0204522 -0.0274561 -0.0149074 -0.0312903 0.000113637 0.000548605 -0.0333934 -0.0137368 0.000774304 -0.0324748 -0.0330785 -0.0323264 -0.0302496 -0.00440476 0.00136636 -0.0188255 -0.0193178 -0.0165294 -0.025303 -0.00492366 -0.00803538 -0.013 0.00156646 -0.00951613 -0.0151031 -0.0195726 -0.0151342 -0.0208824 -0.0208741 -0.0097541 -0.0168447
internal_weight=54350 14305 8925 5380 3789 8033 7744 892 3626 1717 1909 2727 1376 289 5017 617 2175 676 533 2077 1934 1459 915 461 1591 1201 972 252 98 109 390 387 171 216 186 4400 4156 1637 475 4094 1489 1426 864 661 420 3674 149 623 425 198 1310 537 225 3626 155 97 234 149 170 143 305 103
internal_count=54350 14305 8925 5380 3789 8033 7744 892 3626 1717 1909 2727 1376 289 5017 617 2175 676 533 2077 1934 1459 915 461 1591 1201 972 252 98 109 390 387 171 216 186 4400 4156 1637 475 4094 1489 1426 864 661 420 3674 149 623 425 198 1310 537 225 3626 155 97 234 149 170 143 305 103
is_linear=0
shrinkage=0.05


Tree=5
num_leaves=63
num_cat=0
split_feature=0 0 0 0 18 5 10 49 4 2 0 0 5 4 4 0 2 26 0 10 10 10 19 26 61 4 50 0 0 0 0 0 0 10 2 10 10 5 10 10 10 0 10 0 0 34 0 0 10 0 5 0 50 5 0 2 10 10 2 10 13 2
split_gain=1148.93 264.713 158.89 140.554 51.7176 47.5665 27.7975 22.0326 21.7291 35.1586 18.3419 16.3868 15.9085 12.3003 11.4104 11.0839 10.8098 10.3864 10.2609 9.35995 10.6091 13.0325 9.35323 8.77476 8.63901 8.21725 6.28218 5.8441 5.7041 5.43118 19.8118 17.3315 5.38568 5.12097 5.10621 5.90712 6.03622 6.69756 4.90687 4.69013 4.66765 4.52865 4.5138 4.48504 4.27195 4.16879 4.1551 3.99193 4.24671 3.89228 3.7749 3.48038 6.64342 3.41027 3.29804 3.24339 3.75277 6.61478 3.07545 3.0014 2.77092 2.694
threshold=95624.291386261248 92259.390419998177 94858.567234804563 46036.455976648926 1.0000000180025095e-35 63936.979519391207 622.50000000000011 1.0000000180025095e-35 1.5000000000000002 95885.526052555331 94653.252212758744 93912.60450503086 63936.979519391207 1.5000000000000002 -1.0000000180025095e-35 91248.181839497716 83474.610537191838 1.0000000180025095e-35 60119.699080467544 236.50000000000003 119.50000000000001 84.000000000000014 1.0000000180025095e-35 1.0000000180025095e-35 1.0000000180025095e-35 1.5000000000000002 1.0000000180025095e-35 89603.311294529398 73370.776292051596 95173.967090762133 95081.903635387614 95065.869598284349 94132.951070465308 8.5000000000000018 83138.240741522153 9.5000000000000018 68.500000000000014 90066.572566288931 6.5000000000000009 47.500000000000007 50.500000000000007 95366.015005430381 36.500000000000007 89603.311294529398 84016.796244290585 1.0000000180025095e-35 73370.776292051596 89603.311294529398 9.5000000000000018 78116.965760424981 90066.572566288931 42916.733789346254 1.0000000180025095e-35 90066.572566288931 93177.535443888672 75334.464187075428 261.50000000000006 295.50000000000006 96738.087244757553 20.500000000000004 1.0000000180025095e-35 67611.165793215318
decision_type=2 2 2 2 2 2 2 2 2 2 2 2 2 2 2 2 2 2 2 2 2 2 2 2 2 2 2 2 2 2 2 2 2 2 2 2 2 2 2 2 2 2 2 2 2 2 2 2 2 2 2 2 2 2 2 2 2 2 2 2 2 2
left_child=1 3 4 6 7 22 16 10 9 14 12 -6 -3 19 23 18 -1 28 -16 20 21 34 25 24 43 59 58 61 -11 30 31 50 -15 -9 -14 60 37 -37 -25 -12 54 -31 49 46 -20 47 55 -30 -49 -19 -4 52 -18 -43 -39 -7 -57 -58 -21 -5 -36 -10
right_child=-2 2 29 5 11 8 -8 33 27 17 39 -13 13 32 15 -17 51 42 44 26 -22 -23 -24 38 -26 -27 -28 -29 45 41 -32 -33 -34 -35 35 36 -38 40 -40 -41 -42 53 -44 -45 -46 -47 -48 48 -50 -51 -52 -53 -54 -55 -56 56 57 -59 -60 -61 -62 -63
leaf_value=-570.57973927527496 791.34520834749355 -567.28908217416426 -8.5995419047557657 -431.64029145348286 182.94107994526095 -635.03881974589808 -683.79882180189315 -525.69874718445431 -300.59994871014572 -178.85582768469885 -53.981418373579075 -238.40146726676335 -548.47530318867541 -414.10613191046627 -416.63018405251819 -451.31230097297487 -447.92160397763257 -374.06990200836276 -251.551021986141 -378.01941629181192 -476.00617806753172 -480.8780565314778 -540.3271098865855 -609.96569542928376 -714.85826753598781 38.272824254753289 -461.28968166809256 -505.13654832805224 223.40138531767127 -1.4075298252009816 -29.481983668953241 14.633419249948203 -223.59721081637832 -160.70613710960535 -553.68197086414773 -367.15452580930327 -802.06917077269918 -474.50639868984473 -511.13386292901168 -28.811416706188176 -107.84508995091929 -6.9867746429002189 -251.65054604488469 -541.35543225590732 -501.09642134873252 -446.91194177434164 -139.94162597790526 -693.71166977616258 -103.72861719204428 -420.81839028092111 -14.208612102553889 -318.17430331722323 -340.92432849799155 -12.588173878447492 -397.90030666108254 -249.24908850183184 -377.65604187070994 -543.37960705979594 -115.4314540507598 -514.92769192979176 -434.00329712778614 302.60004346376445
leaf_weight=195 39843 248 161 90 212 85 224 57 80 795 259 47 503 260 142 47 109 53 447 45 228 111 94 73 66 46 40 86 1707 385 196 234 100 139 822 160 66 55 75 87 52 231 67 186 145 40 1008 80 253 77 236 323 42 364 180 475 43 53 48 59 40 1616
leaf_count=195 39843 248 161 90 212 85 224 57 80 795 259 47 503 260 142 47 109 53 447 45 228 111 94 73 66 46 40 86 1707 385 196 234 100 139 822 160 66 55 75 87 52 231 67 186 145 40 1008 80 253 77 236 323 42 364 180 475 43 53 48 59 40 1616
internal_value=0.000466937 -0.0116124 -0.0201617 -0.00625436 -0.0260189 -0.00415123 -0.0250672 -0.0276143 -0.00340369 -0.00486142 -0.0285805 -0.00445946 -0.0298546 -0.0287454 -0.00886643 -0.0140141 -0.0199626 -0.00115234 -0.0125068 -0.0300638 -0.0308367 -0.0296657 -0.0240657 -0.0069186 -0.00601253 -0.0178205 -0.0171805 0.00143659 -0.000391304 -0.00797731 -0.0109613 -0.00664818 -0.0201389 -0.0113265 -0.0306496 -0.0290727 -0.0248246 -0.0227405 -0.0186486 -0.0176879 -0.0181707 -0.00545918 -0.0122589 -0.00537838 -0.00961149 0.000985577 -0.00455529 0.00129902 -0.00370871 -0.0176923 -0.0130101 -0.0158861 -0.0221523 -0.00819328 -0.0211702 -0.00765244 -0.00629597 -0.0153125 -0.0100538 -0.0235235 -0.0316009 0.00208137
internal_weight=54290 14447 5566 8881 3759 7988 893 3500 7699 5917 3304 259 2958 2710 2845 781 669 3072 734 2350 2217 1989 289 2064 1916 195 133 1782 2875 1807 827 631 360 196 1878 1375 513 447 148 346 287 980 197 1850 592 2080 1664 2040 333 130 397 474 151 595 235 656 571 96 93 149 862 1696
internal_count=54290 14447 5566 8881 3759 7988 893 3500 7699 5917 3304 259 2958 2710 2845 781 669 3072 734 2350 2217 1989 289 2064 1916 195 133 1782 2875 1807 827 631 360 196 1878 1375 513 447 148 346 287 980 197 1850 592 2080 1664 2040 333 130 397 474 151 595 235 656 571 96 93 149 862 1696
is_linear=0
shrinkage=0.05


Tree=6
num_leaves=63
num_cat=0
split_feature=0 0 0 0 18 59 11 49 0 5 26 0 5 0 14 2 5 0 0 0 0 67 2 61 11 11 11 16 11 5 11 16 2 42 11 2 13 29 2 14 11 0 11 0 11 2 11 11 11 0 50 5 34 5 0 0 16 0 0 0 5 11
split_gain=1117.56 264.237 146.983 130.396 57.2678 46.5103 29.8825 25.4357 23.0073 21.5346 20.9535 15.4676 14.2015 12.2127 10.657 10.6224 10.4817 10.0904 12.7116 12.4395 23.6614 9.11727 8.97431 8.48077 8.274 11.4266 13.6106 8.54708 8.08571 7.63913 10.4711 7.58912 6.68026 6.55426 6.07409 4.67145 4.61787 4.80872 4.55564 4.54884 5.88803 4.47908 4.38118 4.27155 4.11185 4.05 3.8492 4.37922 8.90617 3.49673 3.33171 3.1733 3.16208 3.1418 3.06746 2.96437 2.874 2.83791 2.83734 3.82408 2.71127 2.626
threshold=95729.976548359191 92259.390419998177 94653.252212758744 46036.455976648926 1.0000000180025095e-35 1.0000000180025095e-35 6.4232258802757327 1.0000000180025095e-35 60119.699080467544 93465.704071680564 1.0000000180025095e-35 89603.311294529398 63936.979519391207 93719.295781605659 1.0000000180025095e-35 83474.610537191838 63936.979519391207 95624.291386261248 95065.869598284349 95081.903635387614 95173.967090762133 1.0000000180025095e-35 108072.39860615115 1.0000000180025095e-35 5.4700590244241791 4.791641144189394 4.3882378946731615 1.0000000180025095e-35 3.0677824455408698 90066.572566288931 3.6242520361853052 1.0000000180025095e-35 78269.787622013042 1.0000000180025095e-35 3.8176519431297078 86582.090115680709 1.0000000180025095e-35 1.0000000180025095e-35 121448.58011554844 1.0000000180025095e-35 2.9700856263602158 95366.015005430381 2.3502401828962087 73370.776292051596 3.4811217321331038 82131.089763451106 2.249904835165133 4.0859410030639109 3.8815106545092593 94132.951070465308 1.0000000180025095e-35 90066.572566288931 1.0000000180025095e-35 90066.572566288931 78116.965760424981 93801.555921548395 1.0000000180025095e-35 84016.796244290585 93719.295781605659 93527.221247236754 80601.187831431598 5.1355215437855373
decision_type=2 2 2 2 2 2 2 2 2 2 2 2 2 2 2 2 2 2 2 2 2 2 2 2 2 2 2 2 2 2 2 2 2 2 2 2 2 2 2 2 2 2 2 2 2 2 2 2 2 2 2 2 2 2 2 2 2 2 2 2 2 2
left_child=1 3 4 6 7 8 15 12 9 14 11 21 -3 -6 31 -1 -7 18 38 -20 -21 32 61 -11 25 26 35 -26 -18 -12 39 -5 54 43 -16 49 37 46 44 40 -31 -22 -9 56 -4 -33 -37 48 53 55 52 -43 60 -48 -10 58 -34 -30 59 -14 -45 -13
right_child=-2 2 17 5 13 16 -8 42 10 23 29 22 24 -15 34 -17 28 -19 19 20 41 -23 -24 -25 27 -27 -28 -29 57 30 -32 45 33 -35 -36 36 -38 -39 -40 -41 -42 51 -44 50 -46 -47 47 -49 -50 -51 -52 -53 -54 -55 -56 -57 -58 -59 -60 -61 -62 -63
leaf_value=-542.05075231151136 778.34944300198151 -538.92462806545598 -34.769033236792019 -302.36335081538869 337.26050157490647 -655.21827710723721 -649.60888071179841 -516.67070532676269 -301.79360360561003 -169.61131915784324 -89.223901342540671 -548.88825158224256 -657.34626162210338 -307.11323171818231 -464.04372454818525 -313.22286448941304 -321.79986444841745 -29.897248580967062 13.901748287450756 -28.007884485505407 -1.3371533339410235 -533.92590599817311 -67.275298291288223 -746.18767369324109 -257.17788012203914 -449.92296860596707 -427.92107418621583 -401.01707199289598 -330.11986348759058 -370.07207066552314 -291.63613183971228 -385.68415709323409 -56.746775321955504 -400.72151513245791 -294.1290224405173 -520.5367900989753 -300.28300649543326 -349.31055424644114 1.4491412031141884 -632.66597401153638 -244.21523840237097 -6.6374359107551761 -177.82839799923096 -279.25263133698354 -29.845156382514041 -309.66881727956644 -348.7967995188381 -704.94940357900794 -57.349631662433119 -193.07591218357763 -307.37120990625056 -11.95876518452526 -224.39216811277467 -375.1747782012178 -88.259816388683788 -305.00630984080016 -338.71299846027046 -678.35635465288237 -386.27220302525023 -403.72767461441032 252.38438297394879 -251.61173962027553
leaf_weight=195 39669 248 517 222 196 80 224 50 446 576 103 354 239 52 66 474 104 174 234 196 385 78 221 48 88 234 123 52 63 90 106 40 836 68 77 767 79 51 47 93 40 231 122 42 214 40 146 83 42 289 128 364 95 226 448 162 127 52 66 63 3270 75
leaf_count=195 39669 248 517 222 196 80 224 50 446 576 103 354 239 52 66 474 104 174 234 196 385 78 221 48 88 234 123 52 63 90 106 40 836 68 77 767 79 51 47 93 40 231 122 42 214 40 146 83 42 289 128 364 95 226 448 162 127 52 66 63 3270 75
internal_value=0.000473384 -0.0113429 -0.0197038 -0.00593908 -0.0263943 -0.00391337 -0.0240593 -0.0282268 -0.00316101 -0.00996726 -0.00206193 -0.00131868 -0.0293137 -0.00326613 -0.0183708 -0.0187668 -0.0232609 -0.0101355 -0.00921389 -0.00638298 -0.00847789 -0.000462261 -0.00861538 -0.00397436 -0.0282657 -0.0289105 -0.0278553 -0.0164286 -0.0176027 -0.0127083 -0.0164286 -0.0130464 -0.00021978 0.000554096 -0.0296154 -0.0287551 -0.0269943 -0.0276996 -0.0143445 -0.0225785 -0.0165385 -0.00530612 -0.00953488 0.000787017 -0.0153146 -0.02625 -0.028307 -0.0248793 -0.0227778 -0.0317521 0.00159123 -0.00802521 0.00188876 -0.0252419 -0.00417226 -0.0293396 -0.00216511 -0.0267391 -0.0318207 -0.0297682 0.00214674 -0.0128322
internal_weight=54290 14621 5740 8881 3378 7988 893 3130 7689 1069 6620 6188 2958 248 445 669 299 2362 2188 1410 1176 5538 650 624 2710 2570 2336 140 219 432 329 302 5460 4566 143 2213 1394 1315 778 223 130 980 172 4498 731 80 1264 497 414 819 3535 595 3407 372 894 530 963 115 368 302 3312 429
internal_count=54290 14621 5740 8881 3378 7988 893 3130 7689 1069 6620 6188 2958 248 445 669 299 2362 2188 1410 1176 5538 650 624 2710 2570 2336 140 219 432 329 302 5460 4566 143 2213 1394 1315 778 223 130 980 172 4498 731 80 1264 497 414 819 3535 595 3407 372 894 530 963 115 368 302 3312 429
is_linear=0
shrinkage=0.05


Tree=7
num_leaves=63
num_cat=0
split_feature=0 0 0 0 18 59 1 10 49 0 1 4 0 1 4 5 0 0 0 2 0 5 2 0 61 10 2 15 49 10 10 10 1 0 2 10 0 4 2 13 1 10 10 1 0 10 19 40 50 25 0 42 17 10 0 5 10 1 1 2 22 4
split_gain=1078.44 251.942 127.558 117.688 54.4911 45.7183 35.207 32.7039 25.2623 22.0268 16.9918 16.8863 14.9367 28.9739 13.7823 12.9879 11.6156 20.4777 11.0389 9.06895 8.8179 9.09642 8.78936 8.43204 8.77458 9.45758 7.46217 6.6406 6.56624 6.25525 6.20526 5.75805 5.67256 5.6069 4.97 4.05606 4.05459 4.04026 4.53835 3.85539 3.69086 3.59068 3.45798 3.41962 3.38929 4.98444 3.28585 3.17237 3.15102 3.5476 3.01517 6.23149 2.98629 2.95922 2.82971 5.68047 2.75997 4.60178 2.75657 2.91893 2.75305 2.79597
threshold=95829.695671898196 92259.390419998177 94540.485843190356 46036.455976648926 1.0000000180025095e-35 1.0000000180025095e-35 94920.407949461311 622.50000000000011 1.0000000180025095e-35 95624.291386261248 94563.418921668883 1.5000000000000002 95065.869598284349 95578.561263411131 1.5000000000000002 63936.979519391207 95081.903635387614 95173.967090762133 93719.295781605659 74974.980624652191 60119.699080467544 93465.704071680564 83474.610537191838 93592.951531465354 1.0000000180025095e-35 169.00000000000003 106585.20091054976 1.0000000180025095e-35 1.0000000180025095e-35 24.500000000000004 110.50000000000001 35.500000000000007 91893.141779126148 60119.699080467544 99538.151803203902 9.5000000000000018 95366.015005430381 2.5000000000000004 86252.617573634619 1.0000000180025095e-35 91429.680835679683 12.500000000000002 7.5000000000000009 95578.561263411131 94947.420914116534 47.500000000000007 1.0000000180025095e-35 1.0000000180025095e-35 1.0000000180025095e-35 1.0000000180025095e-35 42916.733789346254 1.0000000180025095e-35 1.0000000180025095e-35 119.50000000000001 60119.699080467544 93465.704071680564 36.500000000000007 102449.24196768938 93667.010644137976 108462.78965348312 1.0000000180025095e-35 1.0000000180025095e-35
decision_type=2 2 2 2 2 2 2 2 2 2 2 2 2 2 2 2 2 2 2 2 2 2 2 2 2 2 2 2 2 2 2 2 2 2 2 2 2 2 2 2 2 2 2 2 2 2 2 2 2 2 2 2 2 2 2 2 2 2 2 2 2 2
left_child=1 3 4 7 8 6 11 22 10 12 47 19 13 -4 42 -12 -14 43 -6 33 21 31 60 39 25 27 44 53 32 -16 -11 -8 41 -5 46 -10 -19 38 -22 48 -35 -21 -7 -18 45 -15 -34 52 49 -17 51 -24 58 -25 55 -43 57 -40 59 -3 61 -1
right_child=-2 2 9 5 18 14 20 -9 35 30 15 -13 16 26 29 23 17 36 -20 28 37 -23 50 24 -26 -27 -28 -29 -30 -31 -32 -33 34 40 -36 -37 -38 -39 56 -41 -42 54 -44 -45 -46 -47 -48 -49 -50 -51 -52 -53 -54 -55 -56 -57 -58 -59 -60 -61 -62 -63
leaf_value=-334.77504368928754 756.835318324083 -535.05805036339837 -9.5448035833961491 -525.03987799278468 320.39747649616112 -409.37686613633537 -237.34202403013379 -617.12843667620837 -516.59636966301662 -29.127747890692628 -452.86468066456337 16.559723175549518 13.206660873078363 -56.435346036980107 37.602577795651086 -548.39625224093868 -28.385601009224775 -1.2702956672441361 -306.60650904122411 -473.03856709720998 -210.88849024111119 -79.944082976643358 -311.27153055680873 -333.84247368042838 -191.61859874617483 -240.59692980370593 -36.160555217405587 -126.90520757431915 39.860486255647508 -559.1471359020037 -21.671277029549866 -303.6452263756396 -551.21340710483719 -359.11166023408998 -315.47584641096478 -174.20201837059395 -9.8151342813696694 666.56462970510609 -205.45735166849823 -402.01192747896664 -521.32349844677412 -242.75974688183143 -624.56287330008968 -23.386684490872359 -23.005538535268354 -44.934559684952546 -204.03764567768417 -449.13733268053841 -611.16251338209236 -452.31803689621847 -286.60444492689135 -410.11317946026065 -329.28343475090531 -322.41637359224944 -84.504922898291667 -233.80904380691419 173.48290233043627 148.61034568533114 -372.35802529345113 -516.48916630299493 -341.26400487026888 -584.51031364793698
leaf_weight=47 39466 900 452 57 196 42 178 224 48 308 120 536 234 262 67 344 99 385 47 513 610 376 63 631 60 56 120 44 195 48 69 75 355 143 217 119 595 755 789 60 92 43 142 97 63 72 83 67 59 42 323 88 51 42 389 70 1358 855 209 92 62 86
leaf_count=47 39466 900 452 57 196 42 178 224 48 308 120 536 234 262 67 344 99 385 47 513 610 376 63 631 60 56 120 44 195 48 69 75 355 143 217 119 595 755 789 60 92 43 142 97 63 72 83 67 59 42 323 88 51 42 389 70 1358 855 209 92 62 86
internal_value=0.000497329 -0.0110011 -0.0189694 -0.00566884 -0.0257813 -0.00374437 -0.00299844 -0.0228835 -0.0276596 -0.0110922 -0.0287955 -0.00760676 -0.00931274 -0.0140918 -0.0229264 -0.0250754 -0.00602837 -0.00805272 -0.00302469 -0.00958044 -0.000514411 -0.00604928 -0.0173468 -0.0236622 -0.0267527 -0.0281824 -0.022176 -0.029728 -0.00829759 -0.00934783 -0.022321 -0.0133794 -0.00931138 -0.017774 -0.0129389 -0.00877245 -0.00510204 0.000282803 -0.000412514 -0.0185644 -0.0143617 -0.00697044 -0.031413 -0.0228061 -0.0254786 -0.027485 -0.0160046 -0.0329075 -0.0201685 -0.0218135 -0.0136709 -0.0195033 -0.0323403 -0.0309584 -0.00396414 -0.0109292 0.000386409 -0.000991484 -0.0328435 -0.031744 -0.0262821 -0.0303383
internal_weight=54290 14824 5943 8881 3187 7988 7689 893 2944 2756 2777 2693 2379 969 299 1458 1410 1176 243 2157 4996 629 669 1338 833 773 517 717 1865 115 377 253 1670 292 655 167 980 4367 3612 505 235 1015 184 196 397 334 438 1319 445 386 474 151 1252 673 502 113 3002 1644 1201 992 195 133
internal_count=54290 14824 5943 8881 3187 7988 7689 893 2944 2756 2777 2693 2379 969 299 1458 1410 1176 243 2157 4996 629 669 1338 833 773 517 717 1865 115 377 253 1670 292 655 167 980 4367 3612 505 235 1015 184 196 397 334 438 1319 445 386 474 151 1252 673 502 113 3002 1644 1201 992 195 133
is_linear=0
shrinkage=0.05


Tree=8
num_leaves=63
num_cat=0
split_feature=0 0 0 0 0 18 0 1 49 5 0 1 5 0 5 5 0 14 19 54 1 0 0 61 10 10 5 20 15 1 10 0 0 10 0 0 0 19 0 10 1 40 0 0 14 0 10 10 0 50 25 17 1 10 5 5 17 0 1 0 0 10
split_gain=1027.93 238.766 108.8 101.461 54.9672 47.019 45.1183 34.7943 21.2971 19.093 16.0425 25.6132 15.9503 15.7232 15.5699 12.3942 10.8312 9.9276 9.10867 8.70579 8.67255 11.8917 7.92281 8.41279 8.1904 7.43581 7.64592 6.70736 6.6398 6.46568 6.28491 6.67768 6.43391 5.79083 5.58378 19.5444 5.71428 4.79527 4.24838 4.05606 3.97422 3.95372 3.85343 3.85027 3.74977 3.737 6.32569 3.36658 3.35233 3.90632 4.25539 3.34893 4.4438 3.32325 3.17206 3.07534 3.049 3.01338 2.95883 2.87798 2.85991 2.84564
threshold=95912.090700562796 92259.390419998177 56395.838056017026 94540.485843190356 95624.291386261248 1.0000000180025095e-35 34737.194665983894 94920.407949461311 1.0000000180025095e-35 90066.572566288931 94858.567234804563 94977.799242532346 80601.187831431598 89603.311294529398 63936.979519391207 63936.979519391207 93719.295781605659 1.0000000180025095e-35 1.0000000180025095e-35 1.0000000180025095e-35 94474.699630687988 94406.20360162681 93592.951531465354 1.0000000180025095e-35 169.00000000000003 14.500000000000002 93465.704071680564 1.0000000180025095e-35 1.0000000180025095e-35 92506.872466491492 150.50000000000003 48455.761641154888 42916.733789346254 9.5000000000000018 95081.903635387614 95173.967090762133 95065.869598284349 1.0000000180025095e-35 89603.311294529398 9.5000000000000018 95578.561263411131 1.0000000180025095e-35 94947.420914116534 95366.015005430381 1.0000000180025095e-35 60119.699080467544 30.500000000000004 150.50000000000003 93527.221247236754 1.0000000180025095e-35 1.0000000180025095e-35 1.0000000180025095e-35 94108.220870985329 119.50000000000001 108013.86558363776 90066.572566288931 1.0000000180025095e-35 73577.525067145849 108210.4670999073 96026.323055712564 94324.610544337367 336.50000000000006
decision_type=2 2 2 2 2 2 2 2 2 2 2 2 2 2 2 2 2 2 2 2 2 2 2 2 2 2 2 2 2 2 2 2 2 2 2 2 2 2 2 2 2 2 2 2 2 2 2 2 2 2 2 2 2 2 2 2 2 2 2 2 2 2
left_child=1 2 6 5 10 8 -1 13 15 33 11 -5 18 14 37 60 -7 29 -9 27 21 41 48 24 28 -6 -27 30 53 -16 31 -11 -32 -8 36 40 42 -4 56 -10 -36 51 -12 -37 -40 -19 54 -15 49 50 -22 52 -17 -24 -47 -45 -14 -31 -13 -2 -3 -34
right_child=59 3 7 4 25 16 9 12 39 19 34 58 38 47 17 20 -18 45 -20 -21 22 -23 23 -25 -26 26 -28 -29 -30 57 32 -33 61 -35 35 43 -38 -39 44 -41 -42 -43 -44 55 -46 46 -48 -49 -50 -51 -52 -53 -54 -55 -56 -57 -58 -59 -60 -61 -62 -63
leaf_value=-571.55286043231831 -1.0064475921211853 -545.10936436872737 -438.28769005500266 -6.1808603074735826 -28.794025701912688 304.37760267135309 -275.24348540039222 -195.5436697298228 -490.76655117986593 -310.44136270741433 -4.1378251643928072 -55.615362907280726 -2.4189265089363037 -547.31139772395852 -100.39259169320452 -504.30195836362748 -291.276183589163 -280.57698017665183 -439.18950265209509 277.5570051963565 -542.83899993980913 -35.453764011837293 -315.15290285009763 -182.03766880886621 -223.17179626104746 -26.2959596521534 -26.159181932065621 -102.0106380281497 -117.78920496681604 -316.28937664620162 -293.47208422720871 -743.34330652218489 -321.80707144818808 -422.38648257672617 -26.96632095876339 -1.2067808838819474 12.546327829424264 -531.18977910690342 -463.78052597707295 -165.49191745206409 -22.217350266328868 -427.8954660646163 -13.260937738582555 -5.8148074011486646 30.844263255956488 -261.12268891793968 43.736191869289243 -211.91469993091403 -349.64442180015777 -601.14992188485087 -506.47873893130532 -315.15489236110795 -310.86528642984246 -305.75169689163499 -565.33928603757056 -10.8700702112302 356.81466991703928 -207.34989449850602 -46.432715931817171 771.8752966559307 -84.425475229752948 -730.43636477094867
leaf_weight=219 219 195 67 252 285 196 124 121 48 239 208 252 3551 226 1313 873 47 63 49 101 334 119 651 60 58 121 166 143 45 289 53 42 87 270 99 385 234 52 292 119 97 61 189 231 211 82 90 41 86 52 44 42 71 43 189 364 676 240 68 39052 43 51
leaf_count=219 219 195 67 252 285 196 124 121 48 239 208 252 3551 226 1313 873 47 63 49 101 334 119 651 60 58 121 166 143 45 289 53 42 87 270 99 385 234 52 292 119 97 61 189 231 211 82 90 41 86 52 44 42 71 43 189 364 676 240 68 39052 43 51
internal_value=0.000524959 -0.0106002 -0.00535919 -0.0181834 -0.0115029 -0.0243693 -0.0185515 -0.00303761 -0.0261141 -0.0144595 -0.00815679 -0.0154545 -0.000540816 -0.00765083 -0.00636268 -0.027157 -0.00323045 -0.00543689 -0.0155882 -0.00959497 -0.0261343 -0.0293053 -0.0234414 -0.0263886 -0.0277478 -0.0254196 -0.0197387 -0.0118293 -0.0291678 -0.00384908 -0.0147034 -0.00994662 -0.0217016 -0.0232995 -0.00584671 -0.00788265 -0.0020523 -0.0239916 1.86265e-10 -0.00877245 -0.0222959 -0.0310076 -0.00570529 -0.005 -0.00434394 -0.0123349 -0.010374 -0.0191573 -0.0185465 -0.0203488 -0.0221164 -0.0302434 -0.030858 -0.0303746 -0.0141882 -0.00752101 0.000516915 -0.00851607 -0.0248437 0.00477974 -0.0380672 -0.0160145
internal_weight=54290 15019 8881 6138 2951 3187 1329 7552 2944 1110 2379 572 4900 2652 2385 2777 243 2266 170 716 2539 1166 1373 857 797 572 287 615 739 1842 472 281 191 394 1807 1176 631 119 4730 167 196 1047 397 980 503 424 361 267 516 430 378 986 944 694 271 595 4227 529 320 39271 238 138
internal_count=54290 15019 8881 6138 2951 3187 1329 7552 2944 1110 2379 572 4900 2652 2385 2777 243 2266 170 716 2539 1166 1373 857 797 572 287 615 739 1842 472 281 191 394 1807 1176 631 119 4730 167 196 1047 397 980 503 424 361 267 516 430 378 986 944 694 271 595 4227 529 320 39271 238 138
is_linear=0
shrinkage=0.05


Tree=9
num_leaves=63
num_cat=0
split_feature=0 0 0 0 0 18 59 0 1 49 5 0 1 14 4 59 0 0 1 0 54 0 10 10 26 5 10 1 2 4 5 0 0 10 14 34 1 1 10 5 10 13 2 0 4 40 0 0 0 0 1 10 10 2 4 4 34 5 67 50 25 0
split_gain=987.976 229.101 102.264 99.6541 54.5724 45.1535 43.2546 41.5138 23.897 20.1857 18.341 14.8538 14.9906 13.5674 12.8482 11.6884 10.8312 9.03585 8.20435 16.1743 8.09143 7.89461 8.55698 7.89394 7.84772 7.44003 6.38579 6.24123 6.26354 5.33277 7.23575 5.25938 5.59006 5.20162 4.60078 4.53052 4.37932 4.13375 4.05606 3.86383 3.97703 3.79221 3.72668 3.48238 4.84242 3.35421 3.32083 19.4293 6.47066 3.70499 3.69732 3.31832 4.93786 3.08357 3.08152 3.03615 3.8212 3.02694 3.02011 2.91724 3.42513 2.86901
threshold=95912.090700562796 92259.390419998177 94540.485843190356 56395.838056017026 95624.291386261248 1.0000000180025095e-35 1.0000000180025095e-35 34737.194665983894 94920.407949461311 1.0000000180025095e-35 90066.572566288931 94769.518392781043 94977.799242532346 1.0000000180025095e-35 1.5000000000000002 1.0000000180025095e-35 93719.295781605659 91248.181839497716 94474.699630687988 94406.20360162681 1.0000000180025095e-35 93592.951531465354 36.500000000000007 14.500000000000002 1.0000000180025095e-35 93465.704071680564 9.5000000000000018 92506.872466491492 78522.196052904008 2.5000000000000004 80601.187831431598 60119.699080467544 89603.311294529398 24.500000000000004 1.0000000180025095e-35 1.0000000180025095e-35 95954.26102527311 93667.010644137976 9.5000000000000018 108013.86558363776 27.500000000000004 1.0000000180025095e-35 93718.566259859901 94132.951070465308 1.5000000000000002 1.0000000180025095e-35 95081.903635387614 95173.967090762133 95065.869598284349 95366.015005430381 95578.561263411131 36.500000000000007 34.500000000000007 93718.566259859901 1.0000000180025095e-35 2.5000000000000004 1.0000000180025095e-35 90066.572566288931 1.0000000180025095e-35 1.0000000180025095e-35 1.0000000180025095e-35 96026.323055712564
decision_type=2 2 2 2 2 2 2 2 2 2 2 2 2 2 2 2 2 2 2 2 2 2 2 2 2 2 2 2 2 2 2 2 2 2 2 2 2 2 2 2 2 2 2 2 2 2 2 2 2 2 2 2 2 2 2 2 2 2 2 2 2 2
left_child=1 3 5 7 11 9 8 -1 13 15 26 12 -4 17 54 18 -7 27 19 37 35 41 36 -6 31 -25 -9 55 -29 30 -10 -15 -33 -16 -24 39 42 45 -11 -12 -41 59 -23 44 -38 -3 48 50 -13 -49 -48 52 58 -28 -8 56 -5 -51 -32 60 -20 -2
right_child=61 2 4 6 23 16 14 10 29 38 20 46 -14 24 33 -17 -18 -19 21 -21 -22 22 34 25 -26 -27 53 28 -30 -31 51 32 -34 -35 -36 -37 43 -39 -40 40 -42 -43 -44 -45 -46 -47 47 49 -50 57 -52 -53 -54 -55 -56 -57 -58 -59 -60 -61 -62 -63
leaf_value=-542.97521741070238 -0.95612521251496219 -479.06239219416523 -7.5874224648004631 -119.59052831413209 -27.354324416816965 289.15872253778542 -289.58812741449924 -261.48131113037249 -358.84895955779109 -466.22822362087248 -146.1299903005042 -9.7371683627943941 -52.880507846962885 -235.46932958522299 63.088018792066215 -513.60202349820463 -276.71237440970475 -473.49850761350763 -495.98303537319021 -28.240678683518855 263.67915493653857 -287.96738167208099 -215.76318875883533 -24.981161669545692 -549.23342813397301 -24.851222835462252 -461.46772555007306 -426.57745776990299 -202.9215991951954 624.97085622365614 -58.601208872077486 -283.15990461700949 -585.17662182405763 -504.63029015155809 -317.84525845365442 61.736896209286115 -330.83394591496619 -348.11124577611054 -157.21732157946099 -373.1760932684017 -563.78523122361491 -190.72314519071998 -149.83493772005932 -162.04982874957133 -300.70073872036198 -373.98161757087291 -25.618004910825405 -1.1464418396877591 11.919011437952941 -5.5240670310912723 -21.106482753012461 85.779408272064359 -212.51240032811586 -248.38402548302767 -610.36751293919576 387.04246556776127 -374.62820906523234 -10.326566700668559 -429.47623382650448 -560.60711270897298 -470.78401212469981 733.28153182313406
leaf_weight=219 219 844 162 1044 285 196 56 124 99 48 121 587 220 60 67 201 47 85 352 121 101 67 194 121 93 166 223 121 446 786 2112 275 54 48 49 70 214 166 119 162 262 58 48 262 52 45 99 385 234 231 97 1654 56 47 128 238 90 364 40 59 45 39052
leaf_count=219 219 844 162 1044 285 196 56 124 99 48 121 587 220 60 67 201 47 85 352 121 101 67 194 121 93 166 223 121 446 786 2112 275 54 48 49 70 214 166 119 162 262 58 48 262 52 45 99 385 234 231 97 1654 56 47 128 238 90 364 40 59 45 39052
internal_value=0.000599558 -0.0103073 -0.0177354 -0.0051734 -0.0110285 -0.0239457 -0.00295154 -0.0177991 -0.00218323 -0.0256556 -0.0138739 -0.00769441 -0.0167277 -0.00613328 -0.0215886 -0.0266709 -0.00323045 -0.00433794 -0.0257648 -0.0288435 -0.00910614 -0.0231786 -0.0260384 -0.0248951 -0.0136722 -0.0190418 -0.0225381 -0.00363847 -0.00805115 -9.79564e-05 -0.000844484 -0.0105527 -0.00806991 -0.00847826 -0.0180453 -0.0112602 -0.0290591 -0.0308294 -0.00877245 -0.0127982 -0.0150472 -0.018249 -0.0202174 -0.0309848 -0.0269549 -0.0294769 -0.00596645 -0.00767007 -0.00352619 -0.00479592 -0.0220408 -0.00050233 -0.00177083 -0.0268519 -0.0297826 -0.00181487 -0.00289242 -0.00726891 -0.0013894 -0.0197807 -0.0213224 0.00477082
internal_weight=54290 15019 6138 8881 2951 3187 7552 1329 7253 2944 1110 2379 382 2506 299 2777 243 2024 2576 1176 716 1400 886 572 482 287 394 1939 567 4747 3961 389 329 115 243 615 643 1055 167 545 424 514 115 528 266 889 1997 1176 821 980 196 3862 2208 270 184 1372 1134 595 2152 456 397 39271
internal_count=54290 15019 6138 8881 2951 3187 7552 1329 7253 2944 1110 2379 382 2506 299 2777 243 2024 2576 1176 716 1400 886 572 482 287 394 1939 567 4747 3961 389 329 115 243 615 643 1055 167 545 424 514 115 528 266 889 1997 1176 821 980 196 3862 2208 270 184 1372 1134 595 2152 456 397 39271
is_linear=0
shrinkage=0.05


Tree=10
num_leaves=63
num_cat=0
split_feature=1 59 15 26 5 4 48 2 26 5 59 10 5 15 4 2 10 10 61 2 10 10 10 10 4 52 16 10 61 10 10 10 10 35 5 48 61 10 10 27 10 10 59 10 4 1 1 1 5 10 34 2 42 4 39 42 10 4 19 10 10 10
split_gain=177.305 88.6729 53.2799 43.3024 41.7967 26.1261 24.0412 23.5451 20.8728 19.6559 17.3519 14.2491 12.3399 9.33263 9.77878 13.3521 8.46836 8.25914 7.70917 8.56899 6.96485 6.36521 6.28926 6.31938 6.13558 5.88564 5.16151 4.99755 6.21522 4.9532 29.0755 4.71409 8.24507 4.55159 4.71837 4.46411 4.38056 4.24719 9.93789 3.70363 3.63592 3.93659 3.45851 5.48758 3.42896 3.26601 8.07508 3.45175 3.2549 3.46997 3.13109 3.05901 3.0036 2.98522 2.77276 2.77265 2.72457 2.7103 2.68925 2.56978 3.29824 2.64158
threshold=97497.186791648783 1.0000000180025095e-35 1.0000000180025095e-35 1.0000000180025095e-35 63936.979519391207 2.5000000000000004 1.0000000180025095e-35 95147.016211388705 1.0000000180025095e-35 63936.979519391207 1.0000000180025095e-35 622.50000000000011 80601.187831431598 1.0000000180025095e-35 2.5000000000000004 84382.414591733876 9.5000000000000018 622.50000000000011 1.0000000180025095e-35 67611.165793215318 37.500000000000007 34.500000000000007 2003.0000000000002 622.50000000000011 2.5000000000000004 1.0000000180025095e-35 1.0000000180025095e-35 12.500000000000002 1.0000000180025095e-35 148.50000000000003 157.00000000000003 3308.0000000000005 622.50000000000011 1.0000000180025095e-35 108013.86558363776 1.0000000180025095e-35 1.0000000180025095e-35 270.00000000000006 261.50000000000006 1.0000000180025095e-35 13.500000000000002 34.500000000000007 1.0000000180025095e-35 6.5000000000000009 1.5000000000000002 95486.77219347097 92116.379366143738 94474.699630687988 93465.704071680564 87.500000000000014 1.0000000180025095e-35 73033.57870465568 1.0000000180025095e-35 -1.0000000180025095e-35 1.0000000180025095e-35 1.0000000180025095e-35 48.500000000000007 -1.0000000180025095e-35 1.0000000180025095e-35 84.000000000000014 175.00000000000003 47.500000000000007
decision_type=2 2 2 2 2 2 2 2 2 2 2 2 2 2 2 2 2 2 2 2 2 2 2 2 2 2 2 2 2 2 2 2 2 2 2 2 2 2 2 2 2 2 2 2 2 2 2 2 2 2 2 2 2 2 2 2 2 2 2 2 2 2
left_child=1 2 3 5 10 7 8 12 13 -3 26 44 56 14 15 50 -11 -10 19 40 -20 36 23 27 -18 31 -2 28 35 52 -31 32 39 -23 -35 -9 42 38 -32 45 -14 -42 -17 -44 51 46 57 59 49 -8 -6 -5 -29 -27 -7 -38 -1 -21 -26 61 -61 -48
right_child=4 9 -4 11 6 54 48 22 17 16 -12 -13 18 -15 -16 21 24 -19 20 25 -22 33 -24 -25 58 53 -28 29 -30 30 37 -33 -34 34 -36 -37 55 -39 -40 -41 41 -43 43 -45 -46 -47 47 -49 -50 -51 -52 -53 -54 -55 -56 -57 -58 -59 -60 60 -62 -63
leaf_value=-325.24516459991582 -278.42089376947763 -622.07133341364226 435.73571098392534 -381.04879813998423 -59.049291615775637 86.05575867240951 494.9594034944696 -79.212938184996418 -151.65771326393684 -176.46488703822456 -282.80647924612788 -409.07370491205114 -208.71100723977565 1216.7852075757885 684.27486030749787 10.144425171176879 -502.82827189331766 -393.81887902471249 -540.50607736140125 -88.978146943023106 -89.628337350881566 381.67622951153237 1272.3503235393944 -502.79890192052449 -305.53733395229074 -101.24624447748438 6.4827382416453476 25.389494843639707 -370.73742989179607 -335.05162475921406 12.430303271617891 1228.565953034574 -575.26824549344542 -330.3272392575019 0.098107295223807789 546.48729059730067 -1.4449800948031566 270.670873191716 -232.87086465153916 9.6302410293858163 -417.72958558256983 -244.49603045254773 23.863679745366611 -231.17882330252851 -147.64523797955809 -42.611909044526833 -259.50127492349867 -58.320375216785465 1878.7357109839254 -50.659647573214507 -196.202043951875 -411.78259183263901 -207.24861203976621 -208.1718959408721 -105.22986364085187 -520.49562576893652 -98.556895367036631 -152.11704156951629 -96.491161192157676 -460.31261042375422 -159.95837480558632 -27.375764336674862
leaf_weight=240 236 144 2727 41 1422 2193 171 2028 716 110 74 121 240 4543 4190 7131 148 107 119 1740 85 6006 365 77 55 114 122 1474 91 79 311 128 66 50 138 231 51 330 82 303 87 138 49 46 115 996 609 448 10735 73 62 633 68 301 218 57 54 701 41 101 74 104
leaf_count=240 236 144 2727 41 1422 2193 171 2028 716 110 74 121 240 4543 4190 7131 148 107 119 1740 85 6006 365 77 55 114 122 1474 91 79 311 128 66 50 138 231 51 330 82 303 87 138 49 46 115 996 609 448 10735 73 62 633 68 301 218 57 54 701 41 101 74 104
internal_value=0.000595574 -0.00340698 -0.00282582 -0.00398709 0.00263473 -0.00330926 0.0028226 -0.00427953 0.00195335 -0.0242169 -0.0128241 -0.0145604 -0.00624398 0.00222468 0.00174253 0.00114642 -0.0178814 -0.00587485 -0.00578061 -0.00546341 -0.0153431 0.0016403 -0.00173676 -0.00222071 -0.0230738 -0.00492964 -0.00826816 -0.00198764 -0.00361702 -0.000354095 -0.00354115 -0.00447818 -0.00471412 0.00282047 -0.00484043 -0.00310093 0.000643578 -0.000394191 -0.00390585 -0.00448582 -0.0119892 -0.0165556 0.00079297 -0.00868421 -0.0121103 -0.0048261 -0.00549775 -0.00862275 0.00476774 -0.000942623 -0.00335579 -0.0134718 0.0013035 -0.0106627 0.00143302 -0.00935185 -0.0162585 -0.00378738 -0.0132292 -0.0104279 -0.0158571 -0.00909537
internal_weight=54309 18330 17832 15105 35979 14195 35547 11784 24568 498 432 910 6648 23745 19202 15012 354 823 6354 6150 204 13528 5136 4771 244 5685 358 4694 2350 2344 802 5270 5142 6194 188 2259 7334 723 393 5076 465 225 7226 95 789 4773 3777 1336 10979 244 1484 674 1542 415 2411 108 294 2441 96 888 175 713
internal_count=54309 18330 17832 15105 35979 14195 35547 11784 24568 498 432 910 6648 23745 19202 15012 354 823 6354 6150 204 13528 5136 4771 244 5685 358 4694 2350 2344 802 5270 5142 6194 188 2259 7334 723 393 5076 465 225 7226 95 789 4773 3777 1336 10979 244 1484 674 1542 415 2411 108 294 2441 96 888 175 713
is_linear=0
shrinkage=0.05


Tree=11
num_leaves=63
num_cat=0
split_feature=0 0 0 0 59 48 0 1 0 5 49 0 0 5 1 0 18 0 1 1 0 42 12 12 0 27 4 6 12 12 14 19 5 4 61 0 12 50 0 0 4 0 12 5 1 0 1 1 0 12 0 12 0 4 5 0 14 49 0 1 1 0
split_gain=913.3 196.793 101.814 94.0519 45.9771 39.8382 34.5803 17.8039 17.5961 14.9544 14.8554 13.2942 13.5175 13.1032 12.5738 21.26 11.9097 12.399 14.6841 11.5808 9.96472 9.30532 9.23907 9.16739 9.03913 8.75859 8.6318 8.07775 7.54057 7.33676 6.85041 5.66603 5.65422 5.24615 5.05431 4.90873 4.84578 4.78914 4.75699 5.79282 4.71564 4.58523 4.17474 3.62439 3.57403 3.56176 3.24033 3.14951 3.10237 3 3.10652 2.99647 2.96369 2.68977 2.86726 2.6058 2.55928 2.50324 2.39018 2.3795 2.23957 3.01342
threshold=96147.109844897976 92259.390419998177 94540.485843190356 34737.194665983894 1.0000000180025095e-35 1.0000000180025095e-35 60119.699080467544 95998.451431881025 95624.291386261248 93465.704071680564 1.0000000180025095e-35 95912.090700562796 96026.323055712564 63936.979519391207 94920.407949461311 94769.518392781043 1.0000000180025095e-35 94324.610544337367 95232.604985815342 94474.699630687988 42916.733789346254 1.0000000180025095e-35 95209.704768087438 95209.704768087438 93592.951531465354 1.0000000180025095e-35 1.5000000000000002 -1.0000000180025095e-35 95209.704768087438 95209.704768087438 1.0000000180025095e-35 1.0000000180025095e-35 80601.187831431598 1.5000000000000002 1.0000000180025095e-35 93527.221247236754 102664.27198711204 1.0000000180025095e-35 95081.903635387614 95173.967090762133 2.5000000000000004 90530.478677791238 95209.704768087438 80601.187831431598 91893.141779126148 67234.92600471554 97160.855003533579 96714.223756838604 96825.229035004551 102664.27198711204 93999.278176179199 91382.536141700475 91248.181839497716 2.5000000000000004 80601.187831431598 95173.967090762133 1.0000000180025095e-35 1.0000000180025095e-35 95829.695671898196 99534.498890632283 94474.699630687988 46036.455976648926
decision_type=2 2 2 2 2 2 2 2 2 2 2 2 2 2 2 2 2 2 2 2 2 2 2 2 2 2 2 2 2 2 2 2 2 2 2 2 2 2 2 2 2 2 2 2 2 2 2 2 2 2 2 2 2 2 2 2 2 2 2 2 2 2
left_child=1 3 5 -1 6 10 9 26 14 25 16 22 -13 -6 38 -16 17 19 -19 44 21 -11 58 -15 35 59 30 -20 40 -29 41 47 -26 49 60 37 45 -21 -4 -40 -17 43 -12 -8 -3 -32 -18 -25 -2 -34 -51 -47 53 54 -9 -30 -54 -45 -10 -5 61 -22
right_child=48 2 8 4 13 -7 7 52 11 20 42 12 -14 23 15 28 46 18 27 24 34 -23 -24 31 32 -27 -28 29 55 -31 36 -33 33 -35 -36 -37 -38 -39 39 -41 -42 -43 -44 57 -46 51 -48 -49 -50 50 -52 -53 56 -55 -56 -57 -58 -59 -60 -61 -62 -63
leaf_value=-518.9227204423745 23.228489725366309 -462.18076845761493 -0.60037644987550454 -297.45932981459663 -548.27195968176875 276.48141085953233 -410.38643856164094 -330.25936262717573 -28.341492735555075 -265.59957235001895 -460.82347853086316 -1.3328892238833634 -49.473899485102109 4.4827019413080853 -70.493788145067825 -6.4048577847520267 -564.81211803968176 -21.708136116331314 -108.99368257127753 -510.13289917892899 -500.84010968323992 -341.72925996628345 -31.545379459656761 -518.58744614371415 -280.63783177028932 -39.600194877679748 42.556115711107054 -90.97163248703292 -33.64045892649618 -97.271461650555239 -218.78228788389225 -203.00746944366421 -303.70922257053616 -261.93956037551379 -567.685086941696 -305.31981777343793 -77.850535720592049 -589.39388811246897 -20.271686797824202 -9.089371018565167 -34.51350719099775 -353.5416772843223 -146.81706898552022 -174.32557202473146 -483.12891219424546 -462.36739203289835 -228.20194358634473 -336.45774415791107 962.89645060513578 -318.40243178472969 -189.0989984043691 -545.33385456377516 -543.41124985940132 647.78940102255103 23.989386207771606 -26.643693432369037 155.38911296834851 107.08294372747794 -28.470778503253076 -236.21035509681917 -12.039613471238759 -181.27565227365528
leaf_weight=220 1888 634 531 388 119 153 43 47 170 46 56 229 195 78 215 613 45 261 120 390 80 102 314 76 75 88 592 52 252 88 53 71 363 95 47 89 100 52 77 356 46 131 105 1295 430 92 84 50 36861 64 57 204 142 706 3048 300 75 165 97 196 501 197
leaf_count=220 1888 634 531 388 119 153 43 47 170 46 56 229 195 78 215 613 45 261 120 390 80 102 314 76 75 88 592 52 252 88 53 71 363 95 47 89 100 52 77 356 46 131 105 1295 430 92 84 50 36861 64 57 204 142 706 3048 300 75 165 97 196 501 197
internal_value=0.000643448 -0.00958869 -0.0161335 -0.0047576 -0.00394411 -0.0225132 -0.00315543 -0.00155909 -0.0100957 -0.00965046 -0.0237582 -0.0156468 -0.00891509 -0.0206345 -0.00776151 -0.0107433 -0.0245792 -0.0252708 -0.0183205 -0.0268808 -0.00568859 -0.0176351 -0.0205594 -0.0146364 -0.023481 -0.0153869 -0.00471963 -0.0267308 -0.00817093 -0.0185714 -0.0062338 -0.0203807 -0.0274159 -0.0257427 -0.00354545 -0.0186347 -0.0117038 -0.0207919 -0.00335062 -0.00724018 -0.00455994 -0.00473072 -0.00897515 -0.00394877 -0.0306673 -0.0144842 -0.00972868 -0.026746 0.00475225 -0.0278512 -0.0210331 -0.0166216 0.000545047 0.000869508 0.000234249 -0.0124819 -0.00513825 -0.0035274 -0.027397 -0.0176027 -0.00258355 -0.00619134
internal_weight=54309 15560 6608 8952 8732 3213 8338 6693 3395 1645 3060 1005 424 394 2390 1426 2899 2770 521 2249 973 148 581 275 1185 672 2675 260 1211 140 2083 197 654 579 825 531 449 442 964 433 659 1634 161 1503 1064 349 129 126 38749 484 121 296 4018 3801 3095 552 217 1460 267 584 778 277
internal_count=54309 15560 6608 8952 8732 3213 8338 6693 3395 1645 3060 1005 424 394 2390 1426 2899 2770 521 2249 973 148 581 275 1185 672 2675 260 1211 140 2083 197 654 579 825 531 449 442 964 433 659 1634 161 1503 1064 349 129 126 38749 484 121 296 4018 3801 3095 552 217 1460 267 584 778 277
is_linear=0
shrinkage=0.05


Tree=12
num_leaves=63
num_cat=0
split_feature=1 5 26 5 15 48 67 67 16 4 4 61 2 16 10 10 14 1 4 42 54 5 2 65 10 15 2 10 10 10 10 10 26 2 26 2 10 14 13 1 40 10 2 5 4 4 10 39 67 17 39 10 65 22 10 10 2 22 34 4 10 10
split_gain=127.855 46.2929 40.4898 35.7899 26.6214 26.0684 19.9965 18.9449 16.2891 15.1337 19.8619 10.8391 9.77314 9.53728 9.45164 11.0091 13.8638 8.17513 7.08438 6.70611 6.54366 6.89983 6.3037 5.44128 5.28734 4.95512 4.43927 4.21632 13.0199 26.6866 7.28836 4.20537 3.88305 3.86496 3.83924 3.83113 3.7668 4.95884 3.21425 3.4061 4.72163 3.19109 5.52326 3.17052 3.14463 3.3758 3.08507 3.046 2.92915 3.06454 2.69948 2.67939 2.63987 2.6134 2.56833 2.54049 3.72444 2.43653 2.32669 2.30078 2.23988 2.19755
threshold=97707.998877137972 63936.979519391207 1.0000000180025095e-35 63936.979519391207 1.0000000180025095e-35 1.0000000180025095e-35 1.0000000180025095e-35 1.0000000180025095e-35 1.0000000180025095e-35 1.5000000000000002 -1.0000000180025095e-35 1.0000000180025095e-35 82486.375142446603 1.0000000180025095e-35 2003.0000000000002 622.50000000000011 1.0000000180025095e-35 102080.1074649662 1.5000000000000002 1.0000000180025095e-35 1.0000000180025095e-35 108013.86558363776 99538.151803203902 1.0000000180025095e-35 59.500000000000007 1.0000000180025095e-35 67611.165793215318 270.00000000000006 148.50000000000003 164.00000000000003 227.00000000000003 7.5000000000000009 1.0000000180025095e-35 73033.57870465568 1.0000000180025095e-35 70422.862697579389 9.5000000000000018 1.0000000180025095e-35 1.0000000180025095e-35 101782.97207535595 1.0000000180025095e-35 17.500000000000004 86518.482106670883 93465.704071680564 1.5000000000000002 1.0000000180025095e-35 195.00000000000003 1.0000000180025095e-35 1.0000000180025095e-35 1.0000000180025095e-35 1.0000000180025095e-35 6.5000000000000009 1.0000000180025095e-35 1.0000000180025095e-35 87.500000000000014 29.500000000000004 93718.566259859901 1.0000000180025095e-35 1.0000000180025095e-35 -1.0000000180025095e-35 10.500000000000002 14.500000000000002
decision_type=2 2 2 2 2 2 2 2 2 2 2 2 2 2 2 2 2 2 2 2 2 2 2 2 2 2 2 2 2 2 2 2 2 2 2 2 2 2 2 2 2 2 2 2 2 2 2 2 2 2 2 2 2 2 2 2 2 2 2 2 2 2
left_child=1 8 4 13 9 6 12 33 41 10 11 14 18 44 15 22 -17 38 47 51 -6 -22 26 60 36 32 31 28 48 -30 -31 -3 53 -4 -8 -11 -12 55 39 -14 -41 -1 -43 54 45 -2 -9 59 49 52 57 -13 -28 58 -7 56 61 -37 -19 -5 -24 -38
right_child=3 2 7 5 20 43 34 46 -10 35 24 19 17 -15 -16 16 -18 25 -20 -21 21 -23 23 -25 -26 -27 27 -29 29 30 -32 -33 -34 -35 -36 50 37 -39 -40 40 -42 42 -44 -45 -46 -47 -48 -49 -50 -51 -52 -53 -54 -55 -56 -57 -58 -59 -60 -61 -62 -63
leaf_value=-285.39716100633996 -184.53785070495064 -14.376068152868527 -464.98579989622016 -25.543998442713566 569.76887264556092 470.53166449627281 -316.12172334713182 -540.66633279396194 -40.469894386719481 -108.43749114667274 -176.15319820356183 -479.63044361785978 11.831838896247774 6.8741800578956118 1137.2910491940827 -544.49421661371923 -173.62226482925831 296.6238668459132 186.21519519675385 -443.25324090861324 -38.73905018731039 627.26914379049799 -12.651119768470616 -316.23937781461177 -32.369051962419505 1432.4839078052287 -50.697369090644187 165.77873702960733 -315.09166874518866 111.75810746141579 -213.4888010846407 -469.66647759277697 -109.44463337731852 -320.15754557421405 -381.41978260686074 124.70488194988357 -201.91384434401118 -384.76282751472075 537.4978575405861 -25.028634500249204 -297.10951391050492 -524.64725055685813 -112.36079380453153 1743.9844504660448 -172.67915333980491 -314.86143928461797 -376.17854381627768 -268.89249570162031 -442.27348204316161 28.121023764459661 -75.154816934896743 14.873077611693638 -287.78316051799561 -16.688677692535673 -46.467160905673012 -112.39996794771233 -8.9401709739519042 -53.817444865410152 -7.3677386265898583 -154.89643468091737 20.446623131727357 -271.27117935948991
leaf_weight=226 109 89 69 687 2621 171 120 42 144 433 746 51 3831 120 500 53 91 11464 1159 234 69 68 1398 129 266 3394 3745 295 112 176 212 101 428 765 103 2135 111 198 675 794 41 121 69 10711 80 116 114 83 92 391 256 124 98 553 72 166 62 305 500 448 1583 190
leaf_count=226 109 89 69 687 2621 171 120 42 144 433 746 51 3831 120 500 53 91 11464 1159 234 69 68 1398 129 266 3394 3745 295 112 176 212 101 428 765 103 2135 111 198 675 794 41 121 69 10711 80 116 114 83 92 391 256 124 98 553 72 166 62 305 500 448 1583 190
internal_value=0.000727228 -0.00262735 -0.00218905 0.0024817 -0.00161988 0.00265567 0.00174217 -0.0120202 -0.0167857 -0.00248501 -0.00334299 -0.00244142 0.00188033 -0.0119412 -0.00208218 -0.00247227 -0.0161806 0.00221402 -0.00116323 -0.0104034 0.0028789 -0.00777372 -0.00223786 -0.000450161 -0.00825474 0.00276914 -0.00328469 -0.00300625 -0.00336096 -0.011 -0.00479381 -0.0107895 0.00232329 -0.00902878 -0.0131614 0.000589645 -0.00942634 -0.0119876 0.000515821 4.92929e-05 -0.00284431 -0.0218029 -0.0265789 0.00468048 -0.0166393 -0.0196667 -0.0280128 -0.00382594 -0.00247804 -0.00228625 0.0012908 -0.003 -0.00271533 0.00248342 -0.000967078 -0.00946125 -0.0118044 0.00180328 0.00263875 -0.00314978 -1.50954e-05 -0.014103
internal_weight=54309 18650 18090 35659 17100 35234 24280 990 560 14342 11213 9474 24057 425 9065 8565 144 21680 2377 409 2758 137 8421 3110 1739 16339 5311 5121 4826 500 388 190 12945 834 223 3129 1473 727 5341 4666 835 416 190 10954 305 225 156 1218 4326 4234 2696 175 3843 12517 243 529 363 2440 11964 1135 2981 301
internal_count=54309 18650 18090 35659 17100 35234 24280 990 560 14342 11213 9474 24057 425 9065 8565 144 21680 2377 409 2758 137 8421 3110 1739 16339 5311 5121 4826 500 388 190 12945 834 223 3129 1473 727 5341 4666 835 416 190 10954 305 225 156 1218 4326 4234 2696 175 3843 12517 243 529 363 2440 11964 1135 2981 301
is_linear=0
shrinkage=0.05


Tree=13
num_leaves=63
num_cat=0
split_feature=0 0 0 0 59 18 1 0 26 49 0 1 5 1 10 10 1 0 0 42 10 27 5 2 0 0 5 54 4 0 2 2 61 0 0 0 5 10 4 1 0 10 4 0 54 5 0 10 50 25 1 2 10 10 10 10 26 0 2 4 10 50
split_gain=848.626 174.916 94.816 84.1669 39.9198 38.2322 36.5644 31.6382 16.2914 13.7943 15.9454 17.8019 12.552 10.6557 10.3952 9.66915 9.55382 11.2932 9.11371 8.89985 8.15774 7.64425 7.55704 7.1247 6.56924 6.38028 6.13671 6.0115 5.19261 7.00301 6.70556 7.52461 5.09286 4.93414 4.70942 5.84614 4.69311 5.04505 4.66503 4.5656 5.0719 4.17609 4.15023 4.09196 4.0291 3.79876 3.78 3.76431 3.68615 4.97291 3.46527 4.12223 3.44104 3.42911 3.28725 3.07126 3.05822 2.95994 2.95009 2.7187 3.0456 2.57937
threshold=96174.829131968974 92259.390419998177 94540.485843190356 34737.194665983894 1.0000000180025095e-35 1.0000000180025095e-35 97970.836717925835 60119.699080467544 1.0000000180025095e-35 1.0000000180025095e-35 94324.610544337367 95840.881733508795 93465.704071680564 95998.451431881025 43.500000000000007 24.500000000000004 94474.699630687988 93592.951531465354 42916.733789346254 1.0000000180025095e-35 36.500000000000007 1.0000000180025095e-35 108013.86558363776 93735.188781919758 93719.295781605659 89603.311294529398 80601.187831431598 1.0000000180025095e-35 2.5000000000000004 96147.109844897976 83138.240741522153 121378.85767796169 1.0000000180025095e-35 71655.187794822981 73577.525067145849 84016.796244290585 80601.187831431598 10.500000000000002 1.5000000000000002 104379.99802529208 94769.518392781043 9.5000000000000018 2.5000000000000004 93527.221247236754 1.0000000180025095e-35 80601.187831431598 84016.796244290585 77.500000000000014 1.0000000180025095e-35 1.0000000180025095e-35 91893.141779126148 91866.189294631899 150.50000000000003 140.50000000000003 29.500000000000004 8.5000000000000018 1.0000000180025095e-35 97324.824135090734 68553.568512681959 1.5000000000000002 36.500000000000007 1.0000000180025095e-35
decision_type=2 2 2 2 2 2 2 2 2 2 2 2 2 2 2 2 2 2 2 2 2 2 2 2 2 2 2 2 2 2 2 2 2 2 2 2 2 2 2 2 2 2 2 2 2 2 2 2 2 2 2 2 2 2 2 2 2 2 2 2 2 2
left_child=1 3 5 -1 7 9 23 12 13 10 16 -12 21 25 -13 36 50 43 19 -14 22 -5 -10 42 -7 33 -19 28 29 30 -8 39 -20 58 -24 -36 -6 -38 47 40 -32 -11 -4 48 56 -17 -47 -28 49 -18 51 -3 -27 -49 -33 -53 -25 -2 -9 60 -35 -15
right_child=57 2 6 4 15 24 27 8 20 41 11 14 18 61 -16 45 17 26 32 -21 -22 -23 34 44 -26 52 38 -29 -30 -31 31 54 -34 59 35 -37 37 -39 -40 -41 -42 -43 -44 -45 -46 46 -48 53 -50 -51 -52 55 -54 -55 -56 -57 -58 -59 -60 -61 -62 -63
leaf_value=-465.75187358956993 73.52935013998686 -457.08750023872619 -10.268952157238841 -263.98530477162751 -272.08505751704485 148.76333337730009 -16.114570301211959 -463.36445145744551 -129.48098018294118 -462.93877913765664 -18.23072612164426 -102.12770695747093 -263.05733059253907 102.84045389869971 -107.85023843889218 -497.9412765952153 -474.79868633518964 -251.54755948903514 -127.11544101982568 -309.2823997304564 2.4738193630513083 -38.357840526205024 -252.00322350371053 -25.291693461787688 -228.83228479853133 -417.9967719500699 -287.45494873252807 -107.47953643826364 -54.71116733661998 -1.9435569727409785 -47.927912014748351 -38.791444791093461 -517.13817054918059 -205.03338199931454 -418.55068337862315 -404.74201943360038 40.086449677656091 -294.60042840409545 -247.5625574665132 -45.888852852357289 -30.102616762130317 -136.73911647079964 -24.454030899511437 -290.99216851238396 -35.756770128346375 -266.61744388212782 -482.82181895987662 -189.21211528335749 -560.28102571077795 -411.73274364070858 -440.50203218035222 -425.23433956052543 198.94896338203739 -304.42379323613363 2.6403549652334242 -262.99351913649906 11.606100723250712 994.50694131250657 -253.54881379121417 281.8705798209844 48.470492103216415 -309.84131714006594
leaf_weight=220 2608 420 1184 584 71 204 163 40 88 54 281 165 46 3590 79 62 362 75 778 102 126 88 55 648 41 218 395 54 114 93 57 91 47 819 77 83 74 67 95 390 410 107 197 89 78 70 50 43 52 45 430 102 51 59 82 115 62 35913 426 451 451 218
leaf_count=220 2608 420 1184 584 71 204 163 40 88 54 281 165 46 3590 79 62 362 75 778 102 126 88 55 648 41 218 395 54 114 93 57 91 47 819 77 83 74 67 95 390 410 107 197 89 78 70 50 43 52 45 430 102 51 59 82 115 62 35913 426 451 451 218
internal_value=0.000707894 -0.00905498 -0.0150775 -0.00445599 -0.00368644 -0.0213305 -0.00953216 -0.00295155 -0.00142462 -0.0228976 -0.0237139 -0.0158571 -0.00916413 -0.000779055 -0.0257377 -0.0192386 -0.0255215 -0.0224897 -0.00553443 -0.0169595 -0.0108508 -0.0144196 -0.015297 -0.00541955 -0.00234694 -0.00334691 -0.0268591 -0.0156671 -0.0150357 -0.0141291 -0.0151593 -0.0166505 -0.00348485 -0.00245313 -0.0203488 -0.0246875 -0.0119811 -0.00670213 -0.025152 -0.0185706 -0.0152355 -0.0086646 -0.00325489 -0.0171715 -0.0092132 -0.0276923 -0.0225 -0.0270926 -0.0190741 -0.0206757 -0.0289738 -0.0266327 -0.0106134 -0.0185294 -0.00713873 -0.0210369 -0.00802817 0.00470925 -0.00701717 -0.00121732 -0.00240157 0.000877101
internal_weight=54309 15788 6836 8952 8732 3213 3623 8338 6693 2968 2807 525 1645 6264 244 394 2282 1215 973 148 429 672 303 2169 245 2456 667 1454 1400 1286 1193 1030 825 2187 215 160 212 141 592 857 467 161 1381 548 788 182 120 497 459 407 1067 637 269 102 173 217 710 38521 466 1721 1270 3808
internal_count=54309 15788 6836 8952 8732 3213 3623 8338 6693 2968 2807 525 1645 6264 244 394 2282 1215 973 148 429 672 303 2169 245 2456 667 1454 1400 1286 1193 1030 825 2187 215 160 212 141 592 857 467 161 1381 548 788 182 120 497 459 407 1067 637 269 102 173 217 710 38521 466 1721 1270 3808
is_linear=0
shrinkage=0.05


Tree=14
num_leaves=63
num_cat=0
split_feature=0 0 0 0 18 1 59 15 0 26 59 5 10 1 0 1 10 1 0 15 0 10 0 27 5 0 61 10 26 5 5 0 0 1 13 10 54 2 1 0 0 0 2 0 0 16 10 0 10 0 34 10 1 2 5 10 2 50 1 0 2 2
split_gain=778.17 157.731 91.9736 77.3883 36.8252 33.3099 31.5463 31.1544 26.6793 14.2764 11.92 11.1051 10.563 9.30652 8.47292 23.2456 14.7698 12.6494 8.44451 9.43387 7.33507 7.12555 6.91489 6.52896 6.39324 5.80776 5.2878 5.24234 5.23047 5.43095 4.4619 4.35354 4.69029 4.06573 4.03254 4.56366 3.90514 4.06164 4.18025 3.85878 3.64551 5.56492 3.44992 4.47606 3.39485 3.34697 3.12064 3.10835 3.09784 3.0386 2.80269 2.71056 3.00504 2.698 2.67344 3.92279 2.60701 2.52832 2.45441 2.44775 3.33414 2.42572
threshold=96174.829131968974 92259.390419998177 94540.485843190356 34737.194665983894 1.0000000180025095e-35 97970.836717925835 1.0000000180025095e-35 1.0000000180025095e-35 60119.699080467544 1.0000000180025095e-35 1.0000000180025095e-35 93465.704071680564 24.500000000000004 95998.451431881025 94255.609435318343 95840.881733508795 43.500000000000007 94474.699630687988 93592.951531465354 1.0000000180025095e-35 42916.733789346254 36.500000000000007 94769.518392781043 1.0000000180025095e-35 108013.86558363776 89603.311294529398 1.0000000180025095e-35 150.50000000000003 1.0000000180025095e-35 63936.979519391207 80601.187831431598 73577.525067145849 84016.796244290585 93559.505027408552 1.0000000180025095e-35 236.50000000000003 1.0000000180025095e-35 121378.85767796169 103732.31224400157 93719.295781605659 95554.491442477374 95912.090700562796 76367.709339454406 96147.109844897976 73370.776292051596 1.0000000180025095e-35 150.50000000000003 94255.609435318343 10.500000000000002 97324.824135090734 1.0000000180025095e-35 49.500000000000007 91893.141779126148 108632.95851570608 80601.187831431598 10.500000000000002 80345.470013982078 1.0000000180025095e-35 93667.010644137976 95554.491442477374 112460.95795319455 82486.375142446603
decision_type=2 2 2 2 2 2 2 2 2 2 2 2 2 2 2 2 2 2 2 2 2 2 2 2 2 2 2 2 2 2 2 2 2 2 2 2 2 2 2 2 2 2 2 2 2 2 2 2 2 2 2 2 2 2 2 2 2 2 2 2 2 2
left_child=1 3 4 45 10 7 8 40 11 13 14 23 54 25 17 58 -17 33 34 48 27 24 -7 61 -11 44 -22 -13 29 -24 -14 -26 -33 53 35 -19 37 38 -31 -6 -4 -42 -40 59 51 -1 -27 -12 -20 -2 -46 52 -10 -3 -8 -56 -54 -15 -16 -44 -61 -5
right_child=49 2 5 6 39 22 12 -9 9 21 47 20 30 57 15 16 -18 18 19 -21 26 -23 28 -25 31 46 -28 -29 -30 36 -32 32 -34 -35 -36 -37 -38 -39 42 -41 41 -43 43 -45 50 -47 -48 -49 -50 -51 -52 -53 56 -55 55 -57 -58 -59 -60 60 -62 -63
leaf_value=-342.00216590220521 69.85288263298753 -442.23437698399414 -4.903169987365299 -337.55692940767631 141.32516670843523 -75.264860841139665 -258.48080464119244 -55.239652102549137 -165.57912186335577 -123.0069311737942 -437.2186182889572 -298.4728947176398 -473.04421276545457 97.698431203764642 -16.013747798522573 -118.18955365195309 -105.4591750880285 -450.99222674574617 -276.94754335725224 -209.23079561702704 -120.75966896883425 2.3501283948985758 8.1978898147117434 -36.439948499894953 -239.40306232852518 -397.09693335256634 -491.28126202172155 -249.90446406291233 -3.0855625593627227 -37.037233274727789 -393.62282173513177 -397.62314920969209 -384.50491846192034 -320.58358700075814 -335.77181440346897 -257.8344365979267 -79.371646444658182 -36.628513189657994 -37.397092825706885 -217.39067055860471 -18.276644932347743 -7.8516440000089851 -38.994655766754164 -18.186020349299781 -48.292436591408155 -546.54587666538362 189.00151521293569 -87.881629671517942 -268.98020307231053 944.78159424688113 -254.40701400354638 3.2160388992792903 -554.59071869309412 -391.44286437635202 38.082127193773303 -279.87040698389063 -399.99658772393582 -294.34925128306253 -40.437475159141968 -53.0839094103398 -31.447065172310449 -208.36212337951827
leaf_weight=165 2608 695 1274 245 204 137 71 144 225 88 156 88 62 3590 244 229 98 445 272 56 778 126 45 88 55 218 47 60 77 474 120 77 83 155 60 57 47 150 58 41 423 328 255 53 1587 55 51 49 237 35913 64 144 44 84 74 67 123 218 131 115 43 339
leaf_count=165 2608 695 1274 245 204 137 71 144 225 88 156 88 62 3590 244 229 98 445 272 56 778 126 45 88 55 218 47 60 77 474 120 77 83 155 60 57 47 150 58 41 423 328 255 53 1587 55 51 49 237 35913 64 144 44 84 74 67 123 218 131 115 43 339
internal_value=0.000860723 -0.00848809 -0.0142071 -0.00412087 -0.0203657 -0.00874551 -0.00338296 -0.00482019 -0.00272967 -0.00132751 -0.0219036 -0.00843465 -0.0172081 -0.00072318 -0.0210405 -0.0162963 -0.0260398 -0.0226565 -0.0190905 -0.0234071 -0.00502055 -0.0101515 -0.0146011 -0.013378 -0.0143069 -0.00312296 -0.00318182 -0.0152703 -0.013489 -0.0142742 -0.026044 -0.0189535 -0.023125 -0.0269593 -0.0147509 -0.0162151 -0.0149163 -0.014338 -0.015491 -0.00173469 -0.00322222 -0.00598535 -0.0185687 -0.02 -0.00227023 -0.0334091 -0.0100558 -0.0335366 -0.0255501 0.00469238 -0.00114779 -0.00572761 -0.00788265 -0.0254878 -0.00962264 -0.0056383 -0.0129641 0.00082458 -0.0078 -0.0217554 -0.0266456 -0.0152911
internal_weight=54309 15788 6836 8952 3213 3623 8732 2169 8338 6693 2968 1645 394 6264 2763 702 327 2061 1127 565 973 429 1454 672 303 2456 825 148 1317 1240 182 215 160 934 562 502 1195 1148 998 245 2025 751 524 466 2187 220 269 205 509 38521 1651 536 392 779 212 141 167 3808 375 413 158 584
internal_count=54309 15788 6836 8952 3213 3623 8732 2169 8338 6693 2968 1645 394 6264 2763 702 327 2061 1127 565 973 429 1454 672 303 2456 825 148 1317 1240 182 215 160 934 562 502 1195 1148 998 245 2025 751 524 466 2187 220 269 205 509 38521 1651 536 392 779 212 141 167 3808 375 413 158 584
is_linear=0
shrinkage=0.05


Tree=15
num_leaves=63
num_cat=0
split_feature=0 0 0 0 15 48 5 0 1 49 26 0 0 1 18 19 0 5 54 4 4 2 4 1 5 59 0 0 18 20 54 0 0 1 1 2 14 67 5 34 1 1 0 0 4 2 0 0 18 50 0 0 50 2 2 4 2 0 19 61 2 1
split_gain=732.386 147.151 75.2001 72.9938 35.0491 34.0024 32.8642 25.738 24.2032 20.1226 13.295 13.2805 13.8173 27.0054 10.9892 9.75394 9.35118 9.2126 9.01792 8.83127 7.96981 7.55288 7.09243 7.06504 6.97413 6.83003 6.51514 6.2662 5.92057 5.8109 5.75194 5.56554 5.04719 4.95061 4.7926 4.69611 4.56512 4.46203 4.43969 4.38872 3.83464 3.79541 7.29896 4.84444 3.68479 6.48939 5.08343 4.80019 6.17831 3.57108 3.42576 6.2275 3.30869 3.24973 3.10137 3.0751 2.96783 2.85046 2.84957 2.63729 2.79335 2.62327
threshold=96174.829131968974 91248.181839497716 94540.485843190356 34737.194665983894 1.0000000180025095e-35 1.0000000180025095e-35 72630.604042440129 56395.838056017026 97970.836717925835 1.0000000180025095e-35 1.0000000180025095e-35 92259.390419998177 94255.609435318343 94563.418921668883 1.0000000180025095e-35 1.0000000180025095e-35 73577.525067145849 80601.187831431598 1.0000000180025095e-35 1.5000000000000002 1.5000000000000002 94587.047020172977 2.5000000000000004 96244.471773177123 108013.86558363776 1.0000000180025095e-35 82594.460507287251 73370.776292051596 1.0000000180025095e-35 1.0000000180025095e-35 1.0000000180025095e-35 59216.92925716914 94769.518392781043 93559.505027408552 92685.968864643903 76166.219689523699 1.0000000180025095e-35 1.0000000180025095e-35 63936.979519391207 1.0000000180025095e-35 97242.746943053629 94214.621532972233 93999.278176179199 93592.951531465354 2.5000000000000004 83138.240741522153 96147.109844897976 95477.298084637805 1.0000000180025095e-35 1.0000000180025095e-35 95624.291386261248 96147.109844897976 1.0000000180025095e-35 108632.95851570608 112460.95795319455 2.5000000000000004 101468.96753832792 97427.46881301672 1.0000000180025095e-35 1.0000000180025095e-35 95712.092007355343 92685.968864643903
decision_type=2 2 2 2 2 2 2 2 2 2 2 2 2 2 2 2 2 2 2 2 2 2 2 2 2 2 2 2 2 2 2 2 2 2 2 2 2 2 2 2 2 2 2 2 2 2 2 2 2 2 2 2 2 2 2 2 2 2 2 2 2 2
left_child=1 3 5 36 8 9 15 18 50 11 22 54 14 20 17 31 -12 -13 29 30 -14 40 25 -21 -6 27 -18 28 35 33 41 -5 -10 34 -8 -9 -1 39 -34 49 -15 42 53 52 45 -40 47 -47 -49 59 -4 -52 58 -19 -3 -33 -16 -2 -43 60 -29 -44
right_child=57 2 4 6 24 -7 7 10 32 -11 16 12 13 21 56 -17 26 19 -20 23 -22 -23 -24 -25 -26 -27 -28 37 -30 -31 -32 55 38 -35 -36 -37 -38 -39 44 -41 -42 43 61 -45 -46 46 -48 48 -50 -51 51 -53 -54 -55 -56 -57 -58 -59 -60 -61 -62 -63
leaf_value=-510.04194519657653 65.866346678311359 -525.63937383844484 -6.1385824638398407 -288.25820258737713 -83.502732347145781 245.45658001758432 -350.1150526230922 -292.17353464288811 -56.507498200155169 -187.54854946814567 -127.64412970879015 -427.76594418713859 -8.391817335677267 -85.591422511975566 -537.54836252312339 -362.93096765370575 -368.64354714726016 -436.23332604711698 243.81552994231754 -278.67593697034289 -53.341934009451478 -82.215515855870308 395.11100629782885 -201.56581730597355 -81.028893009532524 -322.770858799179 -364.9613458801557 -40.537622192233243 -149.79574581818937 -45.32955273123023 -239.17778826191136 -296.75960923632124 7.7879956460907982 -237.71899364299929 -450.34620120644172 -102.70478869620086 -321.06228961622037 -373.51282275288929 -0.75032150992870705 -269.14837399331014 -123.19511773060393 -426.36179296795149 -40.57824131870823 -263.12904558648358 -43.195568506105779 -16.978794394853114 0.24923955184473368 -38.241114731628151 -6.9840080632204469 -395.91359564693539 -18.57388430640118 13.65153821151871 -479.37211902047568 -505.33881361699088 -167.1041061003649 998.05338600683103 -137.10636078137475 921.91087648031362 -287.95859450845677 -380.71227751852393 250.16359355293167 -69.725886891950381
leaf_weight=56 2821 254 1393 90 172 193 240 166 130 208 185 188 299 65 57 116 81 517 101 136 42 164 1116 126 85 98 160 1473 76 143 65 153 41 470 55 1281 170 68 134 126 146 297 84 407 98 445 78 368 54 210 539 106 57 64 72 47 59 35762 45 48 1787 45
leaf_count=56 2821 254 1393 90 172 193 240 166 130 208 185 188 299 65 57 116 81 517 101 136 42 164 1116 126 85 98 160 1473 76 143 65 153 41 470 55 1281 170 68 134 126 146 297 84 407 98 445 78 368 54 210 539 106 57 64 72 47 59 35762 45 48 1787 45
internal_value=0.000942539 -0.00814369 -0.0133879 -0.00368953 -0.00832693 -0.0185237 -0.00292521 -0.00221081 -0.00697578 -0.0196835 -0.00111636 -0.0206664 -0.0217552 -0.0157402 -0.0237611 -0.016798 -0.00967136 -0.024616 -0.00966799 -0.0235404 -0.00555718 -0.025 -0.000551248 -0.0150382 -0.0261284 -0.00130977 -0.0161618 -0.00106495 -0.00376559 -0.0112445 -0.0249494 -0.0118966 -0.0121736 -0.0129739 -0.0180508 -0.00305114 -0.0317257 4.31036e-05 -0.0111741 0.000279912 -0.0312559 -0.0255739 -0.0282394 -0.0232258 -0.0117375 -0.0108943 -0.0123545 -0.0134544 -0.0172749 0.0006083 -0.00353778 -0.00655039 -0.0193108 -0.0306282 -0.0111043 -0.00725 -0.0087931 0.0046514 -0.0211696 0.00100967 0.00118098 -0.0174806
internal_weight=54332 15749 7233 8516 3643 3590 8290 7884 3386 3397 6875 3189 2863 716 2147 406 426 2031 1009 1843 341 375 6449 262 257 5333 241 5235 1523 908 1581 290 1348 765 295 1447 226 3712 1218 3644 211 1516 710 806 1177 1079 945 867 422 3518 2038 645 399 581 326 200 116 38583 342 3308 3260 129
internal_count=54332 15749 7233 8516 3643 3590 8290 7884 3386 3397 6875 3189 2863 716 2147 406 426 2031 1009 1843 341 375 6449 262 257 5333 241 5235 1523 908 1581 290 1348 765 295 1447 226 3712 1218 3644 211 1516 710 806 1177 1079 945 867 422 3518 2038 645 399 581 326 200 116 38583 342 3308 3260 129
is_linear=0
shrinkage=0.05


Tree=16
num_leaves=63
num_cat=0
split_feature=0 0 0 0 48 15 5 1 0 0 49 26 0 18 0 19 54 0 10 54 4 59 5 10 15 10 10 10 10 20 0 0 1 10 4 18 59 0 1 0 1 5 10 5 4 0 0 1 14 0 10 52 0 1 0 1 10 0 0 4 0 0
split_gain=687.746 137.888 72.3399 65.1905 36.198 34.5796 30.3012 29.3277 23.7921 20.6848 13.9267 12.5724 10.4659 10.0383 9.17102 8.89163 8.45931 6.99149 6.85451 6.80683 6.53411 6.96782 5.69283 6.21814 5.59116 5.57397 6.61476 10.7283 5.31069 5.20501 5.11672 4.94375 4.77716 5.35398 4.75662 4.62528 4.30097 4.27949 10.717 11.5766 6.26609 4.6403 6.02993 4.15155 4.13625 4.25584 5.0691 4.08339 3.91965 3.82947 3.61074 3.63112 3.51909 3.33961 11.984 3.26327 3.14399 3.02547 2.96369 2.93918 2.91259 2.73569
threshold=96174.829131968974 91248.181839497716 94324.610544337367 34737.194665983894 1.0000000180025095e-35 1.0000000180025095e-35 72630.604042440129 97970.836717925835 56395.838056017026 92259.390419998177 1.0000000180025095e-35 1.0000000180025095e-35 94769.518392781043 1.0000000180025095e-35 73577.525067145849 1.0000000180025095e-35 1.0000000180025095e-35 82594.460507287251 43.500000000000007 1.0000000180025095e-35 2.5000000000000004 1.0000000180025095e-35 108013.86558363776 9.5000000000000018 1.0000000180025095e-35 175.00000000000003 119.50000000000001 79.500000000000014 58.500000000000007 1.0000000180025095e-35 73370.776292051596 59216.92925716914 93559.505027408552 6.5000000000000009 2.5000000000000004 1.0000000180025095e-35 1.0000000180025095e-35 93592.951531465354 93667.010644137976 94132.951070465308 94474.699630687988 93465.704071680564 8.5000000000000018 63936.979519391207 2.5000000000000004 96147.109844897976 95729.976548359191 93963.082219829565 1.0000000180025095e-35 93527.221247236754 36.500000000000007 1.0000000180025095e-35 89603.311294529398 94977.799242532346 94769.518392781043 92281.825378229507 150.50000000000003 97427.46881301672 95912.090700562796 2.5000000000000004 96026.323055712564 67234.92600471554
decision_type=2 2 2 2 2 2 2 2 2 2 2 2 2 2 2 2 2 2 2 2 2 2 2 2 2 2 2 2 2 2 2 2 2 2 2 2 2 2 2 2 2 2 2 2 2 2 2 2 2 2 2 2 2 2 2 2 2 2 2 2 2 2
left_child=1 3 4 48 9 7 15 34 16 47 13 20 18 19 -13 31 29 -16 -9 24 21 30 -7 -24 25 26 27 28 36 32 35 -5 33 -8 53 50 37 40 39 -39 -11 49 -43 -14 45 46 -45 -3 -1 -42 51 61 -32 -4 -55 -35 -54 -2 -48 -33 -60 -10
right_child=57 2 5 6 -6 22 8 12 11 10 -12 14 43 -15 17 -17 -18 -19 -20 -21 -22 -23 23 -25 -26 -27 -28 -29 -30 -31 52 59 -34 55 -36 -37 -38 38 -40 -41 41 42 -44 44 -46 -47 58 -49 -50 -51 -52 -53 56 54 -56 -57 -58 -59 60 -61 -62 -63
leaf_value=-484.53984793674755 62.573029344395813 -365.80898509308031 -5.524425251092973 -273.84529245800826 319.38635552996755 -98.678271280313311 -210.98184928354846 -76.707903018363723 -176.29231466380054 -500.82251261426711 -217.60999642882967 -121.26192322335076 7.3985958637863352 -405.1183849828605 -350.21136978989728 -344.78441927102034 231.62475344520172 -346.71327858614796 -74.837942235090182 -227.3085872757265 375.35545598293754 -306.63231585921994 -148.49641258511187 -53.939031865925955 -238.05613447789312 -249.60292675787755 -271.61100245068127 -397.50652000484138 -456.97511805282329 -43.063075094668761 31.955860438543382 -281.92162877450505 -225.8330439608493 -354.44685820789795 -17.970519752455456 -142.30595852727978 -383.5013615906322 -137.93388751366479 -245.00799937350385 -9.4069919598785088 -413.38483327839151 -485.03992390275511 -340.75513514234058 -21.274622966392641 -41.035790080800581 0.8354608005537133 -31.639114222905665 -361.35426478009123 -305.00917513540935 110.94886768910152 24.670873072239726 -255.64704741482666 -394.37480199352746 -54.83149608906961 -7.1080269675157783 -476.75567199929941 288.14683403504949 875.81533265629776 -8.0740608173766812 948.15071670648945 -55.307234105220267 -415.39769726544665
leaf_weight=56 2821 130 1456 90 187 181 77 226 752 279 140 185 41 121 81 116 101 160 96 74 1116 98 41 53 81 127 142 96 106 143 3417 153 470 164 241 76 181 224 494 81 124 116 54 727 98 91 124 237 170 48 507 51 183 145 534 54 112 35762 67 47 70 137
leaf_count=56 2821 130 1456 90 187 181 77 226 752 279 140 185 41 121 81 116 101 160 96 74 1116 98 41 53 81 127 142 96 106 143 3417 153 470 164 241 76 181 224 494 81 124 116 54 727 98 91 124 237 170 48 507 51 183 145 534 54 112 35762 67 47 70 137
internal_value=0.00103272 -0.00777224 -0.0128487 -0.00346054 -0.0187179 -0.00858864 -0.00273824 -0.00738509 -0.00205226 -0.0201138 -0.0217484 -0.001 -0.0127597 -0.0226618 -0.00931925 -0.0160591 -0.009222 -0.0157469 -0.0207764 -0.0234239 -0.000450457 -0.00117851 -0.0257273 -0.0157447 -0.0239364 -0.0244402 -0.0251028 -0.0242845 -0.0251992 -0.0107489 -0.000931232 -0.0113793 -0.0123856 -0.0173729 -0.00390151 -0.00337163 -0.0244816 -0.0235563 -0.0259762 -0.0186066 -0.0204428 -0.0159064 -0.0217647 -0.0106404 -0.0111852 -0.0102919 -0.0112449 -0.0090327 -0.0299558 -0.0101163 -0.00274015 -0.00457447 7.00433e-05 -0.00314988 -0.00604566 -0.0213761 -0.00516949 0.00462678 -0.0172222 -0.007 -0.0121533 -0.00383015
internal_weight=54332 15749 7233 8516 3042 4191 8290 3916 7884 2855 2488 6875 1540 2348 426 406 1009 241 322 2227 6449 5333 275 94 2153 2072 1945 1803 1707 908 5235 290 765 295 2376 1523 1601 1420 799 305 621 342 170 1218 1177 1079 988 367 226 172 1447 940 3712 2135 679 218 295 38583 261 200 137 889
internal_count=54332 15749 7233 8516 3042 4191 8290 3916 7884 2855 2488 6875 1540 2348 426 406 1009 241 322 2227 6449 5333 275 94 2153 2072 1945 1803 1707 908 5235 290 765 295 2376 1523 1601 1420 799 305 621 342 170 1218 1177 1079 988 367 226 172 1447 940 3712 2135 679 218 295 38583 261 200 137 889
is_linear=0
shrinkage=0.05


Tree=17
num_leaves=63
num_cat=0
split_feature=0 0 0 0 15 48 0 1 49 0 26 0 54 2 18 0 1 4 0 0 54 10 1 4 20 2 1 1 4 2 0 27 0 26 10 10 10 10 16 1 2 4 2 10 10 4 0 10 10 10 1 2 10 10 6 2 10 0 2 39 42 0
split_gain=650.507 129.586 68.4775 61.7491 32.3658 31.7715 25.027 23.456 18.0543 14.4562 11.1854 8.44396 8.20458 7.81409 7.71984 9.33189 19.2088 8.19987 7.20497 7.24972 6.02904 5.95828 5.63762 5.6128 5.53946 5.18933 4.9163 5.43914 4.5013 6.19148 4.32295 4.10814 4.03001 4.0037 3.96516 7.7015 12.3826 4.3273 3.91426 3.74152 3.90666 3.65837 4.57563 3.58462 8.54663 4.15001 3.46663 3.32643 3.24734 3.22689 3.1987 3.06643 2.87402 3.30475 3.29695 3.0311 3.44464 2.9763 2.85325 2.84709 2.77185 2.70642
threshold=96174.829131968974 91248.181839497716 94406.20360162681 34737.194665983894 1.0000000180025095e-35 1.0000000180025095e-35 56395.838056017026 97594.760685952904 1.0000000180025095e-35 92259.390419998177 1.0000000180025095e-35 94769.518392781043 1.0000000180025095e-35 76199.815783392187 1.0000000180025095e-35 94255.609435318343 94328.213669524033 1.5000000000000002 73577.525067145849 82594.460507287251 1.0000000180025095e-35 52.500000000000007 96244.471773177123 2.5000000000000004 1.0000000180025095e-35 95885.526052555331 93765.448452382057 92685.968864643903 2.5000000000000004 83138.240741522153 95912.090700562796 1.0000000180025095e-35 96147.109844897976 1.0000000180025095e-35 175.00000000000003 119.50000000000001 79.500000000000014 58.500000000000007 1.0000000180025095e-35 102192.61120777123 121280.5689697554 2.5000000000000004 95385.245504125327 57.500000000000007 23.500000000000004 1.5000000000000002 96755.677529139633 43.500000000000007 6.5000000000000009 34.500000000000007 98357.306522854255 88426.462865197958 27.500000000000004 2.5000000000000004 -1.0000000180025095e-35 83138.240741522153 9.5000000000000018 93719.295781605659 94616.360128447006 1.0000000180025095e-35 1.0000000180025095e-35 60119.699080467544
decision_type=2 2 2 2 2 2 2 2 2 2 2 2 2 2 2 2 2 2 2 2 2 2 2 2 2 2 2 2 2 2 2 2 2 2 2 2 2 2 2 2 2 2 2 2 2 2 2 2 2 2 2 2 2 2 2 2 2 2 2 2 2 2
left_child=1 3 5 38 7 8 12 41 9 -3 13 47 24 43 15 17 -17 20 -12 -20 34 50 -19 25 26 31 27 48 29 -13 -6 59 33 39 35 36 37 49 -1 -31 -41 42 -4 44 61 -46 -2 -9 -5 52 -18 -50 53 54 57 -55 -57 -11 -36 -15 -27 -8
right_child=46 2 4 6 30 -7 10 11 -10 14 18 28 -14 23 -16 16 21 22 19 -21 -22 -23 -24 -25 -26 60 -28 -29 -30 32 -32 -33 -34 -35 58 -37 -38 -39 -40 40 -42 -43 -44 -45 45 -47 -48 -49 51 -51 -52 -53 -54 55 -56 56 -58 -59 -60 -61 -62 -63
